-4.139872056511207342e-03,-7.059023626868386400e-03,-1.461621443200357764e-02,-2.629821293201655558e-02,-3.489470140055071085e-02,-4.332701865198529401e-02,-3.898178147891748213e-02,-4.023187541677424733e-02,-4.616309645291988978e-02,-5.612166953032090427e-02,-6.152826119119535198e-02,-7.228282344953278205e-02,-7.639374853803874987e-02,-7.136356190750360595e-02,-7.590483751711774030e-02,-6.642012679898587346e-02,-6.282445734621452949e-02,-7.094040162179554576e-02,-6.254815952165693194e-02,-4.975756306702135146e-02,-5.992442598663293152e-02,-5.660182851193204523e-02,-5.759052397546150781e-02,-6.967680600517917044e-02,-6.694601152353499285e-02,-7.596026316412936297e-02,-7.922334388427289265e-02,-7.987868416597622423e-02,-8.176883303781477819e-02,-7.874051583159463741e-02,-7.469019274483207349e-02,-8.036107972557555990e-02,-7.794514037002024665e-02,-7.386295761207435639e-02,-7.301086299104926625e-02,-6.852165231526637090e-02,-6.884612787558645752e-02,-6.371039296057934287e-02,-6.896084354652882997e-02,-7.585758941724803084e-02,-7.562614336962657224e-02,-7.951718540544423786e-02,-7.545010671897181553e-02,-7.364349048756251015e-02,-7.231522420631875114e-02,-7.022507719185822062e-02,-6.896365423525206706e-02,-5.921115227637635536e-02,-5.423925995399403455e-02,-6.191636333510015799e-02,-5.385103415825292367e-02,-4.961224445701717389e-02,-4.504042998550650267e-02,-3.964701080564646263e-02,-3.922234422401427861e-02,-3.202869056474670628e-02,-2.690002880415386446e-02,-1.029536224015867481e-02,-9.452697822457238955e-03,-1.386855789354020201e-02,-2.496553586822532547e-02,-2.681994530012715011e-02,-2.849978425395213039e-02,-3.841122223392130081e-02,-3.830038431143274053e-02,-3.569884905129511177e-02,-4.547840455658714448e-02,-4.793005701108920408e-02,-5.329925807546013333e-02,-5.262397072632330614e-02,-5.404028989561198565e-02,-6.636022096730241626e-02,-6.731415456772069095e-02,-6.588092772639293770e-02,-7.338846799455694958e-02,-7.504153835446829290e-02,-7.292783482940332074e-02,-7.637277210275283945e-02,-7.119047732032662834e-02,-5.796062531329267825e-02,-6.852731164890114857e-02,-6.852731164890114857e-02,-6.231204704422305812e-02,-6.248204205628971053e-02,-4.189550355014894090e-02,-3.010204866366781792e-02,-2.018025019658269137e-02,-2.230082946288086503e-03,-4.899613266125995084e-04,-2.590419480444274697e-04,2.119071273824675757e-03,-2.254892314271110532e-03,-4.009457823539092081e-03,-4.009457823539092081e-03,3.184239614782487238e-03,2.031835075764169309e-03
3.906224863379177854e-03,3.028176450383613261e-03,-1.091972169709186022e-02,-2.006765536556707683e-02,-2.521969983260982651e-02,-2.375172772208963140e-02,-2.510727139884763592e-02,-2.862395097449050782e-02,-3.053212876664462144e-02,-3.035655278720073014e-02,-3.732096160122756051e-02,-3.838793232101073150e-02,-2.918826027016848540e-02,-3.585332178837463690e-02,-4.422321475715764588e-02,-4.894914063407102695e-02,-6.847966015387714489e-02,-7.215904295941821811e-02,-8.426898231504133252e-02,-8.794198628193863887e-02,-8.775662019920918433e-02,-9.150243871214293334e-02,-8.972854646781892873e-02,-7.724344990221676532e-02,-6.089283157929942930e-02,-6.250418198833158911e-02,-6.098890669513289120e-02,-6.624658270169561658e-02,-6.233775962127451054e-02,-6.324812552535440113e-02,-7.376984566370815843e-02,-8.179960752190207351e-02,-8.906503200719707858e-02,-9.091042745079588872e-02,-8.914862870103315573e-02,-8.717672618751956537e-02,-7.913343265677226512e-02,-8.117133876621994426e-02,-8.626322107507514159e-02,-8.617071014652567806e-02,-7.906671918064493709e-02,-7.736092535529381919e-02,-7.142796467152591477e-02,-6.154897694089767751e-02,-5.783158524048270105e-02,-5.190602614499296302e-02,-4.282919962637361799e-02,-2.580491321039535269e-02,-2.571604811504918375e-02,-2.518141634248314761e-02,-2.216011804154132542e-02,-1.257495148446768560e-02,2.222501363522020202e-03,1.634063957568891202e-04,1.174627204466360125e-02,2.172158420924425598e-02,2.112990800355996762e-02,2.974871346402079009e-02,2.955258726190970742e-02,2.765767358396658410e-02,3.015661310506266221e-02,2.194554190995847559e-02,2.242476878488266351e-02,1.402668949906829034e-02,1.613983013446583514e-02,1.061058902965128677e-02,8.962629602893745079e-03,2.292569081478405997e-03,-2.097742537507218084e-03,-5.726001717392398618e-03,-1.639280426597027399e-02,-1.293187824387920931e-02,-2.215188021384604036e-02,-4.045965748676198792e-02,-4.943853774323499206e-02,-5.200642482688103141e-02,-5.169689933239995927e-02,-5.277671320558614820e-02,-6.147036260197416557e-02,-7.068903718715607853e-02,-6.122869107385209286e-02,-6.507875416141176150e-02,-5.788505672309018218e-02,-5.018715228971962899e-02,-4.366435019325861505e-02,-3.854014105973470328e-02,-3.648036524941931924e-02,-2.776184996094451657e-02,-2.298973063996518490e-02,-1.893267881833329488e-02,-5.168100548808876073e-03,7.693565403064169146e-05,-2.806900486821749773e-03,3.697104643214108380e-03,3.697104643214108380e-03,1.066132813664569115e-03
-1.098414026000832898e-02,-1.098414026000832898e-02,-1.098414026000832898e-02,-1.484576733714394400e-02,1.781794247531073069e-03,1.212772984643177565e-02,1.164997556914888245e-02,1.500827864046825645e-02,1.304327633170217736e-02,9.415318078612238892e-03,3.409183543959593606e-03,2.355010622665840592e-03,1.628539319402013980e-03,-4.340294020402413883e-03,-1.475270173806267175e-02,-1.564043858641085000e-02,4.380401712164246758e-03,1.242364548225557107e-02,1.763651494048428664e-02,2.136207558919324401e-02,2.574821846811858883e-02,3.073374720113719594e-02,4.709612558283183398e-02,2.765989839695847871e-02,2.610603201185292613e-02,3.143190451264955831e-02,2.825925650268901884e-02,1.012536968511247408e-02,-7.830490371346452566e-04,-9.537017793798670956e-03,-3.872918481204947350e-03,-5.904408911774829995e-03,-4.747487536567013798e-03,-8.088884350431750636e-03,-1.748943871644776868e-02,-2.002275584370418263e-02,-2.299669182177246918e-02,-1.856188421450939360e-02,-1.215606268253769696e-02,-1.744264206522971178e-02,-2.049435802428660816e-02,-1.401354765230573146e-02,-2.024969762868278692e-02,-2.793100165069484220e-02,-3.159638987270968480e-02,-4.023386873805067515e-02,-4.502783290225954166e-02,-5.571216596347640382e-02,-6.496112641001193511e-02,-6.694587248579246530e-02,-6.773255066198986818e-02,-5.996778629074600575e-02,-5.440873598207116718e-02,-5.189829010818290678e-02,-5.060293169659099005e-02,-4.766299509661429262e-02,-1.941759040246879287e-02,-1.661777791208520622e-02,-5.586746936356601703e-03,-3.858644529159131926e-04,2.728104746156853177e-03,2.912771657042418066e-03,5.617437938659134008e-04,2.699397484489266929e-03,7.184345408355755427e-03,1.021608639279600154e-02,1.260634869015503715e-02,9.420816340185824214e-03,1.337067377846070347e-03,9.346157644566643885e-04,1.277817032515531255e-02,1.606963007967911194e-02,1.652834106900635813e-02,1.573824914479792988e-02,1.122567329549541484e-02,1.134447659326372204e-02,-1.667613208085103396e-02,-1.901520686001377178e-02,-1.981309396427890709e-02,-2.468863544973115207e-02,-3.085614349020288430e-02,-2.681242273351598301e-02,-2.681242273351598301e-02,-2.244645475320452069e-02,-1.388086313412698579e-02,-1.075456587887051348e-02,-1.075456587887051348e-02,-9.545495618427209811e-03,-7.504712457283669452e-03,-1.792072596438669743e-04,-9.680252954711915294e-05,2.048810994246358288e-03,2.048810994246358288e-03,-1.336980115771475072e-03,-2.351290833533533232e-03,-7.496292318521011319e-04
-4.801277518557124820e-03,-4.713517598821185747e-03,-1.129175032343250444e-02,-1.535282489946864989e-02,-1.928130508494921638e-02,-2.050930278974359353e-02,-2.411713840363505224e-02,-3.762928695268387413e-02,-4.595410221543466678e-02,-5.340857559997840703e-02,-5.808920892613205628e-02,-5.821188414400997602e-02,-7.095728386307238733e-02,-7.599904107805080522e-02,-7.527565495496889303e-02,-7.234688429406098409e-02,-7.511966944802800361e-02,-6.678543002663339667e-02,-5.788259731937663716e-02,-5.813411647535519228e-02,-5.872185145687790903e-02,-6.600031588705843055e-02,-7.014129559004213255e-02,-6.469662157161777671e-02,-7.390156088901356224e-02,-7.548974940654255839e-02,-7.183176221505141457e-02,-7.427992003921825293e-02,-7.687361832659603267e-02,-7.730140745379049383e-02,-8.125763746098985107e-02,-8.219357298072053897e-02,-8.300573255627886893e-02,-7.721444499578175580e-02,-8.012687346887406581e-02,-6.908018343278832241e-02,-7.291492857945894301e-02,-7.335483621769961493e-02,-7.116914012560614233e-02,-6.558128314308354911e-02,-7.015672478272104440e-02,-7.931168948264979979e-02,-8.550462958248228329e-02,-8.717414514873522702e-02,-8.736776511053771788e-02,-8.676947571947495053e-02,-8.011944839692912435e-02,-7.717820411188658358e-02,-7.860364002844635878e-02,-5.868018962029120794e-02,-4.994369069470802613e-02,-4.084375549349988227e-02,-2.869670441176821671e-02,-2.277967616756002706e-02,-1.775630180367276933e-02,-1.960326034511270226e-03,-5.047259040363131360e-03,-1.582801536131366038e-02,-2.679632936084838657e-02,-2.667042967437227227e-02,-3.933033931660741972e-02,-4.385458350005787959e-02,-3.697926417570378266e-02,-3.623715674624890248e-02,-3.815915483362167238e-02,-4.219055607037658362e-02,-4.228089646056047701e-02,-4.631198227840800652e-02,-5.460879034122016057e-02,-5.100712259105663615e-02,-4.271707923070035273e-02,-4.180933151892579636e-02,-4.978368761718959812e-02,-6.913809731782218082e-02,-7.808860221540619984e-02,-6.618373414509921837e-02,-7.079776030568725453e-02,-7.568479662991275947e-02,-5.476879143948239215e-02,-3.885135814332971865e-02,-4.010399082875255178e-02,-3.758926393309983821e-02,-4.211850168903508856e-02,-4.167899389133818827e-02,-2.344466011536572997e-02,-1.500865598533893640e-02,-1.840642638398572867e-02,-1.242528121297841945e-02,-1.532150619206086063e-02,-1.036653668706961039e-02,-1.058908788000753089e-02,-7.606137603486730868e-03,-2.993313429042067982e-03,3.050664470249591677e-03,2.449287572904405852e-03,1.407612207538236739e-03
2.067555326041216595e-03,4.284135586693283912e-03,1.475162029691707080e-02,3.313625431761466067e-02,4.658781710412419202e-02,4.645613170386743429e-02,4.811704084582597851e-02,4.349743154623415820e-02,3.615356394496353071e-02,2.076465240444940602e-02,1.593499473823517185e-02,2.525319788014900035e-02,2.170405805075155056e-02,1.020778641969427407e-02,-3.704814617086640317e-03,-1.341976871341558734e-03,-1.045292411743156333e-02,-2.295364232686939246e-02,-2.614445791741843231e-02,-1.858649569803685897e-02,-1.959803076853855811e-02,-2.075125098460345666e-02,-2.217282278402742113e-02,-1.813236978366078445e-02,-1.482669918042784328e-02,-7.219876861477899505e-03,-3.104209054430180983e-03,-9.856433068434301142e-03,-4.786802642061019526e-03,-2.127727523375672058e-03,-2.106738178706790178e-03,6.462523054080107979e-03,1.984173338892082899e-03,6.044023557183387033e-03,2.063450868543450362e-04,2.747680940254070090e-03,-8.394745132567012387e-04,-4.929959999925353706e-03,-1.418279793976785601e-02,-1.099434185237591413e-02,-1.353491122633325092e-02,-2.319088973304811452e-02,-3.729674830190903012e-02,-3.507753400125552395e-02,-4.477393214590871112e-02,-5.027799695869485802e-02,-5.610329750247740332e-02,-5.495946012093837207e-02,-7.072526161175186898e-02,-7.858725670758773263e-02,-9.131793589743174289e-02,-8.625879376223287431e-02,-8.139189851809541798e-02,-7.833209408467371737e-02,-6.976098444153215616e-02,-6.932215679058720270e-02,-6.153706123638869735e-02,-5.139326095716630766e-02,-4.917574291132659203e-02,-4.957924113560760460e-02,-4.729784911616995852e-02,-4.851254565317855705e-02,-3.858729545194277549e-02,-4.381965742786405466e-02,-3.874259227683500562e-02,-3.087210241115809217e-02,-2.405381552113855514e-02,-3.339529044143732875e-03,-1.167953807532942992e-02,-1.342597289596975975e-02,-9.779440492830759196e-03,-1.283704801472730292e-02,-3.099007463847309064e-03,-3.407122377114663123e-03,-9.066575038249266930e-03,-2.484354410659973464e-02,-3.392434803673108346e-02,-4.153539542372276100e-02,-5.153215092552009685e-02,-5.200961736765367938e-02,-5.851554582266540322e-02,-6.397315659902672036e-02,-5.497042058854539198e-02,-5.251020206625499342e-02,-4.804978954446466333e-02,-4.346879117119531455e-02,-4.817862591922537907e-02,-3.099642378033319601e-02,-2.681799151827894342e-02,-2.097684919002076528e-02,-1.761545147048379847e-02,-1.761545147048379847e-02,-1.842910876400030012e-02,-1.586848066540249777e-02,-1.183717191149123368e-02,-2.948688309683762231e-03
1.269318877933896120e-03,1.269318877933896120e-03,-2.011851120014186353e-03,-1.454838785970772284e-02,-2.535812694789662397e-02,-2.740593479076194883e-02,-3.010900286956450303e-02,-3.278458419041080374e-02,-2.852230788203084441e-02,-4.371034154172034197e-02,-6.354692902980468849e-02,-6.236266469594695799e-02,-7.443661515074403989e-02,-6.137671548915346609e-02,-6.207339518668718997e-02,-6.483519779454484377e-02,-6.624709283566505846e-02,-6.787095784049448910e-02,-7.518032459205842288e-02,-6.774253915864128506e-02,-6.591572651168196850e-02,-6.448580265554956781e-02,-6.526879798926787934e-02,-7.044846244477258324e-02,-7.272041488893708772e-02,-7.648273051955589708e-02,-8.127225657962282301e-02,-8.282125234343366837e-02,-8.471140121527222233e-02,-8.176923766936582127e-02,-8.560841312142218607e-02,-8.418710441083267215e-02,-8.837311887733183269e-02,-9.332372965756155492e-02,-9.426900911098833047e-02,-9.960363214091932926e-02,-9.303604496397016588e-02,-9.579943540127872081e-02,-9.399951895953324865e-02,-9.095995123428667062e-02,-9.468024383817566503e-02,-1.034548712136802162e-01,-9.139390018046125719e-02,-9.365856517711018681e-02,-9.171430667452210028e-02,-8.473906159090331680e-02,-8.219054520176531653e-02,-5.818858155798703469e-02,-4.566728916423323792e-02,-5.232671424944149163e-02,-4.464020511822062998e-02,-2.924940010166578869e-02,-4.966622298388592704e-02,-5.516078795511863975e-02,-4.692408299811930139e-02,-6.183727276532209605e-02,-6.205260635180339518e-02,-7.103225678412639077e-02,-7.695103552438366246e-02,-7.485803560100845466e-02,-7.199947365128292476e-02,-7.159169960702260749e-02,-7.604447905285938170e-02,-6.857262683132302195e-02,-6.059870045420189671e-02,-4.836948259557289492e-02,-3.080771975802573323e-02,-3.854279657015879240e-02,-4.080956791127663547e-02,-4.585013853564194608e-02,-4.669528396210544802e-02,-5.105132162461635537e-02,-6.009575324078853670e-02,-6.877107200190658853e-02,-8.266744881763603281e-02,-8.548276993879685981e-02,-8.974621489728359935e-02,-8.738988265120326004e-02,-7.917356596894689624e-02,-6.926438525046826888e-02,-6.934865389786049050e-02,-5.579683299868725549e-02,-5.624975885437358963e-02,-5.412373258958332739e-02,-4.554686535704574601e-02,-4.438062525959584476e-02,-3.975227000072763944e-02,-3.906861159521066162e-02,-2.429687320633996256e-02,-2.003991522565234940e-02,-1.853570052531400628e-02,-4.162846263814767335e-03,-4.162846263814767335e-03,-1.614964055212147771e-03,4.898666866486450604e-03,1.881765554371196605e-03
-1.230872213087117438e-03,-3.981631789140278530e-03,-8.438500209526276358e-03,-4.567918725795525048e-03,1.663120132692325363e-03,1.558425011794438604e-02,1.818456686502318426e-02,2.037633071073327237e-02,1.902040881276140932e-02,1.514871518970610509e-02,1.520676538776482775e-02,1.237603020758750762e-02,1.206286146333730713e-02,1.509064812666404722e-02,1.407140156983690583e-02,8.217871222734251038e-03,-2.699891591450117451e-03,2.060447910841268701e-05,-1.089620549988024392e-02,-8.661503106360875920e-03,-7.658491489850335551e-03,1.826386779421885348e-02,3.555124305393804474e-02,3.447219391528866250e-02,2.507771387172205366e-02,3.162703015021656877e-02,3.730659304122903308e-02,2.317135908251900106e-02,4.474803403619792390e-03,1.987638215255195170e-02,2.209143406229872181e-02,1.253685411200669217e-02,2.122443789350353729e-02,2.606172160776301303e-02,2.741332457196828110e-02,2.125060420864093025e-02,2.030410363049379302e-02,1.591770836560618338e-02,1.436391211605998926e-02,6.847352303967333201e-03,2.118858128314204253e-02,1.735012533852343594e-02,6.346000804141584128e-03,2.703934351875502545e-03,-3.596841204871237957e-03,-1.127584948160094067e-02,-2.068995861374208975e-02,-3.421065737611801716e-02,-3.230194170739510151e-02,-2.322445114717952910e-02,-2.190989149589075285e-02,-1.707278988163291739e-02,-1.915532864093941190e-02,-1.880045124119939307e-02,-6.595051397938946763e-03,-6.211208062665816293e-03,-1.114128478711662318e-02,6.607714692270223560e-04,-1.807141108747412506e-03,2.659635995549762891e-03,-3.204009158543357980e-03,3.880410497134683181e-03,-1.095683496813051709e-03,-3.378415015118936982e-03,-8.959703118331451693e-03,-1.857161150948262451e-02,-1.923289482129533420e-02,-2.464918212689955548e-02,-3.746095416169075570e-02,-3.089665200936287520e-02,-2.843300967929096590e-02,-2.691077475777026509e-02,-2.760405586742786452e-02,-2.514987023104714448e-02,-5.373955139431127806e-03,-2.439544942878477205e-03,8.545223372280322249e-03,5.306504568272974766e-03,5.927724047388479092e-03,4.696633675590844090e-03,-3.513609324452397244e-03,1.006903381566978326e-02,1.560361125215949107e-02,2.786356055120965333e-02,2.962874661147874705e-02,2.974869332002678946e-02,3.164183436822375073e-02,3.484239472832275503e-02,3.167334849180551692e-02,2.724018797050138663e-02,2.740384979296992679e-02,2.825162710971417662e-02,2.103244904130954773e-02,1.285113076880219432e-02,1.285113076880219432e-02,9.333885254808509460e-03
-2.053882952609242720e-03,-3.329746991917880046e-03,-9.468297564691993337e-03,-1.328577633070868874e-02,-1.224445979878898555e-02,-1.087025865419500442e-02,-1.519916240446452654e-02,-1.415710764908838758e-02,-2.793973463077547084e-02,-2.818612215853872130e-02,-4.448775308502880832e-02,-5.093308037471074023e-02,-5.247387217154560884e-02,-6.774355412729637926e-02,-7.047867276172621598e-02,-7.362665525270914446e-02,-7.260809015716904180e-02,-7.329825249278425214e-02,-7.982764746543452583e-02,-8.642363839275209181e-02,-8.302031318298554174e-02,-9.459416913679756511e-02,-1.013992811999002569e-01,-9.848398334607023907e-02,-1.018280860199049509e-01,-1.018768111541689114e-01,-9.677053770447606451e-02,-1.027672109492465402e-01,-9.015632488124253330e-02,-8.866454733175054004e-02,-8.559576903902808842e-02,-9.788585739760456705e-02,-9.723140622203158001e-02,-9.235614803499020420e-02,-9.331335286614592106e-02,-8.717913981517917688e-02,-1.010374141272481069e-01,-1.062401187838690197e-01,-1.029056294991645970e-01,-1.011015338117094431e-01,-9.626080453122644320e-02,-1.000720190945562083e-01,-8.041045376745689643e-02,-8.077754882947218995e-02,-7.495280397948400619e-02,-7.289306082600503778e-02,-5.396852958270114548e-02,-6.951203817012287234e-02,-6.450972856864110871e-02,-5.135889364779013672e-02,-5.571491091494285702e-02,-6.192468685783392851e-02,-5.301278707975296683e-02,-5.323418352937313996e-02,-3.738698932734541014e-02,-3.991460642869792963e-02,-2.496609563018385713e-02,-2.655300144179165156e-02,-2.390129874731990178e-02,-2.195167718478662627e-02,-2.062839619725614568e-02,-2.321320498860877587e-02,-2.227067332940866479e-02,-2.257216660398686167e-02,-1.837897349445570191e-02,-1.480099597407235484e-02,-1.103982384260758683e-02,-9.792055792715092383e-03,-1.268705329658949797e-02,-6.677327473396242608e-03,-1.095434629997399899e-02,-6.560653479234100811e-03,-1.434974724564301064e-02,-5.292164045944354467e-03,-1.516410263974567012e-02,-3.573057970789258325e-02,-4.251531862735795364e-02,-5.987842429704591518e-02,-7.665790838868603851e-02,-8.403833365934187949e-02,-8.132004013705131096e-02,-7.738384207656710811e-02,-6.951454205662807584e-02,-6.075402024049855049e-02,-3.991985304433158521e-02,-1.566432341388426450e-02,-1.776334773019150673e-02,-8.298152031359275899e-03,-5.129954656350863354e-03,-1.409809209348392937e-03,-1.815360644013933131e-03,6.485268317577171353e-04,-7.268332761099802284e-04,4.450108701695694533e-04,4.450108701695694533e-04,1.545594349443659733e-05
-1.222615575144764309e-03,1.980680427034876498e-03,-3.649694902873991051e-03,-3.649694902873991051e-03,3.191321639189098787e-04,5.820185124318208360e-05,7.760808028231707453e-04,-1.133473165072329146e-03,-3.286029178039608870e-03,-2.297230194935760000e-02,-3.139988815390450799e-02,-3.023206386317948621e-02,-3.537468565791151293e-02,-2.966897480449366686e-02,-2.438848585812295605e-02,-2.980668899025617005e-02,-2.974426237311626753e-02,-3.336647552814313994e-02,-3.333967289394602213e-02,-3.351306825973837666e-02,-3.446735750729331554e-02,-3.447012760249000551e-02,-4.188231569862178177e-02,-4.968482578630594587e-02,-5.728970236604992439e-02,-6.632982265178698211e-02,-6.978646870513277589e-02,-6.581301437125768039e-02,-6.780264476266668894e-02,-7.355170846216281533e-02,-6.981712243010229635e-02,-7.237935669573494768e-02,-7.260661178697720708e-02,-7.530682446103229011e-02,-7.259542327959885022e-02,-7.270718208146141615e-02,-7.812498147989622999e-02,-8.182606681965377826e-02,-9.095907588206972316e-02,-9.693779131869023624e-02,-8.848841004510239749e-02,-8.255161613262136655e-02,-8.492254381312835942e-02,-7.913489964557125778e-02,-7.854567036917335654e-02,-6.297300630510110908e-02,-5.886333715464085042e-02,-5.160842667862087368e-02,-4.430305810549441808e-02,-3.069873108712160847e-02,-2.875391572976320614e-02,-1.920565102751005393e-02,-1.416015790743515267e-02,-1.255770440664826480e-02,-1.075457877877079339e-02,-1.619736260449743115e-02,-2.031215841412772199e-02,-1.857241956007733147e-02,-3.063892856322705457e-02,-3.414943572101383773e-02,-6.121160084102954951e-02,-7.209226195627427280e-02,-8.721007108875787617e-02,-8.786439060532229284e-02,-9.104391892500086902e-02,-6.983444336519435691e-02,-6.814697358482436906e-02,-3.859637535698393768e-02,-3.834542310551277561e-02,-2.330166694692986651e-02,-1.818074235589215923e-02,-2.198757441488973993e-02,-2.749023754684910489e-02,-4.329530016124744779e-02,-5.341237108725997024e-02,-6.345361899960094698e-02,-7.073297048057111680e-02,-7.973247044501605152e-02,-8.059292042582660853e-02,-7.944486587828686330e-02,-7.549963124578230877e-02,-7.858871863382005385e-02,-6.716668798455893707e-02,-5.718803879509987143e-02,-4.202540273226842982e-02,-3.625226947510870601e-02,-3.054762105118122642e-02,-2.874786772107501553e-02,-2.822975065295695377e-02,-1.373073462245118920e-02,-1.758992927255750155e-02,-1.297218561517821805e-02,-1.297218561517821805e-02,-5.949533466854525429e-03,-5.949533466854525429e-03,-6.596777601078955555e-03
-5.827446464499272394e-03,-8.022780976530804325e-03,-1.801496762014314149e-02,-1.995901336475807211e-02,-2.937208551988738925e-02,-2.317588561684232051e-02,-2.902282414400107410e-02,-3.531485677075454216e-02,-4.153780868291185452e-02,-5.672384390965450052e-02,-5.761325219407430892e-02,-5.477584825477734010e-02,-5.634791934535168106e-02,-5.569143487751331001e-02,-5.658062684710853107e-02,-5.826429634935199886e-02,-5.360407820502319926e-02,-5.178637287389135924e-02,-4.176757045050809303e-02,-4.393008783679537566e-02,-2.262103158227541169e-02,-2.515692630005334982e-02,-1.726177953346155758e-02,4.505267074509071087e-03,1.753502983546122163e-02,3.067158521380038486e-02,3.955558737938637270e-02,4.563743377369564036e-02,3.792435376850568363e-02,4.349645430056967715e-02,5.375369203437602161e-02,5.350342992622002247e-02,6.166393750143494418e-02,8.824014325446929985e-02,9.109058424765459350e-02,8.902990126278978456e-02,8.054200212923143254e-02,7.457519879391880102e-02,7.226359586462707818e-02,6.977531848751326871e-02,4.368907231271982466e-02,2.894164549150267385e-02,2.073617504596145592e-02,9.245095409073946641e-03,7.037149567903316742e-03,3.496871713660646992e-03,-5.490086830449668158e-03,-4.421016265133153982e-03,-7.623803999972498212e-03,3.200326205722076392e-03,3.976650615894637350e-03,8.982542570442167071e-03,1.402065270037660717e-02,3.687114503959823542e-02,3.268533090780494088e-02,4.650740365808811450e-02,5.614975996563131844e-02,5.920408331174986660e-02,6.024541796472469846e-02,6.311459363291947733e-02,6.047088284323486052e-02,6.798608775393116810e-02,6.549340935537670272e-02,6.621307909686385829e-02,5.718446252368851457e-02,5.326168896027497213e-02,4.311447462090363392e-02,2.398520455787059649e-02,8.511097124327304114e-03,-1.310292145438014116e-02,-1.974372672909635237e-02,-2.378454103923136054e-02,-1.972131049663761529e-02,-3.348259863370421641e-02,-3.249168650729430258e-02,-1.556016272473160524e-02,-1.447513825414015361e-02,-2.090057338658807620e-02,-2.217322594840869660e-02,-2.161197848507790883e-02,-1.848889652847121243e-02,-1.245511066080889906e-02,-1.102327714708866563e-02,-3.879020215644969280e-03,-1.720083232448790106e-03,6.284668058588174441e-04,3.532205612173483413e-03,6.376549400349786761e-03,4.473416862146347827e-04,1.186133131417382207e-03,-5.175649370235005462e-04,1.028340460837103921e-03,5.105888528538404716e-04,5.105888528538404716e-04,-1.749622354613762990e-03,-1.455284420712336328e-03
-1.895018212977988377e-03,-4.652299706657399628e-03,-6.914094172429652123e-03,-1.329204261956376185e-02,-9.556375433099398992e-03,-1.220430836623094886e-02,-9.822205607372930247e-03,-5.424648127575938325e-03,-1.223602121101546869e-02,-2.988049463912660283e-02,-2.752995461086217219e-02,-2.025830999737193369e-02,-9.061028310498847604e-03,-1.091625139521877792e-02,-7.166296593790977276e-03,-9.715438528386872302e-03,5.132837140380198254e-03,1.147725391265169183e-02,1.148842321981961671e-02,2.308051622986193388e-02,1.797663616044023471e-02,1.907890376922916770e-02,1.993056530473580334e-02,2.443861310350606969e-02,3.119778302305905443e-02,2.859127152500484659e-02,3.028662310682408640e-02,3.028662310682408640e-02,3.868390601642814064e-02,3.834764303934946883e-02,3.144984836105178816e-02,4.748152202903496016e-02,4.421381567240685595e-02,4.847821729577177913e-02,4.223386497971812203e-02,4.217532029049531755e-02,3.624762936188754420e-02,3.430786156614434868e-02,3.335625882707170947e-02,3.078085941308980611e-02,1.975801451864931529e-02,1.224749475989715154e-02,7.485125201954887300e-03,7.822810584520580729e-03,1.137464607260303684e-02,4.416641043368279250e-03,6.419868494417920249e-03,-3.177968492145059713e-03,-1.361781321049936912e-02,-2.244083886275374806e-02,-2.633184440124173437e-02,-2.561660129908789607e-02,-2.080433832500804686e-02,-1.920825907722387496e-02,-1.666498795433961344e-02,-2.156822201088204674e-02,-1.495802478702289509e-02,6.894509875106197630e-03,1.154706147204104597e-02,7.421818683013664888e-03,6.680419017219486194e-03,-1.991532621840595360e-03,-5.715693260379495731e-03,-1.400542199766042356e-02,-2.279712195285257814e-02,-2.481988647718972804e-02,-2.375789955630011954e-02,-1.720703200178882661e-02,-1.517249771198492941e-02,-7.482812304304079475e-03,-7.058419255246420158e-03,-1.084881412956079788e-02,-6.998591190228868435e-03,-8.721826099470125944e-04,-6.817377295261505682e-03,-2.435564698591472736e-03,1.036949833188281420e-02,2.116921055841967242e-02,2.091396175564636667e-02,2.079183040309996039e-02,2.817751049801572177e-02,2.471000749656171794e-02,2.856597427322072821e-02,3.355422886900684409e-02,3.537617416282447247e-02,3.214197446703762756e-02,2.972694398682230316e-02,2.973180265764278560e-02,2.285158680327498137e-02,2.286086651345622944e-02,1.326418211468444186e-02,1.020676999989543650e-02,-4.491575238155624816e-04,-4.491575238155624816e-04,-1.228543410468498076e-03,-4.455765359829868578e-03
-2.812008570749326662e-03,-4.900671411161010294e-03,-6.435868517241280160e-03,-1.343421402461375883e-02,-1.515536561801903055e-02,-1.407714405848504297e-02,-1.691049108562903136e-02,-2.110796304759909522e-02,-2.068048864858078664e-02,-1.622903363932228643e-02,-1.703777763230232556e-02,-1.552018394074758043e-02,-1.396629508224500951e-02,-1.154123716914439227e-02,-2.309982523081315076e-02,-1.487885979537349398e-02,-9.197641908972903346e-03,-1.473799235847362415e-02,-1.170805109227105942e-02,-3.953035099221641896e-03,-1.251614403135656653e-03,-5.147687239090504088e-03,1.678674328130225907e-03,-1.642069372553050383e-03,2.058350123989918616e-03,2.256062999650434130e-03,9.182626908501594423e-03,1.730576607984423906e-02,2.151170636419557844e-02,1.185771892297899158e-02,-9.986354879240997087e-03,-2.839559881710283784e-02,-2.234950115197702550e-02,-2.869165357279451767e-02,-3.184874360438438162e-02,-4.308872616036896197e-02,-2.788517527287344422e-02,-4.259252602328308240e-02,-4.595625126755793072e-02,-4.834930221860191807e-02,-4.621893368478223463e-02,-6.010380279253271785e-02,-6.727896302248075056e-02,-5.568030759754825920e-02,-6.075511873006583796e-02,-6.529761151741987624e-02,-7.023033874137057930e-02,-6.495625679777723704e-02,-5.929350323593286093e-02,-5.490895822532119303e-02,-5.108284269144049844e-02,-4.340297292505561344e-02,-4.244853942416127596e-02,-3.457418008941953030e-02,-2.918389425171924456e-02,-2.088443514181204108e-02,-1.258660952174321147e-02,-1.472074901784615510e-02,-7.640585557124405722e-03,-1.107816205979476366e-02,-2.767986541631133057e-02,-3.401652549998274849e-02,-3.342674729575759868e-02,-3.563589606636197171e-02,-4.179721170135988761e-02,-4.045946855356444272e-02,-3.672877623966292610e-02,-2.904923670962055240e-02,-1.863397979958994824e-02,-1.464653237531304830e-02,-1.767125715134493236e-02,-1.740391084709023983e-02,-2.243579004037580746e-02,-2.128969399297809401e-02,-1.558662651086967395e-02,-8.361044562977709357e-03,1.894548127097692852e-03,1.361357338545855084e-03,1.011316292132751621e-02,1.456554935388782931e-02,2.282404558703428690e-02,5.467704900467762301e-03,8.807756067329470043e-03,9.045885022022026600e-03,5.945796911693218903e-03,2.830593435595234533e-03,6.715864523316450278e-03,7.842147434323437291e-03,9.930411833925470444e-03,3.730846257022361195e-03,3.022755548942965970e-03,1.996947611615914383e-03,1.996947611615914383e-03,1.996947611615914383e-03,-2.404238300132172535e-03,-2.404238300132172535e-03
3.459935786001095076e-04,2.003930765739229090e-03,2.003930765739229090e-03,3.544184112287303290e-03,-5.234628352714987276e-03,-5.234628352714987276e-03,-5.974841986368066918e-03,-6.821269164298020965e-03,-5.726774765704665919e-03,-3.806831372228860252e-03,-4.664127229341481252e-03,-2.926241747976570436e-03,-3.911113488210029611e-03,6.795535417773520973e-04,-1.553987886452251176e-03,-2.209735358721868614e-03,-9.046260514892550883e-03,-5.273775807678557359e-03,-2.504532693290502116e-03,-2.504532693290502116e-03,-1.515096683851510639e-02,-1.293844104834459413e-02,-2.503172196161607480e-02,-2.967236014432127894e-02,-3.094895842673703670e-02,-3.859562054557730271e-02,-4.821490644003767478e-02,-4.041633592394563296e-02,-4.784849917481450582e-02,-6.328108797150287790e-02,-7.267086735025023170e-02,-7.794673244209301965e-02,-6.354009317271402946e-02,-8.058871624099570030e-02,-8.936182464044542528e-02,-9.387641274478816800e-02,-1.013116020422907548e-01,-1.065323143813680651e-01,-1.070093390932444766e-01,-9.249594508872321930e-02,-8.668140775178687085e-02,-8.789545698186559952e-02,-7.923517302536235707e-02,-7.418988983524227310e-02,-5.857453200258775500e-02,-5.087508837782617893e-02,-4.133888637095788771e-02,-4.311917979852680771e-02,-3.891408650395572488e-02,-3.862535915693903615e-02,-5.176365540037851376e-02,-5.482323595179430797e-02,-6.015167284926847130e-02,-6.274533815131126679e-02,-5.541639743805067131e-02,-4.928546975374053368e-02,-3.335525466343546019e-02,-2.889595729776993013e-02,-2.174129637264727785e-02,-1.206847231925749567e-02,-7.471670972179981184e-03,-4.103242846358158037e-03,-1.333376431143795844e-03,1.476397121313555508e-03,8.894300439056364999e-03,7.208582764924294749e-03,9.929924240020121529e-03,7.970890163578632850e-03,9.744704868364343839e-03,7.551665870956893352e-03,2.702121776288360019e-03,3.221794853733828470e-03,6.754374058311737004e-03,6.084342565627513973e-03,5.464303157117659376e-03,7.034038294498558622e-03,5.351476850086380604e-03,5.351476850086380604e-03,1.111338924384177446e-02,1.176601415102768514e-02,1.565196782023963937e-02,2.344399238700284674e-02,2.164613284324611378e-02,2.164613284324611378e-02,2.164613284324611378e-02,2.258980777563655493e-02,2.040236111033783342e-02,1.600725954062554371e-02,1.301590402852877137e-02,1.451605085580663472e-02,1.752399430345690304e-02,1.602381210971263667e-02,8.626070172310838780e-03,2.360983364366344046e-03,-1.477472580252257557e-03,1.410201281567197975e-03
-8.844199129708667922e-03,-1.666469540718610101e-02,-1.705495378202232654e-02,-1.918267084596678509e-02,-2.245500423317050090e-02,-2.581740163446164318e-02,-3.754707541540053956e-02,-4.740989617772430054e-02,-5.133184154094450058e-02,-5.744265851904972742e-02,-5.815397920160879364e-02,-5.930510625346978315e-02,-6.464582190849019194e-02,-6.690550689048441191e-02,-6.974518527895577635e-02,-5.676272872295468758e-02,-4.928040675480404448e-02,-4.338886647805693247e-02,-2.564330172861736812e-02,-1.740271638765891055e-02,-9.958832108758572388e-03,-5.912888437485852924e-03,6.467569158105776136e-04,-4.561953348878550717e-03,-6.424172060008362557e-03,-1.992595751768912529e-03,7.264139378023743571e-03,9.422525978148509410e-03,6.542838431616329088e-03,1.701394990171615357e-02,2.280525518690088016e-02,1.712963830681309488e-02,1.604041959759771457e-02,2.478763940352875228e-02,1.671380021292576470e-02,1.013435685620667562e-02,6.296397170474831752e-03,1.233356306753726492e-03,2.055941252576487435e-03,-1.039768951231692315e-03,-3.296887806579693742e-03,-5.533339380894666468e-03,-2.354177307409898584e-02,-2.464162424442025573e-02,-3.058769369361533791e-02,-4.593434557390792955e-02,-5.989992570136910832e-02,-6.397654498814918378e-02,-7.299285815917100351e-02,-7.417173642942714862e-02,-6.962116673304730163e-02,-6.310935819974240746e-02,-5.848121356402891796e-02,-6.382382971743860711e-02,-5.445763889417731818e-02,-5.237042633941191988e-02,-5.002764734674829128e-02,-4.940712871620613761e-02,-4.437511900626332773e-02,-3.463569386262637523e-02,-3.265155955729345111e-02,-3.004208002244533604e-02,-1.997927380843947040e-02,-1.865342627984083526e-02,-2.183102358197296436e-02,-2.046776922368632665e-02,-2.630120307969440255e-02,-2.302619636277391385e-02,-2.105352981969875817e-02,-2.369557572718874669e-02,-1.988358019029907303e-02,-2.504842874132251485e-02,-1.632648982522084957e-02,-1.878168438613267432e-02,-1.976453809670255732e-02,-8.357010568991830868e-03,-3.892499030494107025e-03,-2.546707325163605293e-03,-1.859757687274316961e-03,1.065366566023903195e-03,9.681156570183337834e-03,2.165229759426145692e-02,1.588018542692038945e-02,1.743444384095152108e-02,1.916739299215643871e-02,1.355778024114107951e-02,-2.265746946087440067e-06,7.837761431765664401e-04,7.837761431765664401e-04,-1.617725768580929781e-03,6.819786220056433569e-04,-8.530589095979640782e-04,7.898548705078259694e-04,7.898548705078259694e-04,8.342674642062503435e-04,8.342674642062503435e-04
-9.652132713455650794e-04,-2.858630230190717207e-03,-4.112435860633145701e-03,-2.538942989303995691e-03,-8.011662246762672052e-03,-7.107488573044179296e-03,-7.348358609068329772e-03,-6.068933191496044162e-03,-6.085218034749479213e-04,-6.906686107668567193e-03,-6.180509227823810861e-03,-1.897042011042908774e-02,-2.952975302702926311e-02,-3.408851308231639066e-02,-4.734349544065050153e-02,-4.663988210973733783e-02,-4.437526323176971266e-02,-3.256619468066374729e-02,-4.313907003045955313e-02,-4.223388938720862296e-02,-3.679115507367854143e-02,-3.623860946419146800e-02,-3.821116344257156905e-02,-2.663070999688022314e-02,-2.285957072713585073e-02,-1.839298953940234072e-02,-1.173634258439742832e-02,-4.232885423609205472e-03,2.158720339421267391e-03,9.704771443307301515e-03,1.249685281964047975e-02,1.263463399329545905e-02,2.471734908569599501e-03,-7.642675652479249699e-04,3.205389366330868746e-03,5.912925143755349069e-03,-2.068114952063433536e-03,3.457672703646944706e-03,6.469535120807801479e-03,9.112380576460840653e-03,8.149078426729556776e-03,9.896116994169408196e-03,2.152892927693919253e-02,2.130980296801479254e-02,2.282821212574025552e-02,2.374356891613537204e-02,2.338326572166178272e-02,1.778424383371569190e-02,1.765077091415380092e-02,1.121424696671093416e-02,1.225567537926599074e-02,8.521477052066513819e-03,1.151208868433729708e-02,9.976152168215964011e-03,4.968248867858428112e-03,-1.608078020711890951e-04,-1.026027676685858057e-02,-1.779621756784399364e-02,-2.895043758942280818e-02,-2.748804237709814857e-02,-3.118880752637942511e-02,-3.244746707020498139e-02,-3.442217615696990113e-02,-3.942652992921168859e-02,-4.949562744338124182e-02,-6.377096818495496533e-02,-7.406549875420966045e-02,-7.732434413555043518e-02,-8.137068097860034044e-02,-8.086967256166999185e-02,-9.028490785457080059e-02,-8.447116853406966275e-02,-7.944552302737768745e-02,-8.226966320921022535e-02,-6.751997107034428403e-02,-6.633072393748845608e-02,-6.336680171765363134e-02,-5.057563936711264446e-02,-4.726865551524727510e-02,-3.868041346642682454e-02,-3.436292616374057168e-02,-3.546835749000738086e-02,-3.741382301724746617e-02,-2.595855751072925072e-02,-1.866984535717057178e-02,-2.086620094732996936e-02,-1.187735943252738596e-02,-9.238563515812148186e-03,-6.610687182228964197e-03,-4.493686894329517768e-03,3.313916792736521909e-03,2.666129058715907725e-03,-2.795927124339009709e-03,-2.795927124339009709e-03,9.518934281014922866e-04,-3.236699935455401508e-03
1.527747542970452760e-03,1.527747542970452760e-03,3.776144251127728363e-03,1.292770316420299411e-04,-3.423661156845675922e-03,-1.037820680113222052e-02,-1.785915842623583480e-02,-2.508594259732764564e-02,-2.527311147122969850e-02,-2.862590159800372513e-02,-2.868461132570899325e-02,-4.012428178616688629e-02,-4.709317725434530866e-02,-4.940659406028767575e-02,-4.023442497487469266e-02,-4.143739398290378212e-02,-2.985171450508405586e-02,-2.854805604750106432e-02,-2.695504536829032224e-02,-4.392092177661849339e-02,-3.546713708418819389e-02,-3.765601039042335008e-02,-5.251479655995447415e-02,-5.903104143386991853e-02,-8.434620572366513525e-02,-8.556512439197781761e-02,-8.405947216813668132e-02,-9.022216786920830844e-02,-9.003359057947921129e-02,-8.216895287479825116e-02,-7.475415773010590792e-02,-4.694217430175495059e-02,-4.183140095481186621e-02,-4.102755317266676416e-02,-2.974435238146565588e-02,-2.336742466910238236e-02,-2.692917459057008606e-02,-1.748554846729244092e-02,-4.031331838806004667e-03,-2.075733236388223844e-03,-1.131643594109102424e-02,-3.523886923469232019e-03,6.613954825761139168e-03,1.017214757071154517e-02,1.666386100253112318e-02,-4.635701431016844279e-04,-9.688457670565560689e-03,-1.284721677927478690e-02,-1.963904142974764663e-02,-2.525413510503411382e-02,-1.353539509887933916e-02,-2.451003323229112088e-02,-3.307541008952803036e-02,-2.082812494528890959e-02,-2.912002332033767835e-02,-4.124769345659898279e-02,-5.578742567370261612e-02,-7.127541882983499943e-02,-7.817046189530657552e-02,-7.608283552383809933e-02,-8.208284900971302145e-02,-8.634841845610034816e-02,-7.663860939433210506e-02,-6.834676160099330267e-02,-6.635918973723456404e-02,-6.791852108981909220e-02,-5.469059352742528662e-02,-4.258908083364731229e-02,-4.100466708592901549e-02,-3.997965660471014537e-02,-1.568166256318889729e-02,-1.312010290816189098e-02,-4.018333314835241879e-03,5.931538810815016778e-03,6.421681398728990194e-03,6.050920231802575829e-03,8.334365759678153546e-03,1.108096239162813506e-03,8.555714555467468750e-04,-2.207827698019769035e-03,-8.725772390840167217e-03,-1.054342898902684532e-02,-1.282218993109808178e-02,-1.630514146797705510e-02,-1.573485739305148165e-02,-1.098235860262814119e-02,-1.302949775558046551e-02,-1.016247172056897533e-02,-6.448545199919027485e-03,-3.472455205630087336e-03,-1.590278201693010908e-03,2.273783964936662181e-04,1.410819024574515388e-03,-7.845154874570166520e-04,2.911662731561277459e-04,2.774676009249406154e-03
-9.547025458685421892e-03,-1.515354984310016140e-02,-2.397776726544732437e-02,-3.041116766358799989e-02,-2.756855149960577706e-02,-2.854667724638306620e-02,-3.629271525061913972e-02,-3.905951424152548368e-02,-5.088779356935561882e-02,-6.304038356033071777e-02,-7.022018105414842837e-02,-6.333661078077870710e-02,-4.141027629614485450e-02,-4.578354460614974392e-02,-4.134985957188477834e-02,-4.465897591123028226e-02,-5.380029368189714889e-02,-4.081139926007414792e-02,-3.215654572644083276e-02,-3.043336462675828163e-02,-3.493531553867722933e-02,-3.423621830281857459e-02,-4.362836039497836743e-02,-5.115026508812648559e-02,-4.956600009035816434e-02,-3.629719501788068736e-02,-4.383967157889165356e-02,-4.194548109852588857e-02,-4.043215168335523996e-02,-4.040516340064734951e-02,-4.329961449830785347e-02,-4.965544310142393919e-02,-4.885659729417215352e-02,-4.717042580942847063e-02,-4.349439482991430961e-02,-3.979952129207681155e-02,-6.721133546339329301e-02,-6.818945965208307591e-02,-6.970532858416646216e-02,-6.599737778392367193e-02,-6.195548067693763122e-02,-6.592497875740786772e-02,-6.639230116760139189e-02,-6.838571856906575097e-02,-6.674264663065111736e-02,-7.776032210360532548e-02,-7.594737167322172799e-02,-7.416687242513557432e-02,-6.741120968448453821e-02,-6.975406578192287765e-02,-7.477022978430052091e-02,-5.283550683472775650e-02,-4.116617921598193786e-02,-3.372706483547311535e-02,-3.002832637041606689e-02,-2.249288005939381260e-02,-3.603961543619603469e-02,-3.362686785087922597e-02,-3.491429321762488935e-02,-2.348220707932963114e-02,-2.601757257012770122e-02,-2.129922285810227980e-02,-1.177483892513487944e-02,-4.007085938963079672e-03,-1.060843096845704228e-02,-6.969124912428908622e-03,-7.788552925783559858e-03,-1.647283430836709098e-02,-1.228943461623070374e-02,-2.032733927721313769e-02,-2.291395815552612486e-02,-2.722524969521284907e-02,-2.940218765161685399e-02,-2.888103791161603096e-02,-3.411374063775452631e-02,-4.903560124969935652e-02,-4.605175673794822261e-02,-3.932518630958738853e-02,-3.366252263336504819e-02,-2.565849726365437497e-02,-2.340424432814551883e-02,-2.346666490479823106e-02,-1.964756937972616385e-02,-1.828236903853764153e-02,-1.655592347546299553e-02,-1.679674542138234750e-02,-1.178435213885157921e-02,-3.527304124011323549e-03,2.989290032199974807e-03,-6.451691243804649062e-03,-1.138312459316281715e-02,-1.138312459316281715e-02,-1.241172622657073059e-02,-1.241172622657073059e-02,-1.258730220601462363e-02,-1.189358618690767797e-02
2.342999606733177712e-03,1.546766127843025862e-03,-5.410529689199994677e-03,-7.967593949182043972e-03,-1.040936915281911665e-02,-1.362224537871004754e-02,-2.800895113081022444e-02,-3.773165059836385005e-02,-3.988787784220012428e-02,-5.781365599196182370e-02,-5.961316126167920393e-02,-6.191476686044428829e-02,-6.073963045580198922e-02,-5.715980693866334894e-02,-5.826284023698936193e-02,-5.539904266203531102e-02,-4.663874737177504948e-02,-3.707918915172346563e-02,-4.190295525011751565e-02,-4.565867916382336522e-02,-4.892053253877098190e-02,-5.458341885280664635e-02,-5.742635084736058548e-02,-6.049513204163446678e-02,-6.473561776417068037e-02,-6.958836628282655257e-02,-6.675119437430056257e-02,-6.709547180393209131e-02,-6.875131407419510232e-02,-6.311247655943465207e-02,-6.762630536369731993e-02,-6.555182714847940240e-02,-6.942418990793051969e-02,-6.370489729533752865e-02,-6.261470942759676805e-02,-4.372645082589265292e-02,-4.822572546653888792e-02,-4.683803091445281480e-02,-4.081223246437581942e-02,-4.089805810789786528e-02,-5.201926337922849197e-02,-5.382882457068290105e-02,-5.547371107448595406e-02,-5.589128891419168493e-02,-3.816094554409676237e-02,-3.139223426080847701e-02,-3.058119111011161489e-02,-1.995873958518048358e-02,-1.971450807062320384e-02,-1.536828442018287402e-02,-1.051324252978301683e-02,-5.798648498735670814e-03,-5.466269597486701770e-03,2.743251123657578904e-03,4.288873667553061778e-03,1.037762638657429952e-02,9.188360065712376096e-04,-6.618126409176321515e-03,-4.769567883078682825e-03,-7.009524751669448522e-03,-1.430098870958299018e-02,-1.177461512219535496e-02,-1.443305807375862455e-02,-2.596611132534833513e-02,-2.255397842911024617e-02,-2.752599021255584463e-02,-3.118313213811438681e-02,-2.902323142420205199e-02,-2.339859844308001327e-02,-2.379790148775194278e-02,-2.977023492394686652e-02,-1.748052284969757106e-02,-1.241362627142836642e-02,-2.695746664384165645e-02,-3.159334668733217166e-02,-3.580965965736648826e-02,-5.168023670299511096e-02,-4.633663281546701596e-02,-5.013223895828020082e-02,-5.711544797740081281e-02,-8.753047270940865487e-02,-9.364558752945660591e-02,-8.561675755538111776e-02,-7.224021237319278033e-02,-6.118655578327730077e-02,-5.072827026956145541e-02,-4.573755286560035604e-02,-2.527576732920124719e-02,-1.314055602909684067e-02,-1.036158324305869530e-02,-4.980033816526562539e-03,-4.029756594560934997e-03,-1.528292615308495146e-02,-1.074481019731095797e-02,-8.711885161505811270e-03,-6.619284275596627569e-03
1.246355578122110633e-02,1.068538643347526421e-02,9.228780478806770937e-03,1.586895376246293295e-04,-2.369813717573616973e-03,1.740634575036450549e-03,1.962035243947052657e-03,7.013998035777258347e-03,4.959950865514024462e-03,2.598769021854956118e-03,-5.974951877966889341e-03,-6.507515606348926104e-03,-5.039231460409308687e-03,-1.057245839768559958e-02,-1.951326902264115606e-03,-1.840662042447525557e-02,-1.840662042447525557e-02,-1.424239842395810460e-02,-1.527238096964823530e-02,-1.596806928596366387e-02,-1.812313260347362537e-02,-2.021261958310923909e-02,-2.242617680003764283e-02,-3.061182314499621970e-02,-3.919553041454524461e-02,-4.160814691971637114e-02,-4.238623553162761820e-02,-3.562401217913342688e-02,-3.921087917481581864e-02,-4.021321742069149108e-02,-4.665839213598012292e-02,-4.611909537766355205e-02,-5.676605628243955315e-02,-7.364818093563665902e-02,-8.301899425829820101e-02,-8.119213766927448062e-02,-8.265721439606511789e-02,-7.887033069241160266e-02,-7.633121634434343605e-02,-6.472507808968991361e-02,-4.578233657476762919e-02,-4.803673571426651800e-02,-4.766065589285144177e-02,-3.028221883982219059e-02,-3.271672369130967234e-02,-3.582818383902002662e-02,-3.205233625978357731e-02,-3.128724105498308788e-02,-3.553622986513042120e-02,-3.680149333746446372e-02,-5.244494809757599407e-02,-4.230799590502829638e-02,-4.077628048432767327e-02,-3.132750798484171262e-02,-2.752776243078726426e-02,-2.346588307150212355e-02,-1.987225292493885465e-02,-6.450086274293468855e-03,-1.209677684000722529e-02,-6.159244614117764804e-03,-1.389396607088301365e-02,-6.313678444510055152e-03,-8.163454003225722316e-03,3.299335124822022972e-03,8.804087290724725914e-03,-1.865659038802243951e-03,-2.451980989774235099e-03,-3.491029826410285350e-03,-1.487491593571302860e-03,-3.073263991878773249e-03,-1.733749034388827603e-02,-3.779658277263789334e-02,-3.619882968647986088e-02,-3.550198336275678379e-02,-3.417533603869182118e-02,-4.208923524055657728e-02,-5.327718705191637066e-02,-4.932510083878086093e-02,-4.155641805066138256e-02,-4.516837809085621352e-02,-3.967198122385922482e-02,-2.799369125076956247e-02,-1.894155320765958037e-02,-9.103383628949383508e-03,-1.042779235120324527e-02,-5.655673030223913600e-03,9.129078993990189309e-04,2.442230312077846733e-03,8.924874938746846925e-03,9.828524599008355012e-03,1.092681031453066401e-02,2.821060739218836984e-03,2.399041863888882065e-03,2.399041863888882065e-03,2.399041863888882065e-03,2.399041863888882065e-03
-3.232011381695465077e-03,-4.054133693140864712e-03,-6.121044638086647720e-03,-8.898432824092099205e-04,-1.977203186990404010e-02,-2.984859062573547508e-02,-3.419482012846260938e-02,-3.583568707645891360e-02,-4.040970329149095458e-02,-3.666776040682678123e-02,-3.878364691776924750e-02,-4.226931580497057805e-02,-4.232125344560599273e-02,-5.165814817125461561e-02,-4.613574121751042728e-02,-4.786285503482706066e-02,-4.524665145842383940e-02,-4.989352098466094676e-02,-5.637827294387066923e-02,-6.127548794349998995e-02,-6.127548794349998995e-02,-5.336701326105142834e-02,-5.161876159505494888e-02,-5.389355065242656950e-02,-6.114215597653432227e-02,-6.352079429728861582e-02,-6.430394817371987148e-02,-6.705672191242313673e-02,-6.953642945696283939e-02,-6.914190943294164227e-02,-6.673223991506907482e-02,-6.245808701044879008e-02,-6.181248784454848599e-02,-6.863039573354716427e-02,-7.171592581637507846e-02,-6.850197091990338494e-02,-6.309924295166867425e-02,-5.871581707640199238e-02,-5.224757631674138703e-02,-5.629199471255612319e-02,-5.776749426068716192e-02,-4.235187114259179181e-02,-3.468460018384800225e-02,-2.897868634209829763e-02,-2.939427904924107188e-02,-4.782170300018124404e-02,-5.327689342757681301e-02,-5.100998291311157479e-02,-4.067670564029205599e-02,-5.060068358180711684e-02,-4.580861300059591718e-02,-2.281041553170435471e-02,-1.166207824128544408e-02,-2.079419656696893451e-02,-1.387836441425400504e-02,-2.073167404154919319e-02,-2.137597999526868672e-02,-1.847733452886872463e-02,-2.508148479256080629e-02,-2.884894297421989814e-02,-4.819691185865838945e-02,-4.987935814582730720e-02,-4.561498904227975770e-02,-4.689319434006124221e-02,-6.607377228979337269e-02,-7.262334869019601569e-02,-7.906729595489137008e-02,-7.080662645163110502e-02,-7.684666712563725799e-02,-7.128685970932333027e-02,-7.678346490997806084e-02,-6.086566772099352013e-02,-5.870929459521678079e-02,-5.295605986242894053e-02,-3.964442648757020293e-02,-4.266323695740673050e-02,-2.933075590906494140e-02,-1.640478651195968057e-02,-6.108285574208659544e-03,-2.834953169183368135e-03,-3.165148407366301722e-03,7.407496286663121585e-03,2.354933808708117512e-02,2.446804500070271990e-02,2.079805005260048495e-02,1.275449973532133408e-02,1.037771526307202513e-02,9.150714853812417365e-03,1.095727950050704239e-02,-3.521140387149657679e-03,-2.802623531063730931e-03,-6.021914724212818794e-03,-6.021914724212818794e-03,-6.426804988578583948e-03,-9.093879287936108141e-03,-5.489514566415547303e-03
-2.870956048995995224e-03,1.539139946724336211e-03,5.401668990714284142e-03,7.922413992203284488e-03,7.922413992203284488e-03,3.574074081842705357e-03,3.574074081842705357e-03,-1.326704758531642393e-03,3.673076233589804562e-03,6.923938246049526381e-03,9.034054111985472674e-03,9.034054111985472674e-03,6.324303066211621124e-03,-6.818050365710688274e-04,1.772022465987133262e-03,4.072611896490295480e-03,2.344656151714702950e-03,8.461374738744507212e-03,1.591777178145091509e-02,6.590445450351451774e-03,5.571088075458477222e-03,2.332547309236882114e-03,-5.199498399346297664e-03,-1.377632692090546666e-02,-1.796542970799793609e-02,-2.270332786081352694e-02,-2.050068944552806138e-02,-2.092440806851199320e-02,-2.739412357070817455e-02,-2.408910388389189083e-02,-2.741801077591456484e-02,-1.780956261163560081e-02,-2.890655682239219593e-02,-1.983731571428526755e-02,-3.211117077957630073e-02,-2.507930608123476110e-02,-2.309918460436213850e-02,-1.678968358154254298e-02,-9.579877912606841323e-03,-1.943774919265389353e-02,-1.750512867805029474e-02,-1.581123800925904321e-02,-2.051276113677549806e-02,-1.391836150028314539e-02,-3.777020780648102788e-02,-3.679094707428950256e-02,-3.000265665972834395e-02,-2.548740245751378308e-02,-1.509451162891077038e-02,-1.619077114387783983e-02,-1.355741126834686915e-02,-1.229705332303535244e-02,-2.284876871634296258e-02,-2.009758976644911155e-02,-1.709818140835085709e-02,-1.860705316473222626e-02,-1.210138314273812542e-02,-2.008018261168836513e-02,-1.426337972857941346e-02,-1.858578224648375563e-02,-2.269448691271444898e-02,-2.368114653379756532e-02,-2.667133387644865863e-02,-2.667133387644865863e-02,-2.923071530637468690e-02,-1.216063788380620896e-02,-1.859222708706782107e-02,-1.818581870736076314e-02,-5.387434225736087781e-03,5.334133562260492956e-03,-1.958602209995130485e-03,4.694840505022855603e-03,6.853996639738900096e-03,-1.022814715369760753e-03,-1.170361764279563219e-02,-1.016060174122712309e-02,-1.162384322805742453e-03,-8.763727338468354708e-03,-7.301867932465449552e-03,-8.579990199920081370e-03,1.487190922032026030e-04,-5.709945800294835734e-03,6.512313563154258945e-03,9.088992146122723895e-03,7.496610543261980446e-03,2.901373923988161650e-03,8.322202610895007222e-03,3.912706313812131399e-04,-3.250609311824602388e-03,-2.504788715853331453e-03,-9.385004570221131340e-03,-6.230878217877745817e-03,-4.271282393756880343e-04,-1.243806502199349675e-04,-3.181792765008940437e-03,-2.758074142025011659e-03
-2.347873505445787976e-03,-3.794626209278760716e-03,-1.826568345782156799e-03,-4.976789526588277016e-03,-5.716117516735578531e-03,-5.465221968329294494e-03,-6.402731997367781293e-04,-8.916501254199724058e-03,-4.661067126310804339e-03,-7.428493938591081147e-03,-2.430620438055836399e-02,-3.472709747844343608e-02,-2.845097756602418468e-02,-3.216286770355956948e-02,-3.165471592301926512e-02,-3.145043491327750157e-02,-3.795756436667722944e-02,-4.623913834734312556e-02,-5.614726798662848795e-02,-7.004817820975019205e-02,-7.547382746687739119e-02,-8.024308027912047114e-02,-8.262465171566682476e-02,-7.934833712169860054e-02,-8.856387246286943904e-02,-9.130700481706752192e-02,-8.965957575232540167e-02,-8.969479460352387801e-02,-9.323360458352257518e-02,-8.470731283400768918e-02,-8.571201447804863149e-02,-8.339364514857150468e-02,-8.963800407810962323e-02,-9.052187348270226974e-02,-8.610607108815948596e-02,-8.240881982637759950e-02,-8.684384530524688617e-02,-8.958433021916256678e-02,-8.286811326523950416e-02,-7.556853715180117392e-02,-7.468799009074640616e-02,-6.606837042654443992e-02,-6.324260839496397002e-02,-6.455913834012097507e-02,-6.215586528089816348e-02,-7.317629167121747491e-02,-7.682463425299859705e-02,-1.071004412593905969e-01,-1.129487822986578044e-01,-1.073640154128155388e-01,-1.103312181046594842e-01,-8.444371889870073977e-02,-5.662521914620585045e-02,-3.182114994536280883e-02,-3.383643239337108533e-02,-3.268490328833061759e-02,-2.079387032794272408e-02,-1.794573856731851089e-02,-1.223015550811666630e-02,-1.527634379498310317e-02,-1.172501686110227238e-02,-1.304381496289100210e-02,-1.525334207713371047e-02,-1.634063664550493983e-02,-1.657316239519716558e-02,-1.724353742185327429e-02,-1.610740962642409277e-02,-1.189281116450469251e-02,-3.326039320721268372e-03,-7.059029109484653633e-03,-1.015979203073015015e-02,-1.023535000379599720e-02,-6.664623069290869645e-03,-1.187163036421984286e-02,-2.281754278390364307e-02,-3.714525922687683668e-02,-5.003688135507801393e-02,-5.140793661055435143e-02,-5.060742474937211105e-02,-5.976083407074370135e-02,-6.040452227513667949e-02,-4.939847739932162057e-02,-5.343583629230336252e-02,-5.343583629230336252e-02,-4.546040092110500974e-02,-4.625729308015014835e-02,-3.981221700109979084e-02,-2.947006779593564288e-02,-2.947006779593564288e-02,-2.232984549987910433e-02,-1.693328603749278891e-02,-1.190083572299385599e-02,-5.759751943996584481e-03,-5.759751943996584481e-03,-3.069844134458260022e-03,-3.069844134458260022e-03
1.528671678048871716e-03,-3.379523977801114545e-03,-1.920478390068951907e-02,-2.623632609481895556e-02,-4.176079223488403380e-02,-4.092565350570784993e-02,-4.389598711831256550e-02,-4.590526313782006956e-02,-3.457116445133351368e-02,-4.999968431045149347e-02,-6.387848923646094468e-02,-6.824506766120984336e-02,-7.698781294159952326e-02,-6.293272474833822017e-02,-6.293272474833822017e-02,-7.063498208174405490e-02,-8.661260815102274357e-02,-8.171287304583561839e-02,-8.718944408342563235e-02,-8.193274464613968522e-02,-8.839285918749650861e-02,-7.947482507428357823e-02,-7.580067853404795497e-02,-7.806001326847152033e-02,-7.201375482091709745e-02,-6.676200244366806147e-02,-5.925563402409131375e-02,-6.133445702544923495e-02,-5.554757174270379821e-02,-5.349332609121215665e-02,-6.109609641592692042e-02,-6.698162905619541030e-02,-6.328033001573060701e-02,-6.650776431429844537e-02,-5.633727087658568083e-02,-5.430745085727742977e-02,-5.960595504996175215e-02,-5.681932888425059863e-02,-4.570726991750931334e-02,-4.310865715227025358e-02,-5.189648322610878467e-02,-4.204299149652520468e-02,-3.423416926209586764e-02,-2.760483415773665877e-02,-3.327597064265910842e-02,-4.101157645024133824e-02,-4.463622206516645874e-02,-3.750935228209865968e-02,-4.323557173338829496e-02,-4.992183039894495383e-02,-5.045368970707953676e-02,-5.587134727828076131e-02,-4.374147171153784652e-02,-3.652453572676345184e-02,-3.787574897116985362e-02,-4.025881140823618642e-02,-4.117265038343559391e-02,-3.681410736393427030e-02,-4.005111062174271375e-02,-3.881477521935268460e-02,-3.182082860897682275e-02,-3.930821400610065575e-02,-4.525653708563118910e-02,-4.041890091375564126e-02,-2.898992699996820813e-02,-2.447211609259926715e-02,-2.531063330631296709e-02,-1.790248854475700799e-02,-1.616998110158429647e-02,-9.611411197172304785e-03,-2.769166819453272241e-02,-3.269307951167176735e-02,-3.204955760756485195e-02,-2.781563279411379888e-02,-4.079974802837937203e-02,-4.638165852650667081e-02,-3.711177960559658429e-02,-4.091711663683713501e-02,-4.091711663683713501e-02,-6.689762474041849316e-02,-7.291446510910581935e-02,-7.477295008743048421e-02,-7.621361635040176108e-02,-7.173625131788001485e-02,-6.284384020514741098e-02,-5.522640220787879833e-02,-4.611273646130290699e-02,-3.657703901231044302e-02,-2.853721184326686242e-02,-2.190608541985708535e-02,-1.098357297184017305e-02,-8.177134124251741673e-03,-2.768401795453353555e-03,-3.901087598570792021e-03,5.818174590636780111e-04,5.818174590636780111e-04
6.688029961342442349e-04,-7.045951160921607587e-04,-1.010546665245986957e-02,-2.591762899138657511e-02,-3.660550223865682851e-02,-3.777369006864086942e-02,-3.890574353096821342e-02,-4.424882755957438435e-02,-4.177152502531248507e-02,-5.266031789130055929e-02,-5.025833843513559385e-02,-5.567784740117144582e-02,-5.918793650564727060e-02,-4.106172279395606944e-02,-4.075402454932280927e-02,-3.965609293382068440e-02,-3.875125027480064849e-02,-4.455470639275812411e-02,-5.148541915222577120e-02,-5.878847409830754295e-02,-6.715945797709978182e-02,-7.483393866955401208e-02,-7.395049522537272546e-02,-7.498100766620414970e-02,-6.334130805135158859e-02,-6.184525709506052960e-02,-6.057812015299027242e-02,-4.884133399091998562e-02,-4.432795975907830033e-02,-4.439087908540956945e-02,-3.909741821407675122e-02,-3.064169742256619977e-02,-2.726143669160113747e-02,-2.755801592269178923e-02,-1.725743329749776511e-02,-1.786795033722061998e-02,-4.052384244314221479e-02,-4.173096080891159493e-02,-3.783704748492183745e-02,-4.057282635338276683e-02,-6.055617190805073768e-02,-6.163412258685542489e-02,-6.731599655275000149e-02,-5.775663483130386022e-02,-5.721377608236727363e-02,-5.134122262686075661e-02,-4.993280585623678658e-02,-4.709934545584182342e-02,-3.694244140570580176e-02,-3.711742689648876714e-02,-3.984259054481339990e-02,-5.486492090185938336e-02,-5.466998026455021503e-02,-6.573028345598469491e-02,-5.976876353611555032e-02,-6.171217741836527992e-02,-6.426789001446689409e-02,-5.974284516886996937e-02,-4.967058208919374745e-02,-5.969807112557357770e-02,-5.002755039070298088e-02,-3.255376754424871982e-02,-3.183696114431075475e-02,-2.882340458184844134e-02,-1.701230979301974686e-02,-2.018782742540441849e-02,-2.075923094068257702e-02,-3.303572418873199773e-02,-4.039270332404203134e-02,-4.003219397698853932e-02,-4.161445867206700622e-02,-4.426725418156061270e-02,-4.509081197145414777e-02,-3.955935598313038704e-02,-3.881643634971933265e-02,-5.360401849587848044e-02,-5.096393463016652553e-02,-5.641015687141969631e-02,-4.671936099888391453e-02,-4.566527833302691519e-02,-3.865585045170771838e-02,-3.875245385452611574e-02,-4.019597758866406273e-02,-3.248164706941185365e-02,-2.660662294965288749e-02,-2.944744828350463750e-02,-3.216618922320745727e-02,-2.662420250089306620e-02,-1.929607467943253440e-02,-9.636279594637109716e-03,-8.030814573725467143e-03,-1.554467853838387061e-03,1.765952383976251289e-03,5.241606182761935143e-03,3.058360677796394082e-03,2.567440761596242061e-03
-4.184565867890645968e-04,3.399022179227630808e-03,6.000361019403594245e-03,6.000361019403594245e-03,7.272870692769321799e-03,1.395671268732658413e-02,2.056775349368807765e-02,2.795906892592951026e-02,2.769451997937450588e-02,2.604815425092297382e-02,3.337656779854705075e-02,3.197129152836449689e-02,2.096215807125609981e-02,2.027516155058003977e-02,2.027516155058003977e-02,2.567332778782760797e-02,2.051800072666882732e-02,1.802307164527078634e-02,1.489881922076309421e-02,1.706463650618277386e-02,1.045192169714847900e-02,6.945521209822422964e-03,-5.166614458929387477e-03,-4.157165742537398748e-03,-3.717512686744406207e-03,-3.066027154668420247e-03,2.936583026768086434e-03,4.392339186417394854e-03,9.521058726449826287e-03,2.301758797344644752e-02,3.128665020975650302e-02,2.599703899814954575e-02,2.039316723699237041e-02,1.652553590484800647e-02,1.161608441462919951e-02,1.435430051337969332e-02,1.097804188494282303e-02,8.744604411809814987e-03,5.185304511829757351e-03,1.115729614156051215e-02,8.399927076124923814e-03,4.306211457522426955e-03,2.365438392940191759e-03,-1.736553888431831196e-04,-6.056201261649104065e-03,-4.822791427165287401e-03,-4.275928726169537716e-03,-7.480092150920726254e-03,-6.432893216134188963e-03,-8.162807770048075007e-03,-7.967451169948659706e-03,-1.048310639306781165e-02,-1.807188686653107140e-02,-2.615514298898643369e-02,-2.253738603734225729e-02,-1.652423916730704975e-02,-1.334422570878769816e-02,-1.136948705288280334e-02,-1.232036914323450354e-02,-8.568274345300108674e-03,-9.276553057972926689e-03,8.459673474341536988e-04,6.179285543432879932e-03,7.705029562863442011e-03,1.131831033669739375e-02,1.770671272739908833e-02,2.185560233038896447e-02,2.885196014388359195e-02,2.801185819254673956e-02,2.304577675055181560e-02,1.543015207823163377e-02,6.262046006954356640e-03,1.136904533866507291e-02,1.313284876375098859e-02,1.814917744073342443e-02,2.825974777812365057e-02,2.502556808964996257e-02,2.456999970874590433e-02,1.770653144286982519e-02,1.245558167841158935e-02,5.440053434705298049e-03,4.458123000605298397e-03,-2.863797142862972277e-03,-4.951110673155257116e-03,-8.609526067867100119e-03,5.283423388407516852e-05,5.353887807337308000e-03,3.241368555794596224e-03,-1.230228615204047738e-03,-9.203591863446648064e-03,4.392391874889321410e-03,6.935717669086083510e-03,6.935717669086083510e-03,6.935717669086083510e-03,6.935717669086083510e-03,5.839639115149753215e-03
-4.409606371310601999e-03,3.859110866999181447e-04,-3.520895158979036113e-03,-1.154872229629553236e-02,-2.423148806319593007e-02,-2.826071461696269896e-02,-2.140269120837492642e-02,-2.505722451131809844e-02,-1.460976266589479600e-02,-4.507954547558374291e-03,-1.847315824927873995e-02,-2.109774365831476942e-02,-2.347522934529778019e-02,-3.199765972677257736e-02,-3.048266437939955997e-02,-3.732738504489313547e-02,-4.256059570816320137e-02,-4.126118464698614458e-02,-4.977059436462717007e-02,-4.985838235434911919e-02,-4.613282170564016182e-02,-5.348180167064280760e-02,-5.469669329177621886e-02,-6.512355022546660599e-02,-6.789356647242761333e-02,-6.867672034885886900e-02,-7.552209575321909563e-02,-7.229879074974071562e-02,-7.788826692654643447e-02,-7.476281905563134100e-02,-7.552504817879994448e-02,-8.069365808660874939e-02,-8.585910022034069777e-02,-7.642398774461586775e-02,-7.579436962229410546e-02,-7.563693090780283790e-02,-6.952958320219833344e-02,-6.589985121361566223e-02,-6.803213987401904306e-02,-5.863053311635595816e-02,-6.012887099475825586e-02,-6.966102205319840701e-02,-8.712095414126908022e-02,-9.024209184741176226e-02,-7.697963440093803789e-02,-7.037074197856470203e-02,-7.657915207383304834e-02,-7.035363391962587420e-02,-7.073919297822603425e-02,-5.755609025116922850e-02,-4.505307650047207096e-02,-5.248056201186333813e-02,-4.349418552145375289e-02,-3.250111694099084431e-02,-1.860211680318072866e-02,-2.047673089556363568e-02,-1.309816297329677651e-02,1.463787460520392467e-03,2.558546061770958658e-03,-4.024252285963293707e-03,-1.159362475699821787e-02,-1.250168693636101794e-02,-1.484146791910300259e-02,-1.437272268055249727e-02,-2.101462445652212130e-02,-2.979606751940629822e-02,-3.608257507804824710e-02,-3.732540739267477259e-02,-2.343578050904386242e-02,-2.960183652591549461e-02,-2.262709901031226614e-02,-2.130034748943543041e-02,-3.223793247490416153e-02,-3.140259505763653286e-02,-3.203395137557734501e-02,-2.626610265552355508e-02,-2.596000044198680176e-02,-1.741221248171719027e-02,-9.690588160320380215e-03,-7.586831594758422677e-03,2.888542046517004244e-03,1.490502190769888227e-02,1.822579431914455109e-02,1.458753700512379833e-02,2.680492153453536280e-02,1.491820993030133075e-02,1.805783239195801401e-02,1.497361665582962360e-02,1.526943025819963405e-02,8.926274900457213668e-03,4.973314490973884325e-03,-3.257138883627056641e-03,-3.257138883627056641e-03,-1.322882611974708590e-03,-7.736648250676837410e-03,-2.813690756057637271e-03
-7.225902391127986962e-03,-9.345150163705961965e-03,-1.071022394848908203e-02,-1.098503751076941419e-02,-1.705026493217714351e-02,-2.077439222873073837e-02,-2.050191897763442225e-02,-2.231256072590303771e-02,-2.464269102763339686e-02,-2.938007215711031794e-02,-3.227139694506246659e-02,-3.535050704112559228e-02,-3.504451219711290921e-02,-4.049504658239229393e-02,-3.515448098656684395e-02,-2.626347559389641262e-02,-1.742510832244125243e-02,-2.610592146478240769e-02,-8.905960495585035774e-03,-1.213395876393455995e-03,1.533822821153361417e-02,2.411095768307253487e-02,2.111686676086951125e-02,2.866960204406889326e-02,3.147640473468301531e-02,3.404095113388444505e-02,3.607942828310609085e-02,3.434816376212748712e-02,3.034733097070984459e-02,4.196419248014345016e-02,3.559832010309722100e-02,3.353339334443576625e-02,3.688640172791605304e-02,3.326351863035750117e-02,3.098894762221142060e-02,2.809824062463633226e-02,2.271820987812076670e-02,-8.579724026470773868e-03,-1.631116134267756451e-02,-2.159541339111866604e-02,-2.787813858249460139e-02,-3.227757589468040894e-02,-3.262328436898181278e-02,-4.988223223281773588e-02,-4.992657698345728118e-02,-5.466934383760452959e-02,-5.497763235579640473e-02,-5.445768655123434110e-02,-5.125267426315900654e-02,-5.208859795669605608e-02,-5.752357933896799086e-02,-5.285150278403601826e-02,-4.836283643954772393e-02,-4.530175884715896550e-02,-4.907300595068158494e-02,-5.160544503781137188e-02,-4.891721830036036694e-02,-5.273349383796599454e-02,-5.096740820669585365e-02,-4.121430704141351709e-02,-4.185154635028473513e-02,-3.544094638299580269e-02,-3.101217341080340917e-02,-2.419903242411692093e-02,-9.791693726380544874e-03,-1.662337784641716373e-02,-6.652682774366563967e-03,-6.762913076886065827e-03,-4.255522673638845524e-03,-7.127050551380134050e-04,-5.490920772135992126e-03,1.430308333781103161e-03,-5.203073926735904062e-03,-3.028480542636292731e-03,3.997734675642926339e-03,1.724251471533488553e-02,2.066050678168974628e-02,2.410926149200701141e-02,2.181131144002401018e-02,2.076167802720689515e-02,4.676222780247168802e-03,1.196245339042562202e-02,2.400635843982539680e-02,2.596529406878657353e-02,1.749971967615219712e-02,1.733843186757323337e-02,1.931416915760571576e-02,2.201439510609409789e-02,7.209144202901353500e-03,7.209144202901353500e-03,7.209144202901353500e-03,5.698413869646437591e-03,4.564564391011867103e-03,4.444347523948912436e-03,2.067668494958374570e-03,2.067668494958374570e-03
-1.523868044940962464e-04,-2.796694906699721990e-03,-1.879138787615735467e-03,-1.245729801940829301e-02,-8.512035093682404976e-03,-1.460025027674981442e-02,-1.527961858251684034e-02,-1.241152181397684774e-02,-1.250442418277997528e-02,-2.187312015749644928e-02,-3.903412729917521418e-02,-4.225805159100707448e-02,-5.378240052110148245e-02,-5.990849312550104028e-02,-5.394160360160966949e-02,-5.719824671545582079e-02,-5.094109252567513568e-02,-5.384455984502278109e-02,-6.034106922842155663e-02,-6.973594324709593562e-02,-7.551264533642490506e-02,-7.448435234000572169e-02,-7.974520064201406910e-02,-8.610781430995706476e-02,-8.743216847791221435e-02,-8.894991860858558752e-02,-9.134815953530636690e-02,-9.151398129367005474e-02,-9.229650242835885088e-02,-9.403727961649641087e-02,-8.863273234490201546e-02,-8.663591572886231162e-02,-9.305706308931770143e-02,-9.109383051571226519e-02,-8.420531137619068074e-02,-8.099423489998622272e-02,-7.248283358949272892e-02,-7.548959266776576749e-02,-8.132551140736980766e-02,-8.039245274066442182e-02,-7.323373533445395878e-02,-7.658400462759053229e-02,-7.042534142631559635e-02,-6.889716841551109250e-02,-6.928100177306630025e-02,-4.997773740674584658e-02,-3.646316076255745608e-02,-3.218958807713288156e-02,-3.021916703590147094e-02,-3.618005197705859155e-02,-2.819127819293467535e-02,-2.824510085272231852e-02,-1.815019774333846703e-02,-1.161439760152909936e-02,-3.900380696878022902e-03,9.467762266072437746e-03,1.140853533065467815e-02,2.006031676909194802e-02,3.143319219702665063e-02,4.987563319672098233e-02,5.280086403141494994e-02,5.561286970870765733e-02,6.439069262804308913e-02,8.095297757253513971e-02,7.798619759627281600e-02,8.908522571999058504e-02,7.253355380772587291e-02,8.674304357110253216e-02,8.297163350326743070e-02,8.488278996664730403e-02,7.820536804599158287e-02,7.023143264298740973e-02,5.584039164516974019e-02,5.588316606184388913e-02,4.651076842340112760e-02,4.160399560342104702e-02,3.993787508374747192e-02,2.839681089682683304e-02,2.323549923310281803e-02,1.296188111713477212e-02,7.488103602582550991e-03,-4.692025442746883268e-03,-6.815044736156709512e-03,-7.604172420306247460e-03,-2.059219996320011022e-03,6.932168002360272405e-03,8.134975336613378682e-03,8.134975336613378682e-03,9.374891425013956101e-03,9.374891425013956101e-03,9.374891425013956101e-03,5.400488241457194680e-03,6.606441410730357067e-03,6.606441410730357067e-03,6.606441410730357067e-03,3.528167901740355585e-03
8.651550826618628620e-03,5.261090477116825599e-03,7.666221004629747079e-03,1.549963675050210904e-02,1.900270420516866204e-02,1.770217589766778787e-02,1.465600661895197568e-02,2.185911715397094099e-02,2.319145270367489048e-02,2.441320227523497213e-02,2.360479589911589418e-02,2.066395075650754448e-02,1.983189454437832289e-02,1.368062900286232987e-02,1.233850578029474163e-02,1.252917728979240780e-02,3.147453606201958999e-03,-1.324755186896916202e-02,-1.604606184620754883e-02,-1.133929662755225713e-02,-1.898673882437741656e-02,-2.343108698313551425e-02,-2.266709115729046223e-02,-2.416197679495056191e-02,-2.846403292743082680e-02,-2.661435010863303502e-02,-2.658736182592514458e-02,-2.853883659439085396e-02,-2.894353740389426013e-02,-2.143661736163555986e-02,-1.499615429791768817e-02,-1.193000284625089780e-02,-2.162690378521869156e-02,-1.350754244785853583e-02,-2.035915097948974226e-02,-1.388296826168329209e-02,-2.214680401557588343e-02,-2.512539063818685151e-02,-2.830321710138875013e-02,-4.374084345110169914e-02,-4.131439321259697955e-02,-3.077235465677600340e-02,-3.407621676890987966e-02,-3.476146084593390029e-02,-3.984602721905829842e-02,-5.151772171834467784e-02,-5.228687335700583222e-02,-5.700639507956655611e-02,-4.219229686544184038e-02,-3.937340298515631248e-02,-3.650395017533458047e-02,-5.169378688924138737e-02,-4.186271382716969663e-02,-3.466980094371868715e-02,-3.225476799121562710e-02,-2.552743087091060431e-02,-2.942618555744879599e-02,-2.772607634664764689e-02,-2.987842943985158720e-02,-3.049615973484174486e-02,-2.965801989328865559e-02,-2.837390481002689813e-02,-1.971630311758152537e-02,-2.095402266992765772e-02,-2.421819801022788779e-02,-2.533665644029431049e-02,-1.155669250944538554e-02,-9.468731701992430527e-03,1.762050404353854684e-03,7.264778786247561796e-04,3.920680857941356585e-04,-1.810490128175608901e-03,8.918739293411959840e-03,3.057852816674449213e-03,6.935465747209502638e-03,-1.443801449760430226e-02,-1.379394327951076124e-02,-1.332576073921917792e-02,-6.461202006657220005e-03,-6.102285876717739900e-03,-5.451966565525216864e-03,-2.763445307053143118e-03,8.835961190908172766e-03,9.277200621412993314e-03,1.010210970774636299e-02,9.603379463879327740e-03,2.103136369526390978e-02,2.348257380761552618e-02,1.636919213146654367e-02,1.773412194424171459e-02,1.773412194424171459e-02,1.964781514663272929e-02,1.556038476100688947e-02,1.556038476100688947e-02,1.590820112136893602e-02,1.493712361125206639e-02
7.017059666421388529e-03,1.881900707203796328e-03,-7.506400735118089543e-03,-2.476304351821203426e-02,-2.863863481482928006e-02,-3.055761860287123030e-02,-3.708305047706011992e-02,-3.762659738716354202e-02,-2.628176522232653078e-02,-3.470768148637003170e-02,-3.919732990217433821e-02,-4.675206006661008357e-02,-5.402257506230127154e-02,-4.610978719306561141e-02,-4.894816059210762432e-02,-4.193437183833102072e-02,-4.253934676454236563e-02,-4.862675535772523205e-02,-5.626089892137313420e-02,-6.015284497314973833e-02,-6.545491085754785721e-02,-6.693789222204511724e-02,-7.032475061481545386e-02,-6.820364168858727982e-02,-6.285882488604217777e-02,-6.495981039936771229e-02,-6.401534379640977379e-02,-6.509703748839525128e-02,-6.517016569243963553e-02,-6.266893883029418799e-02,-6.235086166136600411e-02,-5.868426514139875316e-02,-5.562371470095615889e-02,-5.601227926942985158e-02,-5.617945829698030302e-02,-5.472432594566532804e-02,-5.648425617727602377e-02,-5.515938966618741390e-02,-5.993801253566307524e-02,-5.964156647107899528e-02,-8.444578450276588044e-02,-8.568976577023082464e-02,-8.936213730675419964e-02,-9.041062098790823842e-02,-9.270105807962855660e-02,-8.790368224476657888e-02,-8.186537776009146505e-02,-6.445156608987807900e-02,-6.941896791179759385e-02,-7.087626822066660226e-02,-5.900452380401426805e-02,-6.333089608514042013e-02,-6.751936664294294621e-02,-6.630998065066308345e-02,-5.882489906733122387e-02,-6.256571296811923311e-02,-5.467111030748116052e-02,-5.727322563856019483e-02,-5.419894747778540578e-02,-4.631362270394834280e-02,-4.235231941946046574e-02,-4.968267039936072327e-02,-4.415286028846425459e-02,-4.053957631600822037e-02,-4.213579714302644746e-02,-3.263181627365278198e-02,-4.189735299368736038e-02,-4.425601558170721983e-02,-5.124249159410695226e-02,-4.845932918230091285e-02,-4.948587860349557693e-02,-5.291108338533700994e-02,-5.847199426486573287e-02,-5.792526346826209344e-02,-5.484080226999714369e-02,-6.113329005034316005e-02,-6.115002243958660849e-02,-6.186117381259295667e-02,-5.422663248804925062e-02,-4.449236885530016145e-02,-3.544884541988954640e-02,-3.665508430214857449e-02,-3.300647342098245174e-02,-2.623295993781438878e-02,-3.546611053655823048e-02,-3.658403667258441905e-02,-3.507989570896725973e-02,-3.921907100947520652e-02,-4.325254437621574299e-02,-3.902493046825179779e-02,-2.797498130968622751e-02,-8.118852630816009858e-03,-8.118852630816009858e-03,-6.825013857123645930e-03,-4.388175714528550278e-03,-4.388175714528550278e-03
1.680960599044731361e-03,3.190891300557301222e-04,-4.146811761536087042e-03,-1.641573188723036147e-02,-1.982577755451475632e-02,-1.589722859087785295e-02,-2.021921654335556706e-02,-2.567791982269714696e-02,-2.141888271097768665e-02,-2.970933736128337707e-02,-5.155564415862871896e-02,-6.763216529884878703e-02,-6.963352096344160858e-02,-6.603467055567489863e-02,-6.770025065541819542e-02,-6.293622931715296687e-02,-6.293622931715296687e-02,-5.179306147400507265e-02,-5.280644977440746013e-02,-5.280644977440746013e-02,-6.003815356903861866e-02,-6.417253356110523554e-02,-6.307486300723288974e-02,-7.459168972443978862e-02,-8.714392570561531326e-02,-8.890112828284768565e-02,-8.960468496150272855e-02,-8.794714984656855361e-02,-7.984211428203794036e-02,-8.443318744083769256e-02,-8.766872176417131457e-02,-7.887680682458947379e-02,-7.883409594099992368e-02,-7.745507909544342706e-02,-8.335812098142789117e-02,-8.032458556286414808e-02,-8.627221559646110205e-02,-8.898913761327498229e-02,-9.063152242031236039e-02,-8.793183931830179934e-02,-9.234448394682338856e-02,-8.827017917858401286e-02,-9.451080030672492915e-02,-1.028865967765802553e-01,-9.593374431444723349e-02,-9.053979821946230022e-02,-9.577502276226132483e-02,-9.068610402019700034e-02,-7.956717275342756190e-02,-7.689820786909520867e-02,-7.447250358333268316e-02,-6.681025501429757596e-02,-6.842278194686003678e-02,-5.688090482857136032e-02,-5.134125892126104734e-02,-4.327970219844893413e-02,-4.378075635963283446e-02,-6.232818604474391760e-02,-6.504907073594308475e-02,-6.291594953996573758e-02,-5.814232310889162064e-02,-5.339548154574975947e-02,-4.672973239255896055e-02,-3.740915936495309985e-02,-3.560866364097942799e-02,-2.516339291123247807e-02,-6.336258947361646590e-03,4.723846017058780031e-03,6.295530796751007754e-03,8.208068206100710938e-04,-7.606772640155579079e-03,-1.361835229123386538e-04,-7.580462819779389821e-03,-1.336149340576023650e-02,-2.882387247747357495e-02,-2.909369271485539449e-02,-3.198948109323243583e-02,-3.636347344428722539e-02,-3.541178108550255971e-02,-3.316648798199294673e-02,-3.315803294115348548e-02,-3.075877794220607114e-02,-3.284991399144186752e-02,-3.783207552297063875e-02,-3.167785181502029423e-02,-3.202201562513301569e-02,-3.177938820502011763e-02,-3.528652038764654164e-02,-3.182260595850031765e-02,-2.926367888147687890e-02,-2.058896119516729489e-02,-1.856621670721435302e-02,-1.384916284884775764e-02,-7.292250071897369255e-03,-4.602342262359043930e-03,-2.529167834756271618e-03
2.993296093244284146e-03,2.993296093244284146e-03,-2.878739047037989773e-04,-5.537207291016730398e-03,-6.530797609807930358e-03,-2.723175990999316017e-03,-8.178466771222504816e-03,-1.381245840429782580e-02,-2.010110506860297505e-02,-1.755990787464703148e-02,-2.980476892246665746e-02,-4.220702547093702073e-02,-4.729376275680133301e-02,-5.530479963451008507e-02,-5.990770616628968148e-02,-5.594925535514323756e-02,-6.355361267603688857e-02,-5.832566304519448686e-02,-5.819626083573120612e-02,-4.938088861262451834e-02,-4.711828836879987381e-02,-4.772993229991794040e-02,-3.937218323921876789e-02,-4.203971986729006932e-02,-4.235309988200790937e-02,-4.878166973981842153e-02,-4.407362576607789378e-02,-4.494594807610658577e-02,-4.919178418592379948e-02,-5.140978925871436678e-02,-5.859985759910239789e-02,-6.128273929266479791e-02,-6.183741431469418764e-02,-6.098417366296669806e-02,-6.628152303622385222e-02,-4.838278896401741747e-02,-5.155332973244134559e-02,-4.810137249718510200e-02,-5.226722449581759633e-02,-5.349553304014190852e-02,-6.364857829435688341e-02,-6.866603893401204695e-02,-6.571029814597975638e-02,-6.376090202495440784e-02,-6.959112606874620632e-02,-6.782503604755926729e-02,-7.024370308754149250e-02,-6.337291183251346494e-02,-7.252551588237446389e-02,-6.904667466066143067e-02,-7.464360359600651085e-02,-7.162984961891741276e-02,-6.492741583347601264e-02,-5.192704861778429243e-02,-4.688422792126792360e-02,-3.966435075479556038e-02,-2.608279732146322194e-02,-2.752470711534762970e-02,-2.483214424469737391e-02,-3.235690466025403084e-02,-3.311991589541019021e-02,-4.378779134500064563e-02,-4.211947222599783658e-02,-4.364850887307421268e-02,-4.720628542689991880e-02,-4.474150744130059310e-02,-4.281851741301770375e-02,-4.132586158057703629e-02,-4.136630085881727592e-02,-5.667264418002522508e-02,-5.022456327427880785e-02,-4.471533638497043883e-02,-4.303855967793840387e-02,-5.307330379451881408e-02,-6.825404630194312205e-02,-7.091295814514854412e-02,-6.158441811065566013e-02,-7.487531894120305620e-02,-7.293989252601772166e-02,-5.955653190499966831e-02,-6.378481386456134883e-02,-6.229910042428023903e-02,-5.786593990297610873e-02,-5.456498276685153165e-02,-2.742109928226965990e-02,-2.977071096682078893e-02,-3.113894361012227788e-02,-2.961199678564527607e-02,-2.560298820971522102e-02,-2.513948749719605025e-02,-1.621698652205827429e-02,-9.196095913968067512e-03,-7.198613250145665873e-03,-3.162080227046799603e-03,1.367157528888447715e-03,1.367157528888447715e-03
-1.881427850809118439e-03,-1.881427850809118439e-03,-3.743878030593934467e-03,-4.501179323324646687e-03,-2.284599062672580672e-03,-9.960355768705098436e-04,-2.997259731617385979e-03,-1.096684882535112725e-02,9.535624841727692895e-04,2.877875629523006865e-03,8.694421806809822864e-03,6.416938225292426710e-03,7.673273317113043709e-03,1.216487053089717642e-02,8.871285532013713920e-03,2.134992089338374338e-02,2.713363311286666468e-02,3.163594975326311509e-02,3.247249374444123593e-02,1.154925447311925570e-02,1.163966355212049317e-02,5.778786335175161229e-03,9.039186638629286875e-04,6.107661447796532833e-03,6.394401920789327676e-03,1.608002522850855362e-02,2.052368569751424759e-02,3.250813891247113230e-02,2.280481166000493387e-02,2.723079356192766032e-02,4.039248465512824265e-02,3.928501811837561974e-02,3.570888270910699963e-02,3.560487686652072381e-02,3.522587942636993402e-02,2.447260842224360106e-02,2.509745096137587506e-02,1.562243339945894663e-02,3.156952983489155328e-03,1.308020441888199442e-03,-7.397090437916290298e-03,-1.533841183721723449e-02,-2.637966674019942559e-02,-2.954418376014798092e-02,-2.507720468017099469e-02,-4.066160169230718935e-02,-4.518916784432053246e-02,-4.823197818213539878e-02,-5.000223574188856351e-02,-5.101714936882965901e-02,-5.461485120427891221e-02,-5.806081153572315717e-02,-5.812267405856602620e-02,-5.153486094550627228e-02,-5.128280528956353362e-02,-4.122438126522353502e-02,-5.165685443141924960e-02,-3.673675563345411149e-02,-3.774845067687146449e-02,-4.034472465582956274e-02,-2.701170370244947855e-02,-2.540689592048127679e-02,-2.680634965983120718e-02,-2.111066375504053530e-02,-1.666998735445432422e-02,-1.706813667424550776e-02,-6.005856917555219693e-03,6.490481922042301219e-04,1.435613358150050929e-03,9.927305343315673616e-03,7.499007738011095187e-03,7.064907904545711381e-03,9.817884493754664571e-04,-1.500033006933992191e-02,-3.333253204483827004e-02,-3.260676655491853704e-02,-2.674538930614337243e-02,-1.901968383839631668e-02,-1.933893460056963082e-02,-1.779644037339646323e-02,-1.813717298954959853e-02,-1.752881820160711451e-02,-4.188267397900827596e-03,-1.386650404951924763e-03,1.860217355544935454e-03,1.542073677241110989e-03,3.056021229848847765e-03,-3.218474639682361691e-04,-1.402531383307224593e-02,-1.383710273723342578e-02,-9.160613874397540227e-03,-7.737064515354393802e-03,-7.737064515354393802e-03,-7.737064515354393802e-03,-7.735731356059934172e-03,-6.026036411323488530e-03
4.619279989133480424e-03,1.241311000107378493e-02,1.522829766602822044e-02,1.522829766602822044e-02,1.626500990512502742e-02,1.457543684181182748e-02,1.872237052599949603e-02,1.207657583937687268e-02,8.140460112383663543e-03,5.952459418255088772e-03,1.753702287381065771e-03,-3.115062853213586194e-03,7.719553585657261061e-05,1.039054240180730185e-02,1.035460064259981910e-02,9.932715197177689054e-03,1.451344389044467199e-02,2.631786876881218526e-02,2.433583644812301397e-02,3.112712514515108067e-02,3.649598844442655809e-02,3.604157523558731285e-02,3.655112928040038511e-02,4.002194714944364712e-02,3.997678010730870007e-02,4.243421096544677806e-02,4.149901666388428750e-02,4.271803196893932120e-02,3.848174518814851536e-02,3.906261658666238673e-02,3.922165556549737919e-02,3.765167222407704573e-02,3.288443331067852221e-02,3.667996590556350800e-02,4.209231155703107435e-02,3.401250647863760662e-02,3.559797963946827182e-02,3.665905128328678098e-02,3.418098528135533887e-02,2.616777479904049825e-02,3.101364597440257886e-02,3.057037585916392436e-02,3.545569675066686383e-02,3.364197855537642140e-02,4.948022964503255572e-02,5.195776149180793974e-02,5.310683696146257377e-02,4.644468094695310134e-02,3.095827551429133212e-02,2.648741913559193514e-02,3.081754992091092354e-02,2.417978789568468734e-02,1.099038710551716175e-02,4.551135497215670969e-03,1.868211849347543863e-02,1.600315168222177578e-02,2.471631515028548803e-02,5.213858340994649218e-03,-8.901148594045137086e-03,-1.128323248879127549e-02,-1.326728679634481094e-02,-2.119231166467987898e-02,-2.361429575210546514e-02,-3.297855516179416108e-02,-2.588338072017684621e-02,-3.334943524446558338e-02,-3.376975891936910557e-02,-3.513599120839080991e-02,-2.925855582344311090e-02,-3.737016048592499418e-02,-3.259479217304074583e-02,-3.091080457576401638e-02,-2.800120638468293552e-02,-2.653144202334246568e-02,-2.465406726704805207e-02,-1.853103737943974025e-02,-1.496525321066726269e-02,7.211398380653752382e-03,1.000221682186581279e-02,1.145667917113261589e-02,3.707134471196772956e-03,2.478504331883688364e-03,6.066753837662565430e-03,-8.031885781135702888e-04,-4.876416110135766563e-03,-5.050250680374259588e-03,-1.599897969905259010e-02,-2.021411824148551181e-02,-1.865158946781024854e-02,-2.062002852458727151e-02,-2.727265167826531389e-02,-2.727265167826531389e-02,-2.637238797865412709e-02,-2.437569793878372956e-02,-2.437569793878372956e-02,-1.527839643659256209e-02
-2.337608274126657705e-03,-3.080512172833851058e-03,-6.699909709441151211e-03,-2.056453757014068198e-02,-3.090324685577400948e-02,-3.570802011819888822e-02,-5.044905105759969755e-02,-4.967865605188563627e-02,-4.763780444832628469e-02,-3.792467755883212333e-02,-3.820969906249709058e-02,-3.502045756095523155e-02,-4.030721762301132938e-02,-4.253597305098293091e-02,-4.162967988195701019e-02,-4.574586608944704313e-02,-5.190579073794322762e-02,-4.993908173615485557e-02,-5.710364455204762490e-02,-5.546022914496191725e-02,-5.680244502773915127e-02,-5.489026604006832372e-02,-5.358262852693029127e-02,-5.761830554577613422e-02,-5.969072444761280155e-02,-6.017237673083195015e-02,-5.681750885411419871e-02,-6.498938723644545612e-02,-5.904377348216852117e-02,-5.294302490753309554e-02,-5.112149672852488169e-02,-4.227693395560917777e-02,-3.830917246171472446e-02,-3.136398729463094753e-02,-2.723245019674813000e-02,-3.643662163395091497e-02,-5.114945978832582951e-02,-6.089612266421604025e-02,-6.317739564518895512e-02,-6.174682037152606773e-02,-6.243366381513155983e-02,-5.996613691990920758e-02,-7.893083507173685731e-02,-7.688754022603136451e-02,-8.166742066972546010e-02,-7.536543551222917026e-02,-6.794432922212639836e-02,-7.668218633255288741e-02,-6.406247352491373226e-02,-5.760370894462579078e-02,-4.224915296656672065e-02,-4.214304311923204593e-02,-2.227223927109692192e-02,-3.940912183366264421e-03,-4.521041555187031713e-03,-6.237233119888978966e-03,-6.247126555113975167e-03,-1.355017825069758028e-02,-1.369408352084142133e-02,-5.283157580258316353e-03,-9.044983709566148389e-03,-1.579128899168664654e-02,-1.144355873969899601e-02,-1.685709299827293020e-02,-2.594339104357869241e-02,-3.754473193199289738e-02,-4.226212587447809171e-02,-5.433486350679781612e-02,-5.423795032861643967e-02,-6.119999846546991112e-02,-7.132836362348637937e-02,-6.740823761741512876e-02,-6.296285996844087907e-02,-5.210085645514533903e-02,-3.777653658724178937e-02,-1.512309733818631256e-02,1.892239345576086570e-02,4.941322463962983386e-02,5.286699255811973946e-02,6.381994079955732868e-02,6.496798359872797690e-02,6.572553901348707206e-02,6.196737550948424461e-02,6.139914355968690424e-02,6.035988422843606427e-02,6.035988422843606427e-02,3.863169176450001463e-02,3.079163641237497168e-02,3.079163641237497168e-02,2.610814749546495547e-02,1.497781742975788123e-02,5.857769875858399346e-03,-1.182142012772365806e-03,6.063524534483980336e-03,6.063524534483980336e-03,7.237894413701477514e-03
3.905746779740518985e-03,4.163735021881239881e-03,2.991095822014600090e-03,-1.442064699289532376e-03,6.252910702049842284e-04,5.255063751009827165e-03,-5.727579000490171275e-03,1.265471880163255430e-03,9.891628584278444603e-04,9.891628584278444603e-04,-1.280833111854976121e-03,-3.707282250001614141e-03,-2.172299216933925615e-03,-3.757438982555260341e-03,-1.166250977642601175e-02,-1.691626290654258888e-02,-1.918080695195729587e-02,-1.546054135980677591e-02,-2.249924035654331245e-02,-2.271325730569530993e-02,-3.206263346035839734e-02,-3.529737237041157688e-02,-3.903710283723449415e-02,-3.838262568475585279e-02,-3.961627088449894141e-02,-5.956474129525652500e-02,-6.359618165749546248e-02,-6.412446235341388856e-02,-6.467520807445839570e-02,-5.782886206332324419e-02,-5.640062959333304315e-02,-5.944801372406573192e-02,-6.146193053242313131e-02,-5.268045855798959842e-02,-5.149840728181145216e-02,-4.039730198000762718e-02,-3.473594979665573651e-02,-3.191505334876551525e-02,-3.244002472236075935e-02,-2.667367762112125840e-02,-1.593728480807701103e-02,-4.505562983379982761e-03,7.423875470070200348e-04,-1.519899403886566455e-03,4.972431522375288238e-03,2.177047851970929232e-02,1.294964119371213966e-02,-9.605034497918602324e-03,-1.467313735503842330e-02,-3.080956476237364447e-02,-2.907259966535339496e-02,-3.543533477230072920e-02,-4.645312418634753998e-02,-4.645060570765636304e-02,-3.937609729746478077e-02,-3.170103693725099397e-02,-3.016333838014104846e-02,-4.320520297280624339e-02,-3.837067483208557450e-02,-3.578756002412854242e-02,-3.619929104558231026e-02,-3.086975770855845264e-02,-2.443691878532841533e-02,-1.499379112725605576e-02,-1.500372388577284749e-02,-1.348337914573592006e-02,-1.490640880208262548e-02,-3.024972002120439665e-02,-2.146467591431227076e-02,-1.756944509330267759e-02,-1.759759200012745578e-02,-2.397731562253774609e-02,-1.380649249456326888e-02,2.888238742423890164e-03,4.180350431392486181e-03,-9.745223397936132737e-03,-8.612410784759296639e-03,-1.809752234900728271e-02,-2.414061223127320077e-02,-2.483005028223431859e-02,-2.856052952760698704e-02,-3.201112214223415797e-02,-2.783451538374787787e-02,-2.570216803938579070e-02,-9.191030401232003558e-03,-7.169957933710674122e-04,-1.374553558006991021e-02,-1.365922831494578542e-02,-1.589703365011631980e-02,-1.454149311477666469e-02,-1.233713540193088695e-02,-9.455878098565687756e-03,-1.895577771278649654e-02,-5.390792380137781649e-03,-4.747453504723067163e-04,-2.057211553709347232e-03
2.424932403373256107e-03,-1.200143001886542007e-02,-1.277116543958983948e-02,-1.414435517707189442e-02,-1.578354486280251004e-02,-1.867109052171191802e-02,-2.064531031548833689e-02,-1.408297031959217238e-02,-2.583999876756554182e-02,-4.086285232002003637e-02,-3.749525510881523277e-02,-4.789856010630427763e-02,-4.489989228528605547e-02,-2.738021425394502467e-02,-2.655949414509778742e-02,-2.655949414509778742e-02,-4.145562024909931614e-02,-4.858381689984311164e-02,-5.340758299823716165e-02,-4.074897415405100837e-02,-5.632628110711848657e-02,-5.767079816723847535e-02,-6.096704679288836304e-02,-5.615064413934074683e-02,-5.781895815485207923e-02,-5.130071774480121638e-02,-5.429400688610974690e-02,-5.672008073831179970e-02,-5.400198659734460616e-02,-5.172880585776055279e-02,-5.141163829897502785e-02,-5.737609901289326270e-02,-4.963797034167282546e-02,-4.726121306353897600e-02,-4.997931556035727085e-02,-5.365746421342480754e-02,-5.131166361515659968e-02,-5.302379367519130526e-02,-3.734828735902360336e-02,-3.905912809023912025e-02,-4.747211690231946390e-02,-6.567279974127421260e-02,-7.444459416522755668e-02,-7.067622028171623161e-02,-7.912399920485191362e-02,-7.885579356775698767e-02,-8.499477346158153257e-02,-8.210170642149686171e-02,-7.957402608865818405e-02,-6.304481263230059251e-02,-5.498887310006619900e-02,-5.641378384393571505e-02,-6.259787266211049028e-02,-5.992971256065596219e-02,-6.303903944281784300e-02,-6.957049615095393935e-02,-6.613106593791734378e-02,-6.152032723969787925e-02,-5.849651537654488448e-02,-5.084990183530977564e-02,-4.574084843799590405e-02,-3.646609395022619438e-02,-3.204810163063274292e-02,-3.880657871052022034e-02,-1.043552417024711139e-02,-1.060187144687307383e-02,-1.208713120168635434e-02,-9.028239076984523326e-03,-1.087208865509557872e-02,-1.084195421877127107e-02,-1.234831879083608634e-02,-1.851035225784197075e-02,-3.000701466978477477e-02,-4.327408985266554403e-02,-5.031173391682124130e-02,-5.530465309508074412e-02,-5.354529198427823017e-02,-5.208859846638776853e-02,-4.942291884140160435e-02,-4.867671679456184869e-02,-5.089939447195669653e-02,-3.693565866257321473e-02,-3.920027754054084684e-02,-3.894194716241361487e-02,-2.669968772236654131e-02,-2.563283723950881415e-02,-2.445878160962199760e-02,-2.614710117652907853e-02,-2.028345233572470194e-02,-1.367236501648788974e-02,-1.113329350939530962e-02,-9.948860713518390547e-03,-9.263953696014470135e-03,-6.999334818046845826e-03,1.040750184450881443e-03,1.040750184450881443e-03
1.198234420059113205e-03,8.835683973978365399e-03,1.184362742162863198e-02,7.851922801888830405e-03,5.415184015208674567e-03,-3.449381375002938486e-03,-1.677553497914174765e-03,-4.635118847597390415e-03,-1.514505831955582742e-02,-1.949765875213681221e-02,-3.025843424422927988e-02,-4.107466398365872129e-02,-4.319165776365127551e-02,-4.715804574553613543e-02,-4.992359173422910440e-02,-4.380170163398808963e-02,-4.410456958658111326e-02,-4.873901532170308443e-02,-5.459400000913870038e-02,-6.104959981233333555e-02,-6.283719815907720663e-02,-6.302757363513027122e-02,-7.223030093897214732e-02,-7.516147776514546519e-02,-7.011787356015965200e-02,-7.814132703097892430e-02,-7.814132703097892430e-02,-8.221748482025603710e-02,-8.462608499864951450e-02,-8.495900333450884245e-02,-9.075030560713226446e-02,-9.219898078666424746e-02,-9.026855424397312033e-02,-9.247195265311172752e-02,-9.375435707746948566e-02,-9.041262606934293011e-02,-8.839408828260518491e-02,-1.029216480373360554e-01,-1.067426599648106100e-01,-9.549828717677098788e-02,-9.406890882198246095e-02,-9.818089094238358072e-02,-9.995411857223307495e-02,-9.642052419121388551e-02,-9.030687744012751150e-02,-7.416046650268910689e-02,-7.271763217780352617e-02,-6.521562379936175768e-02,-6.060151120057963303e-02,-6.027367985493255892e-02,-5.446870156427387893e-02,-4.587155008812927176e-02,-5.102250051724116497e-02,-3.912487606252823547e-02,-4.265004794079014366e-02,-5.284803612865244388e-02,-5.045398485781443787e-02,-5.584402272751228663e-02,-5.272328254034123335e-02,-5.134787273489755527e-02,-2.779849413351115350e-02,-2.576860859564699541e-02,-2.597491550496858204e-02,-2.455765185571204962e-02,-2.472851233976300356e-02,-2.520065741040562746e-02,-2.645329009582845364e-02,-2.472303163169834589e-02,-1.933957857671263214e-02,-1.620863420187439174e-02,-1.733174443924363761e-02,-9.938607599884409852e-03,-1.333061880509971327e-02,-1.063085380267700039e-02,-2.136981062656815450e-02,-2.958046116868085981e-02,-3.921231396770138988e-02,-3.814095564507458125e-02,-4.073919260761897643e-02,-4.559122028260480936e-02,-5.284391471358947795e-02,-5.713701958094664912e-02,-5.986023940411703409e-02,-5.963831909236256418e-02,-5.457856568549275533e-02,-5.637816016340869985e-02,-4.283297879772483829e-02,-4.358391399425391721e-02,-3.938780263211026644e-02,-2.524375672370013715e-02,-1.742235546773902508e-02,-9.281094150951133687e-03,-6.761271222789176985e-03,-6.761271222789176985e-03,-5.037235407312113875e-03,4.694893539828323215e-04
-3.311202801637872038e-03,-3.311202801637872038e-03,-2.742311894285769883e-03,2.081454204108274496e-03,2.081454204108274496e-03,2.081454204108274496e-03,-1.571520005753562852e-03,-1.403158547736743818e-04,-1.403158547736743818e-04,5.764288922103680095e-03,8.404137624829832731e-03,1.331615397181760453e-02,1.493172144736921308e-02,1.766267665612046567e-02,1.548464427848449121e-02,1.565916151040237098e-02,1.669878642135857322e-02,1.274323232934842717e-02,1.748741068614587113e-02,2.010949074367689160e-02,1.294164684502143760e-03,-4.461515202496399088e-04,-5.274341844728799161e-03,-1.038836022876686062e-02,-1.533427441852870492e-02,-1.419651843640109580e-02,-1.742941117431331260e-02,-1.155054146812833915e-02,-8.133057850365627700e-03,-1.158874990397869981e-02,-1.700089336100607182e-02,-2.182552176385206197e-02,-1.990725319988574313e-02,-2.228634568457707119e-02,-2.228634568457707119e-02,-2.827948475757219651e-02,-2.040696372352569440e-02,-1.787533894464920711e-02,-9.111389549584719000e-03,4.986884204561472383e-03,1.946636500014812740e-02,2.304305734308046208e-02,2.557653535015406293e-02,2.440237386251869339e-02,3.114749426983650163e-02,2.476861093500107996e-02,1.756377971126302229e-02,1.107935018244118192e-02,1.726276192931978926e-02,1.409138582257947990e-02,-5.580368289436593229e-03,-1.388130855108586116e-02,-1.510158276981966169e-02,-2.409620295998879044e-02,-1.805833489468161232e-02,-1.808847040476418630e-02,-9.612670370929617125e-03,-9.316622886367207160e-03,-1.385254856552038324e-02,-9.223530627483992467e-03,-7.247213439060025061e-03,-8.974507090458022640e-03,-4.817425807410966390e-03,-4.430737230171731197e-03,-6.423123379227176771e-03,-8.105447304058243860e-03,-1.903665793813307666e-02,-2.894096834387632766e-02,-2.743100856246191710e-02,-3.542575690107301056e-02,-4.944228725020428927e-02,-5.533820396627579796e-02,-5.222291559631261904e-02,-5.283212318979078892e-02,-5.509343167857555512e-02,-5.737788893042786165e-02,-5.375413379566576499e-02,-5.403390721261926849e-02,-3.981556979288267822e-02,-4.241681564740784616e-02,-3.944311700858361275e-02,-4.182725407494298359e-02,-2.954781959073663616e-02,-1.506039261459483393e-02,-8.697715023965004637e-04,1.794527383000443614e-03,6.322822436556858883e-03,8.971666660123545772e-03,1.300342317937223935e-02,6.437579249434293230e-03,6.437579249434293230e-03,6.230905316143810690e-04,-7.999024838102553265e-04,-7.999024838102553265e-04,-3.527456777545631608e-03,-3.527456777545631608e-03
-3.590636776895508343e-03,-4.978778724885338930e-03,2.844842145920596990e-03,-5.696198649846398454e-05,-5.696198649846398454e-05,6.686366681715107986e-03,1.285793213018169082e-02,1.937635189118963944e-02,2.875527163398169939e-02,3.251319380750980481e-02,3.133233534420726274e-02,3.534733856284782288e-02,3.479608886517315813e-02,2.382685523685426632e-02,2.826318051903398826e-02,2.462107468992252163e-02,2.778057641651339449e-02,2.933714844139388711e-02,4.530020483565275896e-02,5.235401742940687386e-02,4.185809238468628929e-02,5.654527885387165831e-02,6.171898695042165456e-02,6.606623481022080857e-02,6.323734008693836228e-02,5.939519036077336306e-02,6.101095951067234818e-02,5.096072453011912112e-02,4.834727531542592355e-02,4.184733727455360736e-02,3.616668178109514603e-02,3.058570381789190232e-02,2.171133787202820728e-02,1.989950417863005014e-02,1.260639159427209138e-02,-3.169157446201455695e-03,-7.097565311300699752e-03,-8.987650541782835414e-03,-9.765028378413625337e-03,-1.755106969042686052e-02,-2.025976997713282990e-02,-1.074528783300446322e-02,-2.057827229583486170e-02,-4.251928414012973168e-02,-5.032440870329473598e-02,-4.668888031860475574e-02,-5.948019709012360157e-02,-5.916911055614972048e-02,-6.359779577140121931e-02,-6.231275612765691668e-02,-6.380684548542023271e-02,-6.068014910274159568e-02,-7.006599652665695954e-02,-6.524058948329469754e-02,-7.116879501890238657e-02,-6.325225364930946170e-02,-5.004400891089388209e-02,-4.035773814653120795e-02,-4.693230012283852032e-02,-4.247280136376622300e-02,-2.958257071445507050e-02,-2.058319451232629160e-02,-2.518609779046264083e-02,-2.115312553458159259e-02,-7.647773501584272451e-03,-4.396962891776047891e-03,-4.731534885026029806e-03,-6.295945100826125934e-03,-6.934653100180709039e-03,-4.295880618551785497e-03,-6.780112848013401285e-03,-1.176465993394525296e-02,-1.608100633643125277e-02,-1.730981311675376319e-02,-7.904746805723748826e-03,-2.684464078556959669e-03,6.719725319465250871e-04,-1.310295928308973911e-04,-5.577948650635555956e-03,-6.265103712157593478e-03,-6.106216076817248123e-04,-3.546852817089904061e-03,1.672686907608213029e-04,4.429689941860038421e-03,5.033056763805805224e-03,3.086221742393537373e-03,5.554903869370643975e-03,3.464516540804363914e-03,-1.129065307676712943e-03,-4.440342839376602846e-03,-9.709140524997079448e-04,-2.057519802857838212e-03,-7.690721955106524441e-03,-8.762031411158367755e-03,-1.094868702318334795e-02,-6.955306943442552889e-03
