4.791517207456070897e-03,8.662784907233823939e-02,2.135889999623906063e-02,4.093301932396420373e-01,3.816521196962162632e-01,9.163792487518039598e-02,7.322576400274530273e-02,-1.280502325784350220e-02,-7.795915535967070688e-03,1.353825475409009375e-02
1.723875825361718614e-02,1.531876946906144676e-01,2.054883630014766593e-01,1.434940423403691274e-02,1.737190979467062857e-01,2.589481727629051044e-01,2.497371513138293142e-01,1.046387426168404605e-01,2.091184231667843341e-02,1.154863865367505849e-02
-2.754268373619513793e-02,-5.547891524406416142e-02,3.557020740153996052e-02,1.577492996679001266e-02,-1.662425276609593716e-01,3.158508446408186954e-02,5.491407459098352623e-02,-6.484323419949131195e-03,-1.882338027521180540e-02,-1.172517076105560226e-02
1.856750457061837056e-02,7.652836509207500137e-02,1.439727556989737756e-01,2.353778883632240138e-01,1.269491920009375718e-01,2.517059377748455118e-01,2.792335096691807017e-01,1.764230366719774790e-01,8.941365256799330141e-02,2.207298666816598712e-02
2.807851810538723389e-02,1.254118383659564850e-01,1.096268373251324396e-01,1.201977871309202056e-01,1.075166054846738856e-01,1.442767428576827715e-01,3.273069590205816559e-01,2.251304687812009930e-01,1.154737910269176826e-01,2.759120087235347046e-02
4.591948009558066354e-03,-9.241228121732532677e-03,-5.616612717142725059e-02,-7.903807188714374529e-03,-3.841843175325886095e-02,-1.146088099465458233e-02,-9.530392893491730633e-03,-1.602036944644673333e-02,-9.186000991943549590e-03,3.117139979296230587e-03
-7.807937290982614777e-03,-2.327391084826846770e-02,-2.025633575756771027e-02,-4.072697570997824666e-03,-2.661129239047685738e-02,-4.436661788703182008e-02,2.015488438422180246e-03,-2.944999819877111742e-03,-1.158679453736377596e-02,-6.550005977102338513e-03
-8.738160808374173180e-03,-1.541938154191226963e-02,-2.991432280472175811e-02,-4.966934572197236747e-02,-1.016572762298887343e-02,-1.405136424740346252e-02,-1.890187276273784869e-02,-5.126477352400004954e-03,-3.626633344885137576e-03,5.890531944637677174e-03
9.271227840662037145e-02,1.978476931511266301e-01,9.203589160974470773e-02,3.804794693404852657e-01,2.799537290690956581e-01,1.103458937948567642e-01,1.046524150217007475e-02,5.592907166227367721e-02,5.489405105514348626e-02,2.448159088362441421e-02
1.969423256089067580e-03,-1.635904736713032423e-02,-1.793159032787434298e-02,-1.703942174759310452e-02,-1.966903988463843123e-02,-3.561799619238800035e-02,-1.407283708415018458e-02,-1.111578104577082456e-02,-3.087112356184136888e-02,-5.056659814211192198e-03
5.877790738340074594e-02,6.867972128543942123e-02,1.207898171218600020e-01,-2.354811059355899766e-02,2.798405104599080984e-01,3.260802362201055127e-01,2.245284313656535913e-01,1.744456574060809229e-01,-1.711046801586487559e-02,2.044797402987321919e-02
1.455500407543027994e-02,-1.112342727723980157e-01,-2.754286529734009149e-03,-5.079494703556371171e-02,1.145053177167065783e-02,1.302598847258370010e-02,1.301886337572114027e-02,8.916954245905708495e-03,2.963735737769617254e-02,1.038770266301442327e-02
4.146441689284408798e-04,-1.480621734089008351e-02,-1.082538088516346413e-02,-4.104835171429961627e-02,-1.038099790786533791e-02,-5.844511830206756790e-03,-2.196091682100485745e-03,-1.053824431927585618e-02,-6.343075185600721526e-03,-1.604123419910693507e-03
8.225287002195016961e-02,2.095124298326924150e-01,9.113918873167627110e-02,1.808702525148870310e-01,2.965885042402928162e-01,2.254659033562143033e-01,1.527432289844009583e-01,-5.235386965171937024e-03,8.018899038333859863e-03,-1.118499504570266007e-03
5.489195056802064453e-03,3.259408963862293201e-02,2.455656895637437220e-01,7.387969014848959348e-02,5.175096130061199173e-02,2.578985981687174078e-01,3.384712961018770394e-01,1.647032442899598603e-01,6.117002861035038264e-02,1.806090608724205543e-02
3.767057043433004460e-03,-1.550002986972480457e-02,-2.194457167090544877e-02,-5.606773429287472549e-02,-4.518550292373466233e-03,-5.915193024168105031e-03,-2.816628429299469945e-03,6.522101422605278663e-03,2.123693795022701600e-03,3.665204167013459951e-03
-7.568963251827584993e-04,-5.902777094692903542e-02,-1.098366857691455978e-01,-7.713607511956099838e-02,4.719463745181500663e-02,3.842400586506911769e-02,6.866694846701806854e-02,-1.380860663295637629e-03,7.348929417166606519e-03,1.220186637568411274e-02
4.048046555596092333e-02,1.847838581278394288e-01,9.146840494457438020e-02,3.395361651285188631e-01,3.062803266950623327e-01,1.573959545458586684e-01,2.009080920869127720e-02,4.796890489150539005e-02,4.561640281689913895e-02,-5.873278889336005018e-03
1.710615748469948572e-02,8.707073778529893227e-02,1.643587534912713255e-01,4.557493254036027591e-02,5.971803863580442406e-02,2.373561821560529750e-01,3.343154287458172114e-01,2.303104175892152772e-01,5.029041937054386929e-02,1.342420898115814429e-02
2.661930073943540725e-02,-7.027782220839094707e-02,-2.296429265949953211e-02,3.431941388515760780e-03,-1.260051466431338311e-03,-1.170468794305936366e-01,3.494845234471730122e-02,5.254779042241168596e-02,1.276083088208509629e-03,-2.454040717387107051e-02
2.133636150443071061e-02,9.262999907500195362e-02,1.159998201509229443e-01,1.457897560113605717e-01,3.962285443234104809e-01,2.229616192627350557e-01,1.231985899531847090e-01,3.147177622658210716e-02,2.673661384064924748e-02,2.788580008413422615e-02
-3.405541149704399695e-03,1.038033218317973017e-01,2.750954047747212750e-01,4.184227459896587564e-02,2.284489478127547657e-01,2.895514833729047610e-01,1.536740420683188058e-01,1.032861259462272696e-01,3.993971468682503551e-02,1.194279789753715376e-02
2.556032300380198935e-02,1.599817345113137002e-01,1.284746952351985549e-01,1.530615105734712822e-01,4.264213467075660957e-01,2.255798590862656550e-01,7.358854377533817492e-02,1.847064925290602816e-02,-7.708689352125242499e-03,3.825429355810551491e-02
2.371021223070321482e-02,-1.163519208288086790e-02,-1.354238444104813310e-01,-5.794302392330220918e-04,2.178990306011432607e-02,6.935252917222485547e-02,3.630256649494344873e-02,5.828769921553157707e-02,2.776448239622660713e-02,2.909266559855208829e-03
2.655313103847907127e-02,1.177500913987942210e-01,1.745258410766504231e-01,2.792902505255975276e-01,1.255204824667771890e-01,6.991362746214555002e-02,1.535842757647617740e-01,2.833361153728500836e-01,1.001109024158273880e-01,3.957921620424463549e-02
6.740734915432060846e-03,-1.961506849308613035e-02,-3.783010728633197373e-02,-4.651661673225480909e-02,-1.246759905713443542e-02,-2.108178759030835542e-02,8.636455920321748844e-03,-1.302911143107374041e-02,-2.052149731442166891e-02,-3.081813568704417630e-04
-4.975071594410141081e-03,-3.674261903153885900e-02,-7.598138906298993259e-03,-1.832410864981656728e-02,-2.683166135808026653e-02,-5.886848008955923757e-03,3.312874610641150432e-04,8.514392559302039545e-03,-2.029078316674469071e-02,-3.277662892757524787e-02
-1.675261354170601985e-02,-1.389532332390464031e-02,-3.013762282310539220e-02,-3.759884605729330032e-02,3.433686917007821703e-03,-1.279041406709486087e-02,-1.514214250664741926e-02,-3.118892061052349826e-02,-3.104485031032231182e-03,1.568297803819390787e-03
7.828288274364190308e-03,-1.795285752144354374e-02,-8.495174924018344953e-02,-3.704923498634857260e-02,2.437109723494427019e-02,3.361997560292231957e-02,-1.247189124858932852e-02,-2.476794077166076091e-03,3.140954181666103656e-02,1.601711235777419917e-02
1.169650625740832096e-02,-3.509764093728030138e-02,-1.396247200026636687e-02,-2.521048397777928690e-02,-1.615584100043010105e-02,-2.461044369821893674e-02,1.681386516224670988e-02,-4.467341063706524451e-02,-3.085117254651590854e-02,-6.908030173400450148e-03
5.673464988068385728e-02,1.494881509971565103e-01,1.894482098801815728e-01,1.128986928798965672e-01,1.280170656292207998e-01,2.594083373931222458e-01,2.166391651130379070e-01,1.595523153870242183e-01,4.158515745613119985e-02,-3.295790573935266331e-03
1.606322513835572313e-02,7.450451705429889104e-02,4.515776829606764353e-02,4.050782876066791327e-01,3.657528045576083353e-01,1.167476624228335758e-01,4.764118444463084218e-02,1.616529073317209131e-02,2.661650675197514346e-02,-8.366348015236038356e-04
-4.940523988739032972e-03,-9.411584424145971739e-02,-5.745681826006530414e-03,-3.004652606757734351e-02,-2.799692854968718198e-02,-8.651401046922430754e-03,5.841029209433384883e-03,1.852808240579018788e-03,3.793995248662169507e-03,-1.798582814162261873e-02
3.272639749666270397e-03,-1.723129290879375775e-02,-2.273439915862115329e-02,-3.428643425500449426e-02,-9.165386110598747194e-02,-1.722067613349632584e-02,4.055057015823111850e-03,-2.355557180320138905e-03,1.686028327784500416e-02,2.335062220002747085e-03
6.223454067347498030e-03,-3.498718063601752304e-02,3.126206266100436948e-02,1.292426171181873806e-01,4.305823882545138370e-01,3.568923121860665959e-01,1.900620642689255513e-01,1.452756151614374887e-02,-1.170361553872804015e-02,9.008091768812800503e-04
1.172854163129483270e-02,-4.154037031708388006e-02,-8.751221979600086465e-02,-8.811339418112452970e-02,-9.453864976106214277e-03,5.464032181023349699e-02,3.749794872893377068e-02,-2.524472362845503123e-02,2.139564803898457226e-02,5.885997683315822562e-04
-7.158585867592680285e-02,-1.013417408822868682e-01,-1.763908061682425629e-02,-3.130668266554510054e-02,2.386388941646559042e-02,-1.373763204844148482e-02,-3.139544228230596590e-02,4.132956609626489176e-03,2.578143071515768409e-02,1.391825713670159781e-02
9.233310454690510719e-03,-1.878620680781255617e-02,-6.633954561973905151e-02,-8.255067313763427006e-02,-4.105369745120158315e-02,2.172233408648195641e-02,2.376283166574958555e-02,-4.072551136964800388e-03,-4.077351958383868685e-03,1.181390756240384074e-02
6.220832272569229264e-03,-1.866253259629636202e-02,-4.941428946149797191e-02,-1.152425222746651830e-02,-3.977284496605968528e-02,7.460251178838803350e-03,1.751116966286394780e-02,7.839077701466096865e-03,-2.815387008842876876e-02,-8.169576903853768965e-04
2.613227976069505340e-02,-4.761316339854750057e-02,-4.955989704531769957e-02,-9.419739420933794655e-03,-3.219110790496126223e-02,1.001031482298635547e-02,2.886625045498963232e-02,-2.103249488411697548e-03,-2.062788455533477033e-02,-8.802167806380475912e-03
3.108340554432561381e-02,4.463391789280203581e-02,6.206643099870155084e-02,2.574617521730125924e-01,3.092202342601239606e-01,3.846129846326012403e-01,4.761914295819508897e-02,3.557065958240199915e-02,-4.994751221486649906e-02,-9.698460836472144048e-03
1.502698686191510265e-02,1.368488170418743089e-03,7.503030071019900493e-02,2.030813490124154796e-01,1.880770458953186230e-01,1.691411410763057344e-01,4.078538466166513610e-01,2.446442039839107629e-01,1.257004982986929253e-01,3.733264015220559562e-02
6.430127412392175335e-02,6.884957559308407804e-02,1.400649785582881376e-02,-1.032475974861206056e-02,3.876132402967971124e-01,4.011257398838826704e-01,6.238316059007468356e-02,-1.086181687864814366e-02,-5.189176381106430647e-02,5.162484783536536170e-03
2.539710191458514205e-02,5.020307043263999569e-02,2.564302723297667841e-02,1.243316443019388401e-01,4.615765703150433996e-01,3.483048171458584252e-01,1.515214566237601534e-01,1.842986950589543815e-02,1.408361169439551266e-02,-2.077276858419608262e-03
4.158402752453538992e-02,2.027147499126273969e-02,1.792845885972396691e-01,2.193676369685847172e-01,1.005079250500114374e-01,1.573245506969588592e-01,3.112089729586500764e-01,2.249030744972676243e-01,6.686785580849051447e-02,-2.056530653042463411e-03
-5.563741729544260245e-02,-3.061669722791737422e-02,-3.176492631341810979e-02,-4.604129824858991388e-02,-3.721834018611697853e-02,-2.252634331571356369e-02,1.215931213458240449e-02,4.854538994336156203e-03,-1.767158730163524705e-02,-1.087309644893436240e-02
8.988787515868752742e-02,4.740114058240413319e-02,2.022683445462271357e-01,3.608463913531080314e-01,2.497520500973075264e-01,1.018679123779087092e-01,6.151823268976003289e-02,7.350510216207488401e-02,6.458651237317158955e-02,5.265578558185873143e-02
6.320130622921719607e-03,-3.940755316983059371e-03,-5.732624405353721475e-02,1.492943141816834886e-02,-4.160462574522755252e-02,-1.604266153074763307e-02,-1.448574470068983953e-02,-3.160648064279585751e-02,-4.181251435049674432e-04,9.093879071804161817e-04
-3.035133262222084599e-02,-1.281457942323548614e-02,-3.354098387928352437e-02,-5.591913849693276595e-02,-4.104815212498948932e-04,3.767042270181381047e-02,3.357609614296730438e-02,1.880513911371981678e-02,-3.699522244656651936e-03,2.212701608954596375e-02
7.447812106126558418e-02,9.357784157033866013e-02,1.393557227412894062e-01,4.442810131789627359e-01,2.833409711076197435e-01,9.228660412821095005e-02,2.653641837291436517e-02,2.753909963522210153e-02,4.061117020687489421e-02,1.526482009325867174e-02
-1.187339511912509707e-02,-2.866475565326461264e-02,-2.011852358745987862e-02,-4.496662605624743986e-02,-1.635303944413768126e-02,1.232013610164881326e-02,8.317387151701960760e-03,4.843137515044693489e-03,-2.539732278098470394e-02,-4.168512241176138174e-03
-4.519697188017754441e-02,-2.865497183565352685e-02,-2.236312201789533716e-03,-9.817351672249391425e-02,1.350749450096990628e-02,3.365151415059312867e-02,1.191273021405723533e-02,7.419189737742986571e-04,-1.427271327456671422e-02,9.479089841692194679e-03
1.492976367321673103e-03,-3.235974818444640327e-02,-2.141886464254550912e-02,-8.034303871462775137e-02,-3.665786813842314418e-02,1.924573933335457093e-02,-2.658607630979937901e-03,4.664465485053810936e-03,1.603925373991708578e-02,-6.989794260026747225e-03
-1.485225533232210557e-02,-8.369581080426923003e-02,-2.737259284885740565e-02,-2.573813426737072557e-02,-2.443858271740169136e-03,-5.388963149747794112e-02,1.404961091407867096e-02,1.554356480205585159e-03,1.018087843597751188e-02,-2.295703311440324204e-02
1.541084956150067485e-02,1.031611455928230225e-01,1.476519813937870497e-02,3.710519848819978095e-01,3.654812257376798823e-01,2.512050355328599993e-01,4.724455381345456922e-02,3.210653631388260629e-03,1.488218326946139439e-02,5.241186285370760985e-03
-6.060303634265093962e-03,-2.906609324843043712e-02,-2.171355678385139890e-02,-1.014888609312922761e-02,-2.627646654719726152e-02,-3.998378665883250971e-02,-1.798250652220214491e-02,1.361255958684450852e-02,-5.967056305661900401e-03,-1.014125422448758189e-02
-7.351771365222935228e-03,-1.912264756403717070e-02,-5.472232739462063594e-02,-1.361265099283444184e-02,-1.702009672050718014e-02,-1.645541383946406977e-02,-1.005745470401920617e-02,2.423575762546367057e-02,-9.870720695409170714e-03,1.089426978060191627e-02
-2.773842676289605888e-02,-1.037232449317745248e-02,-4.088922360484897184e-02,-4.413474714517240383e-02,1.454086685668676097e-02,-2.523978075407842803e-03,-1.130583481175351582e-02,-1.669947029852770701e-02,-3.988236386804983047e-02,-3.437357825208351130e-03
-1.107980573907398937e-02,-2.213308020126350528e-02,-8.629410640078777339e-02,-1.950921390963805679e-02,-3.333415779346645541e-02,-1.917196430052337322e-02,-1.099394898171422892e-02,2.087314834572449526e-02,3.400928153414999738e-02,-9.651288513029118374e-03
-1.892677558339046599e-03,-2.401530932402983973e-02,-1.567102425827717263e-02,-1.395320212738824714e-02,-4.462736687301075561e-02,-4.431521184721290245e-03,1.027746333014808826e-02,-8.794784183261156185e-03,-2.616281255817837215e-02,-9.602593080515021496e-04
-2.018535734228952064e-02,5.718707111297520462e-02,6.641889351405159958e-02,3.292062306087061296e-01,7.762820461464155219e-02,4.507440487397046391e-02,3.107933631740029679e-01,2.661002316373946575e-01,1.270366335252668955e-01,6.188675133049667543e-02
-4.952919986130208813e-03,-1.928125260698968294e-02,-6.336438720005811709e-02,9.426118666434828153e-03,-2.528676494556416493e-02,-4.717319862982568418e-02,-8.219884548866731797e-03,9.959389313245279457e-03,-1.891793469684761170e-02,-1.770289145379584650e-02
-1.364582153065729310e-02,-1.288482584554691973e-02,-3.116807185047073755e-02,-7.458833604829098740e-02,-1.631019806141934675e-02,3.601326306614199921e-03,-9.662357550722908139e-03,-3.572699829503550844e-03,-8.995954906213913388e-03,-3.438477136618829969e-04
-3.297000022758884291e-02,-1.161977068805314511e-01,-5.653905335627893575e-02,1.230339180700584963e-02,1.086976975712114534e-04,-4.289905135240204559e-02,2.375350598006052347e-02,5.205588850340564511e-02,-2.213902817622596594e-02,-1.596427064803944418e-02
8.623386850034133605e-03,-8.745855608815069834e-03,-3.276461074299789195e-02,-4.715189575357430635e-02,-4.011939078376668133e-02,-1.861856529775563970e-02,2.303960439658317861e-03,2.600121400162818536e-02,2.532597778091295188e-02,1.487533389804020743e-03
-1.487899795287585814e-01,-7.564900941234763143e-02,-3.304007373815535248e-02,9.697114903267654851e-03,-7.913776738831283450e-03,1.900487317892822058e-03,-3.726697739068394327e-02,-1.328820042133128237e-02,2.497553500601004325e-02,-3.250960130311196083e-03
-9.544075672412092107e-03,-3.223406770215926642e-02,-4.746418196103625170e-02,-9.166595092531324221e-03,-8.258723020780458016e-03,-4.300337669699427073e-02,-9.898138480268360573e-03,-7.177313940316024099e-03,-1.543866217202470061e-02,-1.125594866344684607e-02
1.331802325171282594e-02,-1.363499942529497640e-02,-1.476415625379126628e-02,-9.918706295408469611e-03,-5.721537268283889005e-02,-2.533579019550152508e-02,-2.523952394043466399e-02,-2.677299566829067709e-02,-1.493436159730668865e-02,-4.155766008573080587e-03
1.616850158457068878e-02,7.939929690186282862e-02,1.421201314012098815e-01,2.438558392312517864e-01,4.589118887997994944e-02,3.502061518341520463e-02,2.475907749015875958e-01,3.272261471199773841e-01,1.234131673964194154e-01,2.261143249136586889e-02
1.743899107252001694e-03,-7.126373101132676968e-02,-3.420555559385995981e-02,2.192670971919254141e-02,2.472675717665774597e-02,1.026244258564536910e-01,8.453231257412617550e-03,-2.786896257575458349e-02,-1.471754760892541626e-02,2.945004190969375060e-02
-4.476781588727238824e-03,3.623616215217162484e-02,1.260199353511080311e-01,3.150149815804721976e-01,2.920023405598214453e-02,4.021114179068847050e-01,2.669450938104055426e-01,1.441327103131241349e-01,3.610449323913668407e-02,4.423256033084552868e-02
4.775391914750052973e-03,-7.328137380004862839e-03,-2.696190698032749009e-02,-1.415372860374487438e-02,-2.954112017511234534e-02,-1.888694667355239609e-02,-1.686987204275445726e-02,-3.417583145828387205e-03,-2.353415905683708259e-02,-2.741531456697146422e-03
-1.347642096619276406e-02,-1.906193058229921355e-02,-1.746265770895616062e-02,-2.828297548646913767e-02,-7.444538422522105348e-02,1.089368628165587015e-02,1.588981316651578990e-02,1.002065028599579202e-02,-2.033943699955781045e-02,-1.472139207127897212e-02
-7.580613413003722302e-03,-2.394361948154245107e-02,-3.044340788054415714e-02,-2.169197395776509621e-02,-3.206286270794725390e-02,-4.049612073902458115e-03,3.120198492838410840e-04,-1.372982413965842530e-02,-5.038800453496036259e-03,7.430205600046462661e-03
3.622218727278277151e-02,8.077680204930250130e-02,1.663398748139474290e-02,2.935249790399481751e-01,3.517924291152732530e-01,2.713077928025536822e-01,1.232765049205390880e-02,4.955958049224533368e-02,4.170115711009140733e-04,-1.535300259914785907e-02
1.017694242219444219e-02,1.653541430798871961e-02,1.980911191612499123e-01,2.790270818752975668e-01,3.534834843381623459e-02,3.562767810846928507e-01,2.129064926398819002e-01,1.457137654379071501e-01,3.531966732757440414e-02,2.853082128790597125e-02
8.919465950864124970e-03,7.770408914361277841e-02,1.672738363539280348e-01,1.197419469477403603e-01,7.892693084948095017e-02,3.789067670649283182e-01,3.851916115955766329e-01,1.307675138879476062e-01,-1.192631375593888876e-02,2.044616883803544033e-02
5.552785860503112181e-02,9.662173337705118326e-02,1.806322179243643744e-01,3.705058268038479707e-01,2.979150933367265552e-01,1.084396227421200870e-01,2.524756644040473952e-02,9.524071280791386943e-03,1.286572430961999657e-02,1.572750909611096357e-02
3.891783175993124289e-02,-2.049414697922221848e-02,-7.254939056353892912e-02,-1.199396340216889872e-01,8.625850500786362909e-03,7.113873741160765818e-02,5.791238411557824046e-03,-1.208229729647216331e-02,1.194876011595774785e-02,6.552029514122737451e-03
3.855879368848551259e-02,1.213364367919517323e-01,1.396866554349249501e-01,1.096380264484337341e-01,2.560408847713508407e-01,3.098667799768255460e-01,2.016974833142816392e-01,3.500861653208878210e-02,5.159750368041645524e-02,2.714370511645827766e-02
-1.441216558999231304e-02,-6.326188425958605144e-02,-1.275489037634660976e-02,-1.436971720583145936e-04,-3.123404865755011542e-02,-4.691770418278409793e-02,2.496305041427260979e-02,-1.007914060503473964e-02,-1.590733202470667393e-02,-1.087057379394893754e-02
-1.332929300619407030e-02,-2.751520251699868594e-02,-2.490690164312361204e-02,-1.342154346878564504e-02,-2.282859552996885366e-02,-2.463208337455720376e-02,-4.085719875511009853e-03,-1.245230815260752952e-02,-4.944939678167999380e-04,2.115305815550262356e-03
-1.749518411468384965e-02,-1.990284955265299999e-02,-2.821531489751577179e-02,-6.911353833361774841e-03,-2.739201840798576731e-02,-3.457619757003801281e-02,-5.782936203964374883e-02,8.016293997651051037e-03,-1.052217252893522005e-02,1.681293682463517710e-03
-4.347390950938016807e-02,-5.381798614340700670e-02,-9.252846619877307111e-02,-3.732071177638388026e-02,4.025013751812525631e-02,-1.743102220236847702e-02,-2.376596246462830270e-02,2.096059542638186238e-02,-1.144674348036144214e-02,-6.241778629564928745e-03
2.075632722423826487e-02,-8.699789924054204121e-03,-5.981621614178606744e-02,-5.168230421949834841e-02,2.527791327637249948e-03,9.459893587330547512e-03,6.209812188314170998e-03,-3.833929571179661862e-04,3.477285489013157756e-03,9.632517914165746736e-03
-1.229223007648797342e-02,-2.489835758424502679e-02,-5.045799701957288420e-03,-2.256297393887740296e-02,-3.003277519601055962e-02,1.041433506695362866e-02,-1.016494604764518403e-02,-5.816496156440972799e-04,-2.776981230222024324e-02,-7.098974975673527296e-03
-1.456387285262073297e-02,-5.912999206607290684e-03,-2.344391370202926830e-02,-6.894563967528433146e-02,1.908755470315850328e-04,2.159910424331249260e-02,5.274353341377124339e-03,-2.799552104115311801e-02,-2.290469137652214812e-02,-3.881492768038050101e-03
-2.861961022131456756e-02,-6.494944761421438117e-02,-1.400780910074896773e-02,-1.074378230362724729e-01,-1.325372211723661042e-01,5.664411635939557016e-02,6.406363783892224384e-02,4.060492803797456293e-03,-1.543726962446327448e-02,-5.971739190461939755e-05
-1.330268985650506601e-02,-1.415829064211260833e-02,-2.206458108630067472e-02,-2.098904342061275879e-02,-3.243957567324114166e-02,1.488425845246620430e-02,-3.430787571749151308e-03,-1.270711740478777489e-02,5.942566331035813165e-04,6.105278972692640199e-04
4.964440985841937250e-03,-3.749417976539406311e-02,2.015252670758345063e-03,-3.370454370895464846e-02,-1.059983367343008270e-01,4.799660624447860124e-02,1.887685181392844899e-02,-2.017685898476322473e-02,7.670837314200146598e-03,4.705732141297321730e-03
1.711098174777164402e-03,-8.453478827829151096e-03,-3.515081009472108275e-02,-2.577146552749169303e-02,-3.664689364344815570e-02,4.198254334961330596e-03,-1.907267398249631873e-02,-3.019608547725053174e-02,4.607508609274025939e-03,1.524117475673349847e-03
-2.173056708423317177e-02,-2.472487469355757334e-02,-1.656377549281114192e-02,-4.015460379814019681e-02,-5.563550891644421931e-03,-5.027947352899667099e-02,-1.147663417853623906e-02,5.901254816867864891e-03,-6.181101038371893813e-03,-1.872175751623046799e-03
-1.589020364177991598e-02,1.257928850657265285e-01,2.229338657073625940e-01,3.471671252662870272e-02,1.324140201570201125e-01,3.777366321375756897e-01,2.835595946110280319e-01,9.472148200700097886e-02,1.121842373886648009e-02,-2.787215208735200137e-03
5.434045380261921104e-02,1.891334867660016683e-01,1.564647664425143636e-01,1.861345289477258913e-01,4.284431892889745686e-01,1.490434180820938426e-01,1.626589077304891606e-01,-1.462925289073538446e-03,-5.527220005310106744e-03,-1.406628239082902826e-03
3.202989980579333713e-03,-1.824928875370701031e-01,3.324376798032782632e-02,6.691221439716907304e-02,-3.463111694582718392e-02,-9.524702272211749143e-02,7.514372234989942501e-02,2.270324459370730991e-02,2.470459177056741600e-03,1.081728306589732971e-02
6.831743187653008254e-02,8.887104278003779556e-02,2.891716002293902021e-01,3.533728743240205361e-01,2.156778206164376155e-01,9.176162740462527612e-02,4.601189414668657024e-02,7.330619808863796279e-03,3.189446799773779789e-02,-2.637762634478059160e-03
5.705326572125223213e-03,-1.168973770687139688e-02,-2.738625238567391623e-02,-7.769538034758750010e-03,-6.151191308199775720e-02,-1.491887944604640285e-03,4.536912031643897288e-03,-2.034737597053363004e-02,-2.546963857241642953e-02,-5.581853514311015986e-03
6.879459426929123225e-03,-3.325054171657515489e-02,5.974849089811017089e-03,-1.470197772319618672e-02,-5.866593352685640222e-02,-2.279972535543710321e-02,3.972170077724459375e-04,-2.906936770510284637e-02,-7.632409735483051787e-03,-1.122600784504793232e-03
1.774015986493067409e-02,-7.183887897151722268e-02,-5.337649948308936104e-02,2.146126350923801065e-02,1.456706713592209948e-02,-3.727450933817205714e-02,-6.856054661353474904e-04,-1.266582887416148155e-02,-2.464861318491781347e-02,-7.989128584562460791e-03
-6.884221928046295458e-03,-1.291488670015568559e-02,-1.182554819009919850e-02,-6.504576868876313367e-02,-7.896242854797865668e-03,4.872192721896252861e-03,7.512808214726676703e-03,-3.225290180653878763e-02,-9.891247341966122666e-03,-7.750422854878438739e-03
7.130709468004345353e-02,8.764273788190012765e-03,1.444508224342314906e-01,3.254692911347892292e-01,2.645538485699998055e-01,1.406647597327477794e-01,7.377154366114378747e-02,6.398230696356406455e-02,4.234123451665412069e-02,6.156612002983524561e-03
9.029108825981074782e-02,7.394090077967593877e-02,1.524509988650509240e-01,4.291122431137392446e-01,2.307719367802941179e-01,1.063088946169749027e-01,6.740644694204044052e-02,4.309311125350788474e-02,4.670966471886305038e-02,4.380382813674258010e-04
-6.007758986799495611e-03,2.274694600374588867e-03,-8.671878303136215660e-02,3.042076852851058767e-03,1.297774187585975895e-02,4.917280628539025950e-02,2.888358650517454385e-02,-5.936158375738006220e-03,1.537223658658143366e-02,9.158386366272617402e-03
-7.023152162804031928e-03,-2.413078786641559628e-02,-2.409386767045341646e-02,-5.607567008868349911e-02,-4.492750713808582120e-04,-5.143012691557473370e-03,-1.386450506774213227e-02,-1.907643542756528449e-02,-1.323467774528559564e-02,-1.371725860955960675e-03
4.472067614265033686e-02,-4.818885327373080216e-03,1.974840636083775025e-01,1.585028544626345959e-01,1.903679762736220638e-01,3.640542667524796494e-01,1.629973204520408225e-01,9.703204764094928991e-02,5.344114661219755841e-02,1.938203052690799788e-02
-2.588133687344180544e-03,-3.280912382400952287e-02,-8.758733805266104289e-02,-4.223768369977868448e-02,9.231163239367521159e-03,2.081976707994013034e-02,4.349136656514682869e-03,-5.933318530865674262e-02,1.874814193267600529e-02,8.783003546164493136e-03
1.255022601558527899e-02,-1.424945818400854582e-02,-6.550090581925363531e-02,-4.999536147614378617e-02,-3.128923503402476769e-02,6.024814904814117592e-05,2.740266357760925628e-02,-2.115707637131132232e-02,-7.402133428578029813e-03,-6.546592478694733541e-04
1.502912867924275113e-03,-2.142055800426676676e-02,-1.580330312981334528e-02,-1.670415831790477562e-02,-3.295071289834102662e-02,-1.712465030915692743e-02,-1.121528878402726012e-02,-1.308708149002765081e-02,-1.121562521191944543e-02,4.617474991417511881e-04
-1.893578054188673875e-03,1.887898968341820624e-02,-1.797513925358784070e-01,2.206719157469510736e-02,2.407579590721990737e-02,1.990556104498706833e-02,3.840630179365715768e-02,-8.374394985883805431e-03,5.933657377053459803e-02,2.244269394701879639e-02
-5.149953919209296349e-02,-7.576508489247894829e-02,-3.366804905877946591e-02,3.255386541666408645e-02,-8.133740182838231081e-03,-4.133415806229995618e-03,-1.954820475636048077e-02,9.788975947243700251e-03,-3.016856247969758667e-02,-1.002119513171775313e-02
-6.172061804111486985e-03,-2.087114001643216449e-02,-3.871143016203031084e-02,-1.725180253242310224e-02,-1.319704068901681078e-02,2.721643518155959698e-03,7.514415500680994044e-03,-3.700341048501164243e-02,-8.446319766092031051e-04,1.867517967658935798e-03
-2.086347288467062591e-02,-1.035630558569009957e-01,1.396948292418971095e-02,2.186767373571967335e-02,-5.381013437702233254e-02,-1.443979172611822045e-04,1.710537892927253834e-02,6.525335956579429546e-04,2.453646403173431571e-03,8.492365469408036729e-03
2.454736934622715402e-02,-1.504494240121767024e-01,-1.834155924291206580e-02,6.599819203387644051e-02,4.712781387209127870e-02,-3.172842137995571243e-02,1.323287744393106605e-02,-3.991009307913546966e-02,2.086506929202381136e-02,-3.341959164371915286e-02
-6.808833289093713624e-03,-1.594761108013396933e-02,-2.018576935859664120e-02,-3.602105128088596564e-02,-4.768613321639975783e-02,-3.420296467725527658e-04,-2.245468660665374868e-03,-3.182870215009353521e-02,-8.350763978720863664e-03,-1.261175468105732141e-03
-8.592107689835485479e-03,-2.891997831041193817e-02,-4.208320213936368043e-02,-2.774049637137144739e-02,-1.245670927147542531e-02,-4.985859487323311516e-03,2.113839559507930954e-02,-3.024295122150983881e-02,-2.245571639274614867e-02,-4.568953218676521065e-03
4.515805892640081982e-03,-1.774869806012157464e-02,-9.017398580876103548e-03,-5.348381933526261817e-02,-2.718822971414588605e-02,-5.526798551704301468e-03,-3.776006511494170957e-03,-1.757425036190680273e-02,-1.051640788318128697e-02,3.663994408620844471e-03
5.608950966524463289e-02,-1.231181482699588228e-02,9.040970730747571737e-02,4.186315694734227821e-01,3.377714010574330294e-01,1.410282697662862961e-01,6.166475803370632253e-02,1.768744847575122459e-02,3.237624264254077705e-02,1.999766623893522305e-02
-2.963115576124583650e-02,-5.519624292486328271e-02,-5.797564952719690134e-02,2.480241917353845360e-02,3.916249654771176980e-02,-8.268065899414049624e-02,2.734447655802952400e-03,5.551077000403482550e-03,-6.849392229091303373e-03,-1.095287719004843258e-04
4.025475462851171166e-02,1.677324170054466379e-01,6.099232028116855636e-02,2.061190425199716791e-01,2.865401474317423314e-01,1.993920268343998548e-01,1.514770161769763701e-01,7.809803903122983226e-02,-4.688778476841772881e-03,4.044059357433437557e-02
-8.663429742055027069e-03,-1.378736006275146572e-02,-6.073516885945364104e-03,-8.590838220581954732e-02,1.627753082645819541e-02,8.981964422020561126e-03,-1.562282714189650382e-02,1.551667454824069746e-03,-2.195936803524793299e-02,-1.749184300067203705e-03
-6.741031756551500893e-03,-2.269418837897612187e-02,-2.749883738085346155e-02,-4.246267716521806568e-02,-3.445420276600588694e-02,-2.764841068958822853e-02,3.382949919910509858e-03,1.610799720731193735e-02,3.109811079975345876e-03,-1.626703910894483011e-04
2.500947619440731587e-02,2.446428024690334643e-02,-6.248548169067140445e-02,-1.346699315073461856e-01,-2.160728369423629489e-02,2.104127505023261138e-02,1.593357254404002485e-02,1.670146099057700714e-02,1.809085740342007004e-02,8.769201899304189182e-03
-2.652715163821692951e-02,-2.786688760039013682e-02,-5.070104059209676328e-02,-1.343950000697490032e-03,-7.010140591372200636e-02,5.404482135712602997e-03,1.184887884632036641e-02,-3.978652810201462400e-03,-2.570283039322646471e-02,-4.673980449352107061e-03
4.773991552110207898e-02,2.671503952714444213e-02,-1.770340083114368690e-01,-2.202640758717469213e-02,-1.540350802885005928e-02,6.133198747217200736e-02,6.614424827086225200e-02,-1.999608484697662503e-02,3.014542910222698519e-02,1.582555905427792189e-02
6.191597881516259800e-04,3.243434649788788648e-02,-5.486418980200922016e-03,5.593959148764709316e-02,3.073444251296522656e-01,4.273982329666402569e-01,2.408861499319286670e-01,6.632492343421905745e-02,-2.154684982524968789e-02,-2.333773349736680339e-02
3.291899161809561884e-03,-1.584082066642979181e-02,-1.897342093904771237e-02,-7.456632490632768284e-03,-4.659829051310849374e-02,-3.894548073476884580e-03,-1.344623770477835698e-02,-1.889788652542034528e-02,-7.578261128407495772e-03,-1.436432093718281256e-03
-1.250131729529069535e-01,-1.217449321592197070e-01,-1.338177915545384240e-02,-4.305422921989039003e-02,4.087329075721313904e-02,9.244614010381227084e-03,-1.582296426041149978e-02,-1.708265557545549096e-02,1.235128022106096041e-02,-1.381702167029514976e-02
-7.722495500782222341e-03,-1.231195963651494085e-01,1.491122793129060452e-02,-4.615561303283031991e-02,-1.904921996729994765e-02,3.193668333475203902e-02,4.515303986031391111e-03,-1.426567432431907929e-02,-2.794137195748419913e-02,-6.409919759094608385e-03
7.448067458399060259e-02,-3.117056308965735368e-03,9.960007926820721447e-02,3.459470327848984672e-01,3.612295773377307007e-01,7.059219426966494015e-02,1.495731834619044853e-01,7.012975584173566923e-02,1.791438773616231203e-02,-5.589644849940443062e-03
-6.238815631327392260e-03,-2.685155623393310417e-02,-3.179918328837447877e-02,-1.385124784104850917e-02,-2.446842292601379698e-02,-9.980252384511939870e-03,-2.279693009252903996e-02,-6.448842255777597655e-03,-1.149308880188591557e-02,-3.185269084457733463e-03
1.633237421346077009e-02,-2.571525515889818217e-02,-2.339048530766818512e-02,-3.663880411060183029e-02,-7.491888805208804514e-02,2.453491848950454385e-02,-5.027968639946764698e-03,-2.394572649187596061e-02,9.348536908622251396e-03,-4.043397274305403702e-03
-2.676490988668726173e-02,-1.031633474355071606e-01,3.864629021121431061e-03,-3.599772238679033870e-02,-1.260789771109486861e-02,-2.629297894869875654e-02,-3.282635056973140508e-03,1.708108284405755392e-02,-2.554313321002847637e-02,-1.763727627402766202e-02
1.415966099443190240e-02,-6.191168319466001241e-02,-8.368005865025581955e-03,-3.898752873116114598e-02,-1.202843690841323282e-01,1.750650356052392553e-02,4.397895060514596388e-02,4.208798818578755180e-02,-1.973386884216434337e-02,-1.306231269776818131e-02
1.060219415157777345e-03,-1.455528177582723209e-02,-9.088921006847173675e-03,-2.006786262513670857e-02,-4.173129808052961076e-02,-5.262058936524856376e-04,-7.226260339863443787e-03,-2.017179724030711274e-02,-1.923598647603588785e-02,-3.124064567238653799e-03
-4.304314374660822388e-03,-1.157238190777241070e-02,-1.343390707878765709e-02,-3.296606009005780685e-02,-1.949538090074835056e-02,-6.311800640655663291e-03,-6.267362078069817384e-03,-1.551660242160978441e-02,-1.050756177357589118e-02,-6.075748041199020497e-03
2.139653757291866843e-03,5.292625678572209641e-02,9.391090071721656940e-02,1.562510842660957966e-01,2.126409191977062796e-01,3.925894008501295412e-02,2.149902169408606234e-01,3.577948342097809209e-01,2.070116507782124027e-01,7.460384786354856690e-02
2.102169492684068802e-02,9.138461282133718278e-02,2.703035240108064285e-01,5.984578968457448384e-02,3.505882849160378845e-01,2.639409243884756062e-01,1.084450782870267915e-01,3.873634045420512595e-02,1.267342549090713817e-02,9.821574214893061261e-03
-3.223702390542374646e-02,2.531453550601583773e-03,4.586731591252143740e-03,-9.442761777334270079e-02,-9.155492889089344999e-03,1.932009752375646316e-02,-9.710579385622445867e-03,1.064420336896468831e-02,9.464301953652240126e-03,6.585055911838750588e-03
-1.387997790603741951e-03,-1.615952007597519849e-02,-4.044321846702595563e-02,-3.074268883379134565e-02,-8.859023707196197323e-05,1.225787785832529314e-02,-1.038648949698267945e-02,-9.728335507227727982e-03,3.133572980168483624e-02,1.899377210092932297e-02
-3.317325061810008635e-02,-2.121496109286831813e-02,-4.778318612257876491e-02,-7.801494789374154547e-03,-8.799035916217094744e-02,-6.614648650834757497e-03,3.547951154698923693e-02,-2.820532971028845599e-03,4.783577582461966474e-03,1.020567550749279864e-02
4.436236889309944781e-02,8.623886249077974964e-02,5.637561399791474193e-02,3.878868382986510044e-01,2.702933450718097985e-01,2.833980220396575822e-01,1.163265266666998858e-02,1.623526305458636992e-02,-9.191982951860558707e-03,-9.561686438604014016e-03
-5.557617956294198802e-02,-1.506255654629591045e-01,1.374073400624448681e-02,-2.432990709416340755e-02,1.205365899165428308e-02,6.016458572334151128e-03,-5.676040282875627341e-02,2.076171174493889396e-02,3.418255392919836155e-02,-2.164294435454866810e-03
8.862425585758023847e-03,1.233850458492024849e-01,1.705993723354706226e-01,1.580102699058044680e-01,1.089254977576675498e-01,1.261656370826115259e-01,3.792462117354797324e-01,1.550690007729375042e-01,6.742616924356147068e-02,4.514456585815127682e-02
5.816192433938763805e-03,-2.079278075493926764e-02,-1.264422174052638216e-02,-5.630944947178807315e-03,-3.037069676266030555e-02,-4.316830597728945479e-02,-8.146174811018244699e-03,-6.286673910042859213e-03,-1.587722898635114330e-02,-1.404395265358752108e-02
4.275259639713016591e-02,3.351611051727115646e-03,-2.511917974025510980e-01,-7.380950232613167628e-02,6.122451399499617003e-02,4.398205705267043547e-02,3.529455753693400144e-03,6.445442793487604627e-02,1.726473804194098016e-02,1.835689667295330521e-02
8.899261104205446679e-03,4.337434514376859590e-02,2.035644995118567058e-01,1.919134537514384786e-01,1.017927963333027652e-01,3.039472412066537843e-01,1.297506575574733090e-01,1.347280740356374684e-01,7.088655842846129651e-02,-1.432633143971683877e-02
3.847478480522265303e-03,-2.867533463309777930e-02,-6.888549106891811435e-02,-3.513139577079796294e-02,-6.539865470916188250e-02,1.010969613026027787e-02,2.437477279795918772e-02,-4.899098852114162905e-02,-4.454035589611528984e-02,-8.983234901462583064e-03
-2.095566575894229622e-02,-4.245100897934454246e-04,-1.028612402863983560e-01,2.874084639095894275e-02,-7.952190798892087506e-03,-4.226177088639842400e-02,2.807069491369920677e-02,-1.877065436614372721e-03,-1.354467326088584604e-02,-5.178851091987819212e-03
9.299108130196201416e-02,2.812449538197066279e-02,1.034298470713143347e-01,3.890279187608707834e-01,2.959173688681776548e-01,1.673224741341991506e-01,6.669118059947415356e-02,1.447017336510227417e-02,-1.116540877569619124e-02,2.667023098634070319e-02
-5.032478714727036187e-03,-1.011695722976745787e-01,-2.717342499146812793e-02,-7.106113123088969585e-02,-2.716738184314760468e-02,4.918195132420478954e-02,5.044674319004718854e-02,-1.524294245821295433e-02,-3.019198013543326464e-03,-6.024202512505389892e-03
-4.381520811980871830e-04,-2.859700543154723371e-02,-4.185056454100448409e-02,-4.826537725848806248e-02,-4.589088932392925563e-02,-4.311211757909820530e-02,4.923205364253897126e-02,-1.983890688277899911e-02,-1.954268471147136560e-02,1.439793323444195014e-02
-5.568503480476446645e-03,-2.345549982677254744e-02,-2.443946874502086336e-02,-5.310959304400623276e-02,-2.667152378170063731e-02,-9.567199798369440192e-03,-7.451168532335333133e-03,1.057854547174646997e-02,9.997066823815395006e-03,-1.365155337395220631e-02
8.079776146314018512e-03,1.233689812035153460e-01,5.616246961392189208e-02,8.982463616911236237e-02,4.629345896362891954e-01,3.245844704381051771e-01,8.932947293268139743e-02,5.231250003780613111e-02,2.974376915209630753e-02,8.424217923656742574e-03
4.331361184948015822e-03,-6.022869884215693165e-02,-8.769281097563745575e-03,-1.606684972198466413e-02,-1.653184319373224992e-02,-3.959176864828912318e-02,-6.020264298419558679e-02,1.120043124529719082e-02,-8.026934660895016990e-03,-6.516866084936553949e-03
2.639514619066661572e-02,1.680413448937389739e-02,-1.051845279486628149e-01,-7.008681890284340632e-02,-3.456107364119518494e-02,1.900802608204392105e-02,-5.297377343461230625e-03,1.814620062813116982e-02,2.030656786244320125e-02,7.882037569371563510e-03
5.055028251345911050e-02,9.090987017956575489e-02,7.042282816575870519e-02,3.125864762377859041e-01,4.063553827752909853e-01,1.370408603893023547e-01,6.741830086887791451e-02,5.208836256705629691e-02,2.271300071377277408e-02,1.454393889468761844e-02
-5.939377485605795183e-03,-1.011493317909040318e-01,-1.878804626384518103e-02,9.583474019963391863e-03,4.949957807653775944e-03,-3.488250380925352750e-02,-4.495928976108447966e-02,2.463858719163204009e-02,1.370118453254984270e-02,-1.534754344254122052e-04
4.513988688479741995e-02,1.119919718537672609e-01,-5.744917321568916713e-02,-1.927289453227429630e-02,2.752279385654258781e-01,3.365325006576745381e-01,2.510746860300175354e-01,3.967485819981713541e-02,2.917772841087894545e-02,9.689432610854606040e-03
3.020645374675190800e-02,-2.331711635505058500e-02,-1.118583812435664376e-01,-3.969771136119453619e-02,-3.362706697281247353e-02,3.054764650273343596e-02,3.843949554257013179e-02,2.752412885461987674e-02,-4.577245793275118088e-03,3.511386183412498058e-02
-1.678198584904535551e-01,-4.665186065669369581e-02,1.563510120914719586e-03,-1.753721060150089175e-02,-2.587580524774075671e-02,1.025396696483542661e-02,-7.552302854561682155e-03,1.301245380220748121e-02,2.114059369989151026e-03,6.344669913182513811e-03
-1.341230031671644674e-02,6.470314006376792770e-02,1.322069871181668077e-01,2.010367550196497655e-01,8.971303016334906955e-02,1.218300200961922736e-01,3.055858467009646140e-01,2.018052008233159889e-01,9.881673884264280394e-02,4.306503242661954139e-02
-1.123880648679112006e-03,-9.907418606322923593e-03,-4.385464620980146500e-02,-8.381322661777013128e-02,1.284532611818998147e-03,1.131129539417017119e-02,-1.175472521120294808e-02,5.161772141498942139e-03,-3.775149195459462197e-03,1.967692526726261618e-03
2.056713645446509725e-02,7.313870398818587970e-02,1.396705845582484062e-01,1.605754974630384524e-01,1.262363683201483400e-01,2.393459233445544565e-01,3.249888311737292867e-01,1.767337757228545914e-01,5.625448055766060079e-02,3.141261372708267080e-02
-1.527171788170467387e-03,9.162934160371205561e-02,2.336843355232133823e-01,2.384485162543991121e-01,2.569124245117378885e-02,3.464349952516992959e-01,2.482818678797859280e-01,8.060388361948399305e-02,2.837713833627410198e-02,-5.112935494531874528e-03
-1.848836474479158970e-02,-1.169194244032445255e-02,-3.028955565639224537e-02,-3.334393631937639102e-02,3.826016520620294931e-03,1.325745538893153760e-02,-1.140281697119003082e-03,-2.326167502766194120e-02,-2.170982755419979121e-02,-5.491720131918758317e-03
-3.881753551903666805e-02,-1.913182755796577830e-02,-4.846328593680439278e-02,-8.958711947145424348e-02,3.655758022786124994e-02,3.301674033701409300e-02,-3.182740523356408779e-02,1.150354123799237661e-02,-5.491428965636091508e-03,-5.309351262948647579e-03
5.154120614966290620e-02,-2.761685788400802116e-02,2.844315069418463238e-01,4.025862095032505250e-01,1.696609670369076117e-01,9.168321806528408058e-02,9.320798919694434082e-02,5.527417252780209012e-02,-1.567203259884013614e-02,7.456154597080298825e-03
-8.608095978161324144e-03,-3.468080693651118956e-02,-2.744118548727598333e-02,-2.237026078210975141e-02,-1.981501838422169287e-02,1.088055324017152183e-03,-1.542152463572964323e-02,-3.023770887639196038e-04,9.885232551694846798e-03,-6.576568763169104818e-03
-5.172526944069905791e-03,-2.324525944929571597e-02,-5.032132199822045987e-02,-4.144888539350598949e-02,2.678832740373316822e-03,-5.133285580657481750e-03,-2.502967405786767074e-03,-2.183224119540919453e-02,6.656152466323335230e-03,8.231541794439934182e-03
-1.716098000840995119e-01,-1.227583020640728162e-01,-3.729687453691684501e-02,1.013597263891759109e-01,2.556597704040291380e-02,-8.126874024325109191e-02,1.081364560550697983e-02,4.698232973630724063e-02,4.423578191126303905e-02,-8.395639129442997867e-03
8.185341167203075141e-02,1.497693297467869999e-01,1.157551668246099424e-01,2.669019555033078639e-01,3.516177915148421818e-01,1.754093068331815108e-01,6.973566126394045717e-02,2.778305312257633997e-02,1.162410134040500927e-02,-2.010025635984629896e-02
6.996978626652470635e-04,-8.756766744894449103e-03,-6.822227451158587030e-02,-6.321138712357457501e-02,1.269850796055558596e-02,1.860723927662935942e-02,-1.181083763563039492e-02,-3.247285671251873979e-02,2.253344289891198032e-02,1.585810520983745378e-02
2.362551306108752556e-03,-2.902724792239836163e-02,-5.683051714366674917e-02,-8.167941115937667196e-03,5.412178085071391032e-03,-5.230280234562966618e-02,-3.080139355536672813e-02,5.046096397679144391e-02,-2.119199127517434542e-02,-2.565062093498744755e-02
-5.204172475747427529e-02,-5.968787753613631619e-02,-2.476277686495026789e-02,-1.930615916938619239e-02,-9.443423839582644128e-03,-4.420783987635667871e-03,-2.324829593753001758e-02,-7.649507126190083391e-03,-2.616685891939196304e-02,-2.497513532815469339e-02
4.030431337504535722e-03,-3.635181441250665002e-02,-3.226938396529570319e-02,-9.629583188501660007e-02,3.628594660146493636e-03,3.805922383884947219e-02,5.389727573224150844e-03,-6.140769562378814439e-03,-1.750305704839240362e-02,5.887183622154263697e-03
-1.919157371982781884e-02,-1.940903647123890657e-02,-9.682687634307508839e-02,-5.876824722625180464e-02,5.924606212965233265e-02,4.427425351532520564e-02,8.434821779776897899e-02,1.003581029032843408e-01,-3.040322890084506957e-02,3.350016951716686120e-02
3.692259671196983922e-02,8.507569816552415509e-02,5.604830741599443888e-02,1.666606636940240471e-01,4.901974376136464251e-01,2.113699184638553052e-01,7.533791937516709503e-02,7.680809322374673731e-02,1.117923340661905462e-02,-2.753073693891210528e-03
-1.164549739746031654e-01,-5.810056593670766961e-02,-6.655494743382897593e-02,-5.415179598064317340e-02,2.055880086935316792e-02,-4.742276000934356889e-02,1.314804994365059015e-02,1.642668923848129153e-02,-1.022881771907983676e-02,-3.354321361262396078e-02
6.463372912992451820e-03,-2.217422634720100580e-02,-8.636373305914298026e-02,-2.772339239426873866e-02,7.457006014746648745e-03,1.412675794415603134e-02,1.038364482889958355e-02,-1.852801186649689555e-02,1.347710413790023654e-02,-6.813158139659563142e-03
-4.564461601490731046e-02,-1.360735869592276936e-01,2.562471335909244710e-02,3.600610482077280100e-02,-3.112262022612789000e-03,-6.074843746839887759e-02,-7.791235350832018125e-02,5.524812956311384027e-02,-3.477186156367925718e-02,-2.358264320658752522e-02
1.273519178922419108e-02,1.952373279375519332e-03,9.010549731978968746e-02,2.668583811985986154e-01,5.471554114242239281e-02,1.288857883228952395e-01,2.546567201722811369e-01,2.954620269477252759e-01,2.016763856370152874e-01,7.213975483764370478e-02
-6.333565352484882846e-04,-4.409465184024932011e-02,-1.406704247902710800e-02,-1.615101320696519724e-02,-3.714137278204816123e-02,-3.831051309698219054e-02,3.981798994101400958e-03,8.742582713366512173e-03,-1.115358376669904096e-02,8.095949361846510942e-03
1.747444745544757456e-04,1.218632510047038819e-01,1.334724921620454863e-01,1.198182867870338231e-01,2.335180201168574887e-01,3.330312954689759186e-01,1.930764321657928995e-01,1.547042731882669053e-01,4.749082264154112776e-02,-8.276897893741735207e-03
-1.112990135858231942e-02,-1.162193784314071061e-02,-2.363373428553183775e-02,-6.860294407835809682e-02,-3.139652938249022640e-02,9.166028892456065322e-03,2.540171003848629150e-02,-1.112191565317329975e-02,-2.033186593059086236e-02,-1.103376631394966008e-02
5.062599666149338734e-02,7.933899759684272246e-02,1.977719506613836442e-01,7.028643359486735909e-02,2.404322178903382790e-01,3.170341648866400464e-01,1.754445811248186160e-01,1.443204237160038428e-01,1.870640010016315488e-03,-1.106996258533055402e-02
2.101440463652575960e-02,-2.153907569732146920e-02,-5.549286868541696005e-02,-9.750085737551167364e-02,1.007285700754799581e-03,5.376245310025616619e-02,-1.288983617559980380e-02,-2.584325158334548414e-02,4.768028953080223793e-03,9.644755388871660215e-03
1.052544081802857801e-01,2.190744051585279684e-01,1.070678580308943029e-01,2.600798195682620939e-01,9.108702106881519378e-02,1.056578292635024646e-01,-2.900832771036708155e-02,2.400695761251440269e-02,5.017601175877079572e-02,3.136767505078107750e-03
1.351854603254618557e-02,-4.949647358789219936e-02,-2.936418398671116620e-02,-1.494707345536789959e-02,-6.124898804455904816e-02,-4.040062730421487697e-02,5.896108245277954796e-03,-3.529953608293009883e-03,-1.209801013001011484e-02,-1.285313748123752785e-02
-4.385121799657141356e-02,-3.102991660831888945e-02,-4.992069495723287786e-02,-6.011782144417647522e-02,1.594722711637650350e-02,-1.511497211832344735e-02,-2.627061525363461048e-02,9.261012126789465101e-03,-1.831172754691345536e-02,-7.277321437199009424e-03
6.889568448972105408e-02,9.077204423347981499e-02,1.469579817429629842e-01,4.147336853062403850e-01,1.818243969190181941e-01,1.600607087308373866e-01,5.559188242677948200e-02,3.993896595390241527e-02,-8.813746531533663345e-03,3.631932218340479246e-02
-1.712005744677256441e-02,-5.019611951370814805e-03,-9.357361607543762672e-02,-6.605444890483805342e-02,2.648567966718885173e-03,7.117606539534805654e-02,6.589145178428958138e-02,7.830930274068909069e-02,-3.916450595242933208e-02,1.644342912091291083e-04
1.120068936628140950e-02,1.566737602095180926e-01,1.273507708954196849e-01,-2.404381326271127009e-03,1.868725078951210539e-01,2.676675530499449396e-01,1.661768353217236982e-01,1.351732608720372479e-02,-3.270372723675972482e-02,-1.991460986900117289e-02
5.822750563807433700e-03,-2.689405350164821365e-02,-7.612741483017217148e-02,-3.910693082993782488e-02,-5.038215567368732606e-02,2.912975134159107027e-02,1.321511624543974216e-02,-4.058983054601302161e-03,-1.035877366403939286e-02,-2.896526949319833642e-03
9.448627066292993038e-03,-5.616733884308268421e-02,-3.899269585201532023e-02,-5.729665607351562540e-05,-9.133446299735592175e-03,2.645694721590139548e-02,-9.828714599656148201e-03,-2.337683116801747563e-02,-1.556971467770540407e-02,5.174382656196538019e-03
-1.231271023967053929e-01,-5.619996963610324886e-02,-1.786666242091609208e-02,1.912372936026056000e-02,-7.358732071340332720e-03,-2.353263461278989541e-02,7.766109668770246853e-03,-6.236774649901849835e-03,1.317349159835580832e-02,1.746575600561920197e-02
-1.980435730650713377e-02,-2.821690392605015127e-02,-8.810039574921086844e-03,-1.669025159873350692e-02,-3.360811761426817090e-02,-3.730755683228915986e-02,-1.245772157250307592e-02,-3.461802433552839831e-03,-1.309807466321565549e-02,-1.126269919281883310e-02
-8.661083984863102506e-03,-1.062324870311629615e-02,-6.984479518459186208e-03,-2.652499697354171460e-02,-2.950957406555198073e-02,-1.624480414407807310e-03,-1.393319540697530827e-02,-2.053739121638169587e-02,1.723063400856891672e-03,9.236207127668379525e-04
2.033130634965682124e-02,1.938081410709662986e-02,1.389285729709426320e-01,3.450347591242367007e-01,1.505834354028149080e-01,1.032005462344909030e-01,2.973422152530463269e-01,1.177767275117853341e-01,7.705622203037527929e-02,3.256942643883885963e-02
-1.134097844144573049e-02,-1.098421814544998758e-02,-1.561228025433415885e-02,-2.288287566247164742e-02,-4.036145735506323912e-02,-2.167800059092998832e-02,1.855583952543603254e-02,-9.179440657181481625e-03,-1.736015565550797293e-02,-9.138829524344770083e-03
-2.701516059238647308e-02,-6.386525479490993973e-02,-2.668639121230531597e-02,-4.604695590629147295e-02,-1.189600632220478953e-02,4.158888997560398560e-04,-1.446565494638602824e-02,-1.486366070015355222e-02,-3.762378767604112467e-03,-1.030937156621717678e-02
5.998203850229297251e-02,1.388249129082905209e-01,7.861559480082462581e-02,2.284179714604826772e-01,3.930100351603655895e-01,1.547450539853942042e-01,1.226671209923752837e-01,1.298480086448422152e-02,2.309258598406254900e-02,2.352697479599261121e-02
-1.069288114370483839e-03,-1.074369698491472493e-02,-6.144323498778632431e-02,-4.236864342240116710e-02,-8.988058063157380526e-03,1.828762333240636570e-02,-2.915424355587615396e-02,3.671488155773167030e-03,1.417420019232338083e-02,7.534551615769872384e-04
3.061772106813706248e-02,9.839032243618969775e-02,-2.357793133018585771e-02,3.868177395247293648e-01,3.787538318579242169e-01,2.256773192526867478e-01,1.009687242739725210e-01,-6.910864578719537639e-03,-3.012330439159881593e-02,-1.263175282682733836e-03
5.096905201668819330e-02,1.569242281266206573e-01,2.289113065315632467e-01,1.084740881740204194e-01,3.438536764570104820e-01,2.118974078959464935e-01,1.148471508288993331e-01,1.330722309569816117e-02,8.807535313466726551e-03,1.941036612816465085e-02
1.022102933492216939e-02,-5.450486252181974828e-02,-8.087122675252826631e-02,-4.207807090850858300e-02,2.207633440158983384e-02,9.434748461112276580e-03,-2.873606501659937886e-03,-3.668909417012245627e-03,-5.897537058550125257e-03,-3.548797876107939904e-03
-6.000566106736533170e-04,6.023816861298623981e-02,2.466970705121648844e-01,2.758668859732714695e-01,1.280377706764244949e-01,2.841279031844131109e-01,1.961050778098356040e-01,1.080157422483289387e-01,1.025824124035554091e-01,6.216373020509465518e-03
-4.174295770902827643e-04,-4.189253679958825777e-02,-2.058659339918687131e-02,-2.420617948371516989e-02,-1.790098285225723285e-02,1.508938611251571874e-02,5.801139877881890394e-02,-2.273296493786914826e-02,-3.182006504633970272e-03,-2.270622136371870312e-02
-8.182638062314513683e-03,-1.831933950882171439e-02,-2.817634487291010431e-02,-6.765051311368333598e-02,1.082299711309318672e-02,3.014066529521920376e-02,-1.749380651304756687e-02,-3.470674693035929320e-02,-3.040677894858416844e-02,-1.476025450017553857e-02
4.943597715269370391e-02,1.097398066287263718e-01,8.419080877753733205e-02,4.182051242777860556e-01,2.998149808052679721e-01,7.712612546775667044e-02,5.970035573396845208e-02,1.063936667334188374e-01,6.531226697886298449e-02,1.657843846483472022e-02
-2.835410125944110710e-02,-1.240546062602049422e-02,-2.143725508465323462e-02,-9.718048750025048976e-02,4.191460729192617897e-03,3.876492332330372381e-02,2.308017555915077568e-02,-7.905287059518697687e-03,-4.321143124638569810e-02,-2.142331229785838370e-02
2.722802991215723944e-02,2.121500242037700421e-02,9.329649482977696306e-02,2.663610653579917553e-01,1.308095855924019113e-01,3.187994065874675265e-01,2.787154134332169853e-01,1.024347662570920942e-01,8.326040810437018713e-02,1.029432163717430293e-01
3.839405397462898606e-02,1.649839992298139102e-01,1.955202347349494496e-01,6.989967348372856659e-02,1.284208034484804473e-01,3.146084785575169462e-01,2.184358980031671782e-01,1.388138195939431219e-01,2.371352034550324242e-02,3.291172531769382542e-02
3.132720153538218893e-02,4.588531442253118015e-02,2.210637073311039202e-01,1.319833212653384880e-01,2.930538687837119793e-01,3.092597788351996169e-01,1.882587953206302511e-01,4.059414251905073268e-02,4.408659702420771043e-02,-7.185827760188180299e-03
1.771835260888793284e-02,6.452588426382156565e-03,-1.156497098540837237e-01,-8.813179250985266056e-02,4.002773230959551232e-03,4.987702131752434764e-02,1.314394082581093331e-02,6.492815742761286375e-03,1.519668854435191931e-03,1.628029465893523695e-02
4.186963407252308755e-02,2.235686468751499345e-02,1.111955015586838236e-01,1.383003412851526726e-01,4.773304427458736066e-01,1.542973594274914817e-01,1.429355947007177052e-01,1.471177099191833121e-02,8.539675774397459396e-03,2.378990880000043592e-02
3.746999045472042961e-02,5.707926511003061365e-02,2.205137068506778097e-01,1.669716670829066163e-01,1.323401995422849031e-01,3.149197137689258574e-01,1.434746388128980699e-01,1.058213071575462294e-01,5.905979219226160926e-02,-1.894589193130936239e-02
-1.711703203103612236e-02,-1.403426056847098882e-02,8.530441919866926705e-04,-5.008429506298412576e-02,-2.518874541185607899e-02,-1.263641310393679579e-02,5.456626966864055409e-04,1.121354353621022842e-02,-1.989705960740625196e-02,-1.622787414756708332e-02
4.459130774364707291e-03,6.301660894751121879e-03,1.414021257001597809e-01,1.350613568882701732e-01,4.842926516383006530e-01,3.513786888921576201e-01,1.763327943744929238e-01,5.230376999045019404e-02,1.685105417362377581e-02,3.290495216152068952e-03
-2.531909535546530456e-03,-2.780534222381093878e-02,-4.383288625697910612e-02,-2.655215087984331285e-02,-3.753314377748526165e-02,9.124631474839408479e-03,1.744685593933110535e-03,-7.619021424355873484e-03,6.539339456842559357e-03,6.847988849434189819e-03
1.106473198531347443e-02,7.162722343405149295e-02,9.743115278953462521e-02,3.560788480170639092e-01,1.646598992329738886e-01,2.318527454039417957e-02,3.167901460571022065e-01,2.199209637618632085e-01,1.030583536446978699e-01,5.674697538583807488e-02
-3.006809470492704736e-02,-6.122407072905311498e-02,-1.285631679771747499e-02,-2.284709081916386328e-04,-3.786203334879290061e-02,-4.097157193513160933e-02,-7.593937454004986640e-03,-1.306282547175689713e-03,1.489384999440437375e-03,-2.038172023703848854e-02
-2.485318833285629549e-03,-1.446018325873579986e-02,-4.308213769459579706e-02,-1.665418237343868971e-02,-4.528432796701982802e-03,-6.675450881408964351e-03,3.574702234386182252e-03,-1.181775694568863722e-02,-2.477847208065404525e-02,-3.759131591453624549e-03
6.075057707622160547e-03,-3.779716741763521071e-02,-6.659924609659623185e-02,-8.273293479141437257e-02,1.758824770567680648e-02,1.490722115560447897e-02,9.891485943709513520e-03,2.895429446123169367e-02,-2.639932377640112279e-02,1.286883353321952549e-02
5.674722321711301795e-03,-2.377365791684708449e-02,-5.029725662477878972e-02,-7.032707671560060880e-02,-2.227103298100060937e-03,1.205965961459459258e-02,-1.677449519959121546e-02,3.243713930930413117e-03,2.703819928502012443e-02,3.391766218337396717e-04
-3.539630130196060043e-02,1.879474497288388946e-01,1.785803853558798338e-01,1.044162218610404369e-01,3.888136435889487652e-01,2.755728916430304487e-01,1.018687754799741524e-01,2.862575797878071440e-02,3.124912326078308107e-03,1.425352306383117183e-02
-9.470397335737543165e-02,-9.915869225375960327e-02,-2.473768914516389153e-02,-6.119278888399932309e-03,-8.880747493400882597e-02,-4.702143101391860480e-02,5.757166738631590286e-02,6.909969833480018864e-02,4.247931453488540399e-02,-9.677315923106633369e-03
-2.187328285622345547e-01,-8.393536557745960580e-02,1.911267772143707133e-02,7.764386201152145145e-03,-2.729101916474228548e-02,1.446451473029288989e-02,3.375457684335446407e-02,2.416075134772306676e-02,1.815173587157150464e-02,5.964971874557250739e-03
6.551016173054821992e-03,-2.523518430452029518e-02,-4.180711658834583393e-03,-3.511542856562195614e-03,-4.575739451035670813e-02,-2.737347268439488043e-02,4.707767441437056034e-03,1.956960121854277746e-03,-1.789527537158154893e-02,-2.244339741874228772e-02
-6.012968760558061454e-03,-1.893467810691935177e-02,-3.773826908387519635e-02,-6.490445296901779793e-02,2.076405409374386737e-03,1.330549590305198440e-02,-1.826619682854022098e-02,-2.739664380866650706e-02,1.926915716301763962e-02,5.291123111113040650e-03
-1.626022140835188534e-02,-8.763888122254395036e-03,-3.505079308555940354e-02,-2.570269705674090022e-02,-1.908685505897910958e-02,5.376312130227157461e-03,-1.468324951670156760e-02,1.324471247192688349e-02,1.600079550514999990e-02,-1.309547612640751812e-02
1.398122784172000678e-03,1.712816918552127476e-01,2.351505472756340587e-01,1.371318539907901979e-01,2.096725821661668543e-01,2.909180711661716323e-01,2.053110728811284869e-01,3.789986051199258771e-02,-1.955745748631509268e-03,-3.000389674803391991e-03
-1.175749908800679221e-02,-1.954839660956937675e-02,1.015359834788421298e-03,-3.024002842031832047e-02,-2.813694192986546105e-02,-1.391094030170809265e-02,-9.561015862379540139e-03,-1.435284087982288334e-02,2.733519851066230737e-03,-6.014912318736837134e-03
5.166329608635124825e-03,-5.884177380808441188e-03,-8.489686700183296519e-02,-1.454301131989604312e-01,-5.556278271294338988e-02,9.638089935170883471e-02,7.833474412143003052e-02,-3.954165014615971391e-02,2.961292322355055240e-02,-3.451469846252773130e-03
4.306487868206593001e-04,-8.570574101440087134e-02,4.743860109538263793e-03,5.706879615146131374e-02,-3.425135589459489538e-02,-6.361554727683066401e-02,-1.228816491698630879e-02,-1.385558122054277204e-02,-1.801119790417119023e-03,1.204545589014938654e-02
1.029733694334266508e-01,4.495573612033636202e-02,1.375613849933229882e-01,4.824443392430738387e-01,2.411875539761449139e-01,1.454811662639742542e-01,2.811853119652743191e-02,-2.403851094734903854e-02,3.657615755406288388e-02,1.185569801432019392e-02
4.398662140076708277e-02,1.009540450563791852e-01,2.113020124335285577e-01,4.339628832454259233e-02,3.938629572122022138e-01,3.107095235027281799e-01,1.232224778976758611e-01,7.508517518673588076e-02,2.048827781911609358e-02,1.026033970886183928e-02
-3.037984830551996793e-02,-8.271810791394819395e-02,-4.199907229570948308e-02,2.893660892862093010e-03,2.956545631267011240e-02,-2.284009500793200004e-02,-2.894576067578839840e-02,-9.414272725987101603e-03,-6.882270475043794460e-03,-5.713671909761299308e-03
3.039925901720217857e-02,6.487041840414546623e-02,1.521893435493229529e-01,9.818710244614026195e-02,1.348333707773262946e-01,2.121340102041035791e-01,3.849481584446007854e-01,1.732725238949505697e-01,1.012962717953974773e-01,7.797226603108314141e-03
-1.660422823894177821e-02,-6.227284766560316903e-02,-2.821010144589846183e-02,-2.129732012905358532e-02,1.422991229267642384e-02,1.529246004912264076e-02,-7.149267327218894290e-03,6.883207729038194091e-03,2.502590829787307986e-02,-6.503741488820851367e-03
1.471374274661738351e-03,-5.248826720715776828e-03,-6.063790780560280452e-02,-6.578689568784257258e-02,-1.569994848623475561e-02,-6.563225456512127368e-03,-1.285131787444474330e-02,-1.970579492990058926e-02,-3.538419863974010936e-03,7.174044921155415047e-03
4.552705666408006502e-02,1.305882473122549625e-01,1.589516121338670762e-01,1.079780503453123819e-01,4.716769312463765101e-02,1.178174074802356558e-01,2.572645111683443120e-01,2.293229177362921811e-01,1.287155098609460979e-01,5.904573166464719552e-02
-1.536763567046943724e-01,-1.382442369656468883e-01,-9.235049853308245627e-03,1.043509547158231465e-01,2.495530458723171918e-02,-3.729869543084254196e-02,-9.317508999656182178e-02,4.279622031944570193e-02,6.063252540629411602e-02,-5.205699403009140386e-02
3.076251059989587242e-02,1.345054219758167469e-01,2.147267238049055393e-01,6.191931936217695553e-02,1.063219776393521804e-01,4.063999150864795462e-01,2.013850384302877938e-01,1.245989317659837309e-01,1.279906667400869565e-02,9.223836790537773278e-03
-7.779943038172159979e-03,-5.136006351226235500e-02,-6.201037341226624949e-02,-5.750835926785827223e-02,3.015324181063873746e-02,4.261957210008229802e-02,1.024754830310546476e-02,-2.461747909318401026e-02,3.330494620737290551e-02,-2.615548424178968170e-02
-1.804186157159557227e-02,2.584811568753810421e-02,1.512199710855442469e-01,2.337459987113472137e-01,8.344670291049410826e-02,1.873654680095885872e-01,3.613149942649459545e-01,1.896080275837192242e-01,8.669539750371553499e-02,2.781944380893745794e-02
-3.159207911623841659e-04,-3.906060542405979247e-02,-1.642964196538083607e-02,-1.981062661381843490e-02,-5.351056770089068770e-02,-2.009805795860690469e-02,9.103304729532452457e-04,-2.636291302669592756e-03,-3.172103512785894724e-02,-1.081037236051424384e-02
-4.423165379361125582e-02,-1.494719505501251357e-02,-1.127053996494104503e-02,-1.529064832472854484e-02,-5.401236433748511298e-03,-1.793412689855777495e-02,-1.953412901115667011e-02,-3.106174627245528522e-02,7.114560444442737629e-03,-2.844357195219867490e-02
-1.281859759633675704e-02,-3.035673092083380001e-02,-2.723292503546478546e-02,-2.544353690154916789e-02,2.685566179032100684e-03,-2.747175264112386092e-02,-1.899449134500615782e-02,-5.654529125841646284e-03,-8.502178232974664726e-03,-4.110185088377294772e-03
-6.486070317580422059e-03,-1.285661039349964528e-02,-4.084204023254738025e-02,-3.896773872894559315e-02,-2.076245527487457360e-02,2.022077093677435849e-02,7.148057335451277194e-03,-3.578353635086505696e-02,-3.299819937420121752e-02,7.011045512035795528e-04
-4.790789471844580927e-03,-4.293638692700997572e-02,-5.160865510617066582e-02,-2.725227465023117093e-02,-8.463586100162326722e-03,-2.547854818088768000e-02,-4.868136331303846674e-03,-1.663552356573132565e-02,2.592309720572425619e-03,-2.426049350202031437e-03
-4.505483888842228002e-02,-3.867245665042327168e-02,-1.055782288520592666e-01,3.624428697162986740e-02,3.586392242670999493e-03,-5.122637107523803079e-02,-1.509051400179628119e-02,1.477257454842775125e-02,1.371858306212723165e-02,3.359343824549126337e-03
6.856107032815220159e-02,1.157492432682316608e-01,1.099336433124255136e-01,1.702123214303112864e-01,3.834778041805340654e-01,2.511177024007641423e-01,9.959564381057647853e-02,1.654492767443289242e-02,2.136600195347504796e-02,2.296535619436078021e-02
-6.635070568589418460e-02,-4.481721742724113777e-02,-4.531953697158778993e-02,-1.064159839404032332e-02,-1.013052056783267374e-02,-3.402948226298627143e-02,1.626812976633544572e-02,1.022377018865030292e-03,-8.747738974974023085e-03,-5.281395529344503487e-03
-3.933674022412951554e-02,-1.924152193927509968e-02,-4.081559973108794814e-02,-9.400208687647992889e-02,2.693582418418525443e-02,1.704752826007214367e-02,-2.210036307453970561e-02,-1.875865219265970482e-02,-1.235068992116047752e-02,-1.906925844284364929e-02
2.877461472124950848e-02,8.815508975357343180e-02,1.398699728751498506e-01,6.354030350078802847e-02,2.517748542364149356e-01,3.769116598592146539e-01,1.876796195118219934e-01,1.044661044860031168e-01,3.505265408432724217e-02,-1.320433259424256059e-02
4.740535794767944747e-03,-4.594934169334997931e-02,3.058360188842236104e-03,4.171971828783083190e-04,-8.136513410876050623e-02,-6.506459998771066747e-03,1.180644478114436895e-02,1.001849609874793864e-02,-1.452013728278420297e-02,-1.998029998084074887e-02
1.087947987345047954e-02,-1.439698429245123319e-02,-4.783768757536592531e-02,1.957721422960495561e-02,-3.045438897131527711e-02,-3.133722627257006649e-02,1.089078397641897802e-02,1.180210586733102668e-02,-3.411117483021847835e-02,-3.525679949372003547e-02
-9.053874986663818306e-03,-9.748503191351898245e-03,-2.681071297675799436e-02,-2.716620016947130650e-02,-2.161671101693276448e-02,2.506734125221883689e-03,-1.980258026094139368e-02,-2.057437923809015898e-02,-2.000988808257333010e-02,3.770699977599236774e-04
6.254873243431739727e-02,-2.642878643207617895e-01,9.296519877030674783e-02,5.808491762960032306e-02,2.370653279241794961e-02,-9.986640426261308989e-03,1.473323775366207171e-02,3.019930964377020785e-02,-9.560287083376863351e-03,5.918256230181737597e-03
3.079958532041736710e-02,9.465392341021250378e-02,6.346879222384013697e-02,7.910714757950788878e-02,5.272138055787055633e-01,2.213264808935419270e-01,9.037554601502155449e-02,6.291357918104034663e-02,1.288105914465177953e-03,4.627582996806130569e-03
2.136673028229368020e-03,-1.087887958077552938e-02,-6.149472658335639053e-02,-5.731319754798491067e-02,2.014521310241527280e-02,5.904466139529238565e-03,-1.577919910894449301e-02,-5.059480596054784403e-03,1.074173770633134878e-02,4.927217233940370776e-03
2.076987576175052391e-02,-8.656459236712833391e-03,-3.281317236737760212e-02,-5.183920201987422816e-02,-6.261507215357668688e-02,-9.883978561446188013e-03,-1.202484910007904943e-03,-1.903411153212931917e-02,-2.270502844924432440e-02,4.170287238491349885e-03
-2.968879696864953985e-03,-9.771573247447564586e-03,-1.214180006802470235e-01,1.193190718581934803e-02,1.603089193538935475e-02,-2.443704227338023942e-03,9.663959343302018501e-03,1.107655158495437012e-02,-2.064426231148775923e-02,1.448478594398538988e-02
2.531700054913185727e-02,-1.222622023939591435e-01,3.779091250314221134e-02,2.808087070109227881e-02,-3.804052237876176523e-02,-1.684098474829889280e-01,5.529208564645841928e-02,5.984647424070065058e-02,1.080435464625030192e-02,-1.560634036193146029e-02
-1.531362627053678080e-02,-1.943823278112985151e-02,-5.027349944343369875e-02,-3.806352948598721447e-02,-6.434888281302431588e-03,1.430264311070430041e-04,-1.782829656704498084e-02,-1.634827954239319314e-02,-4.815513085495186016e-03,4.631324846039859729e-03
1.791575803756147514e-02,5.465256635330241475e-02,1.603362182440812023e-01,2.220984980786343821e-01,1.357397554030060349e-01,1.901056654832785353e-01,3.284724634210726690e-01,1.079771499144083768e-01,6.595694050337023995e-02,1.450105038128261629e-02
1.186577426004805074e-03,-3.174227819936830536e-02,-3.585549633379220974e-02,-5.049846768664231766e-02,-3.550263047481484746e-02,-2.253977955699896021e-02,4.390084844651094553e-02,2.312550526490049149e-02,-3.215373401454447305e-02,-7.351977356697591594e-03
1.605521224885617451e-02,1.691383867355957804e-01,2.198276069756229800e-01,4.795158612225224742e-02,2.120829898449410056e-01,2.143546116226113518e-01,1.677817509914304450e-01,6.318426715710966091e-02,-2.515884645361126867e-03,4.058429938925339764e-02
6.961376720302167760e-03,2.995595657791349370e-02,2.378810636916170729e-01,6.139532299570549245e-02,4.746981159908273407e-01,2.423885906321380512e-01,1.302965928923308647e-01,5.964983157049769114e-02,2.129556955202877369e-02,1.033312538838853344e-02
-1.376135822616207649e-02,-6.445276032204602656e-02,-1.274045453683133634e-02,2.085275751548242365e-02,-1.905308677395088982e-02,-4.212767970419611235e-02,-2.243428724138377822e-02,-5.456421888976392860e-03,-3.766161100837326411e-03,-3.496179116756435550e-03
7.881369315417073584e-02,-2.615841841220732655e-03,7.904332495512378376e-02,4.369706084060118734e-01,2.932673918774456601e-01,1.827162418985409931e-01,9.438569393414810230e-03,8.096109115366713349e-03,7.887189745453486445e-02,-2.674033116740291358e-02
-6.090336953953205505e-03,7.780421222307143392e-02,7.622529514532183637e-02,3.102437818239524650e-02,2.153087927900346477e-01,5.581696861434486401e-01,2.188962821210638232e-01,1.483153646086060873e-01,-1.926408960557429370e-02,-1.621361010391494592e-02
8.547715474422030307e-03,-2.890556238267463773e-02,-6.169702540216612241e-02,-6.963041003343721502e-02,-3.182248951685453381e-02,3.309755104788120877e-02,2.420356442269560801e-02,-1.682993138137166625e-02,-2.304003994713494513e-03,1.835660214487768241e-02
2.789154730233679366e-02,-9.458776906880300706e-02,-1.936591397824687644e-01,1.100177077442012069e-01,8.281452025915951587e-02,-6.909027486774131643e-02,3.220689320306130421e-02,1.290745456682746567e-02,-3.751723186153101131e-02,4.644430861211213193e-03
-1.541168219723626498e-02,-6.482915942154486577e-02,-6.022385628278031922e-03,4.562881473147939633e-03,-2.159727564436144526e-02,-2.248015444635343557e-02,-4.568481961323725415e-02,-1.620512426600735634e-02,3.428305838649503123e-03,-4.669879834977957479e-03
1.311865852204670280e-02,-1.095775032971022835e-03,-6.802484717447437879e-02,-3.160204676684561648e-02,-2.834805460607478164e-02,-1.043034961973459199e-02,-3.268505513383842382e-04,-8.281827127863256727e-03,3.023720190297735609e-03,-7.850016281344697130e-03
1.886615942023981210e-02,2.075269478778117224e-02,3.392014141201445988e-03,4.518785261313147394e-01,2.991067800368021889e-01,2.399128794287168076e-01,2.232450644941291404e-02,4.417086529203818196e-02,1.460154222136108952e-02,-4.357107174609906736e-02
2.128093442944241354e-02,1.187049461956323458e-02,1.665287793453847365e-01,2.929757744464629998e-01,1.430364784125635023e-02,2.283997583103103413e-01,3.213558267815189162e-01,1.536961542861545182e-01,9.532880892797912509e-02,5.034830762250062236e-02
3.236603545755756782e-03,-9.717889883168122356e-02,1.028843486640496768e-02,-1.099875139331024480e-02,1.085242909787870712e-02,-5.457696705650481872e-02,-2.434028626273154056e-02,4.491376649428050448e-03,4.874025798475324633e-03,1.853530182182127175e-03
-1.610037614853171428e-02,-5.085582006290098600e-02,-6.941481577967424654e-02,-4.619008185846888020e-02,3.663666849115446156e-02,3.341540261926018857e-02,3.555394573616237064e-02,-3.800181420092287043e-02,1.997347193383983838e-02,5.071372475733846447e-02
6.994666632390837691e-03,-1.522943150574722002e-02,-4.627640239360897995e-02,-1.472055443188101560e-02,-1.494613960559092181e-02,-2.906096722369841054e-02,-1.717329756073516026e-02,-2.242300466799633518e-02,-1.091837884246629059e-02,3.005021204768046350e-03
-1.521328461230767384e-02,-1.890122159531573004e-02,-2.541456694497322769e-02,-3.788793675355887208e-02,-1.679336133805037559e-02,8.045261508859417876e-03,-1.327362706004879891e-03,-3.545183786459737280e-02,-1.766637417726603029e-02,-7.230084250099749407e-03
1.628084595545361765e-02,-2.099743279433557430e-01,-2.748831937281992141e-02,-4.245032182616691185e-02,-1.618371506746922941e-02,3.219501540688621960e-02,3.337139833497267810e-02,-1.651815012837513225e-02,4.236939771344174627e-03,-4.756764107465404762e-03
3.785729982034412994e-02,-7.617637661105665370e-02,1.523126095638779876e-01,4.983308369482402633e-01,3.094746777326997100e-01,1.267292220628566113e-01,1.875763163277363588e-02,-7.812494855032189704e-03,3.609777344198034088e-02,8.227677426618560871e-03
1.849435037626775968e-02,-1.272716099270237988e-02,-5.856593572630341277e-02,-9.215880956644946498e-02,-2.417105218455051913e-02,1.602074959563408755e-03,-2.777563402338154713e-02,1.116230246085112530e-02,3.022277762058830919e-02,-2.704976639545085548e-02
-1.100822138403474877e-02,-8.504697865207400814e-03,-4.443639948593061662e-02,-5.275161627227826361e-02,7.548361804128467765e-03,2.180304867458719362e-02,-2.179005974484315988e-02,-2.280685433393270581e-02,1.202948824636504606e-03,-9.889891665046711758e-03
1.284696872574041769e-02,3.890653549580516679e-02,1.793487230831158907e-01,1.456758038467537431e-01,1.451193062427319769e-01,3.808891472098669961e-01,2.885951088596347414e-01,1.472907938033880815e-01,5.851126452486682568e-03,-2.184745730732902055e-02
3.539061487371100018e-02,7.910714135456757556e-02,1.283542520767474160e-01,1.634499064558077031e-01,4.245878352250072041e-01,2.755956045660954978e-01,5.991737830857398611e-02,3.734063790605887667e-02,5.986483872495567543e-02,2.184477333669946827e-02
1.294320726999834961e-03,4.151633317971494680e-03,-3.221794576711692337e-02,-6.474235768469155383e-02,-5.025952382368308047e-02,2.095262517349162287e-02,-8.157570090748486906e-04,1.875961845437893946e-02,7.016956092353064840e-03,-2.400043667322298256e-03
2.419570249263062328e-02,1.606968504768198913e-01,8.435074418311973299e-02,1.426704359381141263e-01,2.607822493021429988e-01,2.567857287768075536e-01,2.387491862271998444e-01,8.982081568667436844e-02,-1.308979249303254995e-02,2.351621200802187991e-02
3.925132111025835674e-02,-4.747310527726979895e-02,-6.803671107168751675e-02,-4.577074871162553626e-02,-1.732795673457907318e-02,3.542668850434482070e-02,1.539765849050776965e-02,2.700121571860037914e-02,1.763278778344555195e-02,2.331238756362546960e-02
9.657463971125230390e-03,-5.626195736814982445e-02,-9.372830654607400280e-02,-6.969296211557238219e-02,1.969737201532784782e-02,4.876752468101941407e-02,1.249713449441302963e-02,7.896916354317155828e-03,5.808423382551235886e-02,-2.436650422556266293e-03
4.364710362698402679e-02,1.172000530698119741e-01,2.842074415483648864e-02,4.059429702296699638e-01,2.789253844229817592e-01,9.991455226647588672e-02,6.012186913757261442e-02,-4.151238933151620882e-03,3.675048529406668447e-03,2.060938364045420898e-02
3.153450791340146192e-02,-2.766374489338767617e-01,5.921711471511252600e-02,1.276730956336502021e-01,6.317781711991253546e-02,2.723338383054591666e-02,5.417001099609736886e-02,-5.422040479750074235e-03,-1.067402268825094584e-02,-2.236010369581368368e-02
9.815673281984592380e-03,-6.639682417422937410e-02,-9.534476442003237892e-03,-1.745594891158556983e-02,-3.652634816658382327e-02,-1.583616030664527358e-02,9.300499108626288786e-03,-5.227534346892973374e-03,-4.288119427578262338e-02,1.083630572026008515e-02
9.853509979680387040e-03,-1.839012015569602490e-02,-6.141191178545096774e-02,-4.328174146497211494e-02,-1.990638956156144321e-02,1.003353896288721424e-02,1.731358628640755019e-03,-7.211339934150770288e-05,3.403223198044822567e-02,-7.065270470159926847e-03
4.524905590932787325e-02,1.366206556553628548e-01,1.242390795634746442e-01,1.007121888626456574e-01,3.607609623463769455e-01,2.323136952380448206e-01,1.469430598361366747e-01,5.205287025745940904e-02,5.248557741568257023e-02,-1.194321207968886481e-02
1.586744734191725386e-03,-6.622364110340213036e-03,-6.823461984701094385e-02,-1.118752119983482986e-02,-8.851714806744351988e-03,-2.736266804001451572e-02,2.443175942954102509e-03,7.032762381271803753e-03,-1.924913589213205628e-02,-5.243707615073493235e-03
2.218073800769643916e-02,5.090113264829212308e-02,1.318517804597629517e-01,3.869367357086070935e-01,2.869475049986400794e-01,9.622514666761360080e-02,2.244069914074943162e-01,1.016672526869383392e-01,8.587193352774372124e-02,8.178110894094141325e-02
7.701926171821960737e-03,5.913662841412135884e-02,9.172787757145184351e-02,5.054124000897484148e-01,3.594433637364459200e-01,9.127214298274649584e-02,5.100775494799675291e-02,2.939895635479910369e-02,-1.227381925672011397e-02,-6.493177519775857921e-03
4.495000295530554579e-02,1.180997539936715357e-01,1.942939876895946952e-02,3.313464493327285543e-01,2.793316912431687005e-01,2.625760265272781835e-01,1.388751243096085844e-02,3.920033010543309999e-03,-1.956579611158121464e-03,2.987774739479365921e-02
-3.108246114697203397e-03,-1.231142566361386435e-02,-2.121892554916383553e-02,-3.417406514249678867e-02,-3.096751013471070457e-02,-5.600656638297557902e-03,-1.408178681182294112e-02,-1.765845037187642116e-02,1.633703114677024408e-03,3.817330131563713772e-03
2.786645393621668600e-03,-1.452648295454909630e-02,-3.337970899244865203e-02,-1.499809902570229704e-02,-4.605144782030859418e-02,2.345455193483137260e-03,-1.447766181954801340e-03,-1.798380701286972361e-02,-2.843634401306809403e-02,-7.764149631833343161e-03
-7.843853814806599212e-02,-1.592475171316377058e-01,-9.541409742281364847e-02,2.460408708950576062e-02,1.842077235227054799e-02,2.727023161628823120e-02,2.387579907242513844e-02,1.577032153757123439e-02,7.029028104493762266e-03,4.733908354426024333e-03
2.688974645963293844e-02,1.075889931141134209e-01,1.399568089513695546e-01,2.436762249660422985e-01,1.508308597100315729e-01,1.406801803789684557e-01,3.043143674960310241e-01,1.699771163627252224e-01,1.016044307687272857e-01,5.515859854498152137e-02
-1.538349926380733375e-02,-5.596869808363929590e-03,-2.022419050273308039e-02,-6.663342679950096104e-02,1.474853572671467813e-02,-9.641972846923745066e-03,-8.894260434152536157e-03,-3.131514697761263177e-02,-2.439747136682015108e-02,-2.597038976495584343e-03
-1.048784878156007287e-02,-4.279025465323054930e-03,-1.816488674908730769e-02,-3.560070499651829534e-02,-1.592324310331926299e-02,-4.038979313500290665e-03,-2.864940607472735590e-03,-1.371742016178499959e-02,-2.019970718200625806e-02,-3.994651244334717494e-03
-2.707195612518200831e-02,-6.805090200038679815e-02,2.141899525964592252e-02,1.788030127777510622e-02,-3.639729765446823168e-02,-9.463403334279172491e-03,-4.098035080433971161e-02,-1.386182960525250869e-02,-1.768730177643915852e-02,-2.418359162323356279e-02
8.625372830897820239e-03,-3.582422658012789085e-02,-4.552661848943307527e-02,-7.471306156343190952e-02,2.642807841282824449e-02,1.771283908527161027e-02,5.512596060581641949e-03,-7.325573784569846744e-03,-1.038760785715421228e-02,4.056894345237394353e-03
4.926117076981402498e-02,1.751928277661053690e-01,6.131778952015411871e-02,1.849533850958145209e-01,3.318810456578061840e-01,1.684994761140642672e-01,1.674518579391574280e-01,7.941973286780099062e-02,8.134028291392930363e-03,1.439716989458423267e-02
-6.640967457308107405e-03,-2.383556389405225989e-02,-1.245876419617086839e-02,-6.726841912928832601e-02,7.222695283935096251e-03,-1.201126111990149202e-02,3.128050804895158177e-03,-7.667384351863940940e-03,-2.460420952530821895e-02,-1.459173288337999724e-02
-2.154062475972348331e-03,7.879881314920320762e-03,-2.497741715400345064e-01,8.525297229688447165e-02,3.205088889912499194e-03,3.952989462658365594e-02,8.462368800948269487e-02,5.774524218873143197e-03,-2.194152540384494351e-02,2.139660042595244518e-02
-7.409980734149523331e-03,8.561992941672404156e-02,1.956460174668878116e-01,1.616112000855590702e-01,2.093322031935066496e-01,3.668347848392723987e-01,1.801171472908607851e-01,1.046544197038737634e-01,4.127972806275387319e-02,2.636514400827499188e-02
2.317532522343819859e-03,-6.829589200419601547e-03,-3.167612352968728756e-02,-1.452932058269238227e-02,-2.795670648976714828e-02,-3.721818432340655985e-02,4.278966428528531603e-03,-4.997578391666620927e-03,-1.481726363827390834e-02,-5.148968704005571148e-03
-1.468004972944711162e-01,-5.537959153274659568e-02,3.490333348512859174e-02,-7.359385599256920750e-04,-6.913363095086674792e-02,-5.544386539082371557e-02,3.099992370099604374e-03,3.668408742078165669e-02,3.665228884233669160e-02,-4.506061874132676059e-02
4.353970565292350492e-02,1.563405606663574310e-01,5.127568565063499867e-02,2.681019686433286364e-01,3.707532275276779199e-01,1.687590152657064413e-01,4.203224788201410239e-02,2.217510353133361062e-02,1.202729121024098680e-02,-1.131589165203007209e-02
4.889160094993071602e-03,-4.245448432896007512e-02,-4.384215017771441597e-02,-2.314100564562643521e-03,-2.339778908848629685e-02,-5.521952236175978190e-02,1.500721731566723172e-02,1.996972823943487380e-02,-1.261418723803236185e-02,3.759265106420833866e-03
8.046354779639065466e-03,-1.529148364712006047e-02,-5.532302235455163059e-02,-4.161156952825201955e-02,-6.190743630428434396e-02,-1.152681960212776063e-03,1.297773845879881226e-02,-6.230539293987175315e-04,1.798217860590048400e-02,1.082185265741739642e-02
-9.177440865203496945e-02,-1.126722767742076720e-01,-3.534968494470763084e-02,2.173455211888549940e-02,5.675314366210915812e-02,-4.686162896910951552e-03,-4.824087564231856889e-02,-2.229029109135988521e-02,-1.029453144294859707e-02,-4.930953057233568651e-03
-5.128600064439360617e-03,-1.598234488778529222e-02,-4.354153536990718054e-02,-2.286655042040413449e-02,-2.727668748431654952e-02,-2.627923883962247041e-03,-2.162842706440296081e-02,-4.957379733569103504e-03,1.604463162627996556e-02,-1.854413320035185487e-03
-1.152147083298624662e-02,-2.173620126704707903e-02,-1.511112739599519521e-02,-1.826028230864794669e-02,-1.440765555234223283e-02,-1.184043729479523389e-02,3.484078491546603595e-03,-3.445721973757306933e-02,-1.743675806721023056e-02,-8.413099850880505215e-03
2.514362638381570716e-02,-5.061293165270008831e-02,-7.587337841706989772e-02,-6.776730093091758167e-02,3.377329158436250672e-02,6.397919940924816362e-02,-2.422261012356435178e-02,2.329502339290320106e-02,1.122846878333467330e-02,4.669549642086948116e-03
1.034507546269325950e-01,4.851867503501243462e-02,1.386068437435002965e-01,4.161640776930080610e-01,2.826345168693599752e-01,1.343884474609253754e-01,1.105508740975198918e-02,5.417782950009940833e-03,4.150811191677458711e-02,1.633215612781378084e-02
-1.432843132567215849e-02,-3.634964166074930447e-02,-2.199107822692383807e-02,-1.605864043904959432e-02,-2.416510107369432107e-03,-4.328617112070522882e-03,9.536901960674205522e-03,-1.521502736976887253e-02,-2.443179398408634045e-02,-1.299844588303608085e-02
9.746007819967159166e-04,-1.847940069506871785e-02,-1.712195842631464987e-02,-2.163799594941824556e-02,-5.022218525879115769e-02,-1.344018142989816984e-02,1.340941861356988998e-03,-4.612936379982984086e-03,1.473082983167401131e-03,-4.173673723216666381e-04
-4.893103300091886793e-02,-2.690898584139531091e-02,-3.142320579874986058e-02,-2.005013664910777066e-02,-9.961137606926540392e-03,-4.043440692870036574e-02,-4.955832862197088323e-02,5.468559192639744007e-03,-6.681118391636410581e-03,-4.170603881664957345e-03
-5.325928084921228989e-02,-3.449287058033053549e-02,-3.576602894342405248e-02,-3.618152497218556085e-02,-2.125216261467570335e-03,-2.959283688580781335e-02,1.592704171177339312e-02,1.875334369923739846e-03,-1.518626171167208015e-02,-6.868133746492825244e-03
6.262695862900412302e-02,1.029521453733342889e-01,2.210883193198158458e-02,1.646697499309651702e-01,4.745752051854783549e-01,2.035751105459434607e-01,6.166198222852070643e-02,4.559887972646947674e-02,3.020146852917008837e-02,8.738182696461635262e-04
-9.298231708510969196e-03,-1.737948214520353141e-02,-1.054227580656991355e-02,-2.940267810193556222e-02,-3.297582611872732026e-03,-2.607640235801412382e-02,-1.352533266147263116e-02,-2.093692474806923762e-02,-6.799587898394479635e-03,1.980103090133253710e-03
-7.139021811993641331e-02,-5.671514935602804675e-02,-1.125126006877046579e-02,-5.153630121835674552e-03,-1.296035415285084688e-02,-1.262317621829864116e-02,-3.293778666357627394e-02,9.929327103513204897e-03,-2.347172599538527998e-02,-3.221851615463687535e-02
-4.565634111528004552e-03,-1.787953914711749581e-01,2.480344887465095547e-03,4.148008385337469128e-02,-2.726127763058313822e-02,-1.321236046083709269e-03,-3.144908326201726473e-02,4.411822215122197105e-02,2.343094782551867136e-02,-3.074588055514292876e-03
-1.137264339312489027e-02,-5.930930694478672716e-02,-2.555529047607280166e-04,-1.921412002205886982e-02,-3.187249794214434828e-02,1.835961097470975622e-03,1.303957841380415893e-02,-1.227549460344009094e-02,-2.341290279244791564e-03,1.836472054215002037e-02
-8.649657344749508286e-03,-1.799439870777471209e-02,-3.002459925497623708e-02,-2.714304480932512934e-02,-7.906753184277080446e-04,1.178336472356075748e-02,1.985687376246767638e-02,-1.556507122816730600e-02,-5.995314576596740691e-02,7.629387047358114453e-03
1.032527154230350637e-02,7.852503873818775237e-02,1.345266636892036849e-01,2.650571406459767410e-01,1.040020760918650006e-01,2.703707486793217596e-01,1.665905602618465986e-01,2.193946596264834958e-01,1.667453920854205518e-01,4.629552607964687594e-02
-1.431663397264185122e-02,-2.178996501824320003e-02,-1.093169499794156146e-01,-4.917628205483963455e-02,3.574955728120260412e-02,2.006671752489684254e-02,3.013494615984433408e-03,6.661740374550194875e-03,3.630604386868989050e-03,1.135679021572417492e-02
1.119734079878587085e-02,-1.330150589008131760e-02,-6.888423778381964901e-02,-2.736031033131745144e-02,-2.319529798051499225e-02,-7.735962182589675024e-03,1.683399832700397530e-02,4.943836021519180599e-03,-1.950366604523980823e-03,7.843199668608932459e-03
5.435601060126992595e-02,1.265089794638645238e-01,3.330307016995578961e-02,4.251434522693348095e-01,2.873025296619639013e-01,1.781533084313335069e-01,8.566518759854140075e-02,6.083861099352945445e-03,1.430146956238334197e-02,1.969578067917625297e-02
3.573042028377310803e-02,5.596157160141853465e-02,1.993702463095118477e-02,3.055135490654564689e-01,3.888600273035270338e-01,1.727850637340336837e-01,3.662033623355286094e-02,1.911136260150649024e-02,2.726551491427661386e-02,2.544160957493912800e-02
1.598008773327897619e-02,1.106249729510256630e-01,1.797667825420745380e-01,1.272460942108595561e-01,3.749051948065100226e-01,1.818974714236624157e-01,1.790519662771657139e-01,2.614240786703687230e-02,2.692535143323268598e-02,1.215054041547668738e-02
-1.566783548068021933e-02,-7.542640920982325581e-02,-1.055404380858146300e-02,-3.849100787794280248e-02,3.319109515835690083e-02,-1.046006149508831896e-03,-3.498810747499369461e-02,1.304291566523365503e-02,-2.464193698493706217e-02,-2.939303700746437667e-02
1.428518956875359999e-02,-2.437892125534007332e-03,-8.008276039967303361e-02,-7.176541898563905397e-02,-4.142043720164258723e-03,8.094360908593261489e-03,2.070538835433147554e-02,1.686478168815249215e-02,7.375898857810017986e-03,1.394180018481388193e-02
1.444149338188182100e-02,2.071117664751697396e-01,2.937210301366120491e-01,5.867625097623121316e-02,1.946659390123813838e-01,3.192436677599442274e-01,1.678647106664858113e-01,9.280985441630999755e-02,1.724098821216292748e-03,1.347061851202725367e-03
5.997780203242734226e-02,3.109400234017997700e-01,4.095134539489909270e-02,-3.615225632682725343e-02,1.726777152869866938e-01,1.914730511297029758e-01,2.061591025895708196e-01,7.702457948812217736e-02,4.454927614273943709e-02,-2.000715194322109231e-02
-2.096106365577071143e-03,-5.890181991217905907e-03,-1.337491354201825883e-02,-2.522208737237521120e-02,-2.157060233038260791e-02,-1.086311937449433579e-02,-6.407732350645542301e-03,-5.280452878515173518e-04,-6.217710686943458270e-03,-2.237167350317141156e-03
6.523537247358263125e-02,1.297381703749707904e-01,2.161633918418086053e-01,2.784866871023157775e-01,8.308905518652780209e-02,-1.009013390849452727e-02,2.506046132469257337e-01,1.825208867864277218e-01,1.039556628380225306e-01,3.912562586878583909e-02
-3.196040075929976968e-03,-3.703627411615529122e-03,-2.488485560466918017e-02,-2.404511259593276190e-02,-2.198647815240280592e-02,-2.335494307774833855e-02,-6.922564179160312428e-03,-1.960525758481034345e-02,-2.541244620796406783e-02,9.395259758956678309e-03
-6.375146385883110993e-03,-2.382629544308025038e-02,-1.787998141600608687e-02,-3.301238604064900967e-02,-6.077481361444623392e-02,9.228270895120285408e-03,3.216352650720420703e-02,-1.490507612996056636e-02,-7.537217320407461115e-04,-1.785051781055124395e-02
-6.213633171741586581e-02,-1.379564135115396162e-01,1.601488685914261370e-02,5.963726229914332461e-02,-3.988488598996236395e-02,-1.370177284686652751e-02,1.932135177610763699e-02,-1.785800754555563058e-02,2.178609729296177022e-02,-4.333956630245954303e-03
4.167633499742142214e-03,1.978509206320534786e-02,1.851722719561369190e-01,9.049265102146028528e-02,1.870248524322753736e-01,2.922014309951838640e-01,2.879476047102054181e-01,1.965044327086178377e-01,1.269534594893169041e-02,-5.081978715591698191e-05
-3.374947577915745484e-02,-5.021076802363445141e-02,5.378985935461225165e-03,-3.780458256613972168e-02,-6.532354174779958500e-02,2.509279351880167735e-02,-6.809371244543161589e-03,-7.162535041053415263e-03,3.188238554930249852e-02,-1.395020444213241131e-03
3.731044078537389033e-03,-1.203508293421653441e-01,6.688770047011091333e-03,2.582276962489751110e-02,-7.419565675541599237e-02,-1.002246933389197049e-02,-2.731032907892356771e-03,-5.204575588863646907e-02,-3.339848197235784771e-02,-3.363756416484638828e-02
-7.335696977309671962e-02,-4.052779539297622635e-02,-1.439863840671022459e-02,-8.257596964099462450e-03,-2.117891146913050693e-02,-1.068508773949059486e-02,-8.613437910297108355e-03,-1.461524694645658772e-03,-1.526405821717723502e-02,-3.425543305927815363e-02
4.287872104790233646e-02,1.283601934115121135e-01,2.558263977962752511e-01,1.639480160068254866e-01,5.656798727455737003e-02,1.272656159455096414e-01,2.671646843418494788e-01,1.970167030320297552e-01,1.014225898234808187e-01,6.861783166343012920e-03
5.336027835136886860e-02,1.408666929576408156e-01,1.918261121650116918e-01,3.236736058751316786e-02,1.310290466690773870e-01,3.404676392153861419e-01,2.628081410833356113e-01,8.505920434495935212e-02,2.677921816544002673e-02,3.200951064412421720e-02
1.753912453311350789e-02,-2.962213540816144297e-02,-7.089222833256671186e-02,-4.378938690155705082e-02,-3.409587200671376078e-02,2.041966468300752957e-02,5.156278324278981695e-02,5.661260047093959191e-02,-3.517520958526638292e-02,2.120897519407148255e-02
4.438228990614302705e-02,7.027320709948271793e-02,1.566072346861716313e-01,1.654950470855076905e-01,8.562796485422219384e-02,3.309490729809677623e-01,2.870306298135565926e-01,1.785751881960825072e-01,4.223368852934394208e-02,-1.212229023873456768e-02
-9.866689116106896335e-03,-4.864571403777071500e-03,-1.397213161900773964e-02,-3.708938100126979442e-02,-2.300029835308399148e-02,-3.115280343644966435e-03,-3.808940197876343331e-02,-1.305512555858572184e-02,4.292803287939597062e-03,6.178318003182496285e-03
2.103969260035825489e-02,6.104062974249777063e-02,1.807042927014331224e-01,8.293853860393156363e-02,4.364219130136196556e-01,2.723788764009111296e-01,1.376082451945459251e-01,1.629023546250634585e-02,3.223287950805748397e-02,1.556937904497514465e-02
-5.549439841088075337e-02,-5.072044410678772097e-02,-2.544463608967986040e-02,6.706111940118801226e-03,-5.456077132555166645e-03,-2.580203867910960125e-02,-1.661579811636109544e-02,-5.484161239808035826e-03,1.592216340977973751e-03,-1.091150826166803825e-02
-6.146504651009785693e-03,-9.391437895972047645e-02,8.100412002888570870e-03,1.824264166158097097e-02,-4.355628763144477750e-02,-3.305864379159199201e-02,1.084995617434804458e-04,-1.327836000635906552e-02,-1.639996366298494476e-02,4.314662399275553950e-04
1.368854783707593170e-02,-8.158089236348659012e-02,-6.149692148540368553e-02,2.323507593369798785e-02,9.019812631073121159e-03,2.754049978376822000e-03,-9.569337721602311220e-02,2.897608908724868225e-03,-2.328185077439193576e-02,-2.286114878151062138e-02
-4.470381253134035268e-03,-1.515002052841049607e-02,-2.456717668736429702e-02,-3.117504801443771872e-02,-5.910180347959651664e-02,-1.550154797278651070e-03,-3.301516651931398188e-03,1.459792838837139194e-02,-3.676453425731136815e-02,-3.978970329132450537e-03
-3.537116508910583251e-03,-2.103100982803017549e-02,-1.608373243666913000e-03,-3.050095960880197868e-02,-4.463834846614319479e-02,-7.214654010571741431e-03,-5.462084320816445321e-03,-1.122688777933247145e-02,-2.708437733944820888e-02,3.061634447386596229e-03
-7.671977421726706471e-03,-2.247393134358806679e-02,-2.932066410157287140e-02,-2.935147521189693590e-02,-3.380930445468453144e-02,7.312147061219533527e-03,4.847505993476500935e-03,-2.549162897229321004e-02,-3.607069340238666308e-04,3.731904283706480047e-03
-3.396546990672387294e-03,-3.759745706748158361e-02,-7.482036979163032842e-02,-6.305591303382224178e-02,3.230400359932959330e-03,5.742247408804172608e-03,3.636095503047270805e-02,5.375127792976364116e-02,3.974743759623093359e-04,-1.382441413706557605e-02
2.490979928422225320e-03,-3.345415141667494596e-02,-1.149352292761721735e-03,-1.564811175760511333e-02,-7.312566649283207265e-02,-1.248848297477150697e-02,-9.741329161242999598e-04,-2.334387165318070265e-02,-9.776066030532267609e-03,2.135471121845854917e-03
2.794137784895552382e-02,9.163925932157654386e-02,1.579909258734923938e-01,1.467041278905331647e-01,3.534316086535958523e-01,2.626746871586637111e-01,1.713844301081062504e-01,3.414871724703393702e-02,-2.909703823506653523e-03,2.384454420231588850e-02
5.758499306659105310e-02,1.508243374928317383e-03,3.438299658799940928e-01,3.395319104232930596e-01,2.293007770029859560e-01,8.877719834985747793e-02,1.062683930059450318e-02,7.975515350962483763e-03,7.562844771186760795e-02,3.303571916236675704e-02
-6.691996130702166506e-03,1.011266955005900442e-01,1.268556816307683521e-01,9.889444830217884730e-02,2.691494744141005868e-01,4.496595527337056142e-01,2.208298514914961153e-01,1.647973139520729491e-01,1.096810766374272782e-03,-1.207552647081138776e-02
3.114826060999944905e-03,-2.958381472110865190e-02,-8.658058055836489672e-03,-2.757378105276571748e-02,-4.965160436238957864e-02,-1.575209452992728382e-02,5.375205109308309019e-03,-9.133215899064295318e-03,-1.707410129720048422e-02,-2.449903301413320147e-02
1.995423868484181781e-02,1.227670504702048498e-01,2.611493569602459375e-01,4.070727913639488049e-02,2.861003339255796529e-01,2.119211701233758016e-01,1.339336922075440028e-01,1.358510140134195666e-02,2.377325817872831190e-02,-1.060539024468988741e-02
5.059916293095576695e-02,1.354185640158058201e-01,8.902848251637889010e-02,4.062808944287846780e-01,3.179971769200499732e-01,1.557428505133432728e-01,6.210942289314678316e-02,2.966630661256040163e-02,4.013574591849962403e-02,1.579812659947061118e-02
-1.818890176780533705e-02,-1.450814269345280377e-02,-4.463318140534726364e-02,5.376291066874350731e-03,-1.475056944753455135e-03,-2.418320957133736696e-03,6.283363630978499627e-03,-3.864368974339042750e-02,-2.896625219735847467e-02,3.691134810592023620e-03
3.138062900076349360e-02,1.035122583727626222e-01,2.144823431873750241e-01,1.452508036557932092e-01,3.490390423705506673e-01,2.503443329374762660e-01,1.333624132254623840e-01,5.384042106367956451e-03,3.439420782270789789e-02,5.317382440357096111e-03
-1.392277824745372962e-02,-7.415218347962943511e-03,-1.456530968323656826e-02,-4.345892065375791397e-02,-3.009666003592637029e-02,2.229777058656317278e-03,-1.367215715917059760e-02,-1.720835186959749491e-02,-8.977259871266850136e-04,1.495286406792506332e-03
1.235858844272108223e-03,-6.282483520456055154e-03,-1.819033398313331940e-01,3.613130717467934183e-02,1.074022138639849078e-01,6.842555697305346962e-02,1.216444703148061857e-02,2.327887610327312833e-03,5.398869472001319170e-02,-6.105072145221810721e-03
-9.309291938260130100e-03,-1.683240517924260507e-02,-5.426982008226775150e-02,-4.415278527269370784e-02,-2.732996409115276502e-03,-1.155080590643141683e-02,1.586190154165828536e-02,3.084878801913087942e-02,1.293643312240863770e-02,-4.303840204388260406e-03
-1.361265861159732804e-02,-1.697439459018903335e-02,-1.917292195577437186e-02,-3.873136642154014625e-02,-1.930319916828244012e-02,-9.791963670355520108e-03,3.874948849829845839e-03,1.756504063659200402e-03,-3.775153357744621962e-02,-1.119967858452798441e-02
2.255922094407350476e-02,1.004813435890100359e-01,7.281447623650325746e-03,-2.985434949129346649e-02,3.872595044860996372e-01,2.822200150264858043e-01,1.088209222399892095e-01,1.208172936167905692e-01,2.973314761864313122e-02,-3.508751017107912366e-03
-6.509065177212928870e-03,-5.086616955138751478e-02,-2.219255160906593444e-02,7.757612694625480067e-03,5.259989352474894903e-06,-4.480072526920244463e-02,-4.966488471187023579e-02,4.943330052531762046e-03,-1.005677524019130825e-02,-1.193878132499469509e-02
-1.114668040724160411e-02,-2.057387793449355629e-02,-1.647982208013807877e-03,-5.291340002418534055e-02,-1.059013951771071473e-02,-6.580746519031593043e-03,2.605189101472939585e-04,-1.659750907338417361e-02,-1.179959586350874494e-02,-9.770318013487147221e-03
1.373009981792434019e-02,-6.053221723905155560e-03,-5.362748233324854397e-02,-7.276447242292841122e-02,-1.611281354658387205e-02,1.478086352776746340e-02,-1.816294770726943186e-03,-1.256117706097179335e-02,3.566058891651495248e-03,-9.396255951172318918e-03
3.004470693129991307e-02,7.377058489976200811e-03,-4.519745118953185509e-02,-3.141934363280361048e-02,-8.383664905110065069e-02,-5.414369910327820543e-03,-2.013099563778289122e-02,1.613805044690591259e-02,2.204068521783513618e-02,-3.218723752636285917e-03
-1.632251588595426059e-02,-3.493263255757568519e-02,-3.769280913635487951e-02,-4.350685435313593301e-03,-3.967915173470412671e-02,-9.133855935569838366e-03,-1.924598940862257699e-03,-1.289805719820046569e-02,-2.079851591769146801e-02,-7.942538838694866883e-04
3.164400768194899211e-02,7.496080370436468410e-02,2.650662515665931918e-01,8.802189518887316988e-02,3.173747699718260096e-01,3.368820571436056954e-01,1.063281932357651172e-01,4.371264820958904729e-02,1.243061227952241277e-02,-1.096479345823900498e-05
3.710913583175184938e-02,-2.043629940597879377e-02,-5.883328893877870502e-02,-1.879870210192137459e-02,-5.923798800841408724e-02,-2.216206285325326292e-02,1.686004435340069871e-02,9.888349764080116289e-03,2.087927569320438201e-02,-8.976597737659079874e-04
3.262494941306253587e-02,-2.555465140994066589e-02,-4.241017272563894769e-02,-3.597412838651724981e-02,-2.940751678843055161e-02,1.521998749650535152e-02,4.058423661338723606e-03,-1.773821942321338052e-02,1.947992590626243178e-02,4.584152857418988432e-03
-1.204450744033831863e-03,-1.837404542695781143e-02,-1.680579627380387672e-02,-5.226733136258492236e-03,-6.274172650643636273e-02,-1.213256519614577074e-03,3.220291783575310665e-03,1.296149869162396134e-02,2.542862829053642044e-03,-1.417969213218185989e-02
1.277877087654498423e-02,1.185616474711816554e-01,1.674698719321636164e-01,9.645721467152824913e-02,2.858654141110866242e-01,3.252298079733741409e-01,1.887259537135875798e-01,5.157799186452665524e-02,-4.088882558171437476e-02,8.324573167412642818e-03
5.032631934501482357e-03,-2.158964544970199198e-02,-2.810924961476629277e-02,-1.519416747153311958e-02,-8.138727038267448699e-02,-3.546659330538384173e-03,-7.719216016044050735e-03,-2.344188781639527236e-02,-9.574075122371966326e-03,-9.184075055133102388e-04
-2.556454629494387884e-02,-3.785977432621037003e-02,-8.275342821833561735e-02,-6.151210341089612815e-02,1.937299727044028419e-02,2.045195622119645382e-02,1.429201332872724346e-03,-3.374250635014085925e-02,-4.993446601811066601e-03,5.529096938263145834e-03
1.228719107958983585e-02,7.532173044127808692e-02,2.995320476687231559e-01,2.261645953558046596e-01,4.462455138461005055e-02,3.200669800498891493e-01,2.144312334222724103e-01,1.735574215091307271e-01,5.849186337277608588e-02,5.051361439578455972e-03
