-2.022054362433905461e-01,-3.062680891907845204e-01,-1.058982526147754233e-01,-1.592027866677663550e-01,-1.496750987764920438e-01,-1.909454957108732420e-01,-9.259271062692453480e-02,-6.732738489121235792e-02,-1.651238962827705214e-01,-1.435994816004251828e-01
-2.783602988846214238e-02,-5.735540200203284589e-02,-5.439942357833182224e-02,1.351143932551741346e-02,-1.004712215175437018e-01,-7.964587941705410234e-03,1.666588396692654239e-01,4.040959180924875993e-02,1.590873138886585506e-02,3.040673402795062742e-03
8.138120791870919954e-03,8.931918706277625422e-03,1.641863751023731749e-02,-1.794375320079333661e-03,-5.017166145416802718e-04,1.746567795013485684e-03,5.928347597512933706e-03,3.826905638828929229e-03,2.355849574019183018e-03,1.969559381434910633e-03
-1.119235742059531552e-01,-3.518538856610669008e-01,-1.552890917977209351e-01,-8.332465421137517925e-02,-2.125100459781309736e-01,-1.715145720240515703e-01,-4.665508308960692602e-02,-6.359986266310745096e-02,-2.306616408640085880e-01,-1.141573080358330577e-01
-3.485043267019514307e-02,-3.202327728637862636e-01,-2.556056680870478215e-01,-6.351897902388375927e-02,-1.886757973482827977e-01,-1.293547642893063954e-01,-2.801151373623433916e-02,-2.402150200545668801e-01,-1.477636504457340572e-01,-2.137088626504241810e-03
-2.041645913166301521e-02,-1.916719203589638265e-02,-1.816838876088894966e-02,2.218570167925426606e-02,-6.673282432827815081e-02,5.891635474355407659e-02,4.217073626103818446e-02,-2.867830230149733938e-03,4.830821789919770987e-03,1.251886046955184677e-02
-2.328214491832444888e-01,-3.687800630986454720e-01,-1.034586081309083472e-01,-1.543876520438813016e-01,-1.168273368574193616e-01,-9.493296907151828334e-02,-5.915902634251356262e-02,4.439654502165119726e-02,-1.153533417990071225e-01,-5.498848241945901438e-02
6.973374962064972891e-03,1.089332784335695845e-02,7.146226200736665451e-03,-1.369826476964922622e-03,-2.398917244457204456e-03,-1.728671213076130031e-02,1.318682118003144596e-02,2.873217933312582212e-02,8.056663245396096171e-03,1.901691869418327754e-02
-1.865291609808658905e-03,-1.816708386260691352e-02,-3.014756731393770928e-02,3.706192189934837122e-02,-8.856284463349826941e-02,-6.193214402933758245e-02,3.259971038523312714e-02,1.807915359410057765e-01,-2.653148171303402331e-02,-1.579677072326302750e-02
-1.749183696250283110e-02,-2.227455439370861767e-01,-1.982922220485511811e-01,-2.899256401252603074e-02,-1.910774848773455492e-01,-1.965266731185699445e-01,-5.824719277886360874e-02,-2.222659686706066617e-01,-1.610858936898595106e-01,-3.852277010610716951e-02
-6.099851648847165984e-03,-1.747013863518684373e-01,-3.844081870086249464e-01,-8.785751215338859221e-02,-1.455887401565561234e-01,-1.997707425247063073e-01,-7.689947004698856337e-02,-8.946849912307731911e-02,-2.403300882239990943e-01,-8.446036819575669652e-02
-1.025828977733172637e-01,-3.326960734434067368e-01,-1.391580604318118641e-01,-2.426369396952399171e-02,-2.313039102996565788e-01,-1.672702313569868204e-01,-1.342853738460791091e-01,1.006574493388947633e-03,-7.561831629834507573e-02,-1.636953264454227841e-01
-3.895202165996092952e-02,-7.517885297897169972e-02,5.681806392032061337e-02,9.272601038290195774e-02,-1.636319542058277399e-01,-1.022278205183271282e-01,-9.886691445196536809e-02,-2.131051620987889916e-01,-5.437877895664294109e-02,2.378529730518256710e-02
-2.506202603575225507e-01,-3.104249092025276879e-01,-6.998198130849135612e-02,-1.907928295281802744e-01,-1.579714649736881360e-01,-1.090051584334094104e-01,3.128795640506500456e-03,-2.798585514558998410e-04,-1.767625659925201875e-01,-3.072725638174999413e-02
-1.738760766777584232e-01,-3.342497585349095135e-01,-1.045922593540240947e-01,-1.942056986411119790e-01,-1.856170578791116466e-01,-1.217967805211749438e-01,-2.249117237989207291e-02,-1.418547802823701687e-01,-1.804936308625171570e-01,-1.288596698415113428e-01
-8.773918987030733529e-02,-1.620096356642377888e-01,-2.009738981409326941e-01,-8.270483490653279812e-02,-1.407306191050945732e-01,-1.405515418139421380e-01,-1.114572781109024052e-01,-2.384324287424778310e-01,-3.636272212745190746e-01,-7.123726433643784439e-02
-5.206446306069761887e-02,-9.018261565704685512e-02,-7.354944930375249823e-02,-4.330391944798740733e-02,-2.374675601091220667e-01,-1.617900006475085639e-01,-1.665936794073517024e-01,-3.633172676225299713e-01,-1.264546611222057415e-01,-1.795205403211969780e-02
8.388915740827646017e-03,-2.164173098661606107e-02,-4.948996175748602427e-02,2.415547740856473918e-02,-8.182300688555750601e-02,3.566004442930684887e-02,1.040062891499657499e-01,4.793281943695774233e-02,1.284135467154205734e-02,-6.839081820506475590e-04
-2.330088261975160613e-02,-2.296439628047336132e-02,-4.334587652364455673e-02,1.501479979004287715e-02,-6.586923861521232215e-02,-1.506168280400096114e-02,1.576466951286405183e-01,1.180799268668147363e-03,8.044288473651392546e-03,1.331946299736693276e-02
1.604298307123919187e-02,-1.057383788441806048e-02,-2.302694769738024977e-02,1.217937443282040254e-02,-6.351928380702850929e-02,-5.663952174437982684e-02,1.250866052689556529e-01,1.354093489918461839e-02,-9.231989529619228805e-04,4.274463351261858363e-02
-2.568538913647341881e-01,-2.447826127600057355e-01,-6.368112564501964001e-02,-1.643624689476253786e-01,-1.818992051183272174e-01,-1.372348803046505028e-01,-5.159798309692449625e-02,-2.218236456047482652e-01,-2.186858574898423169e-01,-2.418940792680272095e-02
1.024769474244598046e-03,2.444297905570014945e-02,5.773928792812221475e-03,-6.799912320366684540e-03,-1.243733702609670783e-02,-4.799529975047402489e-03,3.147711089038746773e-02,2.971856984295305829e-02,1.072220950704848123e-02,9.546401481612730097e-03
-3.752692736718271638e-02,-3.519727763741672261e-02,-1.123479750242631359e-02,1.264473599243380597e-01,-1.330210275305389600e-01,-5.069819635584965622e-02,1.067758172769798231e-01,-4.381179589771852512e-02,-7.770218942625535530e-02,-3.661139102068449586e-02
-5.417517960664793020e-02,-2.853227245319225891e-01,-2.846462459903106867e-01,-6.950724685016923532e-02,-2.181614897555141930e-01,-5.113059425623694282e-02,-1.251521587077798411e-02,-1.889968645557164317e-01,-7.083155862733503394e-02,4.312779090128661570e-03
-8.579740955245510059e-02,-2.289293533416031923e-01,-1.801044133453109583e-02,-2.057045947036895694e-01,-1.322806359124995557e-01,-1.832515211191166615e-01,-3.976078185715550134e-02,-1.392699262808207161e-01,-2.696451670302343340e-01,-6.304571430879144130e-04
-6.567115991980036413e-04,-6.309370870217278354e-03,6.861347464882769365e-02,-3.434128213875585478e-02,-4.147091150117236669e-02,-2.746778260090682738e-02,1.912804562509473963e-02,5.657216925982551381e-02,4.411531570992848275e-03,3.882112222696329756e-03
-2.525065810125111110e-01,-2.604201995044677087e-01,-7.538902457299440085e-02,-1.946094357579445655e-01,-1.571673358190622816e-01,-1.423809577343696509e-01,-7.008081961179610242e-02,-9.429692761539948398e-02,-1.893361699800588382e-01,-2.639775170164159607e-02
-2.380191311423272005e-01,-3.082200522577311363e-01,-7.616530508509632147e-02,-1.855689895474054441e-01,-1.661114079160964652e-01,-1.542843672934534061e-01,-7.251865839122220714e-02,-4.106623817857274960e-04,-1.905541727170289579e-01,-8.229273802770829815e-02
1.771960369760699344e-02,1.644854473563128056e-02,-1.906858819364178059e-02,1.038837145953563608e-03,-8.828702602671731348e-02,-5.197529346560489372e-02,7.419643093868849570e-02,1.085602885458546579e-01,-3.175076477116638846e-02,3.586774149997917771e-02
-7.465640239816526136e-02,-2.112022012189276599e-01,-2.133239792493045461e-01,-2.622352020426107697e-02,-1.698106244334487980e-01,-7.103899151797911371e-02,1.520983990867113000e-01,-2.468629654739837287e-04,-1.261236036000076000e-01,-1.197942775369579931e-02
-6.579487221741385505e-02,-1.825310290122846846e-01,-2.474104861143031908e-01,-9.880102403786936160e-02,-2.580202282204709929e-01,-1.942402993692943780e-01,-1.100249886009523614e-01,-2.193276213768601546e-01,-1.103884180131764342e-01,1.556419435273632620e-02
-1.112824227934282317e-02,4.231248645307917472e-02,-1.884493785295364779e-02,-3.132643768580289922e-02,-3.133032372335010224e-02,-2.495584973810813234e-02,5.963976347902102265e-02,3.629952050474666986e-02,1.591711334946992532e-02,1.723524228080393350e-02
-8.141124311313129372e-03,4.414915712024588407e-02,1.093647490115488667e-02,-1.339302530361363014e-02,-5.213235411234880441e-03,-1.516882592698392401e-02,9.316281026443176683e-03,5.462787650161148034e-02,1.435195615121011292e-02,3.503127346652768859e-04
-2.073770143485428874e-02,-1.601588460114085621e-01,-1.833382263142779856e-01,1.749570886620738577e-02,-2.190123302057452592e-01,-8.428233263420213672e-02,-7.311856919115133913e-02,-2.961225108327300570e-01,-2.044957079062570682e-01,-2.284843502141140070e-02
-8.930359240911782404e-02,-2.565282352885076556e-01,-2.652235960098471290e-01,-8.673947761476796803e-02,-1.998874357551420899e-01,-1.398949993127080460e-01,-1.176696298532832474e-01,-2.021372507894944048e-01,-1.686809099210413165e-01,-1.038518161225069833e-02
-1.711837153431792005e-02,-2.347327067523596600e-01,-2.419395287572712605e-01,-4.489383329803961487e-02,-1.577351616739120777e-01,-1.426566748744256263e-01,-6.723367144415938468e-02,-1.626981022059043325e-01,-3.488087686648614905e-01,-9.712098897404299047e-02
-1.181515043697457384e-01,-1.888668090650205411e-01,-1.604344642276198385e-01,5.365566409257131741e-02,-1.182294581801065225e-01,-8.546941635676370830e-02,6.778840341425246274e-02,-1.086347928429396842e-01,-1.956142108299963045e-01,-7.293358587583807784e-02
-1.355564291769768316e-02,-2.466992223677436646e-01,-3.478817522232514059e-01,-2.296925870811657860e-02,-1.475871691492995630e-01,-4.814651508038476913e-02,6.210235503094867909e-02,-2.971382277817156276e-02,-2.294218346082649851e-01,-7.227713209834228658e-02
-2.645187237250519185e-01,-3.335912547433758091e-01,-8.479832270242379511e-02,-1.841343858979248016e-01,-1.099189128501510404e-01,-1.455616905346472367e-01,-3.338677733870324717e-03,-1.431024858316763126e-01,-2.189501105017341853e-01,-4.290768871473756019e-02
-9.594009598127372848e-03,-4.365819079801527836e-02,2.652198943801008409e-03,1.859773998484635796e-03,-7.493403897939905633e-02,-3.509614465603574235e-02,1.256245124294042559e-01,5.932558470160736314e-02,1.313882665091120096e-02,6.609097501050787207e-03
-1.087199335508472892e-01,-9.305135488108287611e-02,-6.698738434281417686e-02,2.687941204520824523e-02,-1.913292132834704951e-01,-1.718859841685768386e-01,-1.259882557025318595e-01,-2.551836789019821250e-01,-3.186607904123430202e-01,-1.410410806025211598e-03
-1.940279258359428084e-03,9.060382885208304732e-03,1.612246389112211020e-02,-2.811923900753874293e-03,-6.213023997518026323e-03,-4.028514563201455491e-03,9.225389828848763350e-04,1.247407760123850178e-02,2.569155253663183217e-02,1.242515453248596580e-02
-1.156031156789274171e-02,-2.008992561488148199e-01,-2.494534753081650291e-01,-5.360819555471314085e-02,-1.148802929926523303e-01,-1.005350873758969615e-01,-1.081743216993223261e-01,-1.627780466027674566e-01,-2.985153644745156543e-01,-1.196162867552633680e-01
-4.025151816322944387e-02,-2.900546882840462359e-01,-3.106417017694865779e-01,-9.888486061883361433e-03,-1.062278686560306357e-01,-1.045783035147293399e-01,1.190910763212626663e-02,-5.783928674376902918e-02,-2.783343551789957404e-01,-6.977519226171208233e-02
-4.659979156660446625e-03,-1.516897455573097513e-02,6.089142642960884699e-02,-2.800927220519637550e-02,-2.066156402405690609e-02,-1.793121549441685850e-02,-9.226066899829859710e-03,4.618023964522292163e-02,3.906424356351264476e-02,1.258653683250468905e-02
-2.690384772468507046e-01,-3.172308440684946107e-01,-1.486010374221793384e-01,-1.775879595913733011e-01,-1.563335588478444727e-01,-1.284909550291287172e-01,-8.259881752843237224e-02,-8.244248762872902897e-03,-9.382296811843204853e-02,-1.454744685574453356e-01
-2.309035755700373452e-03,1.697475890830857370e-02,6.856310948235955216e-02,-4.505985671733536008e-02,-2.355759673786106748e-02,-2.772925615184745896e-02,1.649222052165295535e-02,6.036390276437136881e-02,-1.831798831405672323e-03,1.628305882720384231e-03
-2.623239804637638589e-02,-2.434707329465467598e-02,-5.797675877015907170e-02,2.109176010422551470e-02,-9.846905461366486922e-02,-7.977908563714555812e-02,5.542980862796789004e-02,1.916865076734535212e-01,-3.628719066995673981e-02,-9.398746922771251261e-03
-1.649617659038402420e-02,-3.107191442584749663e-01,-2.313775340297498928e-01,-5.092140008130419115e-02,-2.068899033856642089e-01,-1.447404514404936060e-01,-1.976729127529071872e-01,-2.088492830175781578e-01,-5.081288842425922547e-02,9.505663493950804871e-03
-7.531830043129301988e-03,-3.246431470778911310e-02,-5.405033281458162392e-02,-6.351630212511306765e-03,-6.935808347450821143e-02,-5.685658495533635337e-02,3.224569889609169016e-02,1.797000874319292507e-01,-1.615664677486133155e-02,1.254785222857689522e-02
-4.889120452055312725e-03,8.238946129166851290e-03,-4.350458069146851542e-02,1.528544801187828144e-02,-9.765481855995372662e-02,-5.323680738682903119e-02,1.358132088442645102e-01,3.680079410273249391e-02,-6.682805911226830098e-02,1.927923684257026524e-02
1.791531951771120970e-03,3.500029531003387515e-03,3.620560607756900112e-02,-1.939280908895650926e-02,-2.756636053425787908e-02,-3.748879342148098842e-02,-9.208715604794642448e-03,6.003038092397000591e-02,4.750427696591739274e-02,-1.771081166476639115e-02
-9.954200858262965412e-02,-1.955711547860503607e-01,-2.012890394692615215e-01,2.180109321729694141e-02,-1.657728653305399757e-01,-1.093054072815896061e-01,-8.243242720914598087e-02,-1.400310183438794320e-01,-3.072767903607743767e-01,-9.206402834077750952e-02
-1.888154907223061176e-03,-8.278199218520467320e-03,4.040051155513705444e-02,-3.242763885602229640e-02,-2.695682617720027152e-02,-2.847632513792123371e-02,-9.156221961485477151e-03,1.971673986493189742e-02,4.115482888154263497e-02,8.989955281875362456e-03
-7.734987264145672808e-03,-2.232378239113427532e-01,-2.322806138380742180e-01,-8.006947311844112014e-02,-1.908851076138554093e-01,-1.263267636007553985e-01,-1.133463501258306777e-01,-1.886233901364081367e-01,-2.903081466465966543e-01,-7.234649022833911092e-02
-2.101917655075072333e-01,-3.521980020834059588e-01,-7.652528431039200274e-02,-1.837854010688455830e-01,-1.713568344632734053e-01,-1.981158306569694161e-01,-7.912412998413864695e-02,2.590823419630650451e-02,-9.500506900661140341e-02,-3.727895225394414758e-02
-7.270863779770645428e-03,8.494281757596136226e-03,4.876026288052674046e-02,-3.929421614666581825e-02,-2.937363802504698237e-02,-1.777456528665957713e-02,1.215286487838389967e-02,7.744101808215077265e-02,-1.961764335860907617e-03,-2.121644918874312363e-03
-1.240235820617444952e-02,-2.710866674062544293e-02,-1.950600777407446654e-02,3.382624580754853283e-02,-7.402755145018899419e-02,-1.573467516230447200e-02,1.676287311913242095e-01,2.438493153181045883e-03,-4.096547093537590729e-03,4.095058871937125311e-03
-2.906612398694075061e-02,-1.184488541637696429e-01,-1.696801599773136715e-01,-4.926697258204185137e-02,-1.771898130180798725e-01,-1.786991502636711138e-01,-1.244557703079982730e-01,-2.748059138145284575e-01,-2.374746219364140820e-01,-1.105145028392466415e-02
-4.190864355507940842e-02,-6.824240431766721848e-02,1.789485552765423745e-02,2.335021510237702061e-02,-1.029115479577348141e-01,1.277986330387338720e-01,1.309172294856887908e-01,-3.873412208279722324e-02,-2.919396859254762278e-02,-2.995745786728139584e-02
-2.801936790769576358e-01,-3.094267244242431270e-01,-7.688085212176973271e-02,-2.297270025040611119e-01,-1.239829431043152769e-01,-1.743996029887334154e-01,-8.285789600303830604e-02,-1.621734693026879049e-03,-1.493875844427538513e-01,-8.645647738455349007e-02
1.144334111371608266e-02,1.248601721977623223e-02,1.547878141716388031e-02,-1.156607872473917019e-02,1.919794814822691365e-03,3.719323849158408593e-03,1.006185525349725940e-02,7.342123038718220349e-03,7.317857057026754507e-03,1.589837557986632571e-03
-2.107364196589286143e-01,-2.626831211249400222e-01,-8.197332457857717247e-02,-1.564172982915937871e-01,-1.308515535883008341e-01,-1.340054902876006981e-01,-8.905849332021370524e-02,-1.519741730262841317e-01,-2.686026370298678634e-01,-8.155241725383131912e-02
-9.880084459473578717e-02,-2.096138421275553221e-01,-6.035399468964493946e-02,1.606113297061254053e-02,-2.209718412331965198e-01,-1.016788912333035783e-01,-1.441829059065919405e-01,-2.305341686063017981e-01,-1.765032630141717407e-01,-6.501286668227977683e-02
-2.831711754261458797e-02,-4.341420797657111197e-02,-4.877162411095186528e-02,-1.404506340039626648e-02,-9.597704507252184658e-02,-8.739894440833284595e-02,1.430774446939219735e-01,8.102828206834078451e-02,9.070247156531768482e-03,1.262473522120457180e-02
-3.868878344656016474e-03,-1.763574054353299614e-01,-2.492645333358403659e-01,-3.939782439709394596e-02,-1.402421158286185077e-01,-8.281929591534446800e-02,-1.265648157903910276e-01,-1.667127135582013864e-01,-3.180829217868867964e-01,-6.840480700892175026e-02
-1.870296712714612786e-01,-2.489566317921813876e-01,-1.164172522944443705e-01,-2.358183183483328060e-01,-1.732382255842082885e-01,-2.051694351131641558e-01,-1.198783697069202327e-02,-5.511413989775652139e-02,-2.086628656804271620e-01,-1.023210617060619915e-01
1.151300320824799953e-02,-2.374089031790484194e-02,-5.635011009924315376e-03,2.155537367907879587e-02,-7.826392915960661556e-02,-5.096583688510137461e-02,1.541774183486024630e-01,2.489129776770528102e-02,7.103074243960137701e-03,4.034122233155084010e-03
-1.643470789028312479e-02,-4.059250935391132270e-02,-5.182603417268807910e-02,3.967902863912063996e-03,-9.215794456890646913e-02,3.358600224404789669e-02,1.274975310532829309e-01,1.877312685912033846e-02,1.357908076793380540e-02,6.229744522769600779e-03
-6.531940654040058192e-02,-1.134918465611491484e-01,-7.727010576899075167e-02,3.743760451919984911e-02,-1.329704147842141471e-01,6.660488396129237917e-03,1.980237395615638551e-01,-1.267400234837288454e-02,-1.359780054295789062e-02,5.021117182100046268e-03
-4.968838140580562543e-03,-5.223517782254431113e-02,-6.803622289142786939e-02,3.079061592445931847e-02,-1.132783541620356188e-01,-5.907765921351526561e-02,1.671497647313845980e-01,8.311462256892128420e-02,-3.119677466584771033e-02,-1.156344139019094101e-02
-3.255701299213195621e-02,-6.265969356391626333e-02,-7.125159043783370338e-02,-1.118498135061145489e-02,-1.048777254252937913e-01,-4.861941296801908924e-02,2.529625750893552683e-01,4.305786489753888474e-02,-7.606136824015624284e-03,2.341743910983983337e-02
-1.702078291556041040e-02,-1.767768146715618244e-02,-2.533294933763796317e-02,5.598545315210558086e-03,-6.386507174062112935e-02,-1.746071024821942153e-02,9.464219407903450010e-02,7.362561669992309654e-02,-1.355470376719476212e-02,6.756028611259183754e-03
-8.575736601196605122e-03,1.990357073994543716e-02,-8.603186665664713101e-03,-1.459140654275940981e-03,-9.042365194434074868e-03,-9.538323141556909884e-03,4.284781753022059297e-02,3.044999781733689209e-02,-4.792605917895943410e-03,1.608594191429054202e-02
-1.169661296137245246e-02,3.053718551074435100e-02,-1.738610876749372910e-02,-9.675794567648729819e-03,-1.442404998445483665e-02,8.599105769381764144e-03,3.841621918672250002e-02,1.259346186603066582e-02,6.433529126520472381e-03,9.302021397831549548e-03
-5.496780785846894224e-03,-3.479710330538054314e-02,-5.022978717065338522e-02,3.522825152543031246e-02,-6.396380707825452538e-02,-3.889489642341506515e-02,1.481874090214112816e-01,4.762546657908486164e-02,6.094115191466650252e-04,3.479628772387527436e-03
-1.009248028760206806e-02,-1.990528289972081505e-02,-1.937541716141135545e-02,-1.109250544391491601e-02,-5.429175981877273210e-02,-1.770978631038018156e-02,1.311350212382536573e-01,2.289232658352469488e-02,1.474059356292887341e-02,1.766312091516940297e-02
1.957830787716342922e-03,6.409301681514332875e-03,4.834898928469356233e-02,-1.584896800725827531e-02,-6.130772599810953988e-03,-9.871148122562285136e-04,-9.924024889134846518e-04,4.094738498561597065e-03,2.121212351953272526e-02,-1.082110159114403137e-03
-2.690822484335326451e-03,1.858551183564085066e-02,3.059188632246733278e-03,-5.740441642512646159e-03,-8.627772960067505228e-03,-1.074642668305087617e-02,1.268859799352324395e-02,5.224777000913741892e-02,5.739725767311946829e-03,1.187413182386090095e-02
-4.326729384777849852e-02,-3.484998931385720478e-01,-1.717461511563733723e-01,-9.020002860570852654e-02,-2.110594037437283077e-01,-1.151652005024068059e-01,-8.757190827486770190e-02,-2.289258231621225659e-01,-1.298408857844187692e-01,-1.240116575447735951e-02
-2.319299811292120650e-01,-3.921091351784146140e-01,-1.527060601625374603e-01,-8.449297248434499419e-02,-1.712116408228889219e-01,-1.054185046882727406e-01,-1.114160495258514072e-01,2.809930440492747206e-02,3.281736501805175565e-02,-1.185234337579315483e-01
-9.887526656045490803e-02,-2.568825261896938161e-01,-1.838785886891661225e-01,-5.295750531219756141e-02,-2.705823797228491534e-01,-1.681279214264233268e-01,-1.231557774538365874e-01,1.585801589060769345e-01,3.207565264674566707e-02,-9.042004778155732225e-02
7.046145751311494107e-03,1.492302370908379894e-04,3.509783824579820743e-02,-1.683805778687360102e-02,-6.367242503825863362e-03,-6.905057851837056657e-03,3.183464391365789601e-03,4.725990546217249608e-03,1.374117220383973444e-02,9.949332770880212062e-03
-7.221158772686257082e-03,-5.754928867238905121e-02,-7.325625509744559949e-02,-1.923927774178474034e-02,-8.414939674750666898e-02,-3.464462339473341895e-02,1.733504789516074618e-01,5.748429456275743615e-02,5.139794287000099514e-03,1.967480637814197908e-02
-2.641568787915634514e-02,-4.513720577890510677e-02,-7.556355180266931260e-02,3.518528231701845577e-03,-1.349247395179579423e-01,4.534292620681710378e-02,1.613836562503888628e-01,3.294642678683421672e-02,-1.625341357915958615e-02,1.691059671586007604e-02
3.760552978268764512e-03,-1.616737443251647921e-02,-8.590457953883171363e-03,1.410733640469863555e-02,-6.334558048330875268e-02,8.344871518006025460e-03,1.093588322798305090e-01,1.909502999470126181e-02,7.911324137855850827e-03,9.472656969673476368e-03
-2.739919820805095663e-01,-3.312660277661375607e-01,-7.628425824055511117e-02,-1.628585108367104906e-01,-8.181731906389926035e-02,-1.006621483400269440e-01,-2.818105166906944431e-02,-6.151441685497360118e-02,-2.262531175779562975e-01,-8.113198888696541988e-02
-3.012684757334932115e-02,-3.474556309153681993e-02,7.333515423016801794e-03,-3.960878734643824214e-03,-1.156086643604115893e-01,-4.898207058110149587e-02,2.034674074336912664e-01,1.539712084470917612e-03,-4.701809405027762567e-02,2.231902042000656963e-02
-1.971969508371517604e-02,-2.535317127710733920e-01,-3.203943162236088105e-01,-4.277276244601641714e-02,-2.214791522211553010e-01,-1.511488197723037941e-01,-8.234250361477243874e-02,-1.812017883949826047e-01,-1.718890495426715070e-01,7.345525918709371049e-03
1.057851258302726534e-02,-7.768466080851076094e-02,-1.025626029856799293e-01,4.102691412496190654e-02,-1.338717744281095468e-01,-1.769146041703471284e-01,-7.952251486135926417e-02,-1.111926677206568348e-01,-2.376746331451297933e-01,-2.752704858845830133e-02
-4.225943120186399088e-02,-2.356771740358023226e-01,-2.553545813220561844e-01,-9.636045062058955224e-02,-2.477615760469393524e-01,-1.129116254002874159e-01,-1.136557698471176436e-01,-2.446543034686044504e-01,-1.361996987088906763e-01,-3.266686447108630570e-02
5.220029933048584737e-03,7.061865028008836422e-04,9.573902558095152837e-02,-6.205213594611443811e-02,-4.079368300575181294e-02,-5.679605626477508135e-02,4.814481104364112113e-02,2.201357499347671512e-02,-2.203601006115157510e-02,4.078415777323535912e-02
-4.578882184125133981e-02,-7.732598967840495496e-02,-7.262494055104105894e-02,3.567579697307666359e-02,-1.287787116497986772e-01,-9.166373948144494743e-02,4.813944449929339481e-02,-2.123756794130469694e-01,-3.207435136540182086e-01,-7.644587002320039903e-02
4.718909350055864476e-04,1.331859959859420413e-02,4.728834145996637858e-03,-7.358658801259539313e-03,-5.586243017302918931e-03,-7.695826321099758990e-03,1.269207422525171595e-02,4.876844660654223312e-02,-1.001839183746137604e-02,1.878592819971270853e-02
-6.311755958831882785e-02,-3.067108892935568321e-01,-2.356897184407537871e-01,-5.889954464534075812e-02,-1.931357686585657152e-01,-3.061648537312074841e-02,-5.172735966135089819e-02,-1.407574869134196327e-01,-2.405317097033442264e-02,9.403430208446089331e-03
-1.665418624935879888e-02,-1.926075222821801713e-01,-2.213924976381815846e-01,-3.086519375576034577e-02,-1.855295869910965623e-01,-9.813138391021655749e-02,-1.497547744791056790e-01,-2.827176486183534121e-01,-1.651492942683972787e-01,1.122459711518577477e-03
-1.975628467501582691e-02,-2.940442366265744872e-02,-2.270106792364723000e-02,8.154138755373097416e-03,-7.143688062134552486e-02,1.280500623030595905e-02,9.316883324843590330e-02,3.850636001905361622e-02,1.281746373959804196e-02,-3.064813883852119097e-03
-7.999177956824976565e-03,2.736472623675571120e-02,-1.353665681874231331e-03,1.068798465250656721e-02,-1.959639893861336163e-02,-1.737532747024451662e-05,5.755290876676887046e-02,2.300908451410590624e-02,5.687476517499880091e-03,1.570701298306615605e-03
-1.807494998896028993e-01,-3.060538965662249478e-01,-2.154258900324130047e-02,-1.977636635156547196e-01,-1.615419799239185827e-01,-1.810096677586932878e-01,-4.252461124263612335e-02,-2.551652843421297820e-02,-1.967460817171372278e-01,-1.463030526330256487e-01
-6.516928406369755511e-02,-2.620869920412540188e-01,-3.061112437838989786e-01,-5.829069519935498045e-02,-1.713815401173863218e-01,-1.301888572691865253e-01,-4.213576663333169769e-02,-2.106063651770942735e-01,-1.912833263640144332e-01,-3.431471224390674618e-02
-1.748916575328785666e-02,3.990224449628063108e-02,-6.731975273058019189e-03,-2.444494303328636695e-02,-2.092581208827593367e-02,8.497298434199742484e-03,6.190511620129293680e-02,1.039881952952608456e-02,3.132438529890929635e-02,1.041354392354722561e-02
-1.447770563407800304e-01,-3.247689158232092144e-01,-1.457668988401994159e-01,-1.928941282655058098e-01,-2.059662088268361668e-01,-1.475575573109836613e-01,8.838657378818282062e-02,-1.740215437318008013e-02,-6.771572951357639203e-02,-3.490650843681480930e-02
-2.068036241069013681e-01,-3.332569025928810436e-01,-7.656442319736607438e-02,-1.967331556766158396e-01,-1.321620553329993231e-01,-1.288156627073734628e-01,3.217956179667058603e-02,-6.665939252282858385e-02,-2.622638978904134333e-01,-7.507293260389372169e-02
-1.679050213429205893e-02,-3.715921500215071255e-02,-3.001110337322290128e-02,7.140788732656935811e-02,-8.574693925269731565e-02,-6.793065658472784152e-02,5.981441779394064406e-02,1.373475976327236392e-01,-1.427267751681586538e-02,2.974678824898836435e-02
-3.502676315735275738e-03,3.654541304274053302e-03,-3.590795312688094265e-02,3.471183626262202421e-02,-4.774603758387135216e-02,-2.336080323183084909e-02,1.112722403454410453e-01,3.534450552271656276e-02,7.342035461430054984e-03,7.882210716795323355e-03
-3.186471531421303932e-02,-3.606242323218421530e-01,-4.084308384268566794e-01,-3.808841507520133174e-02,-1.196386788512014826e-01,-4.900105202325404086e-02,2.765661753026152012e-02,-3.272239504645694835e-04,-2.258556779207519238e-01,-7.028305358112255097e-02
-4.682818290392538885e-02,-2.937161744812377129e-01,-3.306736260929301618e-01,-7.194217652076456693e-02,-1.728225605761888883e-01,-8.462899533222537074e-02,-3.656361324935434795e-03,-2.371066975940804011e-01,-2.091141717140859446e-01,1.704618364713177125e-02
-8.786352449885790825e-03,2.948512196546103012e-02,-1.424282771134360685e-02,-2.254207121851850570e-02,-1.814809556621701028e-02,7.320288039714242800e-02,2.158013777656818746e-02,9.922919804658760293e-03,9.127641394488787696e-03,9.012676208431300712e-03
-9.118241825360119679e-02,-3.295184333422939704e-01,-2.934595454850458807e-01,-3.120578577801257775e-02,-1.487637198537087591e-01,-6.828947756610750930e-02,1.356904777202461339e-02,-2.117696967326702373e-01,-1.558573042759654748e-01,-1.100086229199070259e-02
-2.513824322468026506e-02,-5.732431572035878026e-02,3.334020042803418488e-02,-2.057942670156233042e-02,-1.066151539608641008e-01,5.005605734447712146e-02,1.514745122101371910e-01,-1.653385591138655658e-02,-1.202714182817736857e-02,-2.881688173884358953e-02
-1.629367827338648253e-02,-8.545219325565012181e-02,-1.908581696872242717e-02,6.407236245345901415e-02,-1.240132589753147746e-01,5.494958512197926741e-03,1.794249771124484805e-01,-7.337867477610060529e-02,-5.626225053334035081e-02,-1.072136324965370160e-02
-2.168823570006348650e-02,-6.011583657994150343e-02,2.783179041086448341e-02,5.150194433079493400e-02,-1.112223802470039269e-01,7.972835881913588330e-02,6.050791171566557991e-02,1.890640060568302833e-02,3.734534827316736416e-02,-5.987352448578533298e-03
-2.414027117307308290e-01,-2.677770746365890076e-01,-1.013893982332656901e-01,-1.861558114846347811e-01,-7.653065121092240963e-02,-1.528866726016088751e-01,-8.876101726119592361e-02,-6.247756102404042333e-02,-2.591995346852005722e-01,-1.122683250520968568e-01
-2.418420277173801564e-02,5.258525984319549484e-02,-1.426951486384319366e-02,-2.010535644534307623e-02,-3.568030371468175477e-02,2.185597983247623485e-02,9.061270660067753668e-02,9.748141254903579245e-03,4.756084617278966489e-03,2.698649708318382606e-02
-1.631282318307806026e-02,-2.936315481715666698e-01,-3.074858371186162120e-01,-2.519654119648302021e-02,-1.485731963780419496e-01,-3.039691501942161367e-02,1.189191584640322402e-01,-1.262777220891591612e-01,-2.070403350416376020e-01,-5.903349073769847966e-02
-2.036906552455235164e-01,-3.298706591562519663e-01,-1.126625848676330865e-01,-1.939615099988123148e-01,-1.273268545080215031e-01,-1.464189030806841429e-01,-1.116443203627505848e-01,-1.031118845501504816e-01,-2.310537920531814116e-01,-1.368470585363375756e-02
-1.854635155803762998e-03,1.483415187935277317e-02,4.935612001952719048e-03,-1.105237532474421733e-02,-1.074150402204913229e-02,-8.904380935518768289e-03,3.500859710660336049e-02,3.422683023997912660e-02,6.564330890462176382e-03,3.660884759708086904e-03
-3.013569271261717919e-01,-3.297545873566953278e-01,-1.191117200152449485e-01,-2.138293751677061705e-01,-1.935208593597178839e-01,-1.337298096005091474e-01,-1.475134323321249021e-03,-3.593092873606448800e-02,-1.465687365556814226e-01,-2.277961859769507894e-02
-3.453245718434030942e-02,-2.434737204118578024e-01,-3.401904419375401112e-01,-3.785785453464163286e-02,-1.491705597144134532e-01,-1.536801134863862162e-01,-3.751082275076152855e-02,-1.823154097033747867e-01,-2.706186844032123506e-01,-3.727474337091546408e-02
8.727103022392796762e-04,1.034089882506094779e-02,7.789290302125610049e-03,1.164330136577317802e-04,-5.120839901940575471e-03,-1.142256050385631085e-02,2.539427334959153473e-02,3.365326343636260847e-02,7.207799272379311790e-03,1.091549032189344411e-02
-1.933134058064311656e-01,-2.819860605943944054e-01,-1.263126602828649747e-01,-2.279213431171829285e-01,-1.576798411388313503e-01,-1.460209842481915155e-01,-9.764131288741348391e-02,-1.202612714308511910e-01,-2.330832617163859921e-01,3.032079146621622853e-02
-4.284994817537393988e-03,2.174033905273460576e-02,2.066597775325626149e-02,-2.630430836351229165e-02,-2.583116729510099435e-02,-1.172810972046441254e-02,8.508595060602865481e-03,4.977751080107252479e-02,1.934131764102531639e-02,9.612600089739933157e-03
-6.694576961959822388e-03,-1.800940587003514379e-02,-1.922384158698245762e-02,3.193682745679026630e-02,-6.553252301840853389e-02,-3.541238796567949126e-02,1.497715673216616916e-01,2.055310676765875408e-02,1.467295135950051274e-02,2.584133239612124155e-02
7.786110886702262562e-03,1.129337315381468039e-02,7.334340998256956221e-03,2.790574091280167545e-03,-1.497449273967301191e-03,4.021943128640411737e-03,5.024816441556571346e-05,-1.053385849455976695e-03,1.687955029370474900e-03,-6.135085655949258643e-03
-2.394436182466197771e-01,-3.228488378912517942e-01,-6.594167913016291127e-02,-1.830368974038036889e-01,-1.515868051887605261e-01,-6.478384484568880386e-02,-5.577842571796153004e-02,8.966899568058078751e-02,-9.475589255099498009e-02,-1.362442171409233016e-01
-2.759001747303779697e-03,3.774444981916553338e-02,3.244967472599501190e-02,-3.297590951844534685e-02,-2.742721251027501264e-02,-2.639840610344217943e-03,-5.392838249620343985e-03,5.808709259273343861e-02,8.512929901937893104e-03,5.461083194515122148e-03
-7.123844543533539020e-02,-2.481693212194504838e-01,-1.964771100367691259e-01,-1.259398728352361385e-01,-2.578893032162240528e-01,-1.647008615834251732e-01,-1.231177284042865028e-01,3.689391585596295264e-02,-8.644125398189878018e-02,-1.562068463130868445e-01
9.842839526332780239e-03,-1.801405374990633634e-01,-3.091339559279773774e-01,-3.261393352435323911e-02,-1.077152489575853717e-01,-1.017870359289061999e-01,-3.884261996787648219e-02,-1.316224787578910149e-01,-2.916700936941227229e-01,-9.174436596202333039e-02
8.827243764984473579e-03,2.760737855639912308e-02,2.232950457256176885e-02,-2.416922702615974597e-02,-2.303024788799690192e-02,-1.674925986126902383e-02,2.387108101570707686e-02,3.878911161783692857e-02,-5.939609532979421222e-03,8.424586410501849060e-03
5.348476761727162694e-03,2.200164748032590670e-02,2.272234849570309648e-03,-1.113142383156701803e-02,-1.272569692786424886e-02,-4.958692675833605013e-03,-1.601371879647388871e-03,-3.776683278041015421e-03,1.006149843810791832e-02,5.343211650942296213e-03
-5.775128613952260591e-03,2.870562395929272120e-02,-1.866827743145165787e-03,-4.499627073261415998e-03,-5.650663602372809832e-03,-1.161873553103624779e-02,6.935936743702364460e-02,1.454934444975723024e-02,-4.056825325130801636e-04,3.294236662084031129e-03
-6.601622253447301039e-03,-7.036226015252005847e-03,5.678013612613989035e-03,6.377219135535853317e-03,-6.493855483158236797e-02,-2.712054853770029875e-02,1.511879952353946122e-01,3.649354756598307409e-02,-3.973954879503679115e-03,-2.666720089083700514e-03
-2.240323432642593593e-01,-2.659991694876308599e-01,-9.333951466056386592e-02,-1.566970682574735652e-01,-1.543187657960169989e-01,-1.730912788284353632e-01,-9.555563387934162822e-02,-8.301061746875917913e-02,-2.561364420024322963e-01,-8.484406349009630810e-02
-3.674968494699698551e-02,-2.017259942141013951e-01,-2.562251630359694832e-01,-1.154118330690038635e-01,-2.153838714642066776e-01,-1.804268664253742549e-01,-7.158361343008838584e-02,-2.122302974328473535e-01,-2.228688711130992761e-01,-2.877544298544642415e-02
-1.798413870394804104e-01,-3.085226973743428469e-01,-1.457070214800539609e-01,-9.681454911676788677e-02,-1.924681730564123949e-01,-1.299715362117400685e-01,-1.000572259052189411e-01,1.015917153238355408e-01,8.914517662634224848e-02,-4.838729699648635502e-02
4.209946257138924737e-03,2.237249907395683080e-02,1.394553585174057933e-02,-1.171804127472580830e-02,-4.317926575445225901e-03,-7.269731076231081106e-03,2.023732416659120709e-03,2.205659736951634704e-03,7.789812494831020902e-03,-8.997810534173844230e-03
-2.186826771209971765e-01,-3.993016892731034440e-01,-6.113018364572183477e-02,-1.469640998502629026e-01,-1.306372316611525419e-01,-1.393684391123287125e-01,1.221851459206760825e-02,4.475635559166609573e-02,-1.338625825244815770e-01,-9.214021217030939070e-02
9.845806737131763964e-03,-5.811400919092674783e-03,-1.286816439324371501e-02,2.706952136147822846e-02,-6.816463174785786228e-02,-3.359290264368159501e-02,1.283871849850563296e-01,3.454364334319111329e-02,-1.270274889162343636e-02,1.569524943185914359e-02
-1.976749825322753895e-01,-2.680878112294705629e-01,-6.076161845067923339e-02,-1.935948953472489409e-01,-1.358769352967424682e-01,-1.459516512733002036e-01,1.264313021200496288e-02,-1.729994212636274398e-01,-2.127129436682372310e-01,-1.197746437731808528e-01
-2.983282395427775541e-02,-2.194275940560215243e-01,-2.465967738130362130e-01,-2.994596774057795355e-02,-1.298357506332259437e-01,-1.434214418573970806e-01,-8.243476550582146123e-02,-1.057567325636379063e-01,-3.160803270948614463e-01,9.342023829101084309e-03
-2.576595937172529091e-02,-1.444892068389345280e-02,6.700038540895364436e-02,-3.445225029430682567e-02,-1.841614288752542808e-02,-2.103527915310723570e-02,1.545764794939435624e-02,1.091178271675291057e-02,3.465257361421679450e-02,1.132817364901592821e-02
-2.411562052767914077e-01,-3.419862404082635865e-01,-1.613216374650957852e-01,-8.329231072050538587e-02,-1.548408687473890877e-01,-7.504337268333356736e-02,-2.589723640745238923e-03,2.572050707213811849e-02,9.889757905558277384e-02,-1.209579315153595791e-02
-4.650683451573825455e-02,-8.492268385078544091e-02,-9.709757946084934810e-02,2.293820198498133789e-02,-1.679018393982227575e-01,-7.459353847518643971e-03,-5.050418608285352912e-02,-2.369036419438904917e-01,-9.181325866182753204e-02,2.506269124415167610e-02
7.966766059999994681e-03,4.608458920159945807e-03,1.656678257906120735e-02,-5.490007089890433728e-04,8.172101777653909341e-03,7.241602180400446079e-03,8.406170260583607778e-03,2.886312299002471472e-03,1.633975518375020393e-03,9.381536543871886111e-03
-4.799600034986793023e-02,-1.470637209239799015e-01,-1.858702695297208551e-01,-1.139763775887488173e-02,-1.650458535516814707e-01,-1.136914040305085916e-01,-1.244327750547451344e-01,-2.458627327302558285e-01,-9.363578554538737331e-02,6.101886445152607946e-02
-1.883670416612631682e-02,-4.285591487854788217e-02,-9.515043807207740692e-03,1.130623808146799525e-02,-1.050779850821124545e-01,6.445187394655453594e-02,1.641803203881155859e-01,-7.483654720644006665e-04,1.264529984486220150e-02,8.821681593890183179e-03
1.369373380786901434e-02,-1.426314853891180456e-01,-3.243783001085640549e-01,-1.377882459448717678e-02,-1.063899366608299230e-01,-1.442007901380932544e-01,-2.243920252049476025e-02,-1.460601658438727968e-01,-2.409787216280216138e-01,-1.191398594027640589e-01
6.066745151872717651e-03,-1.623932242448189456e-02,-4.194613981516598367e-02,1.806932212885068584e-02,-6.336791065593203043e-02,-4.057000957793693852e-02,1.149339274484444395e-01,6.794365414390315938e-02,-1.072993951431273039e-02,1.836997083308735540e-02
7.905151121080086080e-03,7.950212975218355627e-03,2.432950189589754703e-02,-4.529503477396956863e-03,-4.808918135793044044e-03,-2.595758367747556458e-03,-1.976716869762512943e-02,9.125391643657842361e-03,6.176301769551044429e-02,-1.020797250462122593e-02
-2.508957233507352891e-01,-3.932278145381005729e-01,-1.506046598006187676e-01,-1.066180455529524146e-01,-1.010662115098320685e-01,-8.988043240627455188e-02,-6.523129278513910279e-02,5.503971737180428370e-02,2.469382785298582239e-02,-5.315842184388532010e-02
