-3.826316692866384983e-01,5.606371281290194020e+00,9.371118577633751556e+00,1.236372638968168758e+01,1.374063406938512344e+01,1.420700396795291454e+01,1.349469015613431111e+01,1.199885909038130194e+01,1.006324735749512911e+01,8.501679099805187434e+00,6.530032764188945293e+00,4.320498337030585390e+00,3.688199989614076912e+00,3.472750245069619268e+00,3.770180968218483031e+00,3.709202212521631736e+00,4.339370867557590827e+00,4.897236110176891088e+00,5.788015148602426052e+00,5.902075070916907862e+00,6.649717052008782048e+00,6.770215214870404452e+00,6.848318998461763840e+00,8.113877464500546921e+00,9.047519739448034670e+00,1.052568818177678622e+01,1.180429213333991356e+01,1.256481914580217563e+01,1.359164426493225619e+01,1.437514303572243080e+01,1.442087379121221602e+01,1.424435936223017052e+01,1.294091412363923155e+01,1.076867839804617688e+01,9.211465809174114838e+00,7.000502695314935409e+00,6.070839594554854557e+00,7.647510696901008487e+00,7.982910883205477148e+00,9.855232903733849525e+00,1.165384985880518798e+01,1.208340507546381559e+01,1.121652389783412218e+01,1.126216710498556495e+01,1.116795512428507209e+01,1.091711463156389073e+01,1.105842776643112302e+01,1.025909670104738325e+01,9.056679253000766039e+00,8.095640179701149464e+00,8.279169686022214592e+00,7.394261579393059947e+00,7.211229900109174196e+00,6.369844733824720606e+00,4.595982198981801048e+00,3.024810912262182683e+00,2.685043566685635597e+00,3.077013138812617399e+00,3.749055072054034099e+00,6.425964212801773101e+00,8.048777754826005548e+00,8.159379588541924022e+00,9.398675690579693764e+00,1.261604334754520096e+01,1.389188755094073713e+01,1.143170532258227468e+01,1.132821241556666791e+01,1.133479860244551674e+01,9.610209134873002768e+00,6.223194296821020544e+00,3.515817971434444189e+00,1.334110521012917161e+00,-3.633654394652694464e-01,-6.591060895007103682e-01,-5.884558607358485460e-01,-7.900728331878781319e-02,-3.926603340078145266e-01,-3.987573003396391869e-01,-1.436948890332132578e-01,-5.084917780477553606e-01,-1.570307812653481960e-01,-1.752737304195761681e-01,-1.004262065456714481e+00,-3.006776318652555346e-01,-3.682050458155572414e-01,-6.318128058919683099e-01,-5.813155617797747254e-01,-7.151875969721004367e-01,-3.373333879280835390e-01,-6.933588889660313725e-01,-8.830034410348162055e-01,-1.319050098827574402e-01,2.864224232034757733e-01,7.319772618357092142e-01,4.952101238959585316e-01,2.447625371511094272e+00,3.897253493778407574e+00,5.550892772362203686e+00,6.931248498702188954e+00,7.915153227659175172e+00,7.895269971690140665e+00,7.465198860758391675e+00,6.939965368346747709e+00,5.862869604956358671e+00,3.623366799818541040e+00,1.395708120020572096e+00,-6.309117032214999199e-01,-7.640926233143545687e-01,-9.824924074346199632e-01,-7.646255483850836754e-01,-4.310760960215702653e-01,-5.582394686061888933e-01,-7.869099492672830820e-01,-7.138523138128221035e-01,-8.693189071491360664e-01,-5.335740267764776945e-01,-6.385242469259537756e-01,-3.232452544616535306e-01,-2.534157447516918182e-01,-2.368037041233037598e-01,6.066367181483656168e-01,2.516355539206415415e+00,4.175313807468228333e+00,5.567438322626912850e+00,6.154433564035571180e+00,5.446030431223334745e+00,4.099553535226732492e+00,3.299691690626787022e-01
-9.088403515052050352e-01,-6.874146562768146396e-01,-7.686931907664984465e-01,-9.564269338734447956e-01,-5.472279931418597698e-01,-6.236184551962651312e-01,-2.482905689394101501e-01,-4.983526596333831549e-01,-6.977712773950770497e-01,-5.805403882404789329e-01,-1.238484022323973477e-01,-1.858260357985273004e-01,-4.510579584457445890e-01,-4.684976220596581697e-01,-3.625366996275261045e-01,-8.489940823055803776e-01,-7.583298613317310810e-01,-2.079625530168414116e-01,-1.790279087144881487e-01,-1.452396740205585957e-01,-5.800303430296480656e-01,-9.415625422843731940e-02,-7.883860076544806361e-01,-3.648996592964977026e-01,-5.302651724196039140e-02,2.209000322007341310e+00,3.524492011307302164e+00,5.689417231475090375e+00,7.791734387421456631e+00,8.944135746656684205e+00,1.013545240534585901e+01,1.033749030703620519e+01,1.063029253267450258e+01,9.998770653954125009e+00,9.746281547646503896e+00,9.114551500344532542e+00,8.948046153789618984e+00,8.888731914048548788e+00,9.327191324875457212e+00,9.218359440070344135e+00,1.027480798677424900e+01,1.046626999633735977e+01,1.108558404765790328e+01,1.133268921746639535e+01,1.129702863909187727e+01,1.154866332552046515e+01,1.029988949245307595e+01,9.906014211301226169e+00,8.165681339742150158e+00,6.902161741178133525e+00,5.182124986009512213e+00,4.279019370573223568e+00,2.830868351040408015e+00,3.380925906356424093e+00,2.819076078711077571e+00,2.424208302982151508e+00,3.622232530731707811e+00,2.807772875530645251e+00,2.006142090831417590e+00,2.242049968859646469e+00,2.584917085652705282e+00,3.626211570808663964e+00,3.694076498039066792e+00,4.554424598813056946e+00,4.203910448355600238e+00,5.219608691520988941e+00,6.313631856814026833e+00,6.119498702697455883e+00,6.722851762431673706e+00,7.368711928837001324e+00,8.059814543463289738e+00,7.065764578990638256e+00,7.696131878066807985e+00,8.298253237735480070e+00,8.489349062088876963e+00,8.889834180474281311e+00,7.993878969544311985e+00,8.529867766890674829e+00,8.057194334222003818e+00,7.676322473213076591e+00,8.196841487195342779e+00,7.936198800860438496e+00,6.918766028247773647e+00,5.782286166999256238e+00,6.161042363382875919e+00,6.066340675519313663e+00,7.145911091822199523e+00,8.042747717758174986e+00,8.173357518448028713e+00,7.320303627697285265e+00,6.410335012449650094e+00,5.503896506997989491e+00,4.683414094950421713e+00,3.702994169318117201e+00,3.415449273466947488e+00,4.268105406808899716e+00,7.087859496517921798e+00,7.727584429478156380e+00,8.403755764309607912e+00,8.619351246161386371e+00,1.004706727073062211e+01,1.063223194959573448e+01,8.908353682840242982e+00,8.716040475119370967e+00,7.278236357728019357e+00,4.979276543483138084e+00,2.296608909848146141e+00,3.915303852409124374e-01,-6.287104021757841110e-01,-6.955476369475945830e-01,-4.994304784922860563e-01,-4.834223142242990434e-01,-1.646827841177582741e-01,-1.695477471948834136e-01,-8.638962712138891220e-01,-3.927390071330592036e-01,-1.329170160461217165e-01,-5.007899363990873098e-01,-3.977940535405650735e-01,-4.506341784726828337e-01,-7.532245743786916137e-01,-1.228222834179177880e-01,-5.274299415759742260e-01,-4.887350398348644376e-01,-2.595735313370823860e-01,-8.748197129752952605e-01,-1.119660520431352779e+00,-5.296948724426329136e-01
8.681208164489362389e-01,1.889740313170477748e+00,3.089027135632932186e+00,4.199931629002094269e+00,5.590632131788879633e+00,5.474450327455997467e+00,5.960514694801531732e+00,6.254739369731396437e+00,6.329581753816455603e+00,6.268267318140715361e+00,8.084298408124595881e+00,7.440323132555931807e+00,6.719726529438048601e+00,7.017188012599945068e+00,6.031315199099481106e+00,4.816707492340356112e+00,4.932775412220507860e+00,5.798056868370622396e-01,-6.625003971159458160e+00,-1.046728551946580410e+01,-9.835072577232494950e+00,-4.517076360876671970e+00,4.396324389672372490e-01,4.008465796796372160e+00,5.253569338907254860e+00,4.795752650010399520e+00,4.904104127548635006e+00,4.717707123840227723e+00,4.928516405401751399e+00,3.804108245996758342e+00,4.824671359965577722e+00,4.644644958898425102e+00,4.823275095179269556e+00,5.062551471579354256e+00,4.706451128469780087e+00,5.081899195793084800e+00,4.676125957776093856e+00,5.637495839968323708e+00,5.399637607391923666e+00,6.467257897602394223e+00,6.230654760496690869e+00,7.099068500559951644e+00,7.506671000504866242e+00,8.821220758021809161e+00,7.811065478221280500e+00,8.923944815702270716e+00,9.377869907475542277e+00,7.997813656984362751e+00,9.170437052031047642e+00,8.023796260997187346e+00,8.823772821488091722e+00,8.391855958325322717e+00,8.229930449728271924e+00,7.404800996475387365e+00,8.560147193609736860e+00,6.511830681090941653e+00,7.387585720964125358e+00,7.702101142698666081e+00,7.246782998307025991e+00,8.156530118227237836e+00,7.601418247679248452e+00,7.090725551010109484e+00,8.509779835672816262e+00,8.302962653571739793e+00,7.755267367174383253e+00,8.166130036464892328e+00,8.383221057301852852e+00,7.057756330614211038e+00,6.725411641586106271e+00,6.849378332961350679e+00,5.546839925371386926e+00,3.779353535297559574e+00,5.009104779397603124e+00,4.459743531187996268e+00,4.983270095515763387e+00,4.836078004213050008e+00,4.742600461700931191e+00,5.455477943876758218e+00,5.014730308088473976e+00,4.693210840923711658e+00,6.088025923119857907e+00,6.779701927676796913e+00,6.995459662750363350e+00,8.553198030218482018e+00,8.591875408106716350e+00,8.876362255839922000e+00,9.309571222343947738e+00,9.149783398483123165e+00,8.600276784098241478e+00,8.267784193798433989e+00,8.029298304361873306e+00,7.027651335461996496e+00,7.186786507607394014e+00,5.582552585285156965e+00,4.836569868843071163e+00,4.126894511471618898e+00,3.512748650653520599e+00,2.794776914059184492e+00,2.352227103583572898e+00,2.263825844015627808e+00,2.691384061996359378e+00,2.671975762117654085e+00,4.112229947408195585e+00,4.421273676678538322e+00,5.485279669257579371e+00,6.531127090100198984e+00,5.570283017354086041e+00,6.205875389685388654e+00,5.497931380174122751e+00,4.559565432020463049e+00,4.524279060075059533e+00,5.242823664098978043e+00,6.197883882559835911e+00,6.003550373017787933e+00,6.805108428932726383e+00,5.963616363704204559e+00,7.601813535249675624e+00,8.579250212293118238e+00,7.728304439689964056e+00,6.793471921664604452e+00,7.251327478385064751e+00,6.013586993271019310e+00,4.855744146741926670e+00,4.979215389350429177e+00,3.754383621388114989e+00,2.574033151380717754e+00,1.971997062326408923e+00,5.209908930119127035e-01
-1.197903824737295508e+00,-6.353666431969031692e-01,-8.572551095858216286e-01,-5.322633113246411085e-01,-7.292298357933759689e-01,-6.637167744338512421e-01,-1.038039364386349916e+00,-1.336919074878096581e+00,-1.429163109976798296e+00,-1.161543726455420256e+00,-1.200612191110849380e+00,-8.648090148344635963e-01,-4.891446304973214865e-01,-8.990015764720737934e-01,-7.546538270544260740e-01,-5.679676027502864599e-01,-5.457522025099024177e-01,-2.862144199316389859e-01,-4.884930584812536836e-01,-4.984686695970594883e-01,-9.094821684993803501e-01,-3.684797607129439712e-01,-3.669404938118532300e-01,-2.305810632533393800e-01,-5.470724315382540226e-01,-7.417686923872679472e-01,-1.055271416902542114e+00,-7.612450979650020599e-01,-7.246466316282749176e-01,-7.728274958208203316e-01,-7.112491272855550051e-01,-6.293206860427744687e-01,-4.060980784706771374e-01,-5.474091728101484478e-01,-3.786499703564913943e-01,-7.884924837853759527e-01,-5.395362887065857649e-01,-6.225596091244369745e-01,1.834998030099086463e-01,1.626439632673282176e+00,5.154351049524848349e+00,8.128293796457001008e+00,1.008203135911026038e+01,1.143128579063341022e+01,1.188658739606034942e+01,1.142026173326303251e+01,1.087063390054390766e+01,9.946318121626973152e+00,9.550993042823392898e+00,9.491129999310942367e+00,9.985673298331676051e+00,1.142758306761970744e+01,1.245620198486722074e+01,1.428752641167375259e+01,1.588020149595104158e+01,1.694860575895290822e+01,1.762938376504462212e+01,1.752317281888099387e+01,1.723029943084111437e+01,1.649006237136200070e+01,1.566789438831619918e+01,1.481341288777184673e+01,1.367290368041722104e+01,1.208722245006356388e+01,9.928779673122335225e+00,8.558603317927918397e+00,6.949831561942119151e+00,5.903841546252806438e+00,5.145671973470598459e+00,7.310972028877586126e+00,7.145910825580358505e+00,7.495965649373829365e+00,7.235937472898513079e+00,6.841268368996679783e+00,5.812443091534078121e+00,5.595778574235737324e+00,4.302957019302994013e+00,3.854244230780750513e+00,3.319617934059351683e+00,3.136217599967494607e+00,3.518081691814586520e+00,3.558198787039145827e+00,2.985662327148020267e+00,3.092907677870243788e+00,3.971014627721160650e+00,4.117461236426606774e+00,4.425024410244077444e+00,4.523049297451507300e+00,4.437956622336059809e+00,4.613713748985901475e+00,5.140534073929302394e+00,5.513682580785825849e+00,6.359624575357884169e+00,6.612449133303016424e+00,6.757473563018720597e+00,7.750481834635138512e+00,7.831360045121982694e+00,7.524038385134190321e+00,7.758728860761038959e+00,8.132639218005351722e+00,8.372970044896646868e+00,8.516621303395368159e+00,8.153650794003624469e+00,6.727720691123977304e+00,5.454051840002648532e+00,2.777048775074945297e+00,1.643134216574253514e+00,9.012791229761205614e-01,2.267577242935658433e+00,3.595053956873016432e+00,5.140868337504798546e+00,5.569248586893081665e+00,6.980417453043628484e+00,7.817414546385407448e+00,8.629592427008901723e+00,8.278998901136219501e+00,7.471219377592206001e+00,6.667913260404020548e+00,4.736605381593108177e+00,2.951110180001705885e+00,6.395951439626514912e-01,-2.971880392869934440e-01,-6.878666310803964734e-01,-4.647595477290451527e-01,-5.772023081080988050e-01,-6.874785733525641263e-01,-8.215951301390305161e-01,-1.027768930944148451e+00
-1.651396736677270383e+00,-6.900024816859513521e-01,-8.306470501702278852e-01,-5.329473258461803198e-01,-8.997315241140313447e-01,-1.561753473244607449e+00,-1.434183309786021709e+00,-1.564070983789861202e+00,-1.849544213619083166e+00,-1.481976716546341777e+00,-1.496932565933093429e+00,-1.637296040309593081e+00,-1.338573966058902442e+00,-4.286098456941545010e-01,-1.107465066248551011e+00,-6.318033589050173759e-01,-4.434357839199947193e-01,-2.749296021647751331e-01,-1.299787642434239388e+00,-3.508564592339098454e-01,-1.020651236176490784e-01,-3.643772015348076820e-01,-3.997859393712133169e-02,-1.629445756261702627e-01,-3.215510101872496307e-01,-1.971112020983127877e-01,-4.090300208481494337e-01,-4.889528432395309210e-01,-1.670491015538573265e-01,-1.413682486527250148e-01,-4.163943199673667550e-01,-1.746217895997688174e-01,-6.716674962081015110e-01,-3.559836299500602763e-01,-2.059225414704997092e-01,-2.814673206303268671e-01,-2.737019087653607130e-01,-3.237247510987799615e-01,-5.190746735315769911e-01,-4.118502315832301974e-01,-4.108855932645383291e-01,2.905538107734173536e-01,3.731328493915498257e+00,6.742998267407529056e+00,9.927366405434440821e+00,1.162847495188179892e+01,1.230762964417226613e+01,1.227646862654364668e+01,1.226110233427607454e+01,1.186750834726262838e+01,1.185687368610524572e+01,1.161212024405540433e+01,1.285645962036505807e+01,1.450078664559987374e+01,1.545172964205266908e+01,1.741070565610425547e+01,1.840539890434592962e+01,1.885907557327300310e+01,1.908162591286236420e+01,1.874364321475150064e+01,1.795747236127499491e+01,1.704792004072805867e+01,1.634330822061747313e+01,1.564501717078383081e+01,1.450822515209438279e+01,1.297044329158961773e+01,1.058510004435083829e+01,8.102370187960332260e+00,6.018041685107164085e+00,3.722682934436306823e+00,2.623980820819269866e+00,2.350295603275299072e+00,2.815261695010121912e+00,2.470933297066949308e+00,2.688547937781549990e+00,2.765486997552216053e+00,3.981169906910508871e+00,4.535577216302044690e+00,3.847389659844338894e+00,3.013271969743072987e+00,2.782120052550453693e+00,3.292217727983370423e+00,3.265957755967974663e+00,4.345484148710966110e+00,5.199440533295273781e+00,6.346256809309124947e+00,7.491727594286203384e+00,7.834950873162597418e+00,7.803493477404117584e+00,8.101584713906049728e+00,7.458061434328556061e+00,7.357489526271820068e+00,6.575903576565906405e+00,6.138724535703659058e+00,4.962963275611400604e+00,4.068232127348892391e+00,4.195473399013280869e+00,4.239074442768469453e+00,4.361238515703007579e+00,4.656003685435280204e+00,4.750589846749790013e+00,3.908450178540078923e+00,3.233181131188757718e+00,2.638866228386177681e+00,1.795945341233164072e+00,1.063184087746776640e+00,-3.565769875422120094e-04,-9.071327794808894396e-01,-1.225832439144141972e+00,-2.744520381093025208e-01,1.490070809959433973e+00,3.665856374776922166e+00,4.259055781236384064e+00,4.913640393177047372e+00,5.104500186047516763e+00,4.517236707732081413e+00,5.538814059022115543e+00,6.888112354325130582e+00,7.869307424989528954e+00,7.609256037743762136e+00,7.154487685766071081e+00,8.652823224663734436e+00,1.029266532510519028e+01,8.410813277587294579e+00,8.216526436735875905e+00,6.304510151734575629e+00,3.886113669723272324e+00,-7.441343576647341251e-01
4.705804613040527329e-01,-9.370479715289548039e-02,-8.654889455065131187e-01,-1.476043333532288671e+00,-1.166391223669052124e+00,-1.198191164759919047e+00,-5.282043872866779566e-01,-1.415635386016219854e+00,-7.238365253433585167e-01,-1.156497402116656303e+00,-6.931836259318515658e-01,-1.740162549540400505e-01,-4.447253756225109100e-01,-7.564428625628352165e-01,-2.008599090768257156e-01,1.810516376453961129e-01,-8.906572861596941948e-01,-6.888511963188648224e-01,-4.810034502297639847e-01,-3.513950528576970100e-01,-4.694540910422801971e-01,-8.287666728720068932e-01,-1.764903997536748648e+00,-3.168279764591716230e+00,-4.180010308744385839e+00,-5.205144718289375305e+00,-3.607644426869228482e+00,-7.020860074553638697e-01,2.007610347820445895e+00,3.115845466265454888e+00,4.369549267226830125e+00,6.099200216820463538e+00,6.355579626979306340e+00,9.739978853845968843e+00,1.442754505513426011e+01,1.457696822789330326e+01,1.716236589849540906e+01,1.422661239876333639e+01,1.321984224254265428e+01,1.291154716213350184e+01,1.012775654648703494e+01,7.276454316452145576e+00,4.214191495673730969e+00,1.966504492796957493e+00,-2.627248180215246975e-01,-2.722222064388915896e+00,-2.200488014030270278e+00,-3.463061788686900400e+00,-1.167701616068370640e+00,2.192891599668655545e+00,3.826533187180757523e+00,5.988721748464740813e+00,7.058100875525269657e+00,6.686165468243416399e+00,9.572808567725587636e+00,1.122590684128226712e+01,1.257898224761083839e+01,1.194600967012229376e+01,1.239575139211956412e+01,1.242979714821558446e+01,9.872813369860523380e+00,8.868258372651325772e+00,8.962883303393027745e+00,9.434229825899819843e+00,8.205141706275753677e+00,7.540409761597402394e+00,6.815081628155894578e+00,6.506354092271067202e+00,6.526412739884108305e+00,6.556926142366137356e+00,6.805850942299002782e+00,6.599570698919706047e+00,6.607629872101824731e+00,6.387377956823911518e+00,4.697358676174189895e+00,3.457628192525589839e+00,1.608970364221022464e+00,1.288708604988642037e+00,2.963993500598007813e-01,-4.940535360947251320e-02,-7.629556907340884209e-02,-3.887191654648631811e-01,-8.142042625695466995e-01,-2.896515880656806985e-01,1.903982274234294891e-01,-4.290764243924058974e-01,-4.448830382898449898e-01,-9.464023122563958168e-01,-1.298602202441543341e-01,-8.368054251186549664e-01,-8.899532910436391830e-01,-8.139695129357278347e-01,-7.061781873926520348e-01,-5.252780481241643429e-01,-5.647806575288996100e-01,-2.275687974179163575e-01,-5.324378367513418198e-01,4.907101655844599009e-01,-3.173222965560853481e-01,2.736010614898987114e-01,-4.325149739161133766e-01,-3.117441534996032715e-01,-9.792114794254302979e-01,-1.286414672620594501e+00,-1.814753214712254703e+00,-6.727549009956419468e-01,-1.214048620022367686e-01,-1.008744898950681090e+00,-5.284637406002730131e-01,-1.556781219842378050e-01,-2.667211173102259636e-01,-4.046547681209631264e-01,-7.529757944867014885e-01,-1.169587460113689303e+00,-2.441026514861732721e-01,-1.552623907104134560e+00,-6.113831656984984875e-01,2.540087713859975338e-01,-1.379682463593780994e-01,-1.045156391337513924e-01,2.787238368764519691e-01,-4.785586614161729813e-01,-2.369758409913629293e-01,-1.534658898599445820e-01,-7.123532489640638232e-02,-8.508073065559074166e-02,5.338877020403742790e-01,1.054831239016493782e+00
5.001304595207329839e-01,1.079317293129861355e+00,1.362401705700904131e+00,1.723767213872633874e+00,3.896408418193459511e+00,4.486663203686475754e+00,3.245376674458384514e+00,3.406580707058310509e+00,3.747745208442211151e+00,3.505917781963944435e+00,3.681287837214767933e+00,2.548535421025007963e+00,3.363141672685742378e+00,4.782065131003037095e+00,5.475555028766393661e+00,4.648481316398829222e+00,6.158657310530543327e+00,6.421480311080813408e+00,6.091061349958181381e+00,4.420149153273086995e+00,-2.258175523020327091e-01,-1.974861552938818932e+00,1.882216683588922024e-01,3.050082450325135142e+00,4.863339323928812519e+00,5.842021902790293097e+00,6.074921596096828580e+00,5.725586150190792978e+00,5.414797390112653375e+00,6.531818460440263152e+00,7.327481843531131744e+00,8.167098767706193030e+00,8.622028176847379655e+00,9.631095606280723587e+00,9.171789252752205357e+00,8.544181089440826327e+00,8.738426214084029198e+00,7.625424197060056031e+00,7.173402414307929575e+00,6.902373398421332240e+00,6.273074693966918858e+00,5.251746080699376762e+00,6.317286788951605558e+00,6.247693017357960343e+00,7.009734367777127773e+00,7.433996257837861776e+00,7.788139975047670305e+00,9.115848933113738894e+00,8.492111175059108064e+00,1.006084779530647211e+01,9.065876021952135488e+00,8.982621107466911781e+00,9.340039413211343344e+00,9.344779039282002486e+00,9.240007013591821305e+00,8.086283749667927623e+00,8.385389685747213662e+00,8.010617738589644432e+00,6.549387184029910713e+00,7.697572041419334710e+00,6.388754587038420141e+00,6.664366454511764459e+00,6.390143268741667271e+00,6.751944466901477426e+00,7.047536373953334987e+00,7.962226926087168977e+00,7.037894843204412609e+00,8.084904962262953632e+00,7.718810638536524493e+00,7.262682119675446302e+00,8.601379163796082139e+00,8.140391776920296252e+00,6.727660567150451243e+00,8.470266343443654478e+00,6.665628181217471138e+00,7.304614291344478261e+00,5.929029759900004137e+00,7.226497015581117012e+00,5.412207716261036694e+00,6.074332907135612913e+00,5.761635948721959721e+00,6.931725188391283154e+00,6.209841092408169061e+00,6.490474864433053881e+00,7.799281799671007320e+00,5.972288236254826188e+00,6.376414936559740454e+00,5.594630270890775137e+00,6.114686717803124338e+00,5.049391206353902817e+00,4.402446487016277388e+00,4.441031098889652640e+00,4.019633819989394397e+00,3.454243989370297641e+00,3.051032229472184554e+00,2.325318966410122812e+00,2.822300925268791616e+00,3.742231372394599020e+00,3.952576195006258786e+00,3.304249715409241617e+00,3.905573341296985745e+00,4.412102731643244624e+00,4.388922567479312420e+00,5.708770993165671825e+00,5.834595054388046265e+00,4.730763331055641174e+00,3.979160163260530680e+00,4.952116623055189848e+00,4.924419468967244029e+00,4.146004502898904320e+00,4.491916341707110405e+00,4.713975672610104084e+00,5.072566769318655133e+00,5.529189294204115868e+00,6.082171322836074978e+00,6.241506830469006673e+00,4.962578613776713610e+00,5.197799521265551448e+00,6.309830625774338841e+00,4.599334417434874922e+00,4.334029354387894273e+00,5.510031993035227060e+00,4.687635044079797808e+00,3.887890938320197165e+00,3.162453291472047567e+00,2.273353336844593287e+00,7.121961059747263789e-01,-2.441135572735220194e-02
4.000563768204301596e-01,-5.437822246458381414e-01,-1.157126950100064278e+00,-1.844864787533879280e+00,-1.732456289581023157e+00,-9.661395030561834574e-01,-1.343959660152904689e+00,-1.269808372482657433e+00,-1.690126266330480576e-01,-5.953547332319431007e-01,-5.179417317267507315e-01,-1.258461498655378819e-01,-3.863162691704928875e-01,4.016526303603313863e-01,-9.585228422656655312e-02,4.327362451585941017e-01,2.405406719539314508e+00,6.667394900345243514e+00,1.196390668302774429e+01,1.756525369235896505e+01,2.140808396748616360e+01,2.186437280059908517e+01,2.399306468697614037e+01,2.276106783570139669e+01,2.289510876257554628e+01,2.100564263341948390e+01,1.874039076591725461e+01,1.896985860535642132e+01,2.009304056405380834e+01,2.018530157915665768e+01,1.987794886477786349e+01,2.019411834254788118e+01,2.004452134747771197e+01,2.010631452820962295e+01,1.704852432920597494e+01,1.779904574091779068e+01,1.438882812112569809e+01,1.355491210613399744e+01,1.394514750130474567e+01,9.236492449883371592e+00,7.955334978643804789e+00,5.796111376606859267e+00,4.561499747782363556e+00,4.728262156379059888e+00,3.566547010363137815e+00,3.197970539971720427e+00,3.802723439410328865e+00,3.467522743507288396e+00,4.856374992814380676e+00,6.194292717322241515e+00,7.097261935530696064e+00,8.141589275037404150e+00,8.082496402174001560e+00,7.887654078484047204e+00,6.999978650303091854e+00,6.090358881693191506e+00,5.030436191818807856e+00,4.286400774995854590e+00,4.211310144501112518e+00,4.239675262793753063e+00,5.046077184029854834e+00,5.711231322158710100e+00,6.589630844107887242e+00,6.980106859322404489e+00,8.208345345396082848e+00,8.700908053142484277e+00,9.049054156756028533e+00,8.238619898736942559e+00,7.957651714212261140e+00,7.115257300931261852e+00,6.745776590774767101e+00,5.837452117702923715e+00,5.335207394673489034e+00,4.967635183129459620e+00,4.696733030490577221e+00,4.402993583469651639e+00,4.048977002559695393e+00,3.947948777931742370e+00,3.574003327870741487e+00,3.016191016300581396e+00,2.652642236906103790e+00,2.124407070448796730e+00,6.406346847361419350e-01,-3.875524917384609580e-01,-1.209989950992166996e+00,-5.765592604875564575e-01,-4.606022038497030735e-01,-8.591249836608767509e-01,-7.152307205833494663e-01,-6.313014991319505498e-01,-7.488799826242029667e-01,-3.397867133608087897e-01,7.794032765086740255e-01,5.751491710543632507e-02,4.518969496712088585e-02,1.304356380132958293e-01,2.180763796204701066e-01,1.040466146077960730e-01,-4.453111673938110471e-01,-4.766893831547349691e-01,-1.717909385915845633e-01,-5.731396626215428114e-01,-9.708114732056856155e-01,-1.204563251696527004e+00,-8.712690345737428288e-01,-3.683247705921530724e-01,-4.010567471850663424e-01,-6.463797463220544159e-01,-4.498713833745568991e-01,-7.450751954456791282e-02,-3.182691080437507480e-01,-3.577255359850823879e-01,1.153347245417535305e-02,-4.286699555814266205e-01,-8.452190579846501350e-01,-8.131951224349904805e-01,-1.560608913889154792e+00,-1.200643746124114841e+00,-5.821349085308611393e-01,-5.483557200059294701e-01,-9.934032745659351349e-01,-1.177717824466526508e+00,-8.512040390633046627e-01,-1.576106577413156629e+00,-8.211993100121617317e-01,3.589468330901581794e-01,5.906393285840749741e-02,9.485275768820429221e-01
-1.362682582112029195e+00,-3.798746557440608740e-01,-4.294325239025056362e-01,-8.727631148867658339e-01,-3.802657336927950382e-01,-6.135696576966438442e-01,-3.467803064995678142e-01,-1.787506599794141948e-01,-3.309305334114469588e-01,-3.572183599462732673e-01,-4.387757577933371067e-01,-4.345150408335030079e-01,-4.066342948935925961e-01,-4.037262970232404768e-01,-2.187408327445155010e-01,-5.038325157365761697e-01,-8.268702557543292642e-01,-4.811682666186243296e-01,-3.366508421022444963e-01,-2.806237642907944974e-01,-2.050016123248497024e-01,6.144266953924670815e-02,1.034039102320093662e+00,2.269876801443388104e+00,3.057460911310045049e+00,4.406420522369444370e+00,5.768058643261610996e+00,6.530631561196059920e+00,6.445033098068961408e+00,7.572483201889554039e+00,7.546312915568705648e+00,7.412077839457197115e+00,7.033061261085094884e+00,5.561579753637488466e+00,5.998851581082362827e+00,6.880051074607763439e+00,7.886509924195706844e+00,9.375390147790312767e+00,9.058180995867587626e+00,1.044066312699578702e+01,1.042454413371160626e+01,1.055353500557248481e+01,9.233761507086455822e+00,9.024329456500709057e+00,8.647541389567777514e+00,8.889076192863285542e+00,9.694646449337597005e+00,9.646360278318752535e+00,8.592684063158230856e+00,7.539533697243314236e+00,6.876354178704787046e+00,5.796267243451438844e+00,4.844502714317059144e+00,3.614744224658352323e+00,3.190866514782101149e+00,3.413464050353923085e+00,4.069613560279321973e+00,4.569040003330883337e+00,2.350282710904139094e+00,1.819988507486414164e+00,1.080091735173482448e+00,1.295038191601634026e+00,2.698260053926787805e+00,4.037100874149473384e+00,4.485898723156424239e+00,4.254063643078552559e+00,4.725905323306506034e+00,7.260422387259495736e+00,8.745815052330726758e+00,7.017128443345427513e+00,6.615023797610774636e+00,4.859402247471734881e+00,3.029232618690002710e+00,1.251638877904042602e+00,-9.830589504563249648e-01,-1.238694199593737721e+00,-9.672382512944750488e-01,-5.152282261988148093e-01,-5.900742370868101716e-01,-6.635022587142884731e-01,-6.587668259162455797e-01,-9.051894555741455406e-01,-4.461447278736159205e-01,-2.740438319742679596e-01,-5.194314136169850826e-01,-3.376719134394079447e-01,-1.885820828028954566e-01,-3.072045825247187167e-01,-2.632170060533098876e-01,-7.277966532856225967e-01,-3.609681376256048679e-01,-4.651534738950431347e-01,-2.000902476720511913e-01,1.187266946799354628e-01,1.065464249579235911e+00,2.884372835855174344e+00,5.006273995211813599e+00,6.530303053870738950e+00,8.125617528363363817e+00,8.766907453158637509e+00,9.063297618005890399e+00,8.227134162370930426e+00,6.683264669052732643e+00,4.888635987060297339e+00,2.628923533950001001e+00,7.902295258827507496e-01,-1.276387766629341058e+00,-1.208770913071930408e+00,-7.716431096196174622e-01,-5.756197883747518063e-01,-1.013687654398381710e+00,-9.161933889845386147e-01,-6.797308604000136256e-01,-6.968382839113473892e-01,-6.882160284294513986e-01,-8.149375673383474350e-02,-5.869784518727101386e-01,-1.061026141000183998e+00,-8.180316069629043341e-01,-6.476033804938197136e-01,-4.314431432867422700e-01,-6.003315858542919159e-01,-5.275706116808578372e-01,-4.711643881164491177e-01,-5.047434637090191245e-01,-2.828168952837586403e-01,-2.898567435622680932e-01,-1.070925506588537246e+00
-1.213050967662638868e-01,-1.283763188403099775e+00,-1.480618695728480816e+00,-2.503405496943742037e+00,-2.560076159657910466e+00,-2.391460065031424165e+00,-3.261496310122311115e+00,-1.837278340011835098e+00,-5.228403185028582811e-01,-1.704367660684511065e+00,-8.634679619572125375e-01,-1.062583509134128690e+00,-1.768336998997256160e+00,-3.646722796838730574e-01,-1.577602090314030647e+00,-1.106164930388331413e+00,-9.675623688381165266e-01,-8.566897334530949593e-01,-5.269547882489860058e-01,-5.766292013431666419e-01,3.157633054070174694e-01,2.687244979781098664e+00,7.018450236821081489e+00,9.575285260099917650e+00,8.432728824904188514e+00,8.072364217136055231e+00,4.418797934195026755e+00,1.225848400965332985e+00,-9.394358440767973661e-01,-4.487454847432672977e+00,-6.598457521758973598e+00,-7.970454781585431192e+00,-8.197568428586237133e+00,-7.583560165192466229e+00,-8.773419897304847836e+00,-8.789889555016998202e+00,-6.681107660697307438e+00,-5.085852233343757689e+00,-1.839802646078169346e+00,3.379659624653868377e+00,8.103377989060390973e+00,1.147213454300072044e+01,1.291534301394131035e+01,1.302900537336245179e+01,1.275216705775528681e+01,1.323587884823791683e+01,1.059877641871571541e+01,8.915001019486226141e+00,6.062412841187324375e+00,1.073867347091436386e+00,-3.866026849136687815e-01,-2.713136711448896676e+00,-5.133858534798491746e+00,-6.388363730860874057e+00,-7.939199232263490558e+00,-8.668387729325331748e+00,-7.839116438524797559e+00,-7.302004647906869650e+00,-6.455667174566769972e+00,-4.855217607575468719e+00,-3.573871519634849392e+00,-1.426125510595738888e+00,2.245977423357544467e+00,5.030847672014715499e+00,6.547220927430316806e+00,7.218315506921499036e+00,9.506274443818256259e+00,9.250678572305332636e+00,1.061344446195289493e+01,1.071884039827273227e+01,9.823889559575036401e+00,9.211633424929459579e+00,8.080072893273609225e+00,8.217118105443660170e+00,7.745765930187189952e+00,7.461793438415043056e+00,5.506460578879341483e+00,5.072476925226510502e+00,4.853925910661928356e+00,4.885797002934850752e+00,5.311718907789327204e+00,5.377718242118135095e+00,5.114306787843815982e+00,5.160059357527643442e+00,5.240996127307880670e+00,5.079505150439217687e+00,4.890209931763820350e+00,4.397941610543057323e+00,4.020368580997455865e+00,3.217408613709267229e+00,2.486847843829309568e+00,1.703007905918639153e+00,9.148346514703007415e-01,2.495533722103573382e-01,-8.451083872932940722e-01,-1.849581677233800292e-01,-6.862421603873372078e-01,-7.933632081840187311e-01,-3.209303902403917164e-01,-4.697463428601622581e-01,-4.885161304846405983e-01,-7.291922012227587402e-01,-2.454034830443561077e-01,-2.040515107801184058e-01,-6.570838032785104588e-01,-5.002631112583912909e-01,-3.185720378533005714e-01,-2.449403131613507867e-01,-1.250287508592009544e-01,-3.386896091396920383e-01,-1.115215506870299578e+00,-7.302987789735198021e-01,-3.534187015611678362e-01,-7.287661375012248755e-01,-1.099565310403704643e+00,-1.747853284796292428e+00,-7.210407021921128035e-01,-1.289499848033301532e+00,-2.017690913751721382e+00,-1.221477753482758999e+00,-7.323849005624651909e-01,-1.145034593297168612e+00,-5.522131684701889753e-01,-5.942333876155316830e-01,-7.557020001113414764e-01,-6.363426409661769867e-01,-1.253537422453518957e-01,8.675900769740110263e-01
-1.462991634241916472e+00,-1.343516732333227992e+00,-4.126104928436689079e-01,-1.053339303252869286e-01,-1.637366595678031445e-01,-6.598584442399442196e-01,-4.923305475385859609e-01,-3.897734471829608083e-01,-8.066777235362678766e-01,-5.163228013552725315e-01,-1.265270296018570662e+00,-1.402472177520394325e+00,-1.106832921039313078e+00,-1.505899735493585467e+00,-1.502678215299965814e+00,-1.339000045321881771e+00,-1.374200270987785188e+00,-1.173218861222267151e+00,-6.318768449127674103e-01,-6.792323784902691841e-01,-4.539093960192985833e-01,-4.972994806012138724e-01,-5.526757325278595090e-01,-3.282325966429198161e-01,-5.903262837964575738e-01,-5.697826246032491326e-01,-4.271796643733978271e-01,-3.684586834569927305e-01,-1.299349248147336766e-01,-3.377405643695965409e-01,-7.210157410008832812e-01,-4.476307858130894601e-01,-3.817672273144125938e-01,1.100780562264844775e+00,5.001289564592298120e+00,9.077560054065543227e+00,1.210790347546571866e+01,1.499902863247552887e+01,1.610431042918935418e+01,1.591799956036265939e+01,1.544259415846318007e+01,1.408572084124898538e+01,1.253234895673813298e+01,1.085549987791091553e+01,9.332116607431089506e+00,7.175905158132081851e+00,5.941396678477758542e+00,4.514204871811671183e+00,3.317057952284812927e+00,3.040297273691976443e+00,2.562422232702374458e+00,2.158952334546484053e+00,1.239232578402152285e+00,1.649288366083055735e+00,-3.896300983615219593e-01,-8.055906184017658234e-01,-2.174254029057919979e+00,-1.682719531469047070e+00,-9.990551976952701807e-01,6.570557449012994766e-01,2.503843651618808508e+00,2.833349948865361512e+00,4.338472028728574514e+00,5.134066062979400158e+00,6.272957233712077141e+00,7.467258673161268234e+00,8.286915399134159088e+00,8.920307482592761517e+00,8.651193866855464876e+00,7.656109698116779327e+00,6.544517713598906994e+00,5.731611945666372776e+00,4.610661258455365896e+00,3.596636324306018651e+00,1.948446125723421574e+00,5.818034477997571230e-01,-1.240226752590388060e+00,-1.159349508117884398e+00,-6.057411038200370967e-01,6.759058302268385887e-01,2.396019175750552677e+00,4.698346391320228577e+00,6.239948588015977293e+00,7.894490238279104233e+00,8.949365320615470409e+00,9.740686330362223089e+00,1.015388770308345556e+01,9.850539690814912319e+00,8.631184660363942385e+00,7.311258083209395409e+00,5.625512255122885108e+00,3.964223073737230152e+00,2.546249712508142693e+00,2.370546443853527308e-01,-7.844632191990967840e-01,-8.344575566129606159e-01,-6.437320646291482262e-01,4.927393783145816997e-02,1.991314814175439096e+00,3.807639396109152585e+00,6.770506262197159231e+00,7.926273813587613404e+00,7.332978135906159878e+00,6.175960403867065907e+00,8.791686374315759167e+00,9.928299210812838282e+00,7.876413387217326090e+00,6.656021608796436340e+00,5.411039307247847319e+00,3.790835008956491947e+00,1.019468071870505810e+00,-2.721404184121638536e-01,-1.131826421536970884e+00,-1.163550332013983279e+00,-1.052091937337536365e+00,-1.704638113500550389e+00,-1.384378388291224837e+00,-1.106339646037667990e+00,-1.358244957402348518e+00,-1.118818743852898479e+00,-1.757823946718417574e-01,-8.895276673138141632e-01,-7.153275385499000549e-01,-6.859448877512477338e-01,-9.282555198296904564e-02,-2.345951979514211416e-01,-2.965831365436315536e-01,-9.742643877107184380e-01
1.213216122996527702e-01,-6.253850110806524754e-02,-4.420831985771656036e-02,-1.092566656880080700e-01,1.416941668139770627e+00,6.688705328851938248e-01,-4.615501227090135217e-02,-7.098039507400244474e-02,5.553168480400927365e-01,4.854875397868454456e-01,-2.030811219301540405e-01,-2.634045500308275223e-01,1.272831257432699203e+00,1.150746519677340984e+00,2.294829063583165407e+00,1.187605609680758789e+00,-6.281338499393314123e-01,-2.168046549893915653e+00,-2.019809676334261894e+00,-2.432922578882426023e-01,3.723826619378087344e+00,4.829554057039786130e+00,5.072903722320916131e+00,5.838160763029009104e+00,5.751786916051059961e+00,5.749158301856368780e+00,5.270717028761282563e+00,6.208286371896974742e+00,7.394055929558817297e+00,6.677138996077701449e+00,7.421764374419581145e+00,6.575319656636565924e+00,6.501629442558623850e+00,6.077476430917158723e+00,7.285596113419160247e+00,5.867253160336986184e+00,6.089574870129581541e+00,5.886422304902225733e+00,5.500453170563559979e+00,6.143828245752956718e+00,5.527498748153448105e+00,5.904408036498352885e+00,6.171260572038590908e+00,6.779659598134458065e+00,6.192118025152012706e+00,7.633581153262639418e+00,8.469287610882020090e+00,8.690033516206312925e+00,9.317999815510120243e+00,8.547955359506886452e+00,8.765218810644000769e+00,8.477878520090598613e+00,8.288475318811833858e+00,6.611862634716089815e+00,6.726141871935396921e+00,6.234412692720070481e+00,7.216325819565099664e+00,6.756809571525081992e+00,6.631528428173623979e+00,8.339338500018129707e+00,8.323366088909097016e+00,9.437875760719180107e+00,7.246209195174742490e+00,8.569552215456496924e+00,8.598587956686969846e+00,8.129992463800590485e+00,6.034189475700259209e+00,5.164302064193179831e+00,4.246506712283007801e+00,4.764122309279628098e+00,4.666678017849335447e+00,5.250271204509772360e+00,6.207505855010822415e+00,6.059375308337621391e+00,6.268196529475972056e+00,5.947002383152721450e+00,4.666917217080481350e+00,4.319295018503908068e+00,3.497083134716376662e+00,3.715299539067927981e+00,2.582449892943259329e+00,3.133335624821484089e+00,1.891310071339830756e+00,2.838199746562168002e+00,3.220979120240372140e+00,3.061401961451338138e+00,3.163608514820225537e+00,3.774780238629318774e+00,2.867948275292292237e+00,7.743175056530162692e-01,2.321802728256443515e-01,2.098601632518693805e+00,1.895966594573110342e+00,1.870758888049749658e+00,1.286595120793208480e+00,1.958062394172884524e+00,2.224246687022969127e+00,2.702739900159940589e+00,3.221135472471360117e+00,3.168724881426896900e+00,2.227091546985320747e+00,2.649448192212730646e+00,2.900930707575753331e+00,1.788885863265022635e+00,5.914546073181554675e-01,8.441043519414961338e-01,1.427264141151681542e+00,1.269062087405472994e+00,2.394140950869768858e+00,3.011219995096325874e+00,2.371048610075376928e+00,1.468106267973780632e+00,2.911118081305176020e+00,1.945325945154763758e+00,6.914611794054508209e-01,1.591543076094239950e+00,3.147044546436518431e+00,2.836936577572487295e+00,1.923979957005940378e+00,2.908136872574687004e+00,2.335430434672161937e+00,9.492948073893785477e-01,1.399062555574346334e+00,1.410787625587545335e+00,1.562510197516530752e+00,1.490226919529959559e+00,2.762495819042669609e-01,1.139306160621345043e-01
5.690846691140905023e-01,-2.077331506152404472e-01,-2.424024962820112705e-01,-2.775023161666467786e-02,-8.696115585044026375e-01,-8.760041187051683664e-01,-8.623398179188370705e-01,-5.401743734255433083e-01,-1.331603005528450012e+00,-7.408162000356242061e-01,-9.844217431964352727e-02,-8.658173980657011271e-01,-3.182287057861685753e-01,-9.078094791620969772e-01,-1.187796954764053226e+00,-2.420273744501173496e+00,-4.100754617247730494e-01,-7.114804399607237428e-01,1.795654513873159885e+00,6.610642573330551386e+00,1.187292679061647505e+01,1.637824336171615869e+01,1.835977073640788149e+01,1.856664262856793357e+01,2.094851587271841709e+01,2.015363056679780129e+01,1.964188786069280468e+01,1.812647394163650461e+01,1.705216805293457583e+01,1.613430841536319349e+01,1.614344315078051295e+01,1.774308043642668054e+01,2.053991704448708333e+01,2.261706783494446427e+01,2.238037116818304639e+01,2.043900298688095063e+01,2.073370012973555276e+01,2.257654115260265826e+01,1.978570696074166335e+01,1.698124592192471027e+01,1.519421016634441912e+01,1.396035565598867834e+01,1.064131473726592958e+01,8.407315777847543359e+00,8.061957779806107283e+00,6.618500868316914421e+00,6.875617011060967343e+00,6.554328055353835225e+00,6.723548784735612571e+00,7.951765177960623987e+00,8.039545212406665087e+00,7.786542096291668713e+00,8.034110433363821357e+00,8.324547032098053023e+00,8.475963131932076067e+00,8.363988476805388927e+00,8.014636726693424862e+00,7.798059663368576366e+00,7.615665876312050386e+00,6.878084232615947258e+00,6.220821605933451792e+00,4.544707777080475353e+00,4.407337518568965606e+00,4.653292297269217670e+00,4.279381526896031573e+00,4.478844272700371221e+00,4.979989176848903298e+00,4.552749345457414165e+00,4.978256341002634144e+00,5.040787993639241904e+00,5.606197794084437191e+00,6.760988617897965014e+00,6.722605097631458193e+00,6.492493628349620849e+00,6.241356616970733739e+00,6.095066796755418181e+00,5.760288308956660330e+00,5.959643413196317852e+00,6.137178138946183026e+00,5.401688955025747418e+00,5.269991794368252158e+00,5.541987124830484390e+00,5.513665206846781075e+00,5.425950637494679540e+00,5.435283054132014513e+00,5.366018587956205010e+00,5.034036530647426844e+00,5.046754797571338713e+00,4.950497893500141799e+00,3.889360591216245666e+00,3.362437503761611879e+00,2.707626134564634413e+00,2.166416491498239338e+00,1.542203329387120903e+00,8.905207291245460510e-01,-2.349303886294364929e-01,-1.264893603511154652e-01,-4.648114189039915800e-01,-5.310103322844952345e-01,-4.822558760643005371e-01,-2.267307831323705614e+00,-2.616396280471235514e+00,-2.463673294289037585e+00,-2.993659073952585459e+00,-3.188986801542341709e+00,-2.301628875778988004e+00,-2.448072077706456184e+00,-1.709926171228289604e+00,-1.459795325994491577e+00,-5.903156418353319168e-01,-9.135302500799298286e-01,-8.733842801302671432e-01,-1.832104101078584790e+00,-1.209758419543504715e+00,-1.803986338898539543e+00,-2.003335286281071603e+00,-1.785098038613796234e+00,-6.380089669255539775e-01,-7.936250865459442139e-01,-1.353528702631592751e+00,-9.765974404290318489e-01,-1.424689566832967103e+00,-6.694202973740175366e-01,-1.272770802068407647e+00,-1.030534958001226187e+00,-1.471466789953410625e+00,-3.777437321841716766e-01,-4.786668112501502037e-02
-2.238704106566729024e+00,-5.877910528215579689e-01,-3.591728048340883106e-01,-9.889598848531022668e-02,-1.177874784916639328e-01,-1.795395241351798177e-01,-7.065535414731130004e-01,-3.633971718372777104e-01,-8.822638343553990126e-02,-2.569913360057398677e-01,-3.935130148893222213e-01,-4.492781148292124271e-01,-3.944772314280271530e-01,-3.734393482081941329e-01,-4.134679339476861060e-01,-2.737769210943952203e-01,1.571066581702325493e+00,3.491598591441288590e+00,5.059457230381667614e+00,7.266749332367908210e+00,8.503380228037713096e+00,8.838878315378678963e+00,9.516190764959901571e+00,9.900324555579572916e+00,1.043892523730755784e+01,1.104887624178081751e+01,1.235414826250053011e+01,1.360372411724529229e+01,1.483540963876293972e+01,1.620869641209719703e+01,1.674222769390325993e+01,1.712841073912568390e+01,1.753676549933152273e+01,1.763931533973664045e+01,1.784878735319944099e+01,1.769950837426586077e+01,1.745120736851822585e+01,1.768951148446649313e+01,1.709628297743620351e+01,1.636752892629010603e+01,1.533601675374666229e+01,1.317635430517839268e+01,1.054864249931415543e+01,8.481013776181498542e+00,6.149495002406183630e+00,4.495600689813727513e+00,5.176504561910405755e+00,5.886679068207740784e+00,5.743075118400156498e+00,6.063178161159157753e+00,6.356507183983922005e+00,6.042264553718268871e+00,6.394000994041562080e+00,6.523076351732015610e+00,6.267055960372090340e+00,5.694502414669841528e+00,6.575792057905346155e+00,6.140244510956108570e+00,5.915490452665835619e+00,6.241969379130750895e+00,6.297149761579930782e+00,6.279473327740561217e+00,8.035604981152573600e+00,8.297364942496642470e+00,9.257590347202494740e+00,8.496367873391136527e+00,8.709663478308357298e+00,8.862220139708369970e+00,9.148298196028918028e+00,1.056674201786518097e+01,1.133545775478705764e+01,1.101378318434581161e+01,9.324277210049331188e+00,8.613798304460942745e+00,6.770704831127659418e+00,5.733984806688567915e+00,4.798202766069152858e+00,3.979020735037920531e+00,1.331189497592276894e+00,-1.394067532019107603e+00,-2.779433946241624653e+00,-2.299376775685232133e+00,-4.996149870858062059e-01,1.664214726886712015e+00,1.869750974379712716e+00,3.210944943275535479e+00,3.703070895280689001e+00,4.996228228323161602e+00,6.832530113402754068e+00,7.717724262736737728e+00,5.975507098948583007e+00,5.272112950682640076e+00,3.460925533436238766e+00,2.174079355318099260e+00,6.061106151901185513e-01,-2.128118716645985842e-01,-4.775409535650396720e-01,-5.815135450684465468e-01,-5.339733079308643937e-01,-8.188180762226693332e-02,-6.669351860182359815e-01,-4.404941771645098925e-01,-3.647609717445448041e-01,-1.469405344687402248e-02,-5.082772622408811003e-01,-5.759313864400610328e-01,-2.722179441479966044e-01,-2.729941389989107847e-01,-6.187883673701435328e-01,-5.512909416574984789e-01,-4.208705700002610683e-01,-5.932074696756899357e-01,-7.111137713072821498e-01,-6.686822271440178156e-01,-2.856561797671020031e-01,-2.879988440545275807e-01,-4.759244567248970270e-01,-1.960132789099588990e-01,-4.216287727467715740e-01,-4.044254235923290253e-01,-1.078250805148854852e-01,-2.758003175840713084e-01,-4.115504052024334669e-01,-3.114796701702289283e-01,-2.282504695467650890e-01,-4.332858056295663118e-01,-1.741560117574408650e+00,-7.987478025534073822e-01
-8.747700900858035311e-01,-3.493403269094415009e-01,-5.542268706485629082e-01,-5.531745492480695248e-01,-1.136988952290266752e+00,-9.413262577727437019e-01,-1.733503665309399366e-01,-7.110989798093214631e-01,-6.207431415095925331e-01,-7.672975219320505857e-01,-1.512468503642594442e-01,-9.880138135049492121e-01,-7.824809369631111622e-01,-9.228540481999516487e-01,-9.348643920384347439e-01,-1.095575334969907999e+00,-8.153582350350916386e-01,-1.037062581628561020e+00,-1.272517841309309006e+00,-1.005699907429516315e+00,-1.397528462577611208e+00,-1.009916394017636776e+00,-6.728965057991445065e-01,-9.675947480136528611e-01,-9.522639800561591983e-01,-8.007881736848503351e-01,-8.056916114292107522e-01,-3.601534196059219539e-01,-4.216232508188113570e-01,-2.129376268712803721e-01,-5.143899351533036679e-01,3.923668590723536909e-01,1.389764356281375512e+00,2.621542287291958928e+00,4.794534501736052334e+00,6.941400399895428563e+00,9.053546471943263896e+00,1.041897092192084529e+01,1.263627743063261732e+01,1.402904174011200666e+01,1.537088245415361598e+01,1.647217937582172453e+01,1.778936039173277095e+01,1.785837433586129919e+01,1.781712430797051638e+01,1.795606043096631765e+01,1.751092243421589956e+01,1.680146694526774809e+01,1.628108084923587739e+01,1.537899454933358356e+01,1.473603082890622318e+01,1.382700496367760934e+01,1.293935765005880967e+01,1.178246479682275094e+01,1.226264998997794464e+01,1.260656615544576198e+01,1.351002792152576149e+01,1.439542332515702583e+01,1.501920873863855377e+01,1.581696229771478102e+01,1.626724884810391814e+01,1.553737046389142051e+01,1.376178104945574887e+01,1.220124459292856045e+01,1.018086161272367463e+01,7.886597044154768810e+00,5.775704122293973342e+00,4.836402773740701377e+00,6.026364738121628761e+00,6.586534586735069752e+00,6.969107848766725510e+00,7.785832194727845490e+00,7.558419962413609028e+00,7.087789935059845448e+00,7.335922582074999809e+00,6.404804060235619545e+00,5.642924277111887932e+00,4.501988724572584033e+00,4.202549906447529793e+00,3.275627620432260301e+00,3.572209639940410852e+00,3.500607323367148638e+00,3.888883606065064669e+00,5.530575238168239594e+00,6.778580995625816286e+00,7.624848454317543656e+00,7.257545260246843100e+00,7.671807270497083664e+00,7.805306532070972025e+00,8.200060139992274344e+00,8.320268458686769009e+00,7.504037583712488413e+00,5.862017759121954441e+00,4.248338476099888794e+00,3.371848631999455392e+00,3.079717136919498444e+00,2.583799455082044005e+00,1.588241213466972113e+00,9.859373674262315035e-01,1.485685115098021924e+00,2.151432148180902004e+00,3.256011127959936857e+00,4.250734339468181133e+00,4.732878498965874314e+00,5.469386345896054991e+00,5.925363728485535830e+00,5.286472165142185986e+00,4.722594952123472467e+00,5.358451367123052478e+00,6.292296722251194296e+00,7.248240854823961854e+00,7.279280452057719231e+00,6.754869793541729450e+00,9.052650645840913057e+00,1.058381028566509485e+01,7.503817051649093628e+00,7.375492812716402113e+00,5.410745529341511428e+00,3.589528159995097667e+00,1.244623969774693251e+00,-4.598295940377283841e-01,-1.055509489728137851e+00,-7.902184973936527967e-01,-8.344007311388850212e-01,-7.935830694623291492e-01,-2.772301190561847761e-01,-5.389437230478506535e-01,-5.267945942468941212e-01
5.055090351088438183e-01,2.944840622949413955e-01,-5.548559455201029778e-01,-1.326534972875379026e+00,-7.032168749719858170e-01,-4.109598596114665270e-01,-6.981126340106129646e-01,-6.697433185763657093e-01,-6.611318259965628386e-01,-2.624740829342044890e-01,-7.138746255077421665e-02,-3.440221594646573067e-01,2.263043948914855719e-01,1.758704915177077055e+00,4.910635135875054402e+00,8.522547049942659214e+00,1.018198171991389245e+01,1.194327011378481984e+01,1.477394357383309398e+01,1.366103673128964147e+01,1.510787033935775980e+01,1.374930473099448136e+01,1.354984963145398069e+01,1.208526862186045037e+01,1.122547415327608178e+01,1.233310704084669851e+01,1.221798500619615879e+01,1.317297388137967573e+01,1.608645956272759747e+01,1.415976833994500339e+01,1.234343776025343686e+01,1.161703540809685364e+01,9.725139261572621763e+00,9.716926524299196899e+00,1.122304110531695187e+01,9.332790003274567425e+00,7.936472992529161274e+00,1.066753793216776103e+01,1.099555052700452507e+01,1.263402913918253034e+01,1.191122836389695294e+01,1.351420444762334228e+01,1.448928799666464329e+01,1.449248352262657136e+01,1.366782039997633547e+01,1.367019190092105418e+01,1.207554546243045479e+01,1.166499798377117258e+01,1.111176798236556351e+01,1.141612198535585776e+01,1.094575667098979466e+01,1.047881774967390811e+01,8.993510266618173432e+00,8.280680048199428711e+00,8.462554797552002128e+00,7.674293106611003168e+00,6.715069994679652154e+00,6.323098930763080716e+00,5.646060482366010547e+00,6.161427989580261055e+00,5.621512087513110600e+00,6.332232254149857908e+00,6.005963605013675988e+00,6.072627198445843533e+00,6.970204108627513051e+00,6.069041160051710904e+00,5.643279786250786856e+00,5.783695561578497291e+00,5.243757189135067165e+00,4.569610213744454086e+00,4.075655551190720871e+00,3.598997242166660726e+00,2.546118683501845226e+00,1.565817335238534724e+00,3.229749105521477759e-01,4.590456752339377999e-02,-3.391816485673189163e-01,-8.826231341809034348e-01,-4.159257584251463413e-02,-1.596035973285324872e+00,-1.455331334844231606e+00,-1.107709579169750214e+00,-3.303418131545186043e-01,-1.148060608073137701e+00,-1.372786827385425568e+00,-1.819020822789752856e+00,-1.993803145829588175e+00,-1.091049170587211847e+00,-1.493494737427681684e+00,-2.435812586918473244e-01,-6.642219064524397254e-01,-8.647247203625738621e-01,-2.635431322269141674e-01,-6.314938508439809084e-01,-9.070086651481688023e-01,-1.091193859116174281e+00,-3.309232105966657400e-01,-7.295195166952908039e-01,-7.181500846054404974e-01,-1.410493621602654457e+00,-1.033062078611692414e+00,-5.550917087239213288e-01,-1.393352470826357603e+00,-5.181916099973022938e-01,-6.372395441867411137e-01,-1.086808080784976482e+00,-8.230244402075186372e-01,-6.632500253617763519e-01,-6.805543764494359493e-01,-5.014098997926339507e-01,-1.369873943738639355e+00,-1.058640665258280933e+00,-7.386789019219577312e-01,-6.214656138326972723e-01,-4.771207496523857117e-01,-1.529856944471248426e+00,-1.210135786794126034e+00,-1.275570589117705822e+00,-8.514725228305906057e-01,-1.628350054932525381e+00,-1.748241956811398268e+00,-8.460527867428027093e-01,-1.423409936483949423e+00,-1.600943133933469653e+00,-6.335253333622858918e-02,1.815844915909110568e-01,5.506042024644557387e-01,1.048843458367628045e+00
5.236804704181849957e-01,3.932164220896083862e-01,-2.643181597813963890e-01,2.909538475796580315e-02,-5.657254699617624283e-01,-4.487636459525674582e-01,-6.044551101513206959e-01,-6.447321252780966461e-01,-8.129535636398941278e-01,-1.046094870194792747e+00,-8.344808297697454691e-01,1.769037293270230293e-01,7.215474033728241920e-03,1.074555099330609664e+00,3.264145711436867714e+00,6.155293622985482216e+00,9.790405949941487052e+00,1.187918661726871505e+01,1.351477524616879577e+01,1.701847386599547463e+01,1.734613474867364857e+01,1.909573112343787216e+01,1.866715641126211267e+01,1.893893389636650681e+01,2.149767605336091947e+01,2.092233570368262008e+01,2.215559154712536838e+01,2.092948978101776447e+01,2.246856725705583813e+01,1.996991064095709589e+01,2.011498920523263223e+01,1.815905768354423344e+01,1.811143124313093722e+01,1.777227582351770252e+01,1.439402852993225679e+01,1.427883260068483651e+01,1.131828692671842873e+01,9.473131475504487753e+00,8.390974506361089880e+00,5.824728100211359560e+00,3.931746758607914671e+00,3.976012950515723787e+00,3.737609782197978348e+00,3.076502393698319793e+00,4.449875672289635986e+00,4.242355596594279632e+00,4.589089724875520915e+00,5.603994669101666659e+00,6.315172091126441956e+00,7.789000531105557457e+00,8.244466357165947556e+00,8.557481867610476911e+00,9.215203354135155678e+00,1.054851493670139462e+01,9.442275231136591174e+00,1.014358949628149276e+01,1.011499725736211985e+01,9.636922813020646572e+00,7.833896179101429880e+00,5.990265971631743014e+00,3.709464997227769345e+00,1.654319975408725441e+00,5.547226248891092837e-01,3.507182947287219577e-01,-4.300256129354238510e-01,-5.678210614714771509e-01,-1.521163014695048332e-01,-1.624768814072012901e-01,-4.559825230389833450e-01,-5.073436954990029335e-01,-7.736192620359361172e-01,-4.822586993686854839e-01,-3.753499839222058654e-01,-8.647393516739612096e-01,-6.545954560860991478e-01,-9.491764973499812186e-01,-1.701308000017888844e+00,-2.112616169732064009e+00,-1.418400345632107928e+00,-6.571198753663338721e-01,-1.209673464531078935e+00,-1.345735910392249934e+00,-6.781112644239328802e-02,8.670291064190678298e-01,1.709977212944068015e+00,2.296034506696742028e+00,3.196143787412438542e+00,3.594052124302834272e+00,2.885178554686717689e+00,3.130677068198565394e+00,2.691622841171920300e+00,2.591351669572759420e+00,2.103911959857214242e+00,1.983069420966785401e+00,1.575838069256860763e+00,9.496919428765977500e-01,1.125682731973938644e+00,5.769935819698730484e-01,2.961032940074801445e-01,-2.982439100742340088e-02,-3.262703362852334976e-01,-4.399405103176832199e-01,-7.423791437176987529e-01,-1.298923886119155213e+00,-5.673709856346249580e-01,-4.806289785483386368e-02,-6.219487125054001808e-01,-4.110220186412334442e-01,-2.912840028293430805e-01,-1.721562906168401241e-01,-5.322302225977182388e-01,-7.735198761802166700e-01,1.035695555619895458e-01,-1.368566169403493404e-01,-2.517095664516091347e-01,4.081866913475096226e-02,3.365909093990921974e-01,-5.214162860356736928e-01,-3.528376359026879072e-01,1.627814555540680885e-01,-4.925010297447443008e-01,-8.910480593331158161e-01,-4.327081302180886269e-01,6.609489041147753596e-02,-5.715899928472936153e-01,4.314558491096249782e-01,3.383937677936046384e-01,1.836998972576111555e-01
-1.817102673318004236e+00,-5.048174402327276766e-01,-2.620810941971285501e-01,-9.805638436228036880e-02,-4.613191591051872820e-01,-4.323386336873227265e-01,-6.188192006084136665e-01,-5.566548906499519944e-01,-2.320425501093268394e-01,-1.629714656155556440e-01,-1.916227428737329319e-01,-2.044147987617179751e-01,-7.051791999547276646e-01,-1.526794797973707318e-01,-1.691810814663767815e-01,-3.954313231806736439e-01,-2.772359666414558887e-01,-1.624626718694344163e-01,-6.986253415234386921e-01,-3.627250522840768099e-01,-1.134459227323532104e-01,-6.377166801830753684e-01,-1.035834194626659155e-01,-5.707163089537061751e-01,6.853805924474727362e-01,1.121758934150420828e+00,2.008289778634207323e+00,2.428819878725335002e+00,2.720281322021037340e+00,3.464791250298731029e+00,3.385401776977232657e+00,4.361901972100895364e+00,5.308259736346371938e+00,5.365272223818465136e+00,6.541130306839477271e+00,7.291203903732821345e+00,7.780808614988927729e+00,7.383437928918283433e+00,6.968573031321284361e+00,5.541473469202173874e+00,5.538320301944622770e+00,5.440208182204514742e+00,7.405468819197267294e+00,7.733590191244729795e+00,1.075127926413551904e+01,1.126863269833847880e+01,1.182218031672528014e+01,1.166745311173144728e+01,1.167193167516961694e+01,1.195487960526952520e+01,1.212992675722489366e+01,1.135076252650469542e+01,1.025337125256191939e+01,9.569877110421657562e+00,8.732128409435972571e+00,8.190380736863062339e+00,6.997685826681845356e+00,5.663707410130882636e+00,4.476908135446137749e+00,2.414325391553575173e+00,1.561179388430900872e+00,1.464626405737362802e+00,1.378408840711927041e+00,3.215910144994268194e+00,4.811228095670230687e+00,7.005430320743471384e+00,7.649551689908548724e+00,8.808199673047056422e+00,1.095212363695827662e+01,1.229145289026200771e+01,1.156324356654658914e+01,1.010260309325531125e+01,1.065340479183942080e+01,9.821815843693912029e+00,7.332607090938836336e+00,4.567517929710447788e+00,1.257126391632482409e+00,3.749606492929160595e-01,-3.963311758125200868e-01,2.308378767920657992e-01,1.716802813578397036e+00,4.217261576224700548e+00,5.379132294777718926e+00,6.712299978353257757e+00,6.926487460921634920e+00,6.804794198098534252e+00,5.954418313514906913e+00,5.039913468046506750e+00,3.071529032662510872e+00,1.943161920622515026e+00,5.334850666404236108e-01,-8.475326127954758704e-01,-1.398651979863643646e+00,-1.236660566763021052e+00,-8.950445607770234346e-01,-2.365978745219763368e-01,-5.025459460448473692e-01,-7.729481105925515294e-01,-3.422263501088309567e-01,-5.137278044130653143e-01,-2.150342558743432164e-01,-9.932905683526769280e-01,-2.576497714326251298e-01,1.046180967765394598e+00,2.484497776546049863e+00,4.416144574875943363e+00,5.703930580544692930e+00,6.750560682434297632e+00,6.095073334974586032e+00,6.292514937173109502e+00,5.518638943438418210e+00,4.319644671864807606e+00,2.966411834669997916e+00,2.513952626759419218e+00,2.950627090725902235e+00,3.441373114683301537e+00,5.351381121570739197e+00,7.766627065298962407e+00,9.773334301367867738e+00,1.198916181057575159e+01,1.374824172336957417e+01,1.495241342706140131e+01,1.531603200640529394e+01,1.478542455275601242e+01,1.326289340481162071e+01,1.098168903464102186e+01,7.676188325873226859e+00,2.843410981204215204e+00
-1.121628193417564034e+00,-4.391134743054863065e-01,-2.794171734713017941e-01,-2.562859642494004220e-01,-9.259165629628114402e-01,-2.195696341805160046e-01,-5.414806376211345196e-02,-3.043483751534949988e-01,-2.972336856182664633e-01,-2.257573816023068503e-01,-4.227267031092196703e-02,-3.001351323910057545e-01,-2.282669104170054197e-01,-6.141328257508575916e-01,-2.359875366673804820e-01,-4.754473455250263214e-02,-5.850314880954101682e-01,-4.789588005514815450e-01,-1.688014897517859936e-01,-3.710608720430172980e-01,-4.887562150834128261e-01,-2.834450399968773127e-01,-5.994955601636320353e-01,-6.064841079059988260e-01,-6.619025700492784381e-01,-5.537473488366231322e-01,-5.909214426064863801e-01,-3.693005422246642411e-01,-2.861157050356268883e-01,-1.478497405769303441e-01,-5.062845687498338521e-01,-5.535388508578762412e-01,-6.868608426302671432e-01,-7.146744148340076208e-01,-4.033945165574550629e-01,-2.561189210391603410e-01,2.339359275501919910e-01,1.089666287763975561e+00,2.832560648232174572e+00,4.801115857761033112e+00,6.616321755951503292e+00,7.009709464138722979e+00,8.124757977144327015e+00,9.251230138834216632e+00,1.035324640671024099e+01,1.138185567926848307e+01,1.356265495374100283e+01,1.549944165843771771e+01,1.613487052568234503e+01,1.616220391407841817e+01,1.558624960459383146e+01,1.541419844055781141e+01,1.352865312376525253e+01,1.284674640919547528e+01,1.111444033101724926e+01,1.002086000778945163e+01,8.207885448918659677e+00,6.927097945605055429e+00,5.139190846995916218e+00,3.449281296787376050e+00,2.176743699004873633e+00,1.277638629486318678e+00,1.017757960107701365e+00,6.603981098160147667e-01,1.017585627851076424e-01,-4.069192544557154179e-02,9.542079590028151870e-02,1.218427832704037428e+00,2.300564427860081196e+00,3.413361390586942434e+00,4.623985547223128378e+00,5.231784000061452389e+00,6.975664516910910606e+00,6.498152961488813162e+00,8.238614293280988932e+00,9.686178560368716717e+00,9.994255112280370668e+00,9.729814370162785053e+00,9.555295669473707676e+00,8.987306583672761917e+00,9.539170563453808427e+00,1.006434828881174326e+01,1.006974782235920429e+01,9.844151075929403305e+00,8.997066506650298834e+00,7.992145620402880013e+00,7.865773309487849474e+00,7.953244880307465792e+00,7.318156540510244668e+00,6.876526293344795704e+00,6.131875002756714821e+00,5.092209915397688746e+00,5.658972093078773469e+00,6.078496950678527355e+00,6.432200501440092921e+00,6.461618787841871381e+00,5.866134645417332649e+00,6.059641975909471512e+00,6.318757406901568174e+00,6.082587557786609977e+00,4.949875354068353772e+00,3.211134407676581759e+00,3.866959296152344905e+00,5.802698050498293014e+00,7.946662071495666169e+00,8.435086026089265943e+00,7.638835165766067803e+00,8.681589507265016437e+00,1.059691364271566272e+01,1.076397426892071962e+01,8.404429881833493710e+00,8.071918002329766750e+00,5.971262938757718075e+00,3.593614676734432578e+00,1.055808961275033653e+00,-3.047387828701175749e-01,-1.160774907097220421e+00,-6.213224239763803780e-01,-4.894856781465932727e-01,-7.834730215836316347e-01,-7.897674387786537409e-01,-5.200749305076897144e-01,-1.643119373475201428e-01,-3.900915414924384095e-01,-2.664658644353039563e-01,-3.829362613614648581e-01,-3.207657990278676152e-01,-1.298135413395357318e+00
1.729583421547431499e-01,9.676044392399489880e-01,2.510672781718312763e+00,3.748594166012480855e+00,5.389984417706727982e+00,5.512099276296794415e+00,4.460313867311924696e+00,5.812126472927047871e+00,6.915417690994217992e+00,6.164522707695141435e+00,6.228576609864830971e+00,6.622036942892009392e+00,6.681480843108147383e+00,5.935471909353509545e+00,6.378657183493487537e+00,7.198825940839014947e+00,6.562501866836100817e+00,6.282524568028748035e+00,6.899599428521469235e+00,6.372543651319574565e+00,5.793825937435030937e+00,6.117852089577354491e+00,3.446849472820758820e+00,2.359873349021654576e+00,3.711914360930677503e+00,5.829926286824047565e-01,-3.402071967480878811e+00,-3.508935445512179285e+00,-8.019140261785651091e-01,2.539110379409976304e+00,3.779819188755936921e+00,5.392863589364424115e+00,5.704028365784324706e+00,5.550296270754188299e+00,5.391948051517829299e+00,5.652851455379277468e+00,5.930930753005668521e+00,6.907734422944486141e+00,8.720812416751869023e+00,8.421375165780773386e+00,8.880792566109448671e+00,9.463843343197368085e+00,8.764528500149026513e+00,8.726317257096525282e+00,8.777874983497895300e+00,8.751151509208284551e+00,7.749242712947307155e+00,7.316855341487098485e+00,8.080977027828339487e+00,7.587601615145104006e+00,6.946339073692797683e+00,7.115348508523311466e+00,7.633604949689470232e+00,7.801547519949963316e+00,6.625634723837720230e+00,8.794157479598652571e+00,7.402184165024664253e+00,8.617723245522938669e+00,8.903745097806677222e+00,8.559287320211296901e+00,7.953224411496194080e+00,8.066421224299119785e+00,8.323756099620368332e+00,7.626372432918287814e+00,8.601493322988972068e+00,7.530707527883350849e+00,8.372951471654232591e+00,7.852859510778216645e+00,7.647432549914810807e+00,8.034756308828946203e+00,8.299031777132768184e+00,7.711605133605189621e+00,8.374110271775862202e+00,8.452208524977322668e+00,8.009386077086674049e+00,8.194063951203133911e+00,8.156175409967545420e+00,8.138088217354379594e+00,8.488456159437191673e+00,8.035319705086294562e+00,7.902327089454047382e+00,7.640285437097190879e+00,6.717701446934370324e+00,7.509078297123778611e+00,6.006444330618251115e+00,5.891382061643525958e+00,5.965827676496701315e+00,4.863412229620735161e+00,3.823366696742596105e+00,5.042633626842871308e+00,3.938412329647690058e+00,4.615578398341313004e+00,4.455463014543056488e+00,5.458627547137439251e+00,4.851360531989485025e+00,4.911086297594010830e+00,5.894337266567163169e+00,5.801316348835825920e+00,5.688413251657038927e+00,5.199423576152184978e+00,5.044168182532303035e+00,4.704044068115763366e+00,5.121419251736369915e+00,4.430320817278698087e+00,4.788139385404065251e+00,3.854350497189443558e+00,3.255377055378630757e+00,3.942398762213997543e+00,4.698355247339350171e+00,5.267839268897660077e+00,5.540019271255005151e+00,6.662880700459027139e+00,7.333567721769213676e+00,7.323166577145457268e+00,6.900724829873070121e+00,7.695947470230748877e+00,7.561431191395968199e+00,8.745734578464180231e+00,8.386701127514243126e+00,7.142122794040915323e+00,6.873450766899622977e+00,5.795295028481632471e+00,5.136952494503930211e+00,3.064373850706033409e+00,1.980829860549420118e+00,7.501041133655235171e-01,1.605430319905281067e-01,1.097689799498766661e-01
-1.574906338064465672e+00,-5.402561922091990709e-01,-4.679458669852465391e-01,-6.658962820656597614e-01,-4.456426442193333060e-01,-1.696267379447817802e-01,-4.654849164071492851e-01,-7.291883914731442928e-01,-6.744591235183179379e-01,-6.002632451709359884e-01,-7.099947892129421234e-02,-1.429096648935228586e-01,-2.522297136019915342e-01,-4.397951135179027915e-01,-5.323275970586109906e-01,-9.428779594600200653e-02,-2.221491492236964405e-01,-3.886426999233663082e-01,-1.832000087015330791e-01,-7.330519802635535598e-01,-2.676904202089644969e-01,-2.474816306494176388e-01,-4.461207714630290866e-01,-3.181352070532739162e-01,8.355931637343019247e-01,3.435727967444108799e+00,6.197729771360172890e+00,9.269371636270079762e+00,1.138360694213770330e+01,1.294944636616855860e+01,1.384344687775592320e+01,1.491581995401065797e+01,1.564377728005638346e+01,1.666737318591913208e+01,1.677072033708100207e+01,1.649415530799888074e+01,1.539756095124175772e+01,1.410164013021858409e+01,1.189345149893779308e+01,9.600740763443354808e+00,7.029914740531239659e+00,5.564919504977297038e+00,4.318735315697267652e+00,4.551318419427843764e+00,4.762880866095656529e+00,6.721773895318619907e+00,6.332379994913935661e+00,7.132652705651707947e+00,8.004751109518110752e+00,7.539447532966732979e+00,7.582304837647825480e+00,7.249905119650065899e+00,6.278230273164808750e+00,4.341805925592780113e+00,3.403305345680564642e+00,2.358286448055878282e+00,2.874315785244107246e+00,4.263152982573956251e+00,5.030431981431320310e+00,6.081482433713972569e+00,6.889746148604899645e+00,7.428059433121234179e+00,8.481200738693587482e+00,8.941389340907335281e+00,8.836748561416243319e+00,8.884802322834730148e+00,8.457739117089658976e+00,7.379658812424167991e+00,6.444424021348822862e+00,5.603834751877002418e+00,4.505561606725677848e+00,3.292082958621904254e+00,2.995670502597931772e+00,2.477217420353554189e+00,2.697142365388572216e+00,3.259485052200034261e+00,4.174927806496270932e+00,4.839753989363089204e+00,5.134368970058858395e+00,5.632249567119288258e+00,6.024221918691182509e+00,8.519675055329571478e+00,9.657738356763729826e+00,9.090140039592370158e+00,8.770613738801330328e+00,1.189167913456913084e+01,1.261044712597504258e+01,1.064111890073399991e+01,1.049556883866898715e+01,8.905042331585718784e+00,6.671737499069422483e+00,3.456916180555708706e+00,7.985826944932341576e-01,-3.335514398058876395e-01,-6.967086282093077898e-01,-4.943585759610868990e-01,-5.221211002208292484e-01,-1.236087530851364136e-01,-1.224138960242271423e-01,-4.323571678833104670e-01,-5.681150096934288740e-01,-4.888185693998821080e-01,-2.974471093621104956e-01,-4.828881808789446950e-01,-2.443314174306578934e-01,-1.279581757262349129e-01,-3.367348826868692413e-01,-5.906472987262532115e-01,-2.792715352843515575e-01,-5.893975002691149712e-01,-5.218120247300248593e-01,-1.802128256531432271e-01,-2.748005026951432228e-01,-3.058215681230649352e-01,-1.070492900907993317e-01,-4.836777879972942173e-01,-4.934772326669190079e-01,-2.449500213842839003e-01,-1.105867382138967514e-01,-4.436472113484342117e-01,-2.264006868936121464e-01,-2.018576380796730518e-01,-7.709172864997526631e-01,-7.754477228736504912e-01,-5.767317310674116015e-01,-3.482363221701234579e-01,-9.980302150361239910e-01,-9.426720070696319453e-01
-1.157692477885575499e+00,-4.549496193649247289e-01,-6.534936841926537454e-01,-9.246720327064394951e-01,-6.666969939833506942e-01,-8.889095392078161240e-01,-7.694543709512799978e-01,-1.305172493681311607e+00,-1.226969727780669928e+00,-9.681323696859180927e-01,-1.089126438135281205e+00,-1.196719054132699966e+00,-1.135232316330075264e+00,-7.039426421979442239e-01,-1.054798119002953172e+00,-6.936470181681215763e-01,-3.495409754104912281e-01,-5.508783279219642282e-01,-4.384132600389420986e-01,-5.705100825871340930e-01,-3.307143103738781065e-01,-7.992908878950402141e-01,-3.038638611906208098e-01,-3.873865182977169752e-01,-5.687881411868147552e-01,-3.090641400776803493e-01,-1.846947420854121447e-01,-3.680719248950481415e-02,-1.354365218558086781e-01,-7.238421277143061161e-01,6.426884092215914279e-01,1.644553609774447978e+00,3.395637351612094790e+00,5.301808286373670853e+00,7.614716324111213908e+00,9.721647745318477973e+00,1.254403467290103436e+01,1.478642038255929947e+01,1.627635470434324816e+01,1.722840141557389870e+01,1.812576296535553411e+01,1.878298670682124794e+01,1.868205044639762491e+01,1.873011888584733242e+01,1.862164518225472420e+01,1.894327672000508755e+01,1.884582497878000140e+01,1.798349842027528211e+01,1.638981651264475659e+01,1.516762581898365170e+01,1.323937193286838010e+01,1.108162723181885667e+01,8.477337169460952282e+00,7.247265533980680630e+00,5.070715532554459060e+00,4.486755343503318727e+00,5.376011404441669583e+00,6.878746067057363689e+00,6.082863551098853350e+00,7.115311429603025317e+00,8.570125822909176350e+00,6.894478729926049709e+00,6.124410453252494335e+00,5.868175356648862362e+00,4.187394882319495082e+00,3.803867568378336728e+00,3.678304998902603984e+00,3.547511528711766005e+00,3.969152325531467795e+00,5.025297163054347038e+00,6.004986962070688605e+00,7.599846005556173623e+00,7.931238229386508465e+00,7.549555589212104678e+00,6.355386510025709867e+00,6.273232652805745602e+00,4.819481078244280070e+00,4.692677865241421387e+00,3.326638205675408244e+00,2.255033455789089203e+00,1.200767909642308950e+00,1.500139949552249163e+00,2.372485757339745760e+00,3.350458001932565821e+00,3.894163800403475761e+00,5.196942491689696908e+00,5.973052582237869501e+00,5.776375949149951339e+00,6.588421905762515962e+00,7.566834509605541825e+00,7.595776180562097579e+00,7.245915675510332221e+00,6.892038881313055754e+00,5.152418910591222811e+00,4.787353685482230503e+00,6.259637731796829030e+00,7.948052895662840456e+00,8.564304839819669724e+00,8.839250372198875993e+00,9.238186133094131947e+00,1.064464643597602844e+01,1.059358814719598740e+01,9.787220633239485323e+00,9.085593671683454886e+00,7.202965420670807362e+00,4.251610303297638893e+00,1.635547655634582043e+00,2.924474494066089392e-01,-7.277498528128489852e-01,-3.939995826222002506e-01,-3.023304323141928762e-01,-2.842233485353062861e-01,-2.370524025100166909e-01,-3.997018527115869801e-01,-4.719296200200915337e-01,-8.381683817133307457e-01,-2.697450465057045221e-01,-8.523496215930208564e-01,-3.519113680813461542e-01,-1.200464904075488448e+00,-6.414366876706480980e-01,-8.870200756937265396e-01,-1.030094883404672146e+00,-8.580490709282457829e-01,-7.111125539522618055e-01,-9.038964072242379189e-01,-6.365345097146928310e-01,-5.135504342324566096e-01
-1.858954977258690633e+00,-1.339876366633689031e+00,-4.000268590752966702e-01,-4.396181106567382812e-01,-2.122839924413710833e-01,-6.981945692095905542e-01,-8.644821155467070639e-01,-1.752330312738195062e-01,-2.372505343519151211e-01,-2.516891220584511757e-01,-3.162060274044051766e-01,-3.275712742470204830e-01,-3.366920575499534607e-01,-5.315711954608559608e-02,-1.461280388029990718e-01,-3.939551175571978092e-01,-6.072501887101680040e-01,-8.491074626799672842e-01,-1.612475381116382778e-01,-3.315907905634958297e-01,-2.467768029018770903e-01,-2.912599631235934794e-01,-4.874096958665177226e-01,-1.051162381190806627e-01,-4.660813286900520325e-01,-4.506943909218534827e-01,-2.597100108396261930e-01,-1.870999725651927292e-01,-6.619211192009970546e-01,1.727781157242134213e-01,2.129771259438712150e+00,4.066395803853083635e+00,5.583554278069641441e+00,6.982685053371824324e+00,8.569262481396435760e+00,8.895052754785865545e+00,9.724188541993498802e+00,1.104483393214468379e+01,1.190212738158879802e+01,1.289261720099602826e+01,1.389149879885371774e+01,1.465258654626086354e+01,1.491860861185705289e+01,1.375557924777967855e+01,1.169907033894560300e+01,1.018398661364335567e+01,7.630101922681205906e+00,6.374588363105431199e+00,8.014222044497728348e+00,9.276800510473549366e+00,9.122428623522864655e+00,9.617669623228721321e+00,9.892474435298936442e+00,9.851990297902375460e+00,9.804856287315487862e+00,1.043356915120966733e+01,1.078017848823219538e+01,9.770218586287228391e+00,8.787590844207443297e+00,7.980489458553165605e+00,7.586177278310060501e+00,7.574569111224263906e+00,8.153652769862674177e+00,7.547851054870989174e+00,6.796394803735893220e+00,6.807568909309338778e+00,6.719060250441543758e+00,6.650773745030164719e+00,6.506880566827021539e+00,4.712375593784599914e+00,2.634375801193527877e+00,9.311270130274351686e-01,-7.677556999260559678e-02,1.766170119859452825e+00,3.335779822315089405e+00,4.406844825622101780e+00,5.339534424099838361e+00,6.733635998934914824e+00,7.813945967238396406e+00,9.872738484584260732e+00,1.059772142505971715e+01,8.353894873493118212e+00,8.557616185164079070e+00,7.597836010565515608e+00,5.747384529560804367e+00,3.203930324176326394e+00,8.116900119930505753e-01,-3.837673917878419161e-01,-8.335091947810724378e-01,-6.428995140013284981e-01,-6.678809215663932264e-01,-3.295067595317959785e-01,-8.011436237138696015e-01,-7.689476625528186560e-01,-1.045496232574805617e+00,-6.266853262786753476e-01,-5.857681682391557842e-01,-7.157117696478962898e-01,-1.005387065466493368e+00,-6.928025889210402966e-01,-1.134583640348864719e+00,-8.472211742773652077e-01,-4.923323789844289422e-01,-5.462666531584545737e-01,-6.124220183119177818e-01,-3.665118135977536440e-01,-1.509532003547064960e-01,-4.519700220553204417e-01,-3.714175755158066750e-01,-2.511076221708208323e-01,-7.835184282739646733e-01,-3.127013960620388389e-01,9.150136209791526198e-02,8.729425624478608370e-01,1.234860285854665563e+00,3.247885885051800869e+00,5.670870040223235264e+00,6.758173989248462021e+00,7.330638726678444073e+00,7.499286137295712251e+00,7.256380967271979898e+00,7.334100810941890813e+00,6.243314348415879067e+00,5.070341222693969030e+00,3.916081694420427084e+00,3.215142861423373688e+00,9.473923769837711006e-01,-1.020019070449052379e+00
3.901796732679940760e-02,-2.217956751119345427e-01,1.247552044223994017e-01,1.121286785230040550e+00,1.382638467475771904e+00,1.162586734630167484e+00,9.797316538752056658e-01,1.884523252258077264e+00,1.150392056442797184e+00,4.620012420928105712e-01,6.831119236303493381e-01,1.293291675392538309e+00,1.605292161111719906e+00,1.094878997188061476e+00,1.401321700541302562e+00,2.327837385470047593e+00,1.263342828489840031e+00,5.354725997895002365e-01,1.667588069685734808e+00,1.057395292860746849e+00,-3.755408862780313939e-01,-1.658606849261559546e+00,-1.719652046449482441e+00,-5.705153511371463537e-03,3.186367262038402259e+00,4.485374708310700953e+00,4.843168690509628505e+00,5.925668354029767215e+00,6.058975467254640535e+00,5.758979029196780175e+00,5.227924759499728680e+00,5.946539225173182786e+00,6.897385290241800249e+00,7.566077398369088769e+00,8.300993762677535415e+00,8.629663595638703555e+00,9.534090999513864517e+00,9.405500403023324907e+00,9.548458876233780757e+00,9.844471206481102854e+00,9.603927881733397953e+00,1.000303371556219645e+01,9.929160492523806170e+00,9.359298842144198716e+00,9.764984072971856222e+00,8.889536037633661181e+00,8.691613146627787501e+00,8.424194952123798430e+00,7.651448911194165703e+00,8.415872178506106138e+00,7.214919993988587521e+00,8.491124722931999713e+00,8.030812243348918855e+00,7.756166299572214484e+00,8.656033440478495322e+00,8.187190593194827670e+00,8.253971022611949593e+00,7.290580149041488767e+00,6.342541765130590647e+00,5.689317904169001849e+00,4.371657989569939673e+00,3.928667176120143267e+00,4.541836945078102872e+00,5.150389586691744626e+00,6.141952343168668449e+00,6.667971540358848870e+00,7.289606926497071981e+00,6.847272661980241537e+00,6.037550965964328498e+00,5.118300592061132193e+00,4.048246191057842225e+00,2.933498485712334514e+00,1.844440522698278073e+00,2.298706864123232663e+00,4.351634676568210125e-01,-3.086203825660049915e-01,-1.976603486109524965e-01,-2.519939593039453030e-01,6.016256031580269337e-01,1.125585025292821229e-01,1.466728076338768005e-01,9.901218232698738575e-02,3.241045936010777950e-01,1.982501238002441823e+00,2.031811186345294118e+00,2.280201770830899477e+00,2.553088250337168574e+00,2.545301985461264849e+00,1.904094988014549017e+00,1.646280326414853334e+00,1.136031432659365237e+00,1.089523625094443560e+00,1.336137365549802780e+00,1.034492939244955778e+00,1.254759403178468347e+00,-1.416625600541010499e-01,3.741676514036953449e-01,1.325800693128257990e+00,8.139380621723830700e-01,1.123869466813630424e+00,9.965177155099809170e-01,4.358288901858031750e-01,-1.115468689240515232e-01,6.666426849551498890e-01,9.138805291731841862e-01,9.612749489024281502e-01,2.614015212748199701e-01,1.188897879095748067e+00,9.625706991064362228e-01,2.949900880921632051e-01,2.549610957503318787e-01,1.284622726729139686e+00,1.224614135688170791e+00,6.672591739334166050e-01,-8.143246732652187347e-02,7.814202581648714840e-01,8.013397811446338892e-01,2.062214349862188101e-01,1.681702514644712210e+00,1.965077897417359054e+00,1.235697078984230757e+00,2.786656197858974338e+00,2.216093842172995210e+00,7.994556715711951256e-01,6.990223540924489498e-01,7.837223010137677193e-01,3.116797665134072304e-01,2.682122526457533240e-01
-8.771124326158314943e-01,-7.389861978590488434e-01,-1.037623979733325541e+00,-1.273542785784229636e+00,-1.494747820019256324e+00,-9.140126395504921675e-01,-1.477250216121319681e+00,-1.893798168748617172e+00,-1.670034355192910880e+00,-1.694488525390625000e+00,-1.701326467213220894e+00,-1.820412993198260665e+00,-1.641582920681685209e+00,-1.497711158590391278e+00,-1.447638335404917598e+00,-1.090321811032481492e+00,-1.355278786271810532e+00,-1.109317281749099493e+00,-8.671219371208280791e-01,-8.428341341204941273e-01,-1.162763620493933558e+00,-4.275462575023993850e-01,-2.659214222221635282e-01,-3.588644731789827347e-01,-1.920783792156726122e-01,-1.606676466763019562e-01,-3.121102420846000314e-01,-5.437314548180438578e-01,-1.845250816277257400e-01,-4.200346898287534714e-01,-7.603959320113062859e-02,-1.397337998496368527e-01,-3.726525495294481516e-01,-1.686949419090524316e-01,-8.427113648504018784e-01,-2.680442443761421600e-01,-1.660251494031399488e-01,-1.915033239056356251e-01,-6.423146410379558802e-01,-5.171920416178181767e-01,-7.697922826046124101e-01,-1.859672799764666706e-01,-1.931118984066415578e-01,-5.419915609527379274e-01,-6.709554547451261897e-01,-6.602353742346167564e-01,-6.924866379704326391e-01,4.052935642539523542e-01,1.750913418130949140e+00,3.855500222227419727e+00,7.179329397389665246e+00,9.148186805708974134e+00,1.210545513016404584e+01,1.420353364339098334e+01,1.599020579905482009e+01,1.762774834834272042e+01,1.883540350256953388e+01,1.928272779088001698e+01,1.999699280376080424e+01,2.052789112034952268e+01,2.043747937447733420e+01,2.047576279187342152e+01,2.034802509529981762e+01,2.036030918202595785e+01,1.998580293904524297e+01,1.903100146033102646e+01,1.758553155104164034e+01,1.610360464523546398e+01,1.455744054491515271e+01,1.237900715801515616e+01,1.113220900343731046e+01,9.861595943191787228e+00,9.430786797569453483e+00,8.542528311576461419e+00,8.672911780071444809e+00,8.689672749926103279e+00,9.337095404691353906e+00,9.220180305710528046e+00,9.749049409787403420e+00,9.498260959066556097e+00,9.188267142919357866e+00,8.466015754078398459e+00,7.421082790446234867e+00,6.170338449366681743e+00,4.886780383224959223e+00,5.753529144596541300e+00,5.744773899787105620e+00,6.818753366824239492e+00,7.131309135816991329e+00,7.425712777301669121e+00,6.510463943704962730e+00,7.266822642646729946e+00,7.460260840132832527e+00,8.199112941510975361e+00,8.420894948299974203e+00,9.394401368685066700e+00,9.849750640802085400e+00,9.164146379567682743e+00,9.581828345428220928e+00,9.025396650307811797e+00,7.724381684325635433e+00,6.391121251450385898e+00,5.066913249305798672e+00,3.522007299412507564e+00,1.865597272757440805e+00,-1.090911928331479430e-01,-1.552679416723549366e+00,-2.390328539535403252e+00,-2.743208516098093241e+00,-2.504403428058139980e+00,-1.374595962639432400e+00,-1.159092882706318051e+00,-8.666896028444170952e-02,1.860166959464550018e+00,3.305222527007572353e+00,4.111002537130843848e+00,3.728930330893490463e+00,2.980707244772929698e+00,2.899614352922071703e+00,3.714354514842852950e+00,3.536880297753668856e+00,2.734289716976491036e+00,2.259644837002269924e+00,3.862836483167484403e+00,4.717448233626782894e+00,4.119350464257877320e+00,1.788058938051108271e+00,-1.532827236689627171e+00
3.060101647861301899e-01,-3.505941540934145451e-01,-8.133675972931087017e-01,-2.487436663359403610e-01,-1.484665758209303021e+00,-5.517938630655407906e-01,-3.136282571358606219e-01,-2.023302349261939526e-01,-1.242678393144160509e+00,-6.615586234256625175e-01,-3.119919785531237721e-01,-5.894674057490192354e-01,-1.113951691193506122e+00,-6.663391357287764549e-01,-1.895728220315504586e-01,-4.150430436711758375e-01,-1.498036494012922049e-01,-5.116868726909160614e-01,-5.561135290190577507e-01,-1.184346504975110292e+00,1.709857477399054915e-01,1.647560733370482922e+00,4.880043569486588240e+00,1.080586584284901619e+01,1.281828932673670352e+01,1.313685283012455329e+01,1.171231143083423376e+01,1.251776587177482725e+01,9.878337174654006958e+00,7.479885879845824093e+00,5.985933675430715084e+00,4.000623283674940467e+00,4.001542913087178022e+00,4.584885925694834441e+00,5.083000061800703406e+00,5.767065643391106278e+00,1.007217729112016968e+01,1.442749163987173233e+01,1.441219542390899733e+01,1.558043248078320175e+01,1.732643321191426367e+01,1.533177082007750869e+01,1.442095375689677894e+01,1.239031448093010113e+01,1.044672886407352053e+01,6.781129565322771668e+00,5.787763462867587805e-01,-2.769838609368889593e+00,-2.932014827514649369e+00,-5.505984246236039326e+00,-4.998085123253986239e+00,-3.707021713489666581e+00,-4.933969077246729285e+00,-4.040082710096612573e+00,-2.486932339030317962e+00,1.010043155110906810e-01,2.903826520778238773e-01,6.093739928910508752e-01,1.744288791000144556e+00,4.259832023060198480e+00,5.847990753347403370e+00,7.556269253400387242e+00,7.357785067113582045e+00,7.234947644567000680e+00,7.075778849030029960e+00,7.054839873804951367e+00,6.751058851400102867e+00,5.934051292814729095e+00,5.172106101685130852e+00,5.170435618241754128e+00,5.110336906225711573e+00,5.239836087086587213e+00,5.607540341636195080e+00,5.565448475055745803e+00,6.664414800441591069e+00,8.031121134297791286e+00,8.883726069998374442e+00,8.495605409261770546e+00,7.056714071310125291e+00,5.444679489679401740e+00,5.147992440994130448e+00,5.765526374433193268e+00,5.194242760568158701e+00,5.617218531551770866e+00,5.855881792143918574e+00,4.842202791129238904e+00,4.911704894329886883e+00,4.502810564808896743e+00,3.482154221157543361e+00,1.182180262752808630e+00,3.850126685574650764e-02,-5.933795727323740721e-01,-6.087578032165765762e-01,-3.226660266664111987e-01,-6.243949197232723236e-02,-3.968544674498843960e-01,-6.351349675096571445e-01,-4.751551938243210316e-01,-1.645827306783758104e-01,-9.264681842178106308e-01,-7.350874893018044531e-01,-1.642209378682309762e+00,-1.226299230474978685e+00,-1.616529673337936401e-01,-1.761618490563705564e+00,-1.581663730379659683e+00,-1.034715963061898947e+00,-5.672192443162202835e-01,-1.521053601056337357e+00,-1.102629416855052114e-01,-5.586733096279203892e-01,-6.779815880581736565e-01,-9.870177358388900757e-01,-6.671010535210371017e-01,-7.633106459397822618e-01,-7.654354369151405990e-01,-1.482424334157258272e+00,-1.919206280901562423e+00,-2.643252682406455278e+00,-2.717469945084303617e+00,-2.713700514868833125e+00,-2.322305086534470320e+00,-1.735259094275534153e+00,-1.433620822615921497e+00,-1.593860264867544174e+00,-1.613944613374769688e+00,-2.142370038200169802e-01,1.223841682067359216e-01
-3.496100713964551687e-01,-4.379326679045334458e-01,-2.190687694819644094e+00,-2.195386099512688816e+00,-2.024976299493573606e+00,-3.466669721528887749e+00,-2.563740121666342020e+00,-1.325369698344729841e+00,-2.360434152127709240e+00,-1.972827220102772117e+00,-2.747157382313162088e+00,-3.679586219601333141e+00,-2.780399966984987259e+00,-3.775357199367135763e+00,-4.244794235564768314e+00,-2.782246409158688039e+00,-2.212148764752782881e+00,-1.559199821203947067e+00,1.266016550362110138e+00,3.474171057110652328e+00,5.612239174253772944e+00,5.924104902638646308e+00,4.482378793298266828e+00,2.003844041842967272e+00,1.344781667692586780e+00,1.560353869339451194e+00,1.396728833089582622e+00,1.968961338279768825e+00,3.604912792798131704e-01,7.598451773228589445e-01,1.376214870717376471e+00,1.915121634719980648e+00,1.635652275581378490e+00,2.703509408747777343e-01,-1.019385505933314562e+00,5.950994461891241372e-01,2.288835101227419955e+00,3.182104897146928124e+00,3.381011451827362180e+00,3.455199851945508271e+00,3.176786932424874976e+00,4.724314217397477478e+00,7.010711201059166342e+00,9.246934382128529251e+00,9.524490882700774819e+00,1.175231223640730605e+01,1.152155423397198319e+01,1.145734088649624027e+01,1.212498935399344191e+01,1.097685968060977757e+01,9.889685676433146000e+00,8.319300246017519385e+00,5.270509142137598246e+00,3.047323368955403566e+00,1.104994272725889459e+00,-2.044107818626798689e+00,-3.652075978228822351e+00,-6.315775086171925068e+00,-7.311009726021438837e+00,-5.999392793746665120e+00,-4.102049129956867546e+00,-2.904251907719299197e+00,-1.085557989310473204e+00,3.793122652277816087e-01,1.675562013697344810e+00,3.379352946642029565e+00,5.558583661733791814e+00,6.450475208112038672e+00,7.454269608710774264e+00,8.237078296951949596e+00,8.972400309314252809e+00,9.062719389912672341e+00,8.419115601689554751e+00,7.286746772355400026e+00,6.221296916774008423e+00,6.150737884279806167e+00,6.078495895490050316e+00,5.846371558960527182e+00,5.818477178923785686e+00,5.219953791121952236e+00,5.003920177230611444e+00,4.786646979860961437e+00,4.581064517144113779e+00,5.013904748484492302e+00,5.642160044866614044e+00,5.428742413641884923e+00,5.690780198201537132e+00,5.113891042652539909e+00,4.821685252012684941e+00,4.917505134013481438e+00,5.041108738398179412e+00,4.867401968629565090e+00,4.384871624060906470e+00,3.794539116090163589e+00,3.324815703905187547e+00,3.207574258907698095e+00,3.194001411320641637e+00,3.583832890552002937e+00,2.883461668767267838e+00,1.902073007440776564e+00,2.326802110008429736e+00,1.481666210071125533e+00,1.229637844458920881e+00,-2.616275837644934654e-01,1.684182113967835903e-02,-6.201695008203387260e-01,-4.737353632226586342e-01,6.298134566168300807e-02,-2.299702786840498447e-01,-7.130077998153865337e-01,-2.170152954058721662e-01,-1.306637888774275780e-03,-5.071994503960013390e-01,-1.775463054771535099e+00,-2.329158911481499672e+00,-1.590113279875367880e+00,-1.672545471228659153e+00,-3.756491931155323982e+00,-3.319641101174056530e+00,-3.235865594819188118e+00,-3.453324498608708382e+00,-2.770661969669163227e+00,-1.965611160732805729e+00,-1.846405621618032455e+00,-1.301884711487218738e+00,-9.483078454504720867e-01,-3.378287255764007568e-01,2.100114922795910388e-01
1.509394781358423643e+00,6.284257593215443194e-01,6.391259728115983307e-01,-2.131250145612284541e-01,-7.232107669115066528e-01,-1.237955517484806478e+00,-1.060849567875266075e+00,-2.520834393333643675e+00,-1.639532723464071751e+00,-1.140862154774367809e+00,-1.806577274808660150e+00,-1.008696435019373894e+00,-1.631509776460006833e+00,1.226896881125867367e+00,4.908433239761507139e+00,9.549845217683468945e+00,1.448524368005746510e+01,1.608764289121609181e+01,1.574341469825230888e+01,1.685346764087444171e+01,1.535414157452032669e+01,1.471946077431857702e+01,1.229702280424135097e+01,1.208373067443062610e+01,1.096573753653024141e+01,9.198704594979062676e+00,1.085287885135039687e+01,1.389937062648095889e+01,1.202961993498365700e+01,1.673950627163048921e+01,1.449055180432333145e+01,1.683206780613818410e+01,1.683161218812165316e+01,1.492292465525679290e+01,1.278915510338265449e+01,9.934925858862698078e+00,8.644837453262880445e+00,7.032178868714254349e+00,4.625245008501224220e+00,4.187137022032402456e+00,3.127078295248793438e+00,3.063789489082410000e+00,5.311371756484732032e+00,8.090516081312671304e+00,9.542504441691562533e+00,1.180899305036291480e+01,1.268118446375228814e+01,1.104343389376299456e+01,1.057416032173205167e+01,9.130657814603182487e+00,6.869869184680283070e+00,3.814373781089670956e+00,5.713445611763745546e-01,-3.303308748407289386e+00,-5.479379359399899840e+00,-6.966359273181296885e+00,-7.830157398537266999e+00,-7.871479242341592908e+00,-6.627481248295225669e+00,-3.546153779669111827e+00,-3.139903766568750143e-01,2.417642045533284545e+00,4.971237465239028097e+00,6.389707319845911115e+00,7.813292155031376751e+00,8.531121041662117932e+00,9.470377066120818199e+00,9.586377945495769382e+00,7.701101630402263254e+00,7.277484647289384156e+00,6.147434397134929895e+00,5.553959920616762247e+00,4.874813121161423624e+00,5.282864364678971469e+00,5.113961668801493943e+00,5.017191506340168417e+00,4.472996143042109907e+00,4.245182184386067092e+00,3.784294989309273660e+00,2.685446972609497607e+00,2.090193334093783051e+00,2.268225546926259995e+00,2.268121892120689154e+00,3.047061937628313899e+00,3.360916918725706637e+00,3.884182009845972061e+00,3.560485041351057589e+00,3.579318551172036678e+00,3.304078787232356262e+00,3.511105556670372607e+00,1.541527182882418856e+00,2.671530051156878471e-01,-5.433225883170962334e-01,-4.173732909839600325e-01,-1.353128967166412622e-01,-1.561643169261515141e+00,-1.528224676731042564e+00,-1.547790455864742398e+00,-2.853117085440317169e+00,-1.635129037313163280e+00,-4.710618500830605626e-01,-1.462677376461215317e+00,-1.002528501674532890e+00,-5.590811264701187611e-01,-5.981614706106483936e-01,-2.136387261562049389e-01,-4.131695814430713654e-01,-9.373345188796520233e-01,-1.007518963888287544e+00,-1.539768857881426811e+00,-2.112677936442196369e+00,-1.605592878302559257e+00,-2.635674209450371563e-01,-1.069875178858637810e+00,-1.646117597731063142e+00,-5.139165111468173563e-01,-9.574733953922986984e-02,-1.338853474007919431e+00,-5.682754539884626865e-01,-1.612995332106947899e-02,-1.228791734669357538e+00,-1.355813250411301851e-01,-5.711160865030251443e-01,-1.119442185852676630e+00,-5.232276533497497439e-01,-4.882544315187260509e-01,9.678984992206096649e-03,1.558728204108774662e-01
2.486533527262508869e-01,1.795488093048334122e-01,5.855570128187537193e-01,1.289025470614433289e+00,1.010469134082086384e+00,5.851587718352675438e-01,1.167413615621626377e-01,3.224649783223867416e-01,6.476348366122692823e-01,2.524738474749028683e-01,8.682678546756505966e-01,9.337397955823689699e-01,1.299315080570522696e+00,2.617625583079643548e-01,3.545963938813656569e-01,2.142077903263270855e-01,4.117154038976877928e-01,3.492138111032545567e-01,1.103630484294626513e+00,1.889757696539163589e+00,1.501742963911965489e+00,7.657428306993097067e-02,3.297676228103227913e-01,-2.085972422501072288e-01,-5.074158512361464091e-01,-6.683970522717572749e-01,7.425775730516761541e-01,9.195693808142095804e-01,2.615430072008166462e+00,2.809864971553906798e+00,2.863939704853692092e+00,3.437189261429011822e+00,4.079190643038600683e+00,4.759709132369607687e+00,5.719653721374925226e+00,7.302873893117066473e+00,8.417397551820613444e+00,9.458778835098200943e+00,9.420247332927374373e+00,9.566953588451724499e+00,9.466224654068355449e+00,9.025745128514245152e+00,9.282695006986614317e+00,8.787004402664024383e+00,8.638014771277084947e+00,8.963107845804188401e+00,7.828097843652358279e+00,8.889038012654054910e+00,8.270000816610263428e+00,8.777948723873123527e+00,9.041524586617015302e+00,9.391865730372956023e+00,9.398825866635888815e+00,9.354193138962727971e+00,8.941684956691460684e+00,8.400579434470273554e+00,7.674325951986247674e+00,6.411963844759156927e+00,5.882874443777836859e+00,4.893478534882888198e+00,4.625085757346823812e+00,5.073056118329986930e+00,4.969372268766164780e+00,6.448709948454052210e+00,6.398042202286887914e+00,6.652579315217735711e+00,4.617808959563262761e+00,4.013087800471112132e+00,3.298185820400249213e+00,2.274474452395224944e+00,1.986021622957196087e+00,1.780778703308897093e+00,1.767967124353162944e+00,9.714966565952636302e-01,1.045822052052244544e+00,1.207427850458770990e+00,1.845815547741949558e+00,1.360856132931075990e+00,8.576752850785851479e-01,5.779536543413996696e-01,9.939806929323822260e-01,8.489559763111174107e-01,1.831166641786694527e-01,-9.778156672837212682e-02,3.116345973539864644e-01,7.623452269472181797e-01,5.135540897026658058e-01,-9.540019207634031773e-03,2.049253945588134229e-01,1.731361803831532598e+00,7.214603025931864977e-02,1.310815477278083563e+00,1.389047788223251700e+00,1.501806985237635672e+00,1.474310200894251466e+00,1.951689866371452808e+00,3.111184486187994480e-01,-1.258596223779022694e-01,1.018731647636741400e+00,1.348815388511866331e+00,9.781279884628020227e-01,4.260378624894656241e-01,1.313601082190871239e+00,1.096775681711733341e+00,1.607987412455258891e+00,1.329698735382407904e+00,4.518058562971418723e-01,4.027127868030220270e-01,1.705334828468039632e+00,1.724584048846736550e+00,1.792550051002763212e+00,1.313632934354245663e+00,4.937724920455366373e-01,9.266234050446655601e-01,1.393370690580923110e+00,1.806225030799396336e+00,1.043054809328168631e+00,3.135222718119621277e-01,-7.816392509266734123e-02,9.490229422226548195e-03,6.368873185710981488e-01,4.774872662965208292e-01,-3.353143436834216118e-02,1.536406578263267875e+00,1.057809246703982353e-01,1.792870295466855168e-01,3.882806838955730200e-01,1.011932541150599718e-01
6.737835191524936818e-01,-9.477803131449036300e-02,-7.297816788777709007e-01,-4.065874479711055756e-01,-2.684370717033743858e-01,-1.563254344742745161e+00,-1.643833284266293049e+00,-5.129675117204897106e-01,-1.407666581217199564e-01,-9.148922609165310860e-01,-7.925052295904606581e-01,-1.229498463682830334e+00,-2.128963606082834303e-01,-8.771647115936502814e-01,-7.095359503291547298e-01,-1.633703988976776600e+00,-2.705381675623357296e-01,-4.278389753308147192e-01,-1.089650794398039579e+00,-9.972322355024516582e-01,-1.273451706394553185e+00,-1.220682662911713123e+00,-1.270293378503993154e+00,8.386092148721218109e-01,2.658868749989778735e+00,7.514871708699502051e+00,9.665602211607620120e+00,1.129086305364035070e+01,1.115912035468500108e+01,1.189485415304079652e+01,1.111401092400774360e+01,7.660654228413477540e+00,6.427966989227570593e+00,4.266205289270146750e+00,8.031574995256960392e-01,-7.927483095554634929e-01,-8.350328821688890457e-02,-2.782071019290015101e+00,-2.097693530144169927e+00,-7.275782291544601321e-01,1.316826281894464046e+00,3.776597728487104177e+00,6.507910927903139964e+00,8.034031681483611465e+00,7.068710785941220820e+00,8.080730870085972128e+00,7.936590523051563650e+00,5.945438138092868030e+00,4.991430310066789389e+00,4.306830541463568807e+00,3.016798270517028868e+00,6.532848397910129279e-01,-3.115911001805216074e-02,-1.620358396670781076e+00,-7.777428636327385902e-01,8.602353668538853526e-01,2.170802422217093408e+00,2.728802153689684928e+00,5.305357323377393186e+00,6.896450680913403630e+00,1.112734748440561816e+01,1.198340507550165057e+01,1.266017724882112816e+01,1.290218479538452812e+01,1.166142035415396094e+01,1.161870544555131346e+01,1.140323653747327626e+01,9.809945883345790207e+00,9.485888097697170451e+00,9.141495337302330881e+00,7.337143893644679338e+00,6.295859451056458056e+00,5.495802156423451379e+00,5.332210710213985294e+00,4.001796722965082154e+00,4.024310469510965049e+00,4.297398271854035556e+00,4.481711787004314829e+00,5.008755773422308266e+00,4.910133342957124114e+00,5.420049123946228065e+00,5.981949415174312890e+00,6.016249331296421587e+00,5.933351496234536171e+00,5.617778935469686985e+00,4.974056601524353027e+00,4.632824432803317904e+00,4.429956690059043467e+00,3.546779491123743355e+00,2.534420568495988846e+00,1.849775439070072025e+00,1.336278237344231457e+00,7.394899930077372119e-01,5.323331970721483231e-01,-3.932664101594127715e-01,1.031589456833899021e-01,4.469575034454464912e-01,-3.164670956321060658e-01,-8.289043791592121124e-02,-1.598671465180814266e-01,-4.513804456219077110e-01,-3.643715623766183853e-01,-1.824470506981015205e-01,-1.133404882973991334e+00,-9.381924651097506285e-01,-1.606629912275820971e-01,-7.589321355335414410e-01,-5.833942862227559090e-01,-6.291491524316370487e-01,-1.490819504484534264e+00,-7.514696416910737753e-01,-3.109877200913615525e-01,-1.083775728708133101e+00,-8.733815550804138184e-01,-6.879800018796231598e-01,-1.285386520437896252e+00,-2.176764335483312607e+00,-1.705119590274989605e+00,-9.409377468982711434e-01,-1.107809966943023028e+00,-2.898221115116029978e+00,-2.385752767790108919e+00,-1.997834938694722950e+00,-2.959308599121868610e+00,-2.020958370965672657e+00,-1.096265303902328014e+00,-3.585647332511143759e-01,-1.607964327558875084e-02
