6.645893598208203912e+00,9.535085511626675725e+00,8.601979797240346670e+00,6.414200316648930311e+00,3.491139043588191271e+00,1.382552678398496937e+00,3.345710169523954391e-01,7.383090857183560729e-02,1.171280932612717152e-01,5.252603859407827258e-01,1.162722648528870195e+00,2.218003397632855922e+00,3.583096409594872966e+00,5.293174892329261638e+00,7.291461818078460055e+00,9.468216840759851038e+00,1.147572796601889422e+01,1.320175260072574019e+01,1.460795283131301403e+01,1.549033708135539200e+01,1.572034000209532678e+01,1.546769865029091306e+01,1.493561023031361401e+01,1.409184451034525409e+01,1.289484460468520410e+01,1.119689495651982725e+01,9.140221482899505645e+00,7.301796883577480912e+00,5.953104663814883679e+00,5.168569333036430180e+00,4.932518712451383180e+00,4.958663173718377948e+00,5.246427607351506595e+00,5.616297693108208477e+00,5.771829762728884816e+00,5.555589927127584815e+00,4.729379615397192538e+00,3.506724748178385198e+00,2.225389600149355829e+00,1.077491061993896437e+00,-7.747816367773339152e-01,-3.113993727602064610e+00,-5.169972524803597480e+00,-5.615654278488364071e+00,-5.114386656612623483e+00,-3.698583918623626232e+00,-1.676225592687842436e+00,3.076319656975101680e-01,1.341796896536834538e+00,1.789068548823706806e+00,1.948328493360349967e+00,2.006492337284726091e+00,2.022133901598863304e+00,2.024260560050606728e+00,2.032725274213589728e+00,2.028919367367052473e+00,2.018803581624524668e+00,2.027338945597875863e+00,2.025668383750598878e+00,2.040028351417277008e+00,2.054545959807001054e+00,2.045719062531134114e+00,2.053360969497589394e+00,2.062047078434261493e+00,2.069698839914053679e+00,2.073850593063980341e+00,2.076906109985429794e+00,2.073140308726578951e+00,2.067894819803768769e+00,2.076963989995419979e+00,2.070178541122004390e+00,2.068999437848106027e+00,2.064079449977725744e+00,2.066825128160417080e+00,2.072439989075064659e+00,2.058874965703580528e+00,2.075548483058810234e+00,2.079855837975628674e+00,2.087270312942564487e+00,2.081919851712882519e+00,2.076618830556981266e+00,2.085188831202685833e+00,2.087306847330182791e+00,2.087638882454484701e+00,2.085684581194072962e+00,2.084831228945404291e+00,2.092715427279472351e+00,2.092977634398266673e+00,2.088790065376088023e+00,2.084479611774440855e+00,2.068729961232747883e+00,2.057770802523009479e+00,2.018234595656394958e+00,1.963971804012544453e+00,1.907054359558969736e+00,1.833753520622849464e+00,1.719353420659899712e+00,1.678993085864931345e+00,1.896893753437325358e+00,2.889542815275490284e+00,4.783323727315291762e+00,7.348893438000231981e+00,1.000809382181614637e+01,1.286316838208585978e+01,1.492958210781216621e+01,1.580351575091481209e+01,1.497737434599548578e+01,1.282042720774188638e+01,9.075917420181212947e+00,3.415184146691899514e+00,-1.619017283432185650e+00,-4.401089774612046313e+00,-4.534252595120051410e+00,-1.646991760639139102e+00,3.011211399621060991e+00,7.687855295487679541e+00,1.000126035080756992e+01,9.669914584141224623e+00,8.436133658629842103e+00,6.798802803095895797e+00,5.182474541681585833e+00,3.616371678421273828e+00,2.402835499087814242e+00,1.650107546243816614e+00,1.387703983113169670e+00,1.525044826674275100e+00,2.046857401262968779e+00,2.906301648705266416e+00,4.052495819050818682e+00,5.404043440939858556e+00,6.885433110408484936e+00,8.420147985685616732e+00,9.991469593718647957e+00,1.140257366315927356e+01,1.262491235276684165e+01,1.356892871028685477e+01,1.409741732243855949e+01,1.404684985514904838e+01,1.348349786945618689e+01,1.239975359570235014e+01,1.071027234522625804e+01,8.246639047283679247e+00,5.953573727281764150e+00,6.211036631070101066e+00,9.864514085384143982e+00,1.297994004898646381e+01,1.486179723498207750e+01,1.593046483543002978e+01,1.537011788957170211e+01,1.025817509272019379e+01
-7.817125964793376625e-01,-1.381959288264624774e+00,-7.712621836690232158e-01,-1.016774456948041916e-01,6.303394003771245480e-02,1.600815439087455161e-01,2.155841672793030739e-01,2.388210807694122195e-01,2.502435895148664713e-01,2.479393586982041597e-01,2.429817515658214688e-01,2.387628898723050952e-01,2.390903851628536358e-01,2.381496024318039417e-01,2.371846727328374982e-01,2.339583411812782288e-01,2.282177705783396959e-01,2.177057908847928047e-01,2.051751450053416193e-01,1.900677957164589316e-01,1.527657026890665293e-01,9.019023543805815279e-02,3.349870746023952961e-02,-1.450987951830029488e-02,-4.636967042461037636e-02,-6.034781271591782570e-02,-5.316905898507684469e-02,-3.242632502224296331e-02,-6.246514007216319442e-03,2.257965621538460255e-02,4.836265044286847115e-02,7.134760590270161629e-02,9.101147437468171120e-02,1.054982566274702549e-01,1.166183617897331715e-01,1.247588214464485645e-01,1.242654805537313223e-01,1.114624114707112312e-01,7.940016221255064011e-02,1.206540130078792572e-02,-1.013736177701503038e-01,-2.704605568433180451e-01,-5.603780854144133627e-01,-1.048872196581214666e+00,-1.827880074968561530e+00,-2.804034936241805553e+00,-3.747709209565073252e+00,-4.478284578304737806e+00,-4.786972386762499809e+00,-4.394002682645805180e+00,-2.983489760197699070e+00,-1.168544350424781442e+00,1.073603450669907033e+00,3.557359093392733485e+00,7.581814523786306381e+00,1.102813154889736325e+01,1.206619980222603772e+01,1.073297142214141786e+01,7.311395068652927876e+00,3.832383991622918984e+00,1.493783954880200326e+00,6.328498481889255345e-01,5.684141676174476743e-01,9.690520649310201406e-01,1.426719671365390241e+00,1.601268958998844028e+00,1.556501237442716956e+00,1.446858923882246017e+00,1.378415550279896706e+00,1.353526813676580787e+00,1.348267798777669668e+00,1.344092099461704493e+00,1.343187404563650489e+00,1.345384414307773113e+00,1.348987223405856639e+00,1.352559039951302111e+00,1.350915044080466032e+00,1.343603505054488778e+00,1.377982094185426831e+00,1.407401411561295390e+00,1.411105558741837740e+00,1.274877578951418400e+00,1.117433627601712942e+00,9.565525051439180970e-01,8.861785353947198018e-01,1.153854622301878408e+00,1.993395827070344239e+00,2.991536469198763371e+00,4.074098482175031677e+00,4.465346629283885704e+00,4.378047779551707208e+00,4.388280662475153804e+00,4.774931259569711983e+00,6.014267947291955352e+00,8.414999496046220884e+00,1.107577187584683998e+01,1.383057042831205763e+01,1.694358182905125432e+01,1.918378087831661105e+01,1.994508500839583576e+01,1.934786899713799357e+01,1.763429650934995152e+01,1.508581650746054947e+01,1.160591158841270953e+01,7.344858568976633251e+00,3.611782077641692013e+00,1.158495578987640329e+00,-2.454170712735503912e-01,-8.657844293484231457e-01,-1.030562679516151547e+00,-9.567938180407509208e-01,-8.048029164201579988e-01,-6.595360708888620138e-01,-5.639380872598849237e-01,-5.030211791163310409e-01,-4.495448548113927245e-01,-3.928155296162003651e-01,-3.145898382645100355e-01,-2.063521582167595625e-01,-1.073803149629384279e-01,-1.652751350775361061e-02,6.967512980918399990e-02,1.327205783454701304e-01,1.650267620570957661e-01,1.829871721565723419e-01,1.985959617886692286e-01,2.080979789607226849e-01,2.160803950391709805e-01,2.257099295966327190e-01,2.360213911160826683e-01,2.482895683497190475e-01,2.595421755686402321e-01,2.713756142184138298e-01,2.803873391821980476e-01,2.803980829194188118e-01,2.798642860725522041e-01,2.783723131869919598e-01,2.774316975846886635e-01,2.753128772601485252e-01,2.659951542736962438e-01,2.526244320906698704e-01,2.212031413801014423e-01,1.387393460609018803e-01,-1.205689955095294863e-01,-4.699543150200042874e-01,-9.186063248198479414e-01,-1.249721065862104297e+00,-1.711815306189237162e+00,-2.294374689528922318e+00,-1.434006938594393432e+00
-6.058336870279163122e+00,-7.582177679054439068e+00,-6.667108768830075860e+00,-5.890307324239984155e+00,-5.213651415891945362e+00,-5.769581545726396143e+00,-6.840622184565290809e+00,-7.379616118967533112e+00,-7.917507056845352054e+00,-8.445948660082649440e+00,-8.847342823151848279e+00,-9.021065822276796098e+00,-9.027045861090300605e+00,-8.789976195897907019e+00,-8.223859172780066729e+00,-7.234602934344366076e+00,-5.854344527004286647e+00,-3.953833221683453303e+00,-2.718954579904675484e-03,5.379904996138066053e+00,1.135775798661052249e+01,1.750707279623020440e+01,2.337795832194387913e+01,2.909883518959395587e+01,3.407693699910305440e+01,3.813355997338658199e+01,4.055426414654357359e+01,4.133954232890391722e+01,4.098592864815145731e+01,3.982418000767938793e+01,3.849045635689981282e+01,3.707116566319018602e+01,3.524060224741697311e+01,3.282327715252176858e+01,2.888894252036698163e+01,2.291378294769674540e+01,1.515801285603083670e+01,7.082621007459238172e+00,1.240781927466741763e+00,-1.140482323884498328e+00,-4.593494577566161752e-01,4.523787191410519881e-01,8.807086884044110775e-01,9.815388761635404080e-01,1.017831812379881740e+00,1.019357616314664483e+00,1.042798394511919469e+00,1.067716961028054357e+00,1.080463669160963036e+00,1.086676450446248055e+00,1.094570447457954288e+00,1.085824679539655335e+00,1.085681570082670078e+00,1.072933711286168545e+00,1.066860393388196826e+00,1.049472850398160517e+00,1.023764818964991719e+00,9.985470604733563960e-01,9.822307316353544593e-01,9.627196677029132843e-01,9.552887149620801210e-01,9.433171540513285436e-01,9.531530329550150782e-01,9.603383436333388090e-01,9.715353026113007218e-01,9.747436947654932737e-01,9.844434578553773463e-01,9.808642849966417998e-01,9.699546597839798778e-01,9.737115230236668140e-01,9.685602933750487864e-01,9.687636338640004396e-01,9.720252921688370407e-01,9.772923372220247984e-01,9.941661162301898003e-01,9.927935593732399866e-01,9.880268602428259328e-01,9.895738834457006305e-01,9.818642885365989059e-01,9.782987385988235474e-01,9.748769163561519235e-01,9.703293563215993345e-01,9.807941914186812937e-01,9.721771235053893179e-01,9.720500950352288783e-01,9.815866625867784023e-01,9.792999232013244182e-01,9.799452885054051876e-01,9.786304354784078896e-01,9.796831017010845244e-01,9.819470770016778260e-01,9.819484722684137523e-01,9.800775342155247927e-01,9.879387710825540125e-01,9.894729189691133797e-01,1.001078900473657995e+00,1.007053682464174926e+00,1.018009692954365164e+00,1.018556939321570098e+00,1.020466263464186341e+00,1.027146822505528689e+00,1.025690972099255305e+00,1.025641286891186610e+00,1.024502906875568442e+00,1.026708576478995383e+00,1.032153351407032460e+00,1.027416781304054894e+00,1.032741548742251325e+00,1.029856690400720254e+00,1.025020437125931494e+00,1.017864682566141710e+00,1.014274219051003456e+00,1.018358867033384740e+00,1.024104406533297151e+00,1.041431419958826154e+00,1.049331004091072828e+00,1.077115136642532889e+00,1.091460503172129393e+00,1.104253626952413470e+00,1.124631675542332232e+00,1.122566691425163299e+00,1.127277806401252747e+00,1.125034524127840996e+00,1.117235143785364926e+00,1.102786998846568167e+00,1.100661686155945063e+00,1.080160921439528465e+00,1.067107329727150500e+00,1.052004497149027884e+00,1.017730757012031972e+00,9.912710789358243346e-01,9.207745386520400643e-01,8.237960137194022536e-01,7.029949250645586289e-01,7.374133144039660692e-01,1.467265127459540963e+00,4.425294583023060113e+00,9.265033844625577331e+00,1.386336937233863864e+01,1.806806820398196578e+01,2.236319547006860375e+01,2.667910029878839850e+01,2.985126151982694864e+01,3.086749303340911865e+01,3.073293467832263559e+01,2.988806741499138298e+01,2.870936965546570718e+01,2.453493640094529837e+01,1.604349600593559444e+01,7.250812960905022919e+00
5.896857482613995671e+00,8.895496378769166768e+00,8.053557942213956267e+00,6.045322411344386637e+00,3.462989920517429709e+00,1.464939752826467156e+00,2.752184205455705523e-01,-2.324099115794524550e-01,-3.239718605764210224e-01,-2.405289694434031844e-01,2.536497614346444607e-02,6.061414495561621152e-01,1.584961155662313104e+00,3.162072446779347956e+00,5.039603171941053006e+00,6.993844265118241310e+00,8.876607212470844388e+00,1.022915707062929869e+01,1.100349262601230294e+01,1.124139806989114732e+01,1.096188140625599772e+01,1.019596098779584281e+01,9.050561798328999430e+00,7.733707358012907207e+00,6.447794544743373990e+00,5.326604668574873358e+00,4.483033220400102437e+00,3.895904586883261800e+00,3.539749563438817859e+00,3.382704927236773074e+00,3.382158403866924345e+00,3.487600538879632950e+00,3.675800191238522530e+00,3.937852212824509479e+00,4.179990192409604788e+00,4.382178626052336767e+00,4.595337750390172005e+00,4.817088672192767262e+00,5.068507992313243449e+00,5.203550881153205410e+00,5.123272004304453731e+00,4.791943571632145904e+00,4.047661497665103525e+00,3.016109304320707452e+00,2.007025501756288577e+00,1.005350190709577873e+00,-7.158284698161878623e-01,-2.862005347444210202e+00,-4.825263071106746793e+00,-5.082377704675309360e+00,-4.368180399651464541e+00,-2.517273152581765316e+00,-5.052986181353844586e-01,1.033116938680905150e+00,1.851298820547526702e+00,2.085250334464944899e+00,2.112560518435202539e+00,2.148429761640727520e+00,2.139619947876781225e+00,2.139284262899309397e+00,2.137701843865215778e+00,2.128907451871782541e+00,2.098233803408220410e+00,2.103411772288382053e+00,2.110197043512016535e+00,2.129522949486272410e+00,2.139025413896888494e+00,2.142776415683329105e+00,2.127479766961187124e+00,2.100279530335683376e+00,2.069215095310937613e+00,2.065805371879832819e+00,2.061159859731560573e+00,2.072448372393409954e+00,2.065248560160398483e+00,2.076633198688796256e+00,2.078088541980832815e+00,2.092255195137113333e+00,2.087260716361925006e+00,2.094957551686093211e+00,2.083792135235853493e+00,2.081128895202709828e+00,2.071815755247371271e+00,2.084011720027774572e+00,2.084925256203860044e+00,2.093499165959656239e+00,2.100807061884552240e+00,2.106656367890536785e+00,2.102529128569585737e+00,2.087226530187763274e+00,2.054138711770065129e+00,2.031140817096456885e+00,1.994779752567410469e+00,1.978348142583854496e+00,1.929115802980959415e+00,1.846777821891009808e+00,1.724242989206686616e+00,1.615239350328920409e+00,1.749893171960138716e+00,2.306141519104130566e+00,3.803830749588087201e+00,6.123419510899111629e+00,8.888108677230775356e+00,1.165044775791466236e+01,1.392099196370691061e+01,1.461615931033156812e+01,1.319479004917229759e+01,9.784177813252881606e+00,3.981207779565011151e+00,-2.143267111874592956e+00,-6.905238499741244595e+00,-9.408439386286772788e+00,-9.658065922965761274e+00,-7.637937501684064046e+00,-3.808361831477668602e+00,9.861812123363051796e-01,5.106988414619991090e+00,6.185988691635429859e+00,5.364128110464662313e+00,4.190979283070191741e+00,3.158852266380563378e+00,2.683557228534482419e+00,2.957810615422204137e+00,3.935722444110069773e+00,5.374771252274513245e+00,7.021993659436702728e+00,8.765934964176267385e+00,1.044437365327030420e+01,1.193315776926465333e+01,1.303930568450596184e+01,1.354793231398798525e+01,1.333112861285917461e+01,1.231445096712559462e+01,1.063506048568524420e+01,8.155618048971518874e+00,5.075221097504254431e+00,2.104499506996944547e+00,9.875613231415627524e-01,1.973987346660578623e+00,3.240466725081205368e+00,4.394606676185503602e+00,5.703867658041417599e+00,7.350039631652180105e+00,9.393144369358196855e+00,1.115321240806952119e+01,1.252153147913486464e+01,1.353710478558059549e+01,1.331546091947893729e+01,1.221786068682558835e+01,8.011069463347666897e+00
3.733508041390450671e+00,6.985254590079421178e+00,6.395585825026500970e+00,4.920764772672555409e+00,2.536025010747835040e+00,1.006006445430102758e+00,2.953739324584603310e-02,-4.426263552741147578e-01,-5.855924565112218261e-01,-6.252577932827989571e-01,-6.173011058854172006e-01,-6.061951578740263358e-01,-5.970097261015325785e-01,-5.829198962310329080e-01,-5.666449391283094883e-01,-5.485815226566046476e-01,-5.335574495838955045e-01,-5.259377639740705490e-01,-5.266910206410102546e-01,-5.323908599657443119e-01,-5.424210954224690795e-01,-5.521457678405568004e-01,-5.490982469600567129e-01,-5.161443951074033976e-01,-4.382085959659889340e-01,-2.437855449970811605e-01,5.413859302643686533e-02,6.230298619484528899e-01,1.488959868787787855e+00,2.289149411963080638e+00,2.894129017877276056e+00,3.140344445535447448e+00,3.062591951515059918e+00,2.737755139663931914e+00,2.279068743609968806e+00,1.748877467936836183e+00,1.316572989569976926e+00,1.108964464277960360e+00,1.169525119592435658e+00,1.381026051254593767e+00,1.671552425395930186e+00,1.957721265382133424e+00,2.217975684290649951e+00,2.535807688196655363e+00,2.726604683404730167e+00,2.685690303973387927e+00,2.392140318130259402e+00,1.947497486267820932e+00,1.580128819274250418e+00,1.336881702416576445e+00,1.811818173955543898e-01,-1.364232268737396225e+00,-2.473914486996363848e+00,-2.106862602493492886e+00,-9.374425650748889893e-01,-1.022867022838909179e-01,5.574854329461231828e-02,-1.795309084118343890e-01,-4.273322454246226698e-01,-6.712115166010335088e-01,-7.303945376042975113e-01,-6.865447638119803742e-01,-6.066969277162570506e-01,-5.724211464257678017e-01,-5.498892503819661215e-01,-5.137220261822221801e-01,-4.762058098494890146e-01,-4.474699674901785329e-01,-4.289310953026870266e-01,-4.182122590500512160e-01,-4.132500086489017121e-01,-4.139411631476832554e-01,-4.206208486502873711e-01,-4.318528020230587572e-01,-4.515886472290731035e-01,-4.638145170465577394e-01,-4.774610120366560295e-01,-4.769848533760523424e-01,-4.755994720908347517e-01,-5.105394182610325515e-01,-5.206892014393815771e-01,-4.630312120498274453e-01,-3.781720522529212758e-01,-2.739980646147159860e-01,-1.807977340649813414e-02,5.793366127763874829e-01,2.009084854740649462e+00,4.659561648790258914e+00,7.143249601824209094e+00,9.696601467672735453e+00,1.225640780339017510e+01,1.485916886071208864e+01,1.734834292880259454e+01,1.954605759488185868e+01,2.103921292209997773e+01,2.170847637788392603e+01,2.164160358445951715e+01,2.079406891146209091e+01,1.930292486184043810e+01,1.719652626302558929e+01,1.445601555798202753e+01,1.130455120000988245e+01,7.869791336823254824e+00,4.555477688321843743e+00,1.798947324656182900e+00,4.048829255625605583e-01,-2.023899884661659598e-01,-3.499959022738039494e-01,-2.038916564197279513e-01,6.206114582018926740e-01,2.479216396110132337e+00,5.092629502119962126e+00,7.853125277906656265e+00,1.005549011821858585e+01,1.163757171947509050e+01,1.226791220973245800e+01,1.183540484157856554e+01,1.059236021526157856e+01,8.663155665853992105e+00,6.220932143274694681e+00,3.540995635092258453e+00,1.260201340774074197e+00,-1.543374517350457609e-01,-5.007769673829898238e-01,-5.264035962754860520e-01,-4.872635751962661743e-01,-4.491450971981976181e-01,-4.276614037225954235e-01,-4.200407558091683313e-01,-4.278614536397071788e-01,-4.521074313670396805e-01,-4.874698772327974439e-01,-5.246051243739202619e-01,-5.600016461685299873e-01,-5.910768565663602203e-01,-6.094178711064159870e-01,-6.150583775634004269e-01,-6.116586232092231512e-01,-5.898378550191409886e-01,-5.473794531426392496e-01,-4.699292489094659686e-01,-2.659083892503986135e-01,1.521560354158282280e-01,8.471306577557697892e-01,1.623874580953270197e+00,2.012946720235049725e+00,1.874799176039232407e+00,1.663902118103578687e+00,1.225123422229899006e+00,8.325227606110274792e-01
1.273387762717902660e+00,3.202487332746386528e+00,2.457946274429559708e+00,1.467634358443319798e+00,-1.330178185598924756e-01,-5.874228845350444317e-01,-6.644231928512454033e-01,-7.238496460486203432e-01,-7.752227220917120576e-01,-7.925235657894518226e-01,-7.909822093788534403e-01,-7.847980426158756018e-01,-7.840257219504565001e-01,-7.833221207838505507e-01,-7.849076496204361320e-01,-7.881747239734977484e-01,-7.897633415414020419e-01,-7.882154741091653705e-01,-7.861827521119266748e-01,-7.812662585638463497e-01,-7.726833386113867164e-01,-7.598823903826996684e-01,-7.461296250112354755e-01,-7.323599688243120909e-01,-7.178551221732050180e-01,-7.066254647215828300e-01,-6.983697690302506089e-01,-6.944891907041892409e-01,-6.968958359211683273e-01,-7.056864149635657668e-01,-7.199788157595321536e-01,-7.351746567510417663e-01,-7.467926341923885047e-01,-7.501295574475079775e-01,-7.425369828124530613e-01,-7.063660582061856985e-01,-6.263078974952804856e-01,-4.959977293037809432e-01,-3.008003080030903220e-01,1.297030753921717405e-01,8.167694577714428306e-01,1.728427149064373225e+00,2.692691205069422722e+00,3.435250549984630197e+00,3.747706176305655390e+00,3.512232340290211141e+00,2.606955021154135466e+00,1.188469630898907781e+00,-5.468984151957556605e-01,-3.407972991990391165e+00,-6.932484403121634386e+00,-1.079246786196017638e+01,-1.419008653477067128e+01,-1.568467001779936254e+01,-1.450794539542403072e+01,-1.042483158194227144e+01,-5.153653259054408409e+00,-2.028017618875310291e+00,-1.044388232141500339e+00,-1.090314489410957322e+00,-1.313792981847655028e+00,-1.640837523969821632e+00,-1.783060299872886389e+00,-1.818237156345276162e+00,-1.802194043673807755e+00,-1.798157945449929684e+00,-1.829229700524592772e+00,-1.869182625581743196e+00,-1.880922022188315168e+00,-1.882249841117300093e+00,-1.886860351805808023e+00,-1.900040862761670724e+00,-1.907544592948397622e+00,-1.902340836415532976e+00,-1.864193037021323107e+00,-1.826355279074050486e+00,-1.758125924519845285e+00,-1.634180948618450202e+00,-1.591208946731057949e+00,-1.487407095057278639e+00,-1.197579460626002401e+00,-6.532066687941551208e-01,9.862355206860229373e-02,1.063504488673061132e+00,2.528346286868327297e+00,3.998767037443030858e+00,5.517441670875996351e+00,7.347757669631391764e+00,9.460948921740055084e+00,1.176379885571077466e+01,1.418860912218224257e+01,1.618823143176268786e+01,1.685925927199423313e+01,1.600826350599527359e+01,1.356937145048868842e+01,9.930964177374335122e+00,5.363888647362500706e+00,3.456862292946425441e-01,-2.520377043812004558e+00,-3.473194263146979210e+00,-3.709478175176627701e+00,-3.552898167858074885e+00,-3.245059175171263632e+00,-2.789562713774103031e+00,-1.757217443548142910e+00,-7.648019773478154093e-01,-1.468894837016705424e-01,4.598362327669747174e-01,7.800265330006368458e-01,7.674028178989829030e-01,5.352016859105788171e-01,2.477052221074700356e-01,-4.494913044618442655e-02,-2.333126127487048507e-01,-3.301891550363507122e-01,-3.828818028559908271e-01,-4.154183071514125913e-01,-4.359450646952609532e-01,-4.494618950920994394e-01,-4.622840837109833956e-01,-4.734542809010235942e-01,-4.786852418910712004e-01,-4.764059587323572487e-01,-4.680127292231190950e-01,-4.489696568052750081e-01,-4.260993271600455046e-01,-4.032564169528995990e-01,-3.800179495592601597e-01,-3.609771226183511317e-01,-3.482301500043831766e-01,-3.422473539831116796e-01,-3.398749420302920043e-01,-3.371869408292695880e-01,-3.359025142854079604e-01,-3.343939107144251466e-01,-3.333036827389150858e-01,-3.319317532004788518e-01,-3.313100496307015419e-01,-3.270128334406763315e-01,-3.090150543139316142e-01,-2.657087082043290138e-01,-1.901288958033546805e-01,-5.278313625603914261e-02,1.386167648597620428e-01,2.980692232958972454e-01,3.470272048580227420e-01,1.568829088064376265e-01,1.477627574931830168e-01,1.872089862299617380e-01,1.202382110059261322e-01
8.120345693780109286e+00,1.161351306084543467e+01,1.087102023558691144e+01,8.393690861645154655e+00,5.393560640164650977e+00,4.673711965879192576e+00,6.109965250128880143e+00,7.747606370365247130e+00,8.788244799159656395e+00,9.250416361493989825e+00,9.263549234718084335e+00,8.867295095697045326e+00,8.341617711936123669e+00,8.064328123582527041e+00,8.293309490196406841e+00,9.104363401886075735e+00,1.043423099489882588e+01,1.195338254875969142e+01,1.345565963460830972e+01,1.472192624461604282e+01,1.562863310769898817e+01,1.599111023760997341e+01,1.587802792363800108e+01,1.538121867513109464e+01,1.462247575569199398e+01,1.352353579935152084e+01,1.219673252943903208e+01,1.091518505034036934e+01,9.956995675456710160e+00,9.498445045552216470e+00,9.548852793835067132e+00,9.966194149717921391e+00,1.059576944171567447e+01,1.129301511475932784e+01,1.180884445161791518e+01,1.188933684537187219e+01,1.124308459716849029e+01,1.005781897041015327e+01,8.251078983244951814e+00,6.033386538852937520e+00,4.312594694551080465e+00,2.885489141543985170e+00,1.443247433635406196e+00,-1.490838866011472419e-01,-1.710561584419338033e+00,-1.919749755004886538e+00,-1.502795625594444573e+00,-7.880744474678067490e-01,2.150930922689440195e-01,1.015667664352804422e+00,1.526471159653738141e+00,1.752379012992605567e+00,1.841185614001005888e+00,1.875079825753346086e+00,1.885192527435719967e+00,1.878513674426358193e+00,1.887394730700179935e+00,1.891214720671996474e+00,1.897375370725058019e+00,1.903988785285037011e+00,1.894571454962715507e+00,1.906402974389493465e+00,1.913791294675320387e+00,1.919276263797655702e+00,1.924017706565791741e+00,1.922944327059667557e+00,1.920885127503424883e+00,1.923064417962450534e+00,1.923992051510140300e+00,1.929165912792086601e+00,1.920906549319624901e+00,1.922241562628187239e+00,1.919515508459880948e+00,1.916138522094115615e+00,1.921933015808463097e+00,1.911723813740536571e+00,1.914270459557883441e+00,1.910569987667258829e+00,1.910414526006206870e+00,1.919238507747650146e+00,1.910782211227342486e+00,1.911528873664792627e+00,1.912125723581993952e+00,1.913342078914865851e+00,1.911852507269941270e+00,1.920310048037208617e+00,1.912281709490343928e+00,1.908161772647872567e+00,1.910850594926159829e+00,1.914186105830594897e+00,1.905270168324932456e+00,1.908193349838256836e+00,1.910903176292777061e+00,1.907191428821533918e+00,1.905776904197409749e+00,1.898046972462907434e+00,1.893842008197680116e+00,1.880625082179903984e+00,1.854378879535943270e+00,1.830932067241519690e+00,1.766400605556555092e+00,1.676462608040310442e+00,1.568533492332790047e+00,1.406880794564131065e+00,1.131074397453630809e+00,5.817973925732076168e-01,-2.021024403511546552e-01,-1.490293666924117133e+00,-3.206575794972650328e+00,-5.099160051271610428e+00,-7.341369682864751667e+00,-1.029010334008489735e+01,-1.350570150399289560e+01,-1.691045847797067836e+01,-1.959244237981329206e+01,-2.148123681668948848e+01,-2.264059972806717269e+01,-2.259844947097008117e+01,-2.077561597555177286e+01,-1.704233214468695223e+01,-1.089862775649817195e+01,-3.771606690323096700e+00,3.310517850884934887e+00,8.004178240982582793e+00,8.447632208233699203e+00,7.156792747555300593e+00,5.316887007793411613e+00,3.351141930557787418e+00,1.681351255829213187e+00,5.871805646456778049e-01,-3.429403947666287422e-02,-2.938182777725160122e-01,-3.705177268711850047e-01,-3.438389560906216502e-01,-2.438803233671933413e-01,-8.209144597640261054e-02,1.681398362852632999e-01,5.028741240967065096e-01,9.159219588618725538e-01,1.408327131648547947e+00,1.862246736651286483e+00,2.232356440508738160e+00,2.390043179388158023e+00,2.081979267299175262e+00,1.774452233104966581e+00,2.631958950660191476e+00,5.227254732128130854e+00,6.703995922682224773e+00,7.208806013921275735e+00,5.108477458743436728e+00
-3.838497366523370147e+00,-5.372478658566251397e+00,-4.795022131875157356e+00,-3.377082017483189702e+00,-1.416598235489800572e+00,-5.030688187362102326e-01,-3.301829397678375244e-01,-3.753238181343476754e-01,-4.724228188861161470e-01,-6.173971427488140762e-01,-8.234815329778939486e-01,-1.046570886755944230e+00,-1.060073477914556861e+00,-5.299987522303126752e-01,8.845625101821497083e-01,3.782072831847472116e+00,7.991244214237667620e+00,1.252164187352173030e+01,1.685057074431824731e+01,2.097960227658040822e+01,2.432714746889541857e+01,2.651946023106575012e+01,2.785921724484069273e+01,2.842136058828327805e+01,2.894245430082082748e+01,2.963621598831377923e+01,3.072827489138580859e+01,3.181817715254146606e+01,3.181751574057852849e+01,3.037717506289482117e+01,2.679495116043835878e+01,2.161625118507072330e+01,1.525493658846244216e+01,9.183897402370348573e+00,4.069159856648184359e+00,1.292044007685035467e+00,-3.513631201349198818e-02,-3.054593526758253574e-01,-3.918649705010466278e-01,-4.081835286924615502e-01,-4.280199429776985198e-01,-4.403771259530913085e-01,-4.521649058442562819e-01,-4.659418219926010352e-01,-4.997129244729876518e-01,-5.210535973310470581e-01,-5.437179696746170521e-01,-5.689299511723220348e-01,-5.788828851655125618e-01,-5.829958281392464414e-01,-5.909486631862819195e-01,-5.821988166717346758e-01,-5.778200866188853979e-01,-5.589628557208925486e-01,-5.374058454763144255e-01,-5.104685511905699968e-01,-4.889083057641983032e-01,-4.641614225693047047e-01,-4.425716216210275888e-01,-4.253884325735270977e-01,-4.016588695812970400e-01,-3.764711950207129121e-01,-3.523096677381545305e-01,-3.255587718449532986e-01,-3.064050152897834778e-01,-2.890318003483116627e-01,-2.730050398968160152e-01,-2.560133473016321659e-01,-2.330202497541904449e-01,-2.143021910451352596e-01,-1.967355171218514442e-01,-1.833605743013322353e-01,-1.837694589048624039e-01,-1.801795233041048050e-01,-1.810803650878369808e-01,-1.787802539765834808e-01,-1.793767986819148064e-01,-1.736715254373848438e-01,-1.635464155115187168e-01,-1.560428435914218426e-01,-1.562469196505844593e-01,-1.681740786880254745e-01,-1.823184490203857422e-01,-2.049905932508409023e-01,-2.378588609863072634e-01,-2.744187840726226568e-01,-3.258234133827500045e-01,-3.909928991924971342e-01,-4.690791676985099912e-01,-5.690144915133714676e-01,-6.388343439903110266e-01,-6.958459587767720222e-01,-7.500982326455414295e-01,-7.435982448514550924e-01,-5.673257738817483187e-01,2.611236490774899721e-01,2.007484615613066126e+00,4.468521196104120463e+00,7.007522775646066293e+00,9.650648396695032716e+00,1.247662041801959276e+01,1.570575195085257292e+01,1.945488902460783720e+01,2.340656746248714626e+01,2.646030932175926864e+01,2.831771134800510481e+01,2.890960942511446774e+01,2.839841156057082117e+01,2.643186006380710751e+01,2.294520989200100303e+01,1.799923223885707557e+01,1.180985340429469943e+01,5.454001646023243666e+00,2.208436260698363185e-01,-2.539564042992424220e+00,-2.632769154355628416e+00,-1.352786155184730887e+00,-6.108739036717452109e-01,-1.113938363268971443e+00,-1.867882663849741220e+00,-2.691036461386829615e+00,-3.109035633271560073e+00,-3.136522813409101218e+00,-2.861043177981628105e+00,-2.375725542537111323e+00,-1.812104801254463382e+00,-1.298288470134139061e+00,-1.006024415721185505e+00,-8.191952988272532821e-01,-6.915990687848534435e-01,-6.213200798374600708e-01,-5.879807084420463070e-01,-5.789522582490462810e-01,-5.816787268850021064e-01,-5.921094998775515705e-01,-6.108071782800834626e-01,-6.368605049428879283e-01,-6.670625037950230762e-01,-7.521574400307144970e-01,-9.667901535867713392e-01,-1.466346229310147464e+00,-2.641017394489608705e+00,-4.568338932702317834e+00,-7.037793113384395838e+00,-9.525412159418920055e+00,-1.189543519855942577e+01,-1.414277917519211769e+01,-1.488458964775782079e+01,-1.480547711765393615e+01,-1.054808082943782210e+01
-1.423756158445030451e+00,-2.925417470192769542e+00,-2.128144710732158273e+00,-1.282837335485965014e+00,-1.958143324181946809e-01,1.056250975234434009e-01,3.077378992657031631e-01,3.540078241348965093e-01,3.682678896293509752e-01,3.771308917202986777e-01,3.789297387702390552e-01,3.829429137695115060e-01,3.866797481896355748e-01,3.890374008624348789e-01,3.907634267234243453e-01,3.928811424702871591e-01,3.920311174442758784e-01,3.912474419194040820e-01,3.885780881391838193e-01,3.885999241028912365e-01,3.845901694730855525e-01,3.818236767401685938e-01,3.795743613882223144e-01,3.766787612403277308e-01,3.737650841794675216e-01,3.729553402226883918e-01,3.741133980365702882e-01,3.730512665060814470e-01,3.741095784498611465e-01,3.743349716969532892e-01,3.743277836474590003e-01,3.760678501566872001e-01,3.735387141059618443e-01,3.691212998528499156e-01,3.608567326446063817e-01,3.416825874301139265e-01,3.171056586143095046e-01,2.919938333798199892e-01,2.455347073264420033e-01,4.461229966545943171e-02,-4.960900366131681949e-01,-1.626767454668879509e+00,-3.090032546402653679e+00,-4.575302678393200040e+00,-5.705514521847362630e+00,-6.084044397342950106e+00,-5.556380934081971645e+00,-3.899645358440466225e+00,-1.980295407585799694e+00,2.396224887343123555e-01,3.173743388688308187e+00,6.310197936953045428e+00,9.089653946342878044e+00,9.963997947052121162e+00,8.935463623609393835e+00,6.214061097300145775e+00,2.862434485810808837e+00,1.329689994308864698e-01,-1.251081902591977268e+00,-1.759089255268918350e+00,-1.818040880301850848e+00,-1.838647267344640568e+00,-1.876178225153125823e+00,-1.975137408415321261e+00,-2.082216882670763880e+00,-2.174213229154702276e+00,-2.210612223600037396e+00,-2.212285882269497961e+00,-2.186786070116795599e+00,-2.146086880005896091e+00,-2.086723709129728377e+00,-2.026764662994537503e+00,-1.989551559148821980e+00,-1.959537652670405805e+00,-1.945826126378960907e+00,-1.951634892961010337e+00,-1.957435875316150486e+00,-1.964799049601424485e+00,-1.970878010673914105e+00,-1.971945425029844046e+00,-1.984475981444120407e+00,-1.997023456555325538e+00,-2.012863821990322322e+00,-2.039184137538541108e+00,-2.070023457519710064e+00,-2.102477686246857047e+00,-2.119605107116512954e+00,-2.108646011394739617e+00,-2.059827801305800676e+00,-1.939309323148336262e+00,-1.670049486448988318e+00,-1.095362471489352174e+00,1.485418600350385532e-02,1.980626994976773858e+00,5.021347742527723312e+00,8.371441916620824486e+00,1.138636526162736118e+01,1.414143258752301335e+01,1.721423513954505324e+01,2.105330621683970094e+01,2.493758669961243868e+01,2.855533879483118653e+01,3.079865443560993299e+01,3.223292636638507247e+01,3.309161567274713889e+01,3.318161991477245465e+01,3.205778469005599618e+01,3.002884317282587290e+01,2.699873998668044806e+01,2.298797309817746282e+01,1.816057396563701332e+01,1.259782458172412589e+01,7.328026488394243643e+00,2.985161681252066046e+00,3.181492406583856791e-01,-7.962258573388680816e-01,-7.345146528678014874e-01,-3.587910134810954332e-01,1.714222948066890240e-03,2.478670615237206221e-01,3.161479954433161765e-01,3.364344636502210051e-01,3.527432299451902509e-01,3.656974434852600098e-01,3.741557993926107883e-01,3.721145465970039368e-01,3.555777310393750668e-01,3.405502435562084429e-01,3.317584266260382719e-01,3.233810945821460336e-01,3.213939875422511250e-01,3.211454959819093347e-01,3.147854913258925080e-01,3.085354284849017859e-01,2.916830809845123440e-01,2.699318160302937031e-01,2.489796590525656939e-01,2.315479186363518238e-01,2.143835047900211066e-01,1.857734553632326424e-01,1.570457402849569917e-01,-1.583750089048407972e-02,-4.844827883935067803e-01,-1.868708215042715892e+00,-3.731509857927449048e+00,-5.146383614570368081e+00,-6.120915085150045343e+00,-6.201610850548604503e+00,-6.344603872392326593e+00,-4.449594333069398999e+00
-1.559619395993649960e-02,7.675662622787058353e-01,1.812841411447152495e-02,-3.537745077192084864e-01,-6.168422254268079996e-01,-5.565992994961561635e-01,-5.627696034498512745e-01,-6.360599254257977009e-01,-6.955911079421639442e-01,-7.275405218824744225e-01,-7.447033654898405075e-01,-7.529293315019458532e-01,-7.608713638037443161e-01,-7.666785642504692078e-01,-7.705694269388914108e-01,-7.727050371468067169e-01,-7.706230031326413155e-01,-7.672452842816710472e-01,-7.591061666607856750e-01,-7.475278321653604507e-01,-7.311066836118698120e-01,-7.077663838863372803e-01,-6.759165646508336067e-01,-6.301921717822551727e-01,-5.676533589139580727e-01,-4.685820866143330932e-01,-3.316579674719832838e-01,-1.681048702448606491e-01,5.226091505028307438e-02,3.364962825144175440e-01,6.207957536898902617e-01,8.889569944149116054e-01,1.028781244065612555e+00,9.641016181558370590e-01,7.698379857465624809e-01,5.263612484559416771e-01,2.890165091957896948e-01,1.060088430531322956e-01,-2.324248896911740303e-02,5.296768248081207275e-02,2.345769735984504223e-01,5.235713961010333151e-01,8.248436145368032157e-01,1.155062144365729182e+00,1.518443252803990617e+00,1.884610704837541562e+00,2.137762370170094073e+00,2.268951494130305946e+00,2.361522829101886600e+00,2.559536730404943228e+00,2.977141936658881605e+00,3.078050494106719270e+00,2.454989085482338851e+00,1.461951047502225265e+00,4.420126975164748728e-01,2.176314763783011585e-01,-2.037402568967081606e-01,-5.789045545679982752e-01,-7.546871074591763318e-01,-1.131789684441173449e+00,-1.370885478259879164e+00,-1.299538973049493507e+00,-1.178943074934068136e+00,-1.085250190153601579e+00,-1.037559462434728630e+00,-9.973157587082823738e-01,-9.459546633006539196e-01,-8.940966499067144468e-01,-8.699341136816656217e-01,-8.844319896743400022e-01,-9.132925679732579738e-01,-9.203070770308841020e-01,-9.287044995580799878e-01,-9.496903039980679750e-01,-9.965245183848310262e-01,-1.060251036164117977e+00,-1.088615110653336160e+00,-1.092290264496114105e+00,-1.067394529862212949e+00,-1.067415140350931324e+00,-1.005610385618638247e+00,-9.197930188092868775e-01,-8.410843952988216188e-01,-4.771103371167555451e-01,6.857337490073405206e-01,3.811530357517767698e+00,7.437847921974025667e+00,1.055970539280679077e+01,1.358990234648808837e+01,1.618090407364070415e+01,1.852048073741934786e+01,2.038157330034300685e+01,2.152442564244847745e+01,2.186555537686493267e+01,2.150776486196582482e+01,2.046353727911468923e+01,1.883451797481393442e+01,1.670376930222846568e+01,1.395739875407889485e+01,1.079083920177072287e+01,7.467252771835774183e+00,4.342438836116343737e+00,1.707436251570470631e+00,1.808025903301313519e-01,-4.764014756656251848e-01,-5.998797036936593940e-01,-6.092429533600807190e-01,-6.381448267929954454e-01,-6.389064142713323236e-01,-1.805619747901801020e-01,1.691571817034855485e+00,4.352734971093013883e+00,6.953870600205846131e+00,9.051835429963830393e+00,1.040592744760215282e+01,1.089211108488962054e+01,1.042055604333290830e+01,9.115616513177883462e+00,7.158818921074271202e+00,4.642087639804231003e+00,2.090262646903283894e+00,2.105394165846519172e-01,-4.093360272236168385e-01,-4.755441123270429671e-01,-4.791808683658018708e-01,-4.891047878190875053e-01,-5.143448492744937539e-01,-5.472524366487050429e-01,-5.884445949923247099e-01,-6.373241003311704844e-01,-6.978950261545833200e-01,-7.609543949365615845e-01,-8.146752450847998261e-01,-8.501118489657528698e-01,-8.647485259571112692e-01,-8.623736019362695515e-01,-8.520316756330430508e-01,-8.346834023541305214e-01,-8.052038192981854081e-01,-7.508002669783309102e-01,-6.588171935873106122e-01,-5.036791758611798286e-01,-1.357831591158173978e-01,6.092600425472483039e-01,1.927807520201895386e+00,2.949490387691184878e+00,3.463277483017009217e+00,3.256672045914456248e+00,2.690398100239690393e+00,1.783359777058649343e+00
4.448149235366145149e+00,7.323403519578278065e+00,6.509694708744063973e+00,4.573687466552655678e+00,2.086310184153262526e+00,4.927982255903771147e-01,-1.904736100113950670e-01,-3.303578351624310017e-01,-3.963759760135872057e-01,-4.010084968758746982e-01,-4.151413958752527833e-01,-4.344991578254848719e-01,-4.581477886531502008e-01,-4.763414555927738547e-01,-4.918858186574652791e-01,-5.040594687452539802e-01,-5.151127922581508756e-01,-5.234496314078569412e-01,-5.298636462539434433e-01,-5.364426514133810997e-01,-5.402000796166248620e-01,-5.429321371952937625e-01,-5.468299427360534537e-01,-5.483818459906615317e-01,-5.467416964820586145e-01,-5.436875249724835157e-01,-5.356133154127746820e-01,-5.139597661327570677e-01,-4.763572369702160358e-01,-4.160719319479539990e-01,-2.739028703654184937e-01,3.255662735318765044e-02,5.966873019060585648e-01,1.752421743061859161e+00,3.160659819142892957e+00,4.455112107563763857e+00,5.429779862053692341e+00,5.989333444740623236e+00,6.066413628053851426e+00,5.675721130974125117e+00,4.931794974952936172e+00,3.929233173141255975e+00,2.915332016069442034e+00,2.187214204175688792e+00,1.850987429177621379e+00,1.899499077408108860e+00,2.046575206273701042e+00,2.225853756302967668e+00,2.384024612241773866e+00,2.539874563983175904e+00,2.778360952914226800e+00,2.904985200626015285e+00,2.798268552607623860e+00,2.466769863560330123e+00,1.992293528164736927e+00,1.632035124013782479e+00,1.462794612161815166e+00,6.200705813462263905e-01,-1.099252262763911858e+00,-2.557707824103999883e+00,-2.776262557454174384e+00,-1.700319704657886177e+00,-5.257324795529711992e-01,-1.494772149890195578e-01,-2.638348939071875066e-01,-4.564642551704309881e-01,-6.929313940490828827e-01,-8.008716492040548474e-01,-7.956196297309361398e-01,-7.407408306753495708e-01,-7.011712970706867054e-01,-6.785209548543207347e-01,-6.600349278014618903e-01,-6.431288902094820514e-01,-6.289343003882095218e-01,-6.217107299598865211e-01,-6.221160699351457879e-01,-6.211172605835599825e-01,-6.139507721818517894e-01,-6.115550147806061432e-01,-6.203112161456374452e-01,-6.434891235257964581e-01,-6.833781618479406461e-01,-7.024089783517410979e-01,-7.048493677575606853e-01,-6.898053331970004365e-01,-6.964250219461973757e-01,-6.832325942232273519e-01,-5.968513128391350619e-01,-5.141753806274209637e-01,-3.722802956881423597e-01,4.022060049464926124e-01,2.732802088488824666e+00,6.552991526201367378e+00,1.049115421250462532e+01,1.423226055363193154e+01,1.763420193921774626e+01,2.038748852617572993e+01,2.244701221352443099e+01,2.358310286276446277e+01,2.388280513102290570e+01,2.351372983117471449e+01,2.249813547018857207e+01,2.089202735245180520e+01,1.886599922468303703e+01,1.646446403791196644e+01,1.372121645743027329e+01,1.082512739021331072e+01,8.122181596700102091e+00,5.896571722259977832e+00,4.166112304432317615e+00,2.936052658478729427e+00,2.289376810920657590e+00,1.897493962096632458e+00,1.605778078082948923e+00,1.348123086499981582e+00,1.111230678274296224e+00,9.235039823688566685e-01,8.025537736248224974e-01,7.243557463225442916e-01,6.579279652214609087e-01,5.780835684854537249e-01,5.485690651694312692e-01,6.015201912377960980e-01,8.056623167358338833e-01,1.333938418421894312e+00,2.437463397101964802e+00,4.324282689951360226e+00,6.425257564987987280e+00,8.334531643427908421e+00,9.706688716541975737e+00,1.052493430254980922e+01,1.063995639374479651e+01,1.002270917483838275e+01,8.740511727402918041e+00,6.838401463814079762e+00,4.564689634600654244e+00,2.261516797647345811e+00,3.589172530919313431e-01,-4.906851077976170927e-01,-6.270045809797011316e-01,-5.185722843161784112e-01,-1.887632877915166318e-01,4.344664114760234952e-01,1.304686427331034793e+00,1.785259680647868663e+00,1.755611862870864570e+00,1.597015494800871238e+00,1.211340191657654941e+00,8.327356039080768824e-01
6.500973679590970278e+00,9.051066872780211270e+00,7.894504264928400517e+00,5.467600511852651834e+00,2.509513604687526822e+00,8.390776466985698789e-01,6.361291787470690906e-01,9.840786373824812472e-01,1.625654273724649101e+00,2.750680901808664203e+00,4.064023000537417829e+00,5.525273762119468302e+00,7.175870526814833283e+00,8.972601913046673872e+00,1.065651553438510746e+01,1.209384642331860960e+01,1.322819310892373323e+01,1.396874545473838225e+01,1.415325343329459429e+01,1.387294293593731709e+01,1.315532114659436047e+01,1.183760156808421016e+01,1.002720055030658841e+01,7.874661438982002437e+00,5.766052335617132485e+00,4.022514828946441412e+00,2.814357685729191871e+00,2.170866387692512944e+00,2.052052242161153117e+00,2.310798062884714454e+00,2.846592425135895610e+00,3.534764738724334165e+00,4.276612260633555707e+00,5.030211675679311156e+00,5.737777440139325336e+00,6.403808721108362079e+00,6.877903416709159501e+00,7.103134829919213189e+00,7.071478334255516529e+00,6.904039585962891579e+00,6.653271191287785769e+00,6.280357476789504290e+00,5.898535249056294560e+00,5.557917015394195914e+00,5.149615661706775427e+00,4.631573787657544017e+00,3.825059827882796526e+00,2.889727403002325445e+00,2.038953562674578279e+00,1.277769281528890133e+00,-2.165050799449090846e-01,-2.397573538255528547e+00,-4.651695949898567051e+00,-5.439727638178737834e+00,-5.109112139718490653e+00,-3.805723912708344869e+00,-1.932234280382544966e+00,-5.455925464048050344e-03,1.327975420062102785e+00,1.911981245852075517e+00,2.067512639099732041e+00,2.131777076050639153e+00,2.137839236762374640e+00,2.126542798709124327e+00,2.109085779637098312e+00,2.089334326330572367e+00,2.076280410896288231e+00,2.075282301753759384e+00,2.078610325232148170e+00,2.066510954406112432e+00,2.070726000703871250e+00,2.085098201874643564e+00,2.073525740299373865e+00,2.063294851337559521e+00,2.047545010223984718e+00,2.051844710018485785e+00,2.052549006883054972e+00,2.056138945743441582e+00,2.051733333617448807e+00,2.047555371420457959e+00,2.047889990033581853e+00,2.048897251836024225e+00,2.048474307521246374e+00,2.039531320566311479e+00,2.049900396814337000e+00,2.048986866633640602e+00,2.055318994036497315e+00,2.054905348350075656e+00,2.055057742229109863e+00,2.073438721796264872e+00,2.071752279065549374e+00,2.071572601329535246e+00,2.072840368840843439e+00,2.073803578678052872e+00,2.068051534006372094e+00,2.069914480322040617e+00,2.077154995640739799e+00,2.073329024016857147e+00,2.071827133186161518e+00,2.071853658417239785e+00,2.049248854159714028e+00,2.035799239529296756e+00,2.018522355239838362e+00,1.961567692313110456e+00,1.933632032480090857e+00,1.753525519627146423e+00,1.702149262069724500e+00,1.915173876273911446e+00,2.978616256383247674e+00,4.908239184878766537e+00,7.307286309078335762e+00,9.805951430462300777e+00,1.227774089481681585e+01,1.327887183241546154e+01,1.195701047767943237e+01,8.179338516083817012e+00,1.680819252662331564e+00,-5.973512012489663903e+00,-1.163143631292041391e+01,-1.470159118271840271e+01,-1.540821434145618696e+01,-1.361865687702083960e+01,-9.515639260105672292e+00,-4.215569706946553197e+00,1.559939914055576082e+00,6.503011658322066069e+00,8.177329015685245395e+00,7.299762276932597160e+00,5.820994748850353062e+00,4.245849536935565993e+00,3.064214810030534863e+00,2.568377090385183692e+00,2.822116745635867119e+00,3.641275468980893493e+00,4.895741900196298957e+00,6.333287847461178899e+00,7.776657371316105127e+00,9.104624377563595772e+00,1.012552547315135598e+01,1.078029950382187963e+01,1.083571126713650301e+01,1.016424078471027315e+01,8.572263447102159262e+00,6.449381977960001677e+00,5.953624245840728690e+00,8.770823144608584698e+00,1.166378574712143745e+01,1.307212182030343683e+01,1.310260551935061812e+01,8.765861210456932895e+00
3.588857350405305624e-02,9.092246911313850433e-01,8.843538304790854454e-02,-3.533379711880115792e-01,-5.650144694809569046e-01,-4.795701382681727409e-01,-4.880949319340288639e-01,-5.667572580277919769e-01,-6.366680689279746730e-01,-6.888440903276205063e-01,-7.269174233078956604e-01,-7.559880577027797699e-01,-7.739620795473456383e-01,-7.853437997400760651e-01,-7.912360215559601784e-01,-7.960471641272306442e-01,-8.095856895670294762e-01,-8.374903055703839527e-01,-8.839021451130975038e-01,-9.486710539204068482e-01,-1.022099548135884106e+00,-1.082326406456559198e+00,-1.126717033854220062e+00,-1.157410169835202396e+00,-1.156736122560687363e+00,-1.117293207091279328e+00,-1.061448783089872450e+00,-1.062843953448464163e+00,-1.091869351155764889e+00,-1.090824141763732769e+00,-1.070530180179048330e+00,-1.043364618279156275e+00,-1.016081952082458884e+00,-9.742321661324240267e-01,-9.157323098042979836e-01,-8.437229120172560215e-01,-7.445569236879236996e-01,-6.042707632877863944e-01,-2.552170296257827431e-01,3.085850576753728092e-01,8.738253755145706236e-01,1.081091421161545441e+00,2.476749976049177349e-01,-1.873768239689525217e+00,-5.506046869253623299e+00,-9.171839060843922198e+00,-1.155286488245474175e+01,-1.370969765627523884e+01,-1.603510730463312939e+01,-1.952872867282712832e+01,-2.304795345873571932e+01,-2.494522751390468329e+01,-2.354118785517493961e+01,-1.884282678924500942e+01,-1.180758295720443130e+01,-5.914942976320162416e+00,-2.743554643937386572e+00,-2.029648226482095197e+00,-2.076501798932440579e+00,-2.431052583560813218e+00,-2.786035827914020047e+00,-3.077580816170666367e+00,-3.275280979083618149e+00,-3.381037203973392025e+00,-3.390128307451959699e+00,-3.353536039241589606e+00,-3.277616051429504296e+00,-3.201583646958169993e+00,-3.123381245357450098e+00,-3.054458198224892840e+00,-3.010718273595557548e+00,-2.934878712141653523e+00,-2.768378989349002950e+00,-2.507640126583282836e+00,-2.040114839343004860e+00,-1.428067381231812760e+00,-8.521068547852337360e-01,-1.601869915612041950e-01,7.217974080704152584e-01,2.145314640049036825e+00,3.743288336321711540e+00,5.405059012118726969e+00,7.331906959414482117e+00,9.639393716119229794e+00,1.211880558985285461e+01,1.479130556480959058e+01,1.719894419968477450e+01,1.901833242434804561e+01,1.998490499224863015e+01,2.020826694689458236e+01,1.964574625389650464e+01,1.858539541508071125e+01,1.683629499888047576e+01,1.463241085281788401e+01,1.208670611539855599e+01,9.183938763104379177e+00,6.325999001273885369e+00,3.558334500994533300e+00,1.524123147130012512e+00,2.930336811114102602e-01,-3.799557941638340708e-01,-5.460610110312700272e-01,-5.656929211108945310e-01,-5.899990558391436934e-01,-6.571632196428254247e-01,-7.462712486740201712e-01,-8.447492513805627823e-01,-9.409380856668576598e-01,-9.937095441855490208e-01,-9.970933366566896439e-01,-9.785801870748400688e-01,-9.362231241539120674e-01,-8.815475609153509140e-01,-8.122954647988080978e-01,-7.327009439468383789e-01,-6.220319317653775215e-01,-4.942498889868147671e-01,-3.576522132498212159e-01,-2.491857790155336261e-01,-1.528083205921575427e-01,-7.168741803616285324e-02,1.668539596721529961e-03,5.478064296767115593e-02,8.426857599988579750e-02,9.911805600859224796e-02,9.742632601410150528e-02,8.720542187802493572e-02,7.583289733156561852e-02,7.236116973217576742e-02,7.401344284880906343e-02,8.100290410220623016e-02,9.099111612886190414e-02,1.021596816135570407e-01,1.000755309942178428e-01,9.757562552113085985e-02,8.986690314486622810e-02,7.336953724734485149e-02,6.107978243380784988e-02,4.600719199515879154e-02,4.392329644178971648e-02,5.152936349622905254e-02,9.391641360707581043e-02,1.911638900637626648e-01,3.268440777083014837e-01,3.728003823198378086e-01,3.575367550365626812e-01,1.712002482963725924e-01,1.284663765691220760e-01,1.159342119935899973e-01,9.504443674813956022e-02
6.613219300808850676e+00,9.217161993030458689e+00,8.076583604793995619e+00,5.691780898661818355e+00,2.702462183049647138e+00,9.117761892557609826e-01,3.265009610913693905e-01,2.022043975011911243e-01,4.648879889382442343e-01,1.120987311122007668e+00,2.280575759126804769e+00,3.986422201967798173e+00,6.091119055694434792e+00,8.446272549976129085e+00,1.080236314784269780e+01,1.275123316218378022e+01,1.431654861959395930e+01,1.531813165917992592e+01,1.567374228802509606e+01,1.548810491434414871e+01,1.498046777548734099e+01,1.414947640179889277e+01,1.295235059562401148e+01,1.127071172322030179e+01,9.524179042899049819e+00,7.902000022237189114e+00,6.616688552312552929e+00,5.793507890892215073e+00,5.462311210489133373e+00,5.662171347765251994e+00,6.316304659558227286e+00,7.093664200743660331e+00,7.811394166667014360e+00,8.081405240693129599e+00,7.409917305223643780e+00,5.806391272839391604e+00,3.614913485449505970e+00,1.608683295926311985e+00,-6.141147627599821135e-01,-3.821085309282352682e+00,-7.688462547579547390e+00,-1.110751350883219857e+01,-1.311369905201718211e+01,-1.326594602025579661e+01,-1.183245368249481544e+01,-9.344905100442701951e+00,-5.936663889529881999e+00,-2.235471812484320253e+00,4.961640542369423201e-01,1.624103190144523978e+00,1.960299737402237952e+00,2.047090475796721876e+00,2.047526777721941471e+00,2.052666827570647001e+00,2.069595204142387956e+00,2.077683290233835578e+00,2.086064474890008569e+00,2.087378871859982610e+00,2.088351288228295743e+00,2.093562501308042556e+00,2.092110844212584198e+00,2.080620013526640832e+00,2.083408914855681360e+00,2.084411670803092420e+00,2.092308410210534930e+00,2.092968684155493975e+00,2.098610451095737517e+00,2.089234771498013288e+00,2.094291531131602824e+00,2.098692629486322403e+00,2.094679803587496281e+00,2.087926138658076525e+00,2.091142734978348017e+00,2.096439471439225599e+00,2.105700173531658947e+00,2.110839649685658514e+00,2.106021619809325784e+00,2.095884357579052448e+00,2.095056276302784681e+00,2.085467723823967390e+00,2.076406199368648231e+00,2.075900423107668757e+00,2.084777248091995716e+00,2.094933921238407493e+00,2.104765949887223542e+00,2.104908484034240246e+00,2.083612178452312946e+00,2.078999409452080727e+00,2.085358792915940285e+00,2.075015011563664302e+00,2.062122081173583865e+00,2.011888214852660894e+00,1.967673936858773232e+00,1.898950535338371992e+00,1.782877056335564703e+00,1.561279043089598417e+00,1.231460598064586520e+00,9.731512544385623187e-01,9.087135567679069936e-01,1.375015610916307196e+00,2.468226204175152816e+00,3.424152646097354591e+00,3.646103112230775878e+00,2.416389971738681197e+00,-1.190940725544351153e+00,-5.935506882829940878e+00,-1.062727791498764418e+01,-1.457328035889077000e+01,-1.703274812269955873e+01,-1.810305145916936453e+01,-1.696740407049946953e+01,-1.350083236521459185e+01,-7.904486275321687572e+00,-1.613964961426972877e+00,4.475195282440836309e+00,8.050617219050764106e+00,7.924280156206805259e+00,6.396253322134725749e+00,4.445931651775026694e+00,2.502940712729468942e+00,9.708847654401324689e-01,1.286410528700798750e-02,-4.215888174949213862e-01,-5.980524708284065127e-01,-6.665870174765586853e-01,-6.636255055200308561e-01,-6.342298932140693069e-01,-6.097304458962753415e-01,-5.864436311603640206e-01,-5.445903651416301727e-01,-4.891993927303701639e-01,-4.279987288173288107e-01,-3.387134444492403418e-01,-2.479148851707577705e-01,-2.101306733675301075e-01,-2.338419167790561914e-01,-3.248308555575931678e-01,-4.332772438065148890e-01,-5.319847142091020942e-01,-5.887990188784897327e-01,-5.741411799099296331e-01,-4.324818128952756524e-01,-4.286925062478985637e-02,9.925052136240992695e-01,2.896050508774351329e+00,5.126827244297601283e+00,6.981015518831554800e+00,7.630598546937108040e+00,7.253704860340803862e+00,5.051362069556489587e+00
5.480680427514016628e+00,7.546146778855472803e+00,6.232947794953361154e+00,4.020890726649668068e+00,1.479213466052897274e+00,3.033098318846896291e-01,8.937517949379980564e-02,1.887535816058516502e-02,8.794061373919248581e-02,2.442006453056819737e-01,3.860279302607523277e-01,5.855041700269794092e-01,1.019230699661420658e+00,1.892150848754681647e+00,3.321029363316483796e+00,5.206998695852234960e+00,7.416621588257839903e+00,9.666912504471838474e+00,1.149376622520503588e+01,1.282551416504429653e+01,1.359290424903156236e+01,1.367750749226252083e+01,1.341864510945742950e+01,1.271632884547580034e+01,1.146902383991982788e+01,9.632904029218479991e+00,7.255680438131093979e+00,5.015069088665768504e+00,3.191586156142875552e+00,2.015462391369510442e+00,1.609481274063000455e+00,1.677225711115170270e+00,2.033230393135454506e+00,2.560193939112650696e+00,3.184871690784348175e+00,3.719326367776375264e+00,4.111474898178130388e+00,4.097842987801413983e+00,3.605234628077596426e+00,2.591773922089487314e+00,1.530903141632734332e+00,2.132233309530420229e-01,-2.004098226832866203e+00,-4.649737900472246110e+00,-6.655611358430178370e+00,-6.938028656615642831e+00,-6.120930153207154945e+00,-4.221306231178459711e+00,-1.768078447275911458e+00,4.179504683415871114e-01,1.669171592290695116e+00,2.073917585279559717e+00,2.166158842621371150e+00,2.184642087027896196e+00,2.159154840279370546e+00,2.136039604898542166e+00,2.128529594221618026e+00,2.118406784720718861e+00,2.115925108082592487e+00,2.108985642436891794e+00,2.107697925064712763e+00,2.099531769752502441e+00,2.095260816800873727e+00,2.083184591261669993e+00,2.073554603208322078e+00,2.066681325319223106e+00,2.064230845600832254e+00,2.063986363820731640e+00,2.063589097175281495e+00,2.063147487584501505e+00,2.064085676684044302e+00,2.060478927392978221e+00,2.063505574711598456e+00,2.062579484423622489e+00,2.065540151961613446e+00,2.063520712428726256e+00,2.063211257802322507e+00,2.062532295938581228e+00,2.060047343373298645e+00,2.057269684039056301e+00,2.053459745598956943e+00,2.050491718691773713e+00,2.049332572729326785e+00,2.049686435493640602e+00,2.049288442009128630e+00,2.045651610009372234e+00,2.042421454214490950e+00,2.028603506973013282e+00,2.009889912354992703e+00,1.956607511150650680e+00,1.890751386992633343e+00,1.849420955404639244e+00,1.786082782782614231e+00,1.708780985674820840e+00,1.855391505610896274e+00,2.605691373173613101e+00,4.298091860488057137e+00,6.710386377293616533e+00,9.162996018771082163e+00,1.205046614061575383e+01,1.485008191084489226e+01,1.716789541725302115e+01,1.843253548964275979e+01,1.851224457845091820e+01,1.759487490600440651e+01,1.564614813748630695e+01,1.302374553226400167e+01,9.812904827063903213e+00,6.399775812446023338e+00,4.754909676977604249e+00,6.148088193382136524e+00,9.079730409779585898e+00,1.112881161214318126e+01,1.161070207622833550e+01,1.117780909535940737e+01,1.011498424765886739e+01,8.665790347382426262e+00,7.011445772368460894e+00,5.173347944277338684e+00,3.392125219572335482e+00,1.796274600405013189e+00,5.499926595948636532e-01,-2.105817826231941581e-01,-5.134565106127411127e-01,-5.559715495910495520e-01,-2.425224666949361563e-01,8.461406981805339456e-01,2.563625267765019089e+00,4.652939273975789547e+00,6.927135343663394451e+00,9.200989249162375927e+00,1.118716783449053764e+01,1.259069332691433374e+01,1.327479584398679435e+01,1.309572688094340265e+01,1.204476917136344127e+01,1.026442476255760994e+01,7.652147489774506539e+00,4.645760867977514863e+00,2.660312652835273184e+00,4.194514814531430602e+00,6.753229040768928826e+00,9.168645560246659443e+00,1.131123975152149796e+01,1.297128220859667636e+01,1.417411260869448597e+01,1.494601806228456553e+01,1.456012534439105366e+01,1.327036411070730537e+01,8.675041257869452238e+00
3.951377842684451025e+00,7.306639208254637197e+00,6.817466568405507132e+00,5.320076690626592608e+00,2.861689878627657890e+00,1.235171324340626597e+00,1.549672945984639227e-01,-3.724658476421609521e-01,-5.122038659173995256e-01,-5.219587585306726396e-01,-4.902713784249499440e-01,-4.512158061843365431e-01,-4.250809840159490705e-01,-4.063744943705387414e-01,-3.932990236207842827e-01,-3.911478698428254575e-01,-3.994688202365068719e-01,-4.190326537936925888e-01,-4.476961267646402121e-01,-4.872853870620019734e-01,-5.321933269733563066e-01,-5.767773559782654047e-01,-6.255117601249366999e-01,-6.650133645161986351e-01,-6.865645650286751334e-01,-6.804208629764616489e-01,-6.320290536968968809e-01,-5.349281412782147527e-01,-3.801589373324532062e-01,-8.119152812287211418e-02,3.732986146351322532e-01,1.121536981589997595e+00,1.818097209325060248e+00,2.300417493883287534e+00,2.436430743888195138e+00,2.230185399792389944e+00,1.770529004075797275e+00,1.241529092221753672e+00,7.923002163879573345e-01,4.967477411264553666e-01,4.375872856471687555e-01,5.352995631983503699e-01,8.030827399925328791e-01,1.184351761126890779e+00,1.600275583019538317e+00,2.056138193001970649e+00,2.443063650309341028e+00,2.752378065895754844e+00,2.751966524723684415e+00,2.544362437678501010e+00,2.089269260759465396e+00,1.684107739059982123e+00,8.691732810984831303e-01,-7.985920151404570788e-01,-3.323700716617167927e+00,-4.176845143199898303e+00,-3.742886652849847451e+00,-2.222265795076964423e+00,-8.632828517584130168e-01,-3.019521459355019033e-01,-3.417278126289602369e-01,-4.243991926778107882e-01,-4.775949630420655012e-01,-4.220947154681198299e-01,-3.432152627647155896e-01,-2.754976143987732939e-01,-2.640828836738364771e-01,-2.644023228494916111e-01,-2.603413510005339049e-01,-2.555636734687141143e-01,-2.566257536018383689e-01,-2.597521023926674388e-01,-2.649685451542609371e-01,-2.757013206282863393e-01,-2.850959467032225803e-01,-2.945924220257438719e-01,-3.071563005869393237e-01,-3.238296471608919092e-01,-3.385788656596560031e-01,-3.549733008694602177e-01,-3.669089358081691898e-01,-3.661440228170249611e-01,-3.740035134178469889e-01,-4.065862444258527830e-01,-3.966862660381593741e-01,-3.300148198832175694e-01,-2.398552312115498353e-01,-1.267735783476382494e-01,2.770277050367440097e-01,1.296177801843441557e+00,4.082966107816901058e+00,7.064231105032376945e+00,9.946965447161346674e+00,1.288217654742766172e+01,1.558903614059090614e+01,1.825640193758954410e+01,2.047259436275453481e+01,2.199776374321663752e+01,2.265463131477508796e+01,2.259503450878582953e+01,2.176279661838998436e+01,2.030414127964559157e+01,1.830039121690788306e+01,1.585757914875284769e+01,1.291538178548216820e+01,9.646909999835770577e+00,6.378950909944251180e+00,3.431521094869822264e+00,1.294606427174585406e+00,3.445404779049567878e-01,-6.610397517215460539e-02,-1.004319931380450726e-01,-6.263522477820515633e-02,-6.644509243778884411e-02,7.416043651755899191e-02,1.189328644424676895e+00,3.521078721096273512e+00,6.449939047219231725e+00,9.261860073078423738e+00,1.130131127638742328e+01,1.284891068702563643e+01,1.360744402091950178e+01,1.344397017243318260e+01,1.247064176551066339e+01,1.090427989385898400e+01,8.727069141692481935e+00,6.094373100670054555e+00,3.291679737769300118e+00,9.852268228423781693e-01,-1.041612296248786151e-01,-2.621071197791025043e-01,-2.472586286021396518e-01,-1.546790744177997112e-01,-5.325802971492521465e-02,-7.222250080667436123e-02,-2.016639513894915581e-01,-3.761153009254485369e-01,-5.297089416999369860e-01,-6.744398403679952025e-01,-7.536811679019592702e-01,-7.275369758717715740e-01,-5.994550961186178029e-01,-3.345292813028208911e-01,2.346278816112317145e-01,1.309733111324021593e+00,2.337207300006411970e+00,2.873917906195856631e+00,2.720299327673274092e+00,2.291428199678193778e+00,1.508553579391445965e+00
6.523700954858213663e-02,1.015001608873717487e+00,2.425925454590469599e-01,-2.867111391387879848e-01,-6.318930956767871976e-01,-5.488907264370936900e-01,-5.062717078253626823e-01,-5.371143035590648651e-01,-5.583006503729848191e-01,-5.502597296144813299e-01,-5.170887935601058416e-01,-4.820768853533081710e-01,-4.571752706542611122e-01,-4.435651151579804718e-01,-4.365934549714438617e-01,-4.390486121410503983e-01,-4.526728681521490216e-01,-4.724331488541793078e-01,-4.956366480328142643e-01,-5.192733275471255183e-01,-5.330002512491773814e-01,-5.325706896546762437e-01,-5.122647508978843689e-01,-4.693017871759366244e-01,-4.007008660119026899e-01,-3.078455250943079591e-01,-2.017262229928746819e-01,-8.909009862691164017e-02,2.754294383339583874e-02,1.294749729568138719e-01,1.527238496346399188e-01,1.129268002696335316e-01,2.096266322769224644e-02,-1.491026540752500296e-01,-2.979595835786312819e-01,-4.442165507934987545e-01,-4.463661101181060076e-01,-3.366244564531370997e-01,-1.067267246544361115e-01,3.029747730615781620e-01,7.997042000060901046e-01,1.360381614979814913e+00,1.847526204364839941e+00,2.268887845450080931e+00,2.558473156029322126e+00,2.602806875016540289e+00,2.457194179878570139e+00,2.327700119523797184e+00,2.322610143513884395e+00,2.114982986866380088e+00,1.208682725628023036e+00,4.377072850620606914e-01,-3.067688055161852390e-01,-4.071514550014398992e-01,-1.958444415067788213e-01,-5.363047156279208139e-01,-8.049158980720676482e-01,-1.105076766078127548e+00,-1.460945944214472547e+00,-1.720673291914863512e+00,-1.765491832338739187e+00,-1.784344377170782536e+00,-1.750759223825298250e+00,-1.705859341687755659e+00,-1.690535440546227619e+00,-1.678178670787019655e+00,-1.669815671397373080e+00,-1.668990174046484753e+00,-1.679916838547796942e+00,-1.689008886052761227e+00,-1.707806504680775106e+00,-1.734084801602875814e+00,-1.736527656030375510e+00,-1.710244395886547863e+00,-1.693584044391172938e+00,-1.652290030571748503e+00,-1.556164450739743188e+00,-1.444473927775106858e+00,-1.352970417261531111e+00,-1.041358735127602131e+00,-3.526145783253014088e-01,9.916439267399255186e-01,3.920524755580117926e+00,6.543429468292742968e+00,9.086606795899569988e+00,1.161496449820697308e+01,1.412333045568084344e+01,1.660077271814225242e+01,1.877447641958133318e+01,2.041511218016967177e+01,2.134842567960731685e+01,2.146600723988376558e+01,2.092764845862984657e+01,1.987124025917728432e+01,1.829102363064885139e+01,1.617967273562680930e+01,1.370630703447386622e+01,1.084110335633158684e+01,7.771102942060679197e+00,4.788860743166878819e+00,2.156083803565707058e+00,6.832449600624386221e-01,3.061434719711542130e-02,-1.046881714719347656e-01,-1.375764566473662853e-01,-1.843816440086811781e-01,-2.584274474065750837e-01,-2.994365758495405316e-01,1.513206508825533092e-01,1.833960705494973809e+00,4.389461942686466500e+00,7.145448161289095879e+00,9.504604144487529993e+00,1.125679678097367287e+01,1.246304799057543278e+01,1.289941439381800592e+01,1.238973043952137232e+01,1.120402163243852556e+01,9.378375631757080555e+00,7.039597138646058738e+00,4.437395172892138362e+00,2.091204596770694479e+00,3.057774137705564499e-01,-3.662041084025986493e-01,-4.898922669235616922e-01,-4.329835126409307122e-01,-3.462946995277889073e-01,-2.710940429242327809e-01,-2.019200706854462624e-01,-1.576968327717622742e-01,-1.673229295665805694e-01,-2.421014611609280109e-01,-3.735184823162853718e-01,-4.746365582104772329e-01,-5.701613415731117129e-01,-6.582214826485142112e-01,-7.293068251128715929e-01,-7.867373917033546604e-01,-8.241851936327293515e-01,-8.293622866331133991e-01,-7.741182807367295027e-01,-6.298728176043368876e-01,-3.369959520059637725e-01,1.920407272409647703e-01,1.110696784249739721e+00,1.972369255730882287e+00,2.348460270150098950e+00,2.193669731161207892e+00,1.833665368671063334e+00,1.218691912421490997e+00
-1.367836539167910814e+00,-1.649990871257614344e+00,-1.546643210531328805e+00,-1.232746130670420825e+00,-1.126830863635404967e+00,-9.698700266890227795e-01,-9.156267881626263261e-01,-8.196997756604105234e-01,-7.924697322305291891e-01,-8.518368252553045750e-01,-9.475401977542787790e-01,-1.078934160526841879e+00,-1.193921124136977596e+00,-1.283471745147835463e+00,-1.338043354029650800e+00,-1.349337195788393728e+00,-1.323685443028807640e+00,-1.264825817430391908e+00,-1.187367685313802212e+00,-1.111318990355357528e+00,-1.027678919490426779e+00,-9.556605843827128410e-01,-8.957205987535417080e-01,-8.605724624358117580e-01,-8.401476484723389149e-01,-8.328744005411863327e-01,-8.259003818966448307e-01,-8.108406802639365196e-01,-7.817401788197457790e-01,-7.329220715910196304e-01,-6.711958903033519164e-01,-6.089667421765625477e-01,-5.428242338821291924e-01,-4.876709440723061562e-01,-4.449919642647728324e-01,-4.047311386093497276e-01,-3.700998821295797825e-01,-3.222898286767303944e-01,-2.778655919246375561e-01,-2.511984906159341335e-01,-2.343709427150315605e-01,-2.032761033624410629e-01,4.361501573584973812e-01,3.205143683328060433e+00,7.366545336437411606e+00,1.409668600815348327e+01,1.995072636427357793e+01,2.168703548214398324e+01,2.410503569524735212e+01,2.291361349541693926e+01,2.209885910386219621e+01,2.284298392198979855e+01,2.704400130989961326e+01,3.021313771652057767e+01,2.838595993211492896e+01,2.264187129586935043e+01,1.507302237208932638e+01,7.918647031532600522e+00,3.445462302188389003e+00,1.639990595751442015e+00,1.325896500144153833e+00,1.222479972057044506e+00,1.126817454234696925e+00,9.945827342453412712e-01,8.869442936265841126e-01,8.382931287924293429e-01,8.316426077944925055e-01,8.590151055686874315e-01,8.991021021502092481e-01,9.403020415338687599e-01,9.826211763429455459e-01,1.007793291821144521e+00,1.020302499528042972e+00,1.027862524439115077e+00,1.023307877359911799e+00,1.056554461130872369e+00,1.114474693778902292e+00,1.148024924099445343e+00,1.069035376887768507e+00,1.111898347735404968e+00,1.475099706229229923e+00,2.771678800694644451e+00,5.269311506766825914e+00,8.332068590214475989e+00,1.116364525887183845e+01,1.319694793480448425e+01,1.526513859862461686e+01,1.826418984821066260e+01,2.172293223359156400e+01,2.534756542695686221e+01,2.805336233135312796e+01,2.974511893978342414e+01,3.119153327320236713e+01,3.238908731006085873e+01,3.258157262194436044e+01,3.138996007861351245e+01,2.916218533366918564e+01,2.568637889018282294e+01,2.129086621478199959e+01,1.574185444810427725e+01,9.839166616002330557e+00,3.960660055512562394e+00,-4.846408435842022300e-01,-2.634544197731884196e+00,-3.161509736091829836e+00,-2.921797352959401906e+00,-2.191965562407858670e+00,-1.272204946202691644e+00,-5.714059146121144295e-01,-1.275608156138332561e-01,1.476306427503004670e-01,2.430442440963815898e-01,3.168544652871787548e-01,3.340110112912952900e-01,3.319913898594677448e-01,3.207893059588968754e-01,3.073787712492048740e-01,2.843880776781588793e-01,2.456427265424281359e-01,2.156903042923659086e-01,1.925734244287014008e-01,1.615946535021066666e-01,1.397084449417889118e-01,1.300207742024213076e-01,1.324373036623001099e-01,1.397483667824417353e-01,1.438653809018433094e-01,1.464948388165794313e-01,1.348622147925198078e-01,1.024230173788964748e-01,5.389920322340913117e-02,3.650099271908402443e-03,-5.555626866407692432e-02,-1.172664946643635631e-01,-1.942103269975632429e-01,-2.511437239591032267e-01,-2.909651722293347120e-01,-2.972628688439726830e-01,-2.775709079578518867e-01,-2.427264384459704161e-01,-2.264334044884890318e-01,-2.567392833443591371e-01,-3.793054713169112802e-01,-5.848795163910835981e-01,-8.043405855860328302e-01,-1.109613331966102123e+00,-1.281368868440040387e+00,-1.664121018373407423e+00,-2.082145200576633215e+00,-1.188748260261490941e+00
-1.003980655921623111e+00,-1.952015415299683809e+00,-1.114103530067950487e+00,-3.771275302860885859e-01,9.204199770465493202e-02,2.247030083090066910e-01,2.837005574256181717e-01,3.182064958964474499e-01,3.248196085914969444e-01,3.244587602093815804e-01,3.211255199275910854e-01,3.208451545797288418e-01,3.182355272583663464e-01,3.168884865008294582e-01,3.176753185689449310e-01,3.168387836776673794e-01,3.157690810039639473e-01,3.144121277146041393e-01,3.082051766104996204e-01,2.938419003039598465e-01,2.774766082875430584e-01,2.615185549948364496e-01,2.503288884181529284e-01,2.401176281273365021e-01,2.302101207116038495e-01,2.206413424573838711e-01,2.082209177315235138e-01,1.921523618511855602e-01,1.703851106576621532e-01,1.549374591559171677e-01,1.500231996178627014e-01,1.519693706650286913e-01,1.582128740847110748e-01,1.681691018020501360e-01,1.768141188658773899e-01,1.704562248196452856e-01,1.461328906007111073e-01,9.819137863814830780e-02,2.012249099789187312e-02,-1.384616430732421577e-01,-4.391124179746839218e-01,-6.790750641957856715e-01,-1.357555462745949626e-01,4.839447044068947434e-01,2.658144771688967012e+00,6.671816806425340474e+00,1.257240611646557227e+01,1.836457143309235107e+01,2.037213423522189260e+01,2.258817959297448397e+01,2.218818720802664757e+01,2.200218786229379475e+01,2.349770136491861194e+01,2.787937591178342700e+01,3.127168211853131652e+01,3.005951936170458794e+01,2.512210905214305967e+01,1.793003078363835812e+01,1.008293595816940069e+01,4.280672386405058205e+00,1.206306900247000158e+00,5.836112875258550048e-01,3.707340161781758070e-01,3.055566862458363175e-01,2.340848151361569762e-01,1.672618592856451869e-01,1.295506140450015664e-01,1.194103392772376537e-01,1.240190403768792748e-01,1.250778344692662358e-01,1.209104732843115926e-01,1.173397515667602420e-01,1.173871773062273860e-01,1.387972213560715318e-01,1.686892365105450153e-01,1.896408885950222611e-01,2.119944585720077157e-01,2.076272040649200790e-01,1.777260252274572849e-01,2.030184876639395952e-01,1.995160880032926798e-01,1.371815179008990526e-01,-2.580566506367176771e-02,-1.231944708852097392e-01,-1.504640603961888701e-01,-3.442867874400690198e-02,3.471879841745248996e-01,1.447004032539553009e+00,3.447098306496627629e+00,5.880190165422391146e+00,8.127567899646237493e+00,9.698586249491199851e+00,1.087241038226056844e+01,1.243831505253911018e+01,1.471052812319248915e+01,1.686167572613339871e+01,1.835808788007125258e+01,1.947446177766505571e+01,2.032900404214160517e+01,2.088776007923297584e+01,2.019540484540630132e+01,1.817877808492630720e+01,1.499929131101816893e+01,1.164459845935925841e+01,8.259269094094634056e+00,5.083996986606507562e+00,2.728962619788944721e+00,1.461787194013595581e+00,6.938590270001441240e-01,3.358168663398828357e-01,-1.368956415099091828e-01,-6.756732260109856725e-01,-1.019891883363015950e+00,-1.195402022218331695e+00,-1.212159527989570051e+00,-1.082892612612340599e+00,-8.927039959235116839e-01,-7.053318339749239385e-01,-5.757235185592435300e-01,-5.152343324152752757e-01,-5.034533001598902047e-01,-5.190907553769648075e-01,-5.463217173091834411e-01,-5.649990212405100465e-01,-5.647154831676743925e-01,-5.433017551549710333e-01,-5.059860671681235544e-01,-4.522798084653913975e-01,-3.909885061439126730e-01,-3.336326661519706249e-01,-2.759729346726089716e-01,-2.368926171911880374e-01,-1.963205933570861816e-01,-1.536655323579907417e-01,-1.132358326576650143e-01,-8.491221023723483086e-02,-6.326320953667163849e-02,-4.995621042326092720e-02,-4.546672990545630455e-02,-5.609398195520043373e-02,-9.339043125510215759e-02,-1.831168532371520996e-01,-3.386062599020078778e-01,-5.465297806367743760e-01,-7.757405069423839450e-01,-1.094970572950842325e+00,-1.301187407232646365e+00,-1.635882187227252871e+00,-2.057109765737550333e+00,-1.158978584251599386e+00
-6.937829340458847582e-01,-1.208426053170114756e+00,-7.626840319717302918e-01,-1.779026316944509745e-01,-8.138317381963133812e-03,1.206377218477427959e-01,1.816688352264463902e-01,2.197084464132785797e-01,2.416995922103524208e-01,2.541393749343114905e-01,2.529511433094739914e-01,2.511596866606851108e-01,2.484958455897867680e-01,2.501715892431093380e-01,2.482602728850906715e-01,2.520616019028238952e-01,2.519739600829780102e-01,2.550890308339148760e-01,2.596636389498598874e-01,2.651487501570954919e-01,2.679738183505833149e-01,2.705680228245910257e-01,2.763727582641877234e-01,2.788646142871584743e-01,2.813110246206633747e-01,2.840829291380941868e-01,2.852002770523540676e-01,2.843826989410445094e-01,2.858268071431666613e-01,2.870953080710023642e-01,2.874868372455239296e-01,2.859401740133762360e-01,2.850027446402236819e-01,2.821038299007341266e-01,2.816601793747395277e-01,2.818137723952531815e-01,2.764527269173413515e-01,2.625428042956627905e-01,2.415977506898343563e-01,2.111269156448543072e-01,1.648566355579532683e-01,1.280216907616704702e-03,-3.197529892204329371e-01,-9.703568328404799104e-01,-1.912010386644396931e+00,-2.920322665886487812e+00,-2.882507837377488613e+00,-8.941236422542715445e-01,3.034334703464992344e+00,6.718243533861823380e+00,9.566221534798387438e+00,1.209794305788818747e+01,1.627381665492430329e+01,2.060739535326138139e+01,2.387298839259892702e+01,2.443522883439436555e+01,2.151626057986868545e+01,1.601559304061811417e+01,9.448254384100437164e+00,3.762868708407040685e+00,6.010467060841619968e-01,-5.420111631974577904e-02,-7.260100333951413631e-03,3.531033230246976018e-01,5.199539314489811659e-01,5.331157651962712407e-01,4.397058794274926186e-01,3.289417168125510216e-01,2.497456548735499382e-01,1.918698741646949202e-01,1.547691876185126603e-01,1.348510861862450838e-01,1.247663842514157295e-01,1.201590740820392966e-01,1.207097511505708098e-01,1.254154494963586330e-01,1.311046275077387691e-01,1.328014243626967072e-01,1.267320510232821107e-01,1.071890345774590969e-01,9.667608549352735281e-02,7.470497640315443277e-02,7.155151804909110069e-03,-1.502863744972273707e-01,-2.434977324446663260e-01,-2.892863429733552039e-01,-1.447710786887910217e-01,-1.705032983445562422e-01,-1.671331333491252735e-01,-8.616883747745305300e-01,-2.359497480880236253e+00,-4.498168778809485957e+00,-6.462333658811985515e+00,-7.362859555811155587e+00,-6.316902673919685185e+00,-3.408912379760295153e+00,2.010551090352237225e+00,8.098022048245184124e+00,1.375566789379809052e+01,1.819323617150075734e+01,2.069274519593454897e+01,2.154799993115011603e+01,2.083904210408218205e+01,1.933832685439847410e+01,1.721314786747097969e+01,1.466432719724252820e+01,1.181563136097975075e+01,8.215197429126419593e+00,4.530716271954588592e+00,1.725672286469489336e+00,-7.213093120371922851e-01,-2.054067707973445067e+00,-2.631393437157385051e+00,-2.726671074808109552e+00,-2.483576236409135163e+00,-2.058305853744968772e+00,-1.572936866432428360e+00,-1.101056018938834313e+00,-6.986659170361235738e-01,-3.828262070892378688e-01,-1.741410328540951014e-01,-1.376601017545908689e-02,1.131152143716462888e-01,2.005593325011432171e-01,2.281387392431497574e-01,2.539405166753567755e-01,2.797334321076050401e-01,3.170049139298498631e-01,3.422442757400858682e-01,3.512231416025315411e-01,3.581563735788222402e-01,3.628131090663373470e-01,3.543742927722632885e-01,3.402138771489262581e-01,3.283562487922608852e-01,3.061569682322442532e-01,2.712079146876931190e-01,2.383890268392860889e-01,2.154320001718588173e-01,1.952296365052461624e-01,1.803071697941049933e-01,1.672391277970746160e-01,-1.703196376911364496e-02,-2.323250144254416227e-01,-5.846495341975241899e-01,-1.007222780783195049e+00,-1.360836465319152921e+00,-1.760067576135043055e+00,-2.407996599853504449e+00,-1.539243318984517828e+00
6.074158857110887766e+00,8.905118176830001175e+00,7.944204453844577074e+00,5.808938845759257674e+00,3.084511211200151592e+00,1.116277815261128126e+00,2.199925011955201626e-01,6.459036539308726788e-02,4.488180115586146712e-01,1.525179485441185534e+00,3.367327982094138861e+00,5.535705691785551608e+00,7.951008009375073016e+00,1.023025865061208606e+01,1.206316775230152416e+01,1.339730956102721393e+01,1.415460858109872788e+01,1.428572759081725962e+01,1.405760347856266890e+01,1.351668955292552710e+01,1.253528973297215998e+01,1.107932954342686571e+01,9.130200477782636881e+00,6.866127159912139177e+00,4.877098193382209956e+00,3.371477809036150575e+00,2.519889048766344786e+00,2.245983588800299913e+00,2.348457045474788174e+00,2.680734643799951300e+00,3.125193785526789725e+00,3.445036852092016488e+00,3.480070240198983811e+00,3.084859248774591833e+00,2.296265481039881706e+00,1.285765273147262633e+00,2.032144360764505109e-01,-2.389837711518339347e+00,-5.704830951755866408e+00,-8.412587978087685769e+00,-9.542246004974003881e+00,-8.924823804918560199e+00,-6.862847436335869133e+00,-4.132988426572410390e+00,-1.307985465005913284e+00,6.528515855461591855e-01,1.556037945578282233e+00,1.847623472960549407e+00,1.929100937442854047e+00,1.914457785082049668e+00,1.899568903027102351e+00,1.901189036201685667e+00,1.904183644568547606e+00,1.904437441960908473e+00,1.914274454247788526e+00,1.922206376155372709e+00,1.926190291531383991e+00,1.934081212151795626e+00,1.942887506913393736e+00,1.944108080584555864e+00,1.943310414906591177e+00,1.945691988046746701e+00,1.939164839175646193e+00,1.940061963090556674e+00,1.938941978383809328e+00,1.939408636651933193e+00,1.933088012505322695e+00,1.927718033548444510e+00,1.921908263815566897e+00,1.925555702298879623e+00,1.935477199032902718e+00,1.939803385641425848e+00,1.947942102327942848e+00,1.950777195306727663e+00,1.949633250944316387e+00,1.940016312524676323e+00,1.930942851118743420e+00,1.918899443699046969e+00,1.907494753366336226e+00,1.884873040020465851e+00,1.863900399301201105e+00,1.845009144657524303e+00,1.818406476522795856e+00,1.769759508781135082e+00,1.753597272327169776e+00,1.693125788122415543e+00,1.944243434700183570e+00,2.753236211778130382e+00,4.536563880159519613e+00,7.146182568510994315e+00,9.993284267256967723e+00,1.317880240129306912e+01,1.640507412212900817e+01,1.902550752907700371e+01,2.044491813529748470e+01,2.090659104974474758e+01,2.048294811061350629e+01,1.922848059248644859e+01,1.737906455957272556e+01,1.495090286992490292e+01,1.209857293590903282e+01,9.153843381442129612e+00,6.590226735337637365e+00,4.121913094495539553e+00,2.520570970606058836e+00,9.113930053426884115e-01,-3.566399835326592438e-01,-7.999698231506044976e-01,-9.301060537109151483e-01,-1.016245384671492502e+00,-1.054537337804504205e+00,-1.068707234720932320e+00,-1.056979634566232562e+00,-9.683382730581797659e-01,-5.427431166972382925e-01,6.406750555615872145e-01,2.534923302009701729e+00,4.788803561707027256e+00,7.143332798732444644e+00,9.411783421557629481e+00,1.145268825185485184e+01,1.307991316376137547e+01,1.397309124447929207e+01,1.421051470458041877e+01,1.380358712666202337e+01,1.280697890697047114e+01,1.114108472480438650e+01,8.896073857438750565e+00,6.302754043601453304e+00,3.615586691303178668e+00,1.227516068262048066e+00,-5.522382154595106840e-02,-2.067904239520430565e-01,-1.447816037107259035e-01,-2.513349102810025215e-02,8.645068225450813770e-02,1.555433808825910091e-01,2.000864600995555520e-01,2.473413002444431186e-01,3.590597200964111835e-01,7.187800846586469561e-01,1.619151242193765938e+00,3.296376146026887000e+00,5.715282768360339105e+00,8.163075890392065048e+00,1.006295287590182852e+01,1.145993836456182180e+01,1.140582532086409628e+01,1.046300741456798278e+01,6.874367860553320497e+00
-3.996472524566343054e+00,-5.642682500649243593e+00,-5.139692951459437609e+00,-3.782402887707576156e+00,-1.788470330298878253e+00,-5.976995908422395587e-01,-3.456134628504514694e-01,-3.778881316538900137e-01,-5.109636334236711264e-01,-7.603684786590747535e-01,-1.001886167447082698e+00,-8.169652618234977126e-01,2.584343239432200789e-01,2.666263731720391661e+00,6.653699941551167285e+00,1.104818507251911797e+01,1.542005181562853977e+01,1.947659502644091845e+01,2.287836614297702909e+01,2.532572814462764654e+01,2.710836873040534556e+01,2.795498208375647664e+01,2.847373683634214103e+01,2.884590303362347186e+01,2.956986303813755512e+01,3.057719561504200101e+01,3.112823319109156728e+01,3.048506677802652121e+01,2.803264263691380620e+01,2.372763722896343097e+01,1.807040340453386307e+01,1.180027349595911801e+01,6.258683266816660762e+00,2.244409873150289059e+00,3.565451966715045273e-01,-3.786636497825384140e-01,-5.360512868501245975e-01,-5.886836438439786434e-01,-5.930063971318304539e-01,-5.973426145501434803e-01,-6.108052004128694534e-01,-6.061786296777427197e-01,-6.141715110279619694e-01,-6.278317971155047417e-01,-6.351106395013630390e-01,-6.378060611896216869e-01,-6.367042809724807739e-01,-6.270731007680296898e-01,-6.188284610398113728e-01,-6.048078271560370922e-01,-5.973341572098433971e-01,-5.956387137994170189e-01,-5.832637674175202847e-01,-5.889821648597717285e-01,-5.869507305324077606e-01,-5.844786441884934902e-01,-5.838030453014653176e-01,-5.715370769612491131e-01,-5.567145664826966822e-01,-5.330823592375963926e-01,-5.208112248219549656e-01,-5.085275818073569098e-01,-5.030510465148836374e-01,-5.065635205828584731e-01,-5.081631564535200596e-01,-5.121358846081420779e-01,-5.053412812994793057e-01,-5.066319123143330216e-01,-4.996253784047439694e-01,-4.961991539457812905e-01,-4.894001437351107597e-01,-4.871219862252473831e-01,-4.832068668911233544e-01,-4.781067012809216976e-01,-4.746174046304076910e-01,-4.649276441778056324e-01,-4.572053888114169240e-01,-4.458494663704186678e-01,-4.261010230984538794e-01,-4.171680734725669026e-01,-4.060258893296122551e-01,-3.922356405819300562e-01,-3.739158465759828687e-01,-3.501631217077374458e-01,-3.071792949922382832e-01,-2.561866730684414506e-01,-1.845168073195964098e-01,-8.467501588165760040e-02,2.337992191314697266e-02,1.859420237015001476e-01,3.453560256748460233e-01,5.261050936533138156e-01,7.717203525826334953e-01,1.044796138827223331e+00,1.423053071310278028e+00,2.546927064482588321e+00,4.798444506101077422e+00,7.926814696169458330e+00,1.110358900250867009e+01,1.400308886705897748e+01,1.735370082221925259e+01,2.109047363360878080e+01,2.480416529579088092e+01,2.762069493671879172e+01,2.914169778418727219e+01,2.959303022176027298e+01,2.902651709259953350e+01,2.710677979694446549e+01,2.366436327714473009e+01,1.878716166992671788e+01,1.243169027846306562e+01,5.663661506667267531e+00,-1.135898218490183353e-01,-3.407235251426754985e+00,-3.807404229184612632e+00,-2.340077204047702253e+00,-6.825171809177845716e-01,-4.459421083593042567e-01,-8.011818376835435629e-01,-1.242827833630144596e+00,-1.656994999852031469e+00,-1.900994039911893196e+00,-1.917939818784361705e+00,-1.763556829377193935e+00,-1.516058354492997751e+00,-1.280496407416649163e+00,-1.120263232631259598e+00,-1.014553512562997639e+00,-9.498045042855665088e-01,-9.197752790641970932e-01,-9.173669808078557253e-01,-9.244538551429286599e-01,-9.381543895869981498e-01,-9.483800092530145776e-01,-9.580691240262240171e-01,-9.546403189888224006e-01,-9.501025542849674821e-01,-9.451147096697241068e-01,-9.830385618843138218e-01,-1.149378453628742136e+00,-1.613254254036291968e+00,-2.749446433503180742e+00,-4.593521445058286190e+00,-7.013260086532682180e+00,-9.482545009639579803e+00,-1.186176520326262107e+01,-1.412152735900599509e+01,-1.487665005784947425e+01,-1.482398735068272799e+01,-1.056377080921083689e+01
3.303642950457287952e+00,6.485611236246768385e+00,5.819001470808871090e+00,4.503376287495484576e+00,2.293256706325337291e+00,8.255623444929369725e-01,-6.641300185583531857e-02,-5.495539508992806077e-01,-7.438463257858529687e-01,-8.319011775238323025e-01,-8.876041714102029800e-01,-9.260838880436494946e-01,-9.569296872941777110e-01,-9.783827888895757496e-01,-9.924527930561453104e-01,-9.990210620453581214e-01,-9.761735426727682352e-01,-9.293335496913641691e-01,-8.856584640452638268e-01,-8.486400786787271500e-01,-8.149227213580161333e-01,-7.913738882343750447e-01,-7.746840254985727370e-01,-7.603961559361778200e-01,-7.205808036960661411e-01,-6.601853449537884444e-01,-6.017663487582467496e-01,-5.114305687602609396e-01,-4.136493910336866975e-01,-3.250794302730355412e-01,-2.538475999608635902e-01,-2.462131417123600841e-01,-3.071138355880975723e-01,-3.905685570498462766e-01,-4.864003729890100658e-01,-5.659719730756478384e-01,-5.541553497314453125e-01,-3.770732895936816931e-01,-8.302914415253326297e-03,8.812336301052710041e-01,2.468285037757596001e+00,3.671971149393357337e+00,3.643022420365014113e+00,2.200044795283247367e+00,8.677824746700935066e-02,-2.472686980952857994e+00,-4.190096187725430354e+00,-4.661140512413112447e+00,-5.017135944566689432e+00,-5.868753516449942254e+00,-7.291565844498109072e+00,-8.206221951346378773e+00,-7.572858790750615299e+00,-5.444937077234499156e+00,-3.330828973706957186e+00,-1.803912564879283309e+00,-1.155398287548450753e+00,-1.086264724799548276e+00,-9.527342515648342669e-01,-7.144058033154578879e-01,-5.069073484628461301e-01,-3.449553868485963903e-01,-2.554294427609420381e-01,-2.023746289269183762e-01,-1.586060333065688610e-01,-1.273114704163162969e-01,-1.045476807703380473e-01,-8.787132647557882592e-02,-7.517392883892171085e-02,-7.330686283967224881e-02,-7.678550816490314901e-02,-8.074646075692726299e-02,-8.810093703505117446e-02,-9.699273930164054036e-02,-9.004826793534448370e-02,-8.667511007661232725e-02,-8.142597875848878175e-02,-9.319551183580188081e-02,-1.211901974602369592e-01,-1.226328947086585686e-01,-7.125795163301518187e-02,5.039283321821130812e-02,1.618912032572552562e-01,3.080735280527733266e-01,4.734805708285421133e-01,6.691514214035123587e-01,9.634585185558535159e-01,1.353292460378725082e+00,2.566492343758000061e+00,4.336108202929608524e+00,6.526577470416668802e+00,8.861573662608861923e+00,1.147869153425563127e+01,1.429533585999161005e+01,1.708327772805932909e+01,1.908224131678616686e+01,2.004903446696698666e+01,2.018724357441533357e+01,1.936652292372309603e+01,1.782289628870785236e+01,1.562897546717431396e+01,1.288899322226643562e+01,9.830770008731633425e+00,7.065991597715765238e+00,4.410744351218454540e+00,2.349098435261112172e+00,8.123296508565545082e-01,-2.213964853435754776e-01,-1.718456133967265487e-01,2.058712380239740014e-01,6.250269010706688277e-01,1.051112837390974164e+00,1.223507813178002834e+00,1.078404681291431189e+00,6.814829031936824322e-01,2.364591126679442823e-01,-8.769119036151096225e-02,1.928271639626473188e-01,1.978464528045151383e+00,4.207144970074295998e+00,5.699422157369554043e+00,6.285134295700117946e+00,5.943294224329292774e+00,4.915546627074945718e+00,3.245902497554197907e+00,1.380168624222278595e+00,-2.341973738512024283e-01,-7.535355181316845119e-01,-7.571015858557075262e-01,-7.393501720507629216e-01,-7.176217536907643080e-01,-7.007889624219387770e-01,-7.088170794304460287e-01,-7.401672045234590769e-01,-7.888509823678759858e-01,-8.389044632203876972e-01,-8.836193942697718740e-01,-9.145229659625329077e-01,-9.230643305345438421e-01,-9.138092642824631184e-01,-8.754575428902171552e-01,-7.728707232745364308e-01,-5.861881160526536405e-01,-2.547852898132987320e-01,1.495814694644650444e-01,5.068632797338068485e-01,5.979940739925950766e-01,6.621778901899233460e-01,6.176793296181131154e-01,4.588980119078769349e-01
1.614822888514026999e+00,3.745375395752489567e+00,2.991246250865515321e+00,1.904708385933190584e+00,1.404652339406311512e-01,-4.364135130308568478e-01,-6.693147879559546709e-01,-7.438680698396638036e-01,-8.001269215019419789e-01,-8.163393206777982414e-01,-8.072221187467221171e-01,-7.894055300857871771e-01,-7.702700212830677629e-01,-7.516215597279369831e-01,-7.359666165430098772e-01,-7.243312636855989695e-01,-7.141886655008420348e-01,-7.122608204372227192e-01,-7.122280087060062215e-01,-7.126885880716145039e-01,-7.123995181173086166e-01,-7.035412956611253321e-01,-6.778532768366858363e-01,-6.249304156808648258e-01,-5.260472340742126107e-01,-3.954672998661408201e-01,-1.264429852599278092e-01,2.647771023912355304e-01,7.952686034841462970e-01,1.366460875928169116e+00,1.775711944559589028e+00,1.970954230986535549e+00,1.980045082163996994e+00,1.805270460376050323e+00,1.497316247667185962e+00,1.240463723894208670e+00,9.733247435651719570e-01,7.616022243164479733e-01,7.670050486922264099e-01,8.636944039026275277e-01,1.012040020665153861e+00,1.216733516659587622e+00,1.463041624170728028e+00,1.764596641995012760e+00,1.903225060756085441e+00,1.765714153531007469e+00,1.246516710321884602e+00,4.773004095768555999e-01,-1.905198985386959976e-01,-2.495454344301833771e+00,-6.396834115643287078e+00,-9.899733296129852533e+00,-1.120310493366559967e+01,-1.003178098925855011e+01,-6.375540408509550616e+00,-2.758631481381598860e+00,-9.904872101615183055e-01,-5.394930648035369813e-01,-5.408759265556000173e-01,-7.142069894471205771e-01,-8.581848310859641060e-01,-8.959827133076032624e-01,-8.607693772210041061e-01,-8.233263578877085820e-01,-7.865178725041914731e-01,-7.605530346627347171e-01,-7.387033221457386389e-01,-7.173471507558133453e-01,-7.189420160430017859e-01,-7.160822905279928818e-01,-7.278509978059446439e-01,-7.391746846406022087e-01,-7.592763723368989304e-01,-7.743485870159929618e-01,-7.874385654722573236e-01,-7.872350738180102780e-01,-7.859231304610148072e-01,-7.791089292004471645e-01,-7.999146969959838316e-01,-8.363549477944616228e-01,-8.036416963441297412e-01,-7.402334130456438288e-01,-6.511617691994615598e-01,-2.782367854379117489e-01,7.731408125255256891e-01,3.506648366921581328e+00,7.034727144287899137e+00,1.052477879356592894e+01,1.401425707503221929e+01,1.717819392308592796e+01,1.984224995400290936e+01,2.154297158883127850e+01,2.207844384486315903e+01,2.192348996383225312e+01,2.090863020011602202e+01,1.937937255192082375e+01,1.717615857580676675e+01,1.437285955436527729e+01,1.104744623787701130e+01,7.437796432292088866e+00,3.926208951219450682e+00,1.136979850456555141e+00,-1.270301661570556462e-01,-2.878012311412021518e-01,-2.925376105122268200e-01,-2.427473012357950211e-01,-1.978258942253887653e-01,-1.615321638528257608e-01,-1.730389988515526056e-01,-2.395016151713207364e-01,-3.864569581637624651e-01,-3.875482209114124998e-01,8.824338488047942519e-01,3.452000445802696049e+00,6.213999440144107211e+00,8.428241525776684284e+00,9.950494183518458158e+00,1.066743889637291431e+01,1.059939049324020743e+01,9.749864959856495261e+00,8.221722773509100080e+00,6.163156503665959463e+00,3.898765938152791932e+00,1.719388561672531068e+00,1.022807802073657513e-01,-4.852655326249077916e-01,-6.069819749973248690e-01,-5.838080458343029022e-01,-5.603832511696964502e-01,-5.492702848860062659e-01,-5.521913689153734595e-01,-5.697559799300506711e-01,-5.971060133306309581e-01,-6.266216676449403167e-01,-6.498841503635048866e-01,-6.680023993831127882e-01,-6.832164902007207274e-01,-6.915509268874302506e-01,-6.900449540698900819e-01,-6.695422230986878276e-01,-6.057145429367665201e-01,-4.715674429753562436e-01,-9.494199967593885958e-02,5.366171705245506018e-01,1.608970899222185835e+00,2.368579652043990791e+00,2.563848392281215638e+00,2.323958402615971863e+00,1.880594354632194154e+00,1.235552954261947889e+00
2.690351335797458887e+00,2.818693394490765058e+00,1.108139890071470290e+00,3.575684046809328720e-01,1.955124180763959885e+00,2.775318362284451723e+00,2.703361098014283925e+00,1.788186648256669287e+00,6.188185419596266001e-01,-4.137180552643258125e-01,-7.344837634882424027e-01,-7.425739758909912780e-01,-6.429801142221549526e-01,-5.137155807460658252e-01,-3.580898850923404098e-01,3.201035480014979839e-02,7.945550975564401597e-01,1.950881825192482211e+00,2.835355033806990832e+00,3.235843229980673641e+00,3.301345544925425202e+00,3.104593684598512482e+00,2.770224351726938039e+00,2.454482281347736716e+00,2.232156870129983872e+00,2.189361420052591711e+00,2.245638777036219835e+00,2.403378674353007227e+00,2.643341620248975232e+00,2.967288965999614447e+00,3.288058023201301694e+00,3.509451826510485262e+00,3.515037351855426095e+00,3.111874005175195634e+00,2.402849778474774212e+00,1.551865388173609972e+00,6.858515985368285328e-01,-1.292605908936820924e+00,-4.203318309882888570e+00,-7.096388884820044041e+00,-8.820572557189734653e+00,-8.751015268819173798e+00,-7.397010736225638539e+00,-5.150618554849643260e+00,-2.463130390664446168e+00,-2.133357326601981185e-01,1.192869551781768678e+00,1.741771359752462445e+00,1.909551996272057295e+00,1.953451317152939737e+00,1.945904233725741506e+00,1.941208156407810748e+00,1.923033157072495669e+00,1.908050261437892914e+00,1.908943309565074742e+00,1.911436860915273428e+00,1.926305598535691388e+00,1.932336593512445688e+00,1.939618729986250401e+00,1.938141873572021723e+00,1.939561436418443918e+00,1.926833456382155418e+00,1.924898163415491581e+00,1.925856018438935280e+00,1.936558857094496489e+00,1.941659731615800411e+00,1.958049267996102571e+00,1.968661106890067458e+00,1.980715125799179077e+00,1.983149654697626829e+00,1.985988889820873737e+00,1.981421126518398523e+00,1.977035568328574300e+00,1.978520218515768647e+00,1.972232037223875523e+00,1.967218454927206039e+00,1.959860628470778465e+00,1.953060617670416832e+00,1.944771777256391943e+00,1.943295313627459109e+00,1.932797613320872188e+00,1.913828407705295831e+00,1.868995146360248327e+00,1.821959154680371284e+00,1.769188829232007265e+00,1.710747774690389633e+00,1.517646171618252993e+00,1.500762746523832902e+00,1.771845760231371969e+00,2.896474993845913559e+00,4.610742242541164160e+00,6.586765461368486285e+00,8.730748954461887479e+00,1.089015786885283887e+01,1.249074945406755432e+01,1.242243976343888789e+01,1.085333807903225534e+01,7.685519082646351308e+00,2.496652273466679617e+00,-2.213701321928965626e+00,-5.759811244326556334e+00,-7.008021540987101616e+00,-6.292372520812932635e+00,-3.590197377014192170e+00,6.736273607083944626e-01,4.952424103394150734e+00,6.720710120163857937e+00,6.121769379533361644e+00,5.114753823727369308e+00,4.030903314007446170e+00,3.203733996488153934e+00,2.842000682721845806e+00,2.960352416383102536e+00,3.451369678019545972e+00,4.236775355762802064e+00,5.256789543083868921e+00,6.390456586610525846e+00,7.659555545425973833e+00,9.048317782115191221e+00,1.041248613968491554e+01,1.163009198009967804e+01,1.242721062153577805e+01,1.261181158432736993e+01,1.211479564290493727e+01,1.097602988826110959e+01,9.125533339800313115e+00,6.720773078268393874e+00,4.086501843063160777e+00,1.711799502139911056e+00,1.699589581694453955e-01,-1.126382162328809500e-01,7.970146485604345798e-03,2.373069855020730756e-01,4.761018443969078362e-01,6.515033382311230525e-01,7.620765374849725049e-01,8.085655944887548685e-01,7.828864965704269707e-01,7.578600744600407779e-01,8.489048962364904583e-01,1.269251758698374033e+00,2.297976824222132564e+00,4.146623426582664251e+00,6.776201680186204612e+00,9.378324814373627305e+00,1.140024236093540821e+01,1.287689708183461335e+01,1.302380031206257627e+01,1.217482601793017238e+01,7.997751090675592422e+00
-3.946830155357019976e+00,-5.561104346998035908e+00,-5.034993963781744242e+00,-3.668693577754311264e+00,-1.714554473583120853e+00,-5.271380965714342892e-01,-2.288591104152146727e-01,-1.864821996423415840e-01,-2.202579584554769099e-01,-3.010848084522876889e-01,-3.792569865036057308e-01,-4.450741290966107044e-01,-4.948929245583713055e-01,-5.250521514099091291e-01,-5.461989031173288822e-01,-5.542256591252225917e-01,-6.145290925924200565e-01,-6.715546491323038936e-01,-5.211798201198689640e-01,1.647462825640104711e-01,1.948107374545998027e+00,5.662332241045078263e+00,1.008406814304180443e+01,1.472951782355085015e+01,1.914978117265854962e+01,2.324784553085919470e+01,2.633866598573513329e+01,2.855179481441155076e+01,2.961582804610952735e+01,3.021968492283485830e+01,3.072954531240975484e+01,3.171997563610784709e+01,3.304755153739824891e+01,3.416676062910119072e+01,3.398766411701217294e+01,3.162248061527498066e+01,2.685572269232943654e+01,2.027327994280494750e+01,1.280942609091289341e+01,6.380657088826410472e+00,1.840521402540616691e+00,-3.205796258553164080e-01,-8.353927520802244544e-01,-5.524311440458404832e-01,1.136439988767961040e-01,3.756952976109459996e-01,5.244961606804281473e-01,4.699210545950336382e-01,3.194934651255607605e-01,1.404969319701194763e-01,4.758073668926954269e-02,-1.835721172392368317e-02,-9.261353081092238426e-02,-1.799716852838173509e-01,-2.397201042622327805e-01,-2.663353213574737310e-01,-2.916980204172432423e-01,-2.609132691286504269e-01,-2.519099714700132608e-01,-2.471407437051311717e-01,-2.648058850318193436e-01,-3.656424959190189838e-01,-3.570569027215242386e-01,-3.522012999746948481e-01,-3.019407540559768677e-01,-2.739780223928391933e-01,-2.581205586902797222e-01,-2.666103416122496128e-01,-1.934128049761056900e-01,-1.712029445916414261e-01,-9.362597239669412374e-02,7.584379869513213634e-02,1.238050730898976326e-01,1.765673644840717316e-01,1.171388360671699047e-01,6.117832753807306290e-02,-1.619913103058934212e-02,-1.026089354418218136e-01,-1.045003514736890793e-01,-9.993375284830108285e-02,-6.622744386550039053e-02,6.637998623773455620e-03,1.320175213877519127e-01,2.288323023240081966e-01,3.210127342026680708e-01,3.893899212707765400e-01,4.053641872014850378e-01,3.191311033442616463e-01,1.837446529243607074e-01,1.546121933497488499e-01,1.335239717736840248e-01,9.400788368657231331e-02,1.600060937926173210e-02,-7.326756557449698448e-02,-2.727697406662628055e-01,-3.871690854430198669e-01,-3.069483507424592972e-01,-6.428041947947349399e-02,1.787616150104440749e-01,4.109977907501161098e-01,5.133837864268571138e-01,5.428675097355153412e-01,5.116548000951297581e-01,6.317838938775821589e-01,1.122321809409186244e+00,2.350005763815715909e+00,5.631437917982111685e+00,1.059223698411369696e+01,1.581069551710970700e+01,2.047954814706463367e+01,2.505553395766764879e+01,3.063103570113889873e+01,3.609805100690573454e+01,3.904307486262405291e+01,4.013405822031199932e+01,3.973331089224666357e+01,3.862989694671705365e+01,3.632387676346115768e+01,3.312152673071250319e+01,2.884191612713038921e+01,2.404029393102973700e+01,1.900598992791492492e+01,1.318662314675748348e+01,6.745113954821135849e+00,4.797706389799714088e-01,-3.920812114447471686e+00,-6.111885535356123000e+00,-6.603422880696598440e+00,-6.354573313874425367e+00,-5.479637465439736843e+00,-4.155171292950399220e+00,-2.749270060099661350e+00,-1.676871030729671475e+00,-1.098481771419756114e+00,-7.638696634967345744e-01,-5.802685134112834930e-01,-5.142520322697237134e-01,-5.318911880021914840e-01,-6.800155077726230957e-01,-9.764245732512790710e-01,-1.560229807451833040e+00,-2.831413526611868292e+00,-4.957935561891645193e+00,-7.547337738855276257e+00,-1.021612897259183228e+01,-1.265433765691705048e+01,-1.496002741985284956e+01,-1.573461957515064569e+01,-1.595453679574711714e+01,-1.129716488774283789e+01
