3.790866133058443666e-01,1.584010685328394175e-01,7.151698681991547346e-02,3.017490264028310776e-02,4.571754834614694118e-03,-6.660710321739315987e-02,-1.222878041444346309e-01,-1.806168803886976093e-01,-2.213810225657653064e-01,-2.460906691849231720e-01,-2.623159871436655521e-01,-2.821706430631820695e-01,-3.251499207690358162e-01,-3.685791119933128357e-01,-4.105255962349474430e-01,-4.629366085864603519e-01,-4.915163423866033554e-01,-5.115957865491509438e-01,-5.199931897222995758e-01,-5.302996272221207619e-01,-5.470793545246124268e-01,-5.541693614795804024e-01,-5.502141695469617844e-01,-5.451904525980353355e-01,-5.269435532391071320e-01,-5.059695951640605927e-01,-4.886422092095017433e-01,-4.780389321967959404e-01,-4.766595289111137390e-01,-4.708685260266065598e-01,-4.716008054092526436e-01,-4.649821226485073566e-01,-4.464276642538607121e-01,-4.137588469311594963e-01,-3.582283519208431244e-01,-3.081452180631458759e-01,-2.366717073600739241e-01,-1.359306268859654665e-01,-4.669717419892549515e-02,4.785060510039329529e-02,1.389023419469594955e-01,1.949969604611396790e-01,2.481550946249626577e-01,2.697361782484222203e-01,2.541532388422638178e-01,2.188819893635809422e-01,2.103560216346522793e-01,2.220415971241891384e-01,2.128395703621208668e-01,1.654021632857620716e-01,1.130846044979989529e-01,2.752695346134714782e-02,-8.206002414226531982e-02,-1.834289734251797199e-01,-2.532363040372729301e-01,-2.688281461596488953e-01,-2.446516797936055809e-01,-1.619196413084864616e-01,-4.767153784632682800e-02,1.718114595860242844e-03,-4.466781386145157740e-02,-9.409640263766050339e-02,-1.674759606830775738e-01,-3.220611046999692917e-01,-4.734991234727203846e-01,-5.257212617434561253e-01,-5.823104437440633774e-01,-5.124167550820857286e-01,-4.559081792831420898e-01,-3.639605997595936060e-01,-1.613606261089444160e-01,6.358105712570250034e-02,1.941504684509709477e-01,1.914973627717699856e-01,1.490009564440697432e-01,1.723137253429740667e-01,1.728912834078073502e-01,2.138984969351440668e-01,2.171187587082386017e-01,2.159468359313905239e-01,2.398280871566385031e-01,2.333185515744844452e-01,2.079508746392093599e-01,1.688826828358287457e-01,1.640971563756465912e-01,1.658702241256833076e-01,1.510257112677209079e-01,8.450890716630965471e-02,1.233070520975161344e-01,2.381259185494855046e-01,2.537603618111461401e-01,2.505001272074878216e-01,2.342603085562586784e-01,2.234523482620716095e-01,2.339264105539768934e-01,2.208344896789640188e-01,2.526149740442633629e-01,2.514353462029248476e-01,2.423024331219494343e-01,2.388191224308684468e-01,2.007743804715573788e-01,1.904645735630765557e-01,1.876072155428119004e-01,1.687366069527342916e-01,1.496488985139876604e-01,1.161159151815809309e-01,9.401430975412949920e-02,5.194290570216253400e-02,-1.188558293506503105e-02,-3.333912743255496025e-02,-4.539756663143634796e-02,-9.789987280964851379e-02,-1.242320667952299118e-01,-1.672749508870765567e-01,-2.660993221215903759e-01,-4.060203818153240718e-01,-4.800801926176063716e-01,-5.318656190065667033e-01,-5.441957538423594087e-01,-4.682701161946170032e-01,-2.818210407567676157e-01,-1.692030270351096988e-01,2.709913300350308418e-02,1.750855722930282354e-01,1.528768591524567455e-01,1.476696953759528697e-01,1.205023385118693113e-01,8.970071841031312943e-02,7.582491217181086540e-02,6.650085002183914185e-02,7.400312274694442749e-02,9.347235749009996653e-02,1.245569895254448056e-01,1.495547543745487928e-01,1.404715989483520389e-01,1.335529506322927773e-01,1.347249357786495239e-01,8.289230085210874677e-02,1.944278250448405743e-03,-9.581588918808847666e-02,-2.282819196116179228e-01,-3.339482699229847640e-01,-2.631487045728135854e-01,1.200640641647623852e+00,4.342316423077136278e+00,8.395044785691425204e+00,1.265165716223418713e+01,1.606271899235434830e+01,1.876455592364072800e+01,2.057638702587428270e+01,2.245447153516579419e+01,2.356834111269563437e+01,2.421623719390481710e+01,2.479653823818080127e+01,2.517225891491398215e+01,2.672656441302387975e+01,2.787737373448908329e+01,2.662825764343142509e+01,2.509340908424928784e+01,2.373899954115040600e+01,2.238740751822479069e+01,1.979670857277233154e+01,1.568531842855736613e+01,1.191304500913247466e+01,8.301064983010292053e+00,4.690887260367162526e+00,1.732626918412279338e+00,5.160100802604574710e-01,2.702360716648399830e-01,1.700932797975838184e-01,7.672937773168087006e-02,6.242540443781763315e-02,1.169393381569534540e-01,1.652863154886290431e-01,1.867920844815671444e-01,1.630037706345319748e-01,1.182086541084572673e-01,7.327591053035575897e-02,1.303642382845282555e-02,-3.283870965242385864e-02,-6.400249293074011803e-02,-5.456452793441712856e-02,1.440885337069630623e-02,7.942302990704774857e-02,1.162595651985611767e-01,1.246269418625161052e-01,1.101992335170507431e-01,6.396331964060664177e-02,-6.354713160544633865e-02,-2.093398164724931121e-01,-2.500784019357524812e-01,-2.558758145896717906e-01,3.466605546418577433e-02,4.994427753990748897e-01,8.844864878337830305e-01,1.567701032327022403e+00,1.674993698433354439e+00,-1.024895896829548292e+00,-6.711614491625368828e+00,-1.297586134655284695e+01,-1.886495668219868094e+01,-2.253432241454720497e+01,-2.341391456045676023e+01,-2.236097120441263542e+01,-2.010702061734627932e+01,-1.719050911982776597e+01,-1.154664033860899508e+01,-1.127188374928664416e+00,1.008073222055099905e+01,1.800891917792614549e+01,2.329561187533545308e+01,2.481255648510705214e+01,2.321484349451930029e+01,2.176755665721429978e+01,2.087661494727944955e+01,2.103784003542386927e+01,2.199119982420234010e+01,2.418086228901665891e+01,2.777212802786380053e+01,3.317754530673846602e+01,3.692179246143496130e+01,3.655710293725132942e+01,3.361255586799234152e+01,3.036555609293282032e+01,2.781637345999479294e+01,2.571101368032395840e+01,2.461682975850999355e+01,2.472531112562865019e+01,2.559087287099100649e+01,2.625856411457061768e+01,2.643855397659353912e+01,2.850672745855990797e+01,2.979540095850825310e+01,2.873842267505824566e+01,2.567182801337912679e+01,1.881988071184605360e+01,1.267738746269606054e+01,7.956371410749852657e+00,3.922258621430955827e+00,1.227234014833811671e+00,-2.360815694555640221e-02,-3.099479400552809238e-01,-4.972547795623540878e-01,-6.520987777039408684e-01,-7.957665068097412586e-01,-8.960453555919229984e-01,-9.894129447638988495e-01,-1.068837409839034081e+00,-1.141727694426663220e+00,-1.212537032901309431e+00,-1.284172417828813195e+00,-1.368029233330162242e+00,-1.447071665199473500e+00,-1.532845198773429729e+00,-1.634890046392683871e+00,-1.746535818674601614e+00,-1.862120002333540469e+00,-1.972451980516780168e+00,-2.066446734883356839e+00,-2.141377778374589980e+00,-2.201089774549473077e+00,-2.246891090297140181e+00,-2.280947495717555285e+00,-2.307437893352471292e+00,-2.328670871153008193e+00,-2.344352518790401518e+00,-2.356514477753080428e+00,-2.366893101541791111e+00,-2.375625309767201543e+00,-2.383139476994983852e+00,-2.390800060646142811e+00,-2.397904911951627582e+00,-2.403366654529236257e+00,-2.406194276176393032e+00,-2.406661136803450063e+00,-2.405298439902253449e+00,-2.407982535893097520e+00,-2.405095404188614339e+00,-2.371877499914262444e+00,-2.230383097426965833e+00,-1.937486731680110097e+00,-1.828232555591966957e+00,-1.842305902187945321e+00,-1.293034497241023928e+00,-1.056103137496393174e+00,-1.256888012983836234e+00
4.285353892482817173e-01,1.729512883466668427e-01,2.050159033387899399e-02,-7.021072693169116974e-02,-1.780408479971811175e-01,-2.677082979935221374e-01,-3.534182561561465263e-01,-4.132483648136258125e-01,-4.568239860236644745e-01,-4.966297987848520279e-01,-5.212771994993090630e-01,-5.351587086915969849e-01,-5.503587145358324051e-01,-5.654166042804718018e-01,-5.737975761294364929e-01,-5.831508664414286613e-01,-5.864937324076890945e-01,-5.913572274148464203e-01,-5.973338317126035690e-01,-6.021862747147679329e-01,-6.204145299270749092e-01,-6.355257946997880936e-01,-6.473503774031996727e-01,-6.673041934686807508e-01,-6.790702985599637032e-01,-6.852946010185405612e-01,-6.967025361955165863e-01,-7.111056325957179070e-01,-7.235224265605211258e-01,-7.286700978875160217e-01,-7.209064471535384655e-01,-7.029929435811936855e-01,-6.680861972272396088e-01,-6.267555411905050278e-01,-5.778232263401150703e-01,-5.099302087910473347e-01,-4.367218581028282642e-01,-3.609627974219620228e-01,-2.836458997335284948e-01,-1.925131278112530708e-01,-9.683622792363166809e-02,-1.558301087061408907e-02,5.446951650083065033e-02,1.061230437044287100e-01,1.598049598396755755e-01,2.101944132009521127e-01,2.828421517333481461e-01,3.393088224693201482e-01,3.568668554071336985e-01,2.996351340552791953e-01,1.901871578302234411e-01,3.935669583734124899e-02,-1.474792787339538336e-01,-2.662020118441432714e-01,-3.355450835078954697e-01,-3.755797396297566593e-01,-4.202901900280267000e-01,-4.309801854542456567e-01,-3.979553701356053352e-01,-3.856274296995252371e-01,-4.020877882139757276e-01,-4.310085897450335324e-01,-4.703743542777374387e-01,-5.533153647702420130e-01,-5.764530532178469002e-01,-5.909983126330189407e-01,-5.912181134335696697e-01,-5.201020839158445597e-01,-4.122511977329850197e-01,-3.359676757827401161e-01,-2.934135298710316420e-01,-3.144849024611175992e-01,-1.034727562218904495e-01,8.445584340370260179e-02,2.715773815289139748e-01,2.923628859571181238e-01,2.328582640911918133e-01,1.920660920441150665e-01,2.137912485050037503e-01,1.997736862394958735e-01,1.984651375096291304e-01,2.000169382663443685e-01,2.307897798018530011e-01,1.693408613791689277e-01,1.655596101190894842e-01,1.983278328552842140e-01,1.943630082532763481e-01,1.969321463257074356e-01,2.413631272502243519e-01,2.462792685255408287e-01,2.277484275400638580e-01,2.113445117138326168e-01,2.131006955169141293e-01,2.052689115516841412e-01,1.991719892248511314e-01,2.018632162362337112e-01,1.939067160710692406e-01,1.872115419246256351e-01,1.703545211348682642e-01,1.758162091718986630e-01,1.843472520122304559e-01,1.840813051676377654e-01,1.774840406142175198e-01,1.723634053487330675e-01,1.644483392083202489e-01,1.283621715992921963e-01,8.842261141398921609e-02,5.977687967242673039e-02,2.674856688827276230e-03,-3.300297399982810020e-02,-5.210699653252959251e-02,-8.541628066450357437e-02,-1.706579260062426329e-01,-2.328818109235726297e-01,-2.282105407211929560e-01,-1.547686511185020208e-01,-6.571582634933292866e-02,7.329117367044091225e-02,1.825080487178638577e-01,2.077682241797447205e-01,2.070790634024888277e-01,2.438550656661391258e-01,2.583100479096174240e-01,2.585836919024586678e-01,2.429987848736345768e-01,2.140721068717539310e-01,2.015105211175978184e-01,1.996351664420217276e-01,1.851150493603199720e-01,1.534928816836327314e-01,1.389881668146699667e-01,1.454266137443482876e-01,1.616507091093808413e-01,1.564944743877276778e-01,1.511334046954289079e-01,1.110384041385259479e-01,4.839416919276118279e-02,-2.650748330052010715e-02,-1.119360611774027348e-01,-2.716391247231513262e-01,-3.980077070882543921e-01,-4.767935347626917064e-01,-4.957006215117871761e-01,-3.683887603692710400e-01,4.020363350282423198e-01,2.401614868489559740e+00,5.397426248397096060e+00,8.386986349010840058e+00,1.120768199436133727e+01,1.390376602672040462e+01,1.619933772971853614e+01,1.751536529231816530e+01,1.870693911984562874e+01,1.963608140661381185e+01,2.076286022923886776e+01,2.171840766444802284e+01,2.124648375716060400e+01,1.960554608516395092e+01,1.685532118706032634e+01,1.361058065528050065e+01,9.963902216404676437e+00,5.796458436641842127e+00,2.490055878413841128e+00,7.768114477512426674e-01,2.439844526816159487e-01,1.391666412819176912e-01,1.047734064050018787e-01,1.307341735810041428e-01,1.230004918761551380e-01,1.025488004088401794e-01,1.061138855293393135e-01,1.136302819941192865e-01,1.618945532827638090e-01,1.801364591810852289e-01,1.672027361382788513e-01,1.480639402288943529e-01,1.299698022194206715e-01,1.115428921766579151e-01,7.345420820638537407e-02,2.453226828947663307e-02,-2.007397555280476809e-02,-4.121271613985300064e-02,-2.873754641041159630e-02,-7.368810474872589111e-04,1.968764886260032654e-02,3.276709653437137604e-02,-7.076117675751447678e-03,-1.082034191931597888e-01,-2.168754726881161332e-01,-2.738177606952376664e-01,-1.077106560114771128e-01,1.831371260341256857e-01,5.648137208772823215e-01,1.314553410280495882e+00,1.942904245515819639e+00,-4.288502514827996492e-02,-5.636512401280924678e+00,-1.410310854378622025e+01,-2.378048379113897681e+01,-3.213099360605701804e+01,-3.615233319252729416e+01,-3.462934559816494584e+01,-2.858965898398309946e+01,-1.852401177166029811e+01,-9.694550596177577972e+00,-6.062577587814303115e+00,-5.829394686734303832e+00,-5.666175468693836592e+00,-4.238610772998072207e+00,-3.362286740564741194e+00,-1.649926420999690890e+00,9.435410642763599753e-01,5.268578056246042252e+00,9.096496411249972880e+00,1.203162776111275889e+01,1.523816887268912978e+01,1.831975201028399169e+01,2.230570001440355554e+01,2.688051202727365308e+01,3.120020426829432836e+01,3.501227549217082924e+01,3.644999935454688966e+01,3.578680831380188465e+01,3.411107770842500031e+01,3.136756663420237601e+01,2.878788767196238041e+01,2.643471106281504035e+01,2.518534883670508862e+01,2.506708538997918367e+01,2.526844526827335358e+01,2.612338721426203847e+01,2.783180963806807995e+01,2.972151433397084475e+01,2.957974996417760849e+01,2.632238116534426808e+01,2.078751204535365105e+01,1.475264449045062065e+01,9.340544857550412416e+00,4.959559762384742498e+00,1.899473551718983799e+00,2.742650854052044451e-01,-3.350379969924688339e-02,-1.801218017571954988e-01,-3.003157838247716427e-01,-3.989958357997238636e-01,-4.582075835205614567e-01,-4.931123298592865467e-01,-5.086278822273015976e-01,-5.337783033028244972e-01,-5.787421762943267822e-01,-6.784245695671415888e-01,-7.969332904322072864e-01,-9.309637338155880570e-01,-1.088103925721952692e+00,-1.222205163303442532e+00,-1.366226717334939167e+00,-1.523877569037722424e+00,-1.687363958364585415e+00,-1.838963756104931235e+00,-1.962140782998176292e+00,-2.055630400573136285e+00,-2.127315689867828041e+00,-2.180229720601346344e+00,-2.219067122670821846e+00,-2.247967684059403837e+00,-2.270425601338502020e+00,-2.288650218164548278e+00,-2.303217879030853510e+00,-2.315754612907767296e+00,-2.326105710235424340e+00,-2.335238367959391326e+00,-2.343502844450995326e+00,-2.349965544824954122e+00,-2.353641252848319709e+00,-2.354096611030399799e+00,-2.355094842845574021e+00,-2.354817877872847021e+00,-2.348378358234185725e+00,-2.314335144998040050e+00,-2.174319423211272806e+00,-1.896902717358898371e+00,-1.774717361899092793e+00,-1.778106337762437761e+00,-1.251629324353416450e+00,-1.029445528110954911e+00,-1.242375504315532453e+00
3.879264483693987131e-01,1.738591669127345085e-01,4.532754467800259590e-02,-2.248779288493096828e-02,-1.228849274339154363e-01,-2.215116842417046428e-01,-3.067840328294551000e-01,-3.892394192516803741e-01,-4.597986144945025444e-01,-5.026897536590695381e-01,-5.168689545243978500e-01,-5.420190840959548950e-01,-5.517318397760391235e-01,-5.468978509306907654e-01,-5.590566275641322136e-01,-5.577164180576801300e-01,-5.544345723465085030e-01,-5.580676868557929993e-01,-5.572497081011533737e-01,-5.605433313176035881e-01,-5.694593135267496109e-01,-5.833835173398256302e-01,-6.024871170520782471e-01,-6.218103580176830292e-01,-6.405289722606539726e-01,-6.554371453821659088e-01,-6.593499723821878433e-01,-6.656294846907258034e-01,-6.802366208285093307e-01,-6.869468512013554573e-01,-6.754406569525599480e-01,-6.520911902189254761e-01,-6.212521512061357498e-01,-5.785697950050234795e-01,-5.153467357158660889e-01,-4.443618031218647957e-01,-3.707689219154417515e-01,-2.875524135306477547e-01,-1.925986071582883596e-01,-9.057198558002710342e-02,-3.554615192115306854e-03,8.762781508266925812e-02,1.263041896745562553e-01,1.620084209716878831e-01,2.096651075407862663e-01,2.548166012857109308e-01,2.996838188264518976e-01,3.349231020547449589e-01,3.240437430795282125e-01,2.537237482611089945e-01,1.437201427761465311e-01,3.739867825061082840e-03,-1.583720007911324501e-01,-2.396577456966042519e-01,-2.651925610844045877e-01,-2.655563924927264452e-01,-2.484461534768342972e-01,-1.567762233316898346e-01,-1.035956223495304585e-01,-1.239200457930564880e-01,-1.374578019604086876e-01,-1.712942584417760372e-01,-2.342559001408517361e-01,-3.583344474900513887e-01,-4.312266338965855539e-01,-4.705823073163628578e-01,-4.164297620300203562e-01,-3.537136963277589530e-01,-3.682390812318772078e-01,-2.544425642117857933e-01,-1.005592654109932482e-01,-3.538371570175513625e-02,3.121467895107343793e-02,1.149951206753030419e-01,1.918802008440252393e-01,2.033604798489250243e-01,1.952726020244881511e-01,1.962345573119819164e-01,2.060581739060580730e-01,2.271513008745387197e-01,2.232581542339175940e-01,1.624561402713879943e-01,1.551206915755756199e-01,1.729234622507647146e-01,1.820059139281511307e-01,1.733844140544533730e-01,1.695557972416281700e-01,2.203738351818174124e-01,2.309885327704250813e-01,2.115386142395436764e-01,2.443767529912292957e-01,2.923830404179170728e-01,2.689698655158281326e-01,2.204747325740754604e-01,2.291272780857980251e-01,2.431543238926678896e-01,2.041197633370757103e-01,1.696707084774971008e-01,1.639521769247949123e-01,1.497640941524878144e-01,1.417925779242068529e-01,1.562608410604298115e-01,1.781253743683919311e-01,1.937530079740099609e-01,1.740725473791826516e-01,1.462374121474567801e-01,1.334313985717017204e-01,7.083376107038930058e-02,1.407525036484003067e-03,-2.062230091542005539e-02,1.273639779537916183e-02,1.490960642695426941e-02,-5.680417874827980995e-02,-1.239190790802240372e-01,-1.449332758784294128e-01,-1.630734161008149385e-01,-1.809076064964756370e-01,-1.499313556123524904e-01,-6.608195987064391375e-02,1.081693470478057861e-01,1.580235110013745725e-01,1.811412514653056860e-01,2.081295405514538288e-01,2.142649090383201838e-01,2.167996459174901247e-01,1.898732127156108618e-01,1.395671810023486614e-01,1.417752336710691452e-01,1.610974208451807499e-01,1.686528269201517105e-01,1.711634485982358456e-01,1.741653583012521267e-01,1.761518553248606622e-01,1.587936604628339410e-01,1.450071139261126518e-01,1.081400409457273781e-01,3.407230775337666273e-02,-4.813257433124817908e-02,-1.449434848036617041e-01,-3.035352921579033136e-01,-4.588019843213260174e-01,-5.506827849894762039e-01,-5.904830005019903183e-01,-5.400440190242079552e-01,-5.085666066734120250e-01,-5.210013762116432190e-01,-5.247637658612802625e-01,-4.460196479249134427e-01,-4.161353204399347305e-01,-3.949174163863062859e-01,-2.833068565378198400e-01,-1.540675734286196530e-01,-4.307489337224978954e-02,3.756868030759505928e-01,7.998711300606373698e-01,1.657210757915891008e+00,3.039104788156691939e+00,4.452611668006284162e+00,5.073160323314368725e+00,4.842276203446090221e+00,3.687861930346116424e+00,2.249528058920986950e+00,1.305651228445640299e+00,5.702814955729991198e-01,2.288343309628544375e-01,2.016458940925076604e-01,1.603421412291936576e-01,1.180504777003079653e-01,1.101382961496710777e-01,8.832882414571940899e-02,8.631224650889635086e-02,1.199036040343344212e-01,1.378982485039159656e-01,1.628765930363442749e-01,1.664307187311351299e-01,1.526908907108008862e-01,1.170523450709879398e-01,8.023935859091579914e-02,2.939077885821461678e-02,-3.735998237971216440e-03,-2.438230719417333603e-02,-3.200410190038383007e-02,2.179503440856933594e-03,5.160093866288661957e-02,8.523897035047411919e-02,8.842493690463015810e-02,9.268466897992766462e-02,6.231472222134470940e-02,-6.101898977067321539e-02,-2.121736337430775166e-01,-2.316960451425984502e-01,-2.141948929056525230e-01,1.202350263483822346e-01,4.708217978841275908e-01,8.594690319150686264e-01,1.645587952807545662e+00,1.679379351015086286e+00,-1.046495762711856514e+00,-6.703753717127256095e+00,-1.397542183729819953e+01,-2.149815958342514932e+01,-2.694340450363233685e+01,-2.864438982727006078e+01,-2.669758110074326396e+01,-2.061438069120049477e+01,-9.574527573306113482e+00,3.942822548560798168e+00,1.731982867757324129e+01,2.743962759835994802e+01,3.410255376389250159e+01,3.864229243341833353e+01,4.026438058074563742e+01,3.954070776514708996e+01,3.741034219134598970e+01,3.423999525001272559e+01,3.131738776806741953e+01,3.014046927262097597e+01,3.085711667081341147e+01,3.325269626965746284e+01,3.694566623040009290e+01,3.818774714693427086e+01,3.770254951209062710e+01,3.588124549295753241e+01,3.208766611199826002e+01,2.885236270911991596e+01,2.656146746315062046e+01,2.453024724684655666e+01,2.415796732180751860e+01,2.488821297130198218e+01,2.587413488747552037e+01,2.673570596007630229e+01,2.762695171590894461e+01,2.942497032706160098e+01,3.011006663367152214e+01,2.782512569613754749e+01,2.290406441548839211e+01,1.689545515541976783e+01,1.135725892195478082e+01,6.539472444448620081e+00,3.100648043327964842e+00,7.419638230931013823e-01,1.792104123160243034e-02,-1.963791337329894304e-01,-3.467593943933025002e-01,-4.860425174701958895e-01,-6.079100994393229485e-01,-6.816741256043314934e-01,-7.367838304489850998e-01,-7.938994970172643661e-01,-8.468920644372701645e-01,-9.247461762279272079e-01,-1.034319849655730650e+00,-1.149997311411425471e+00,-1.265032251714728773e+00,-1.381727784817485372e+00,-1.514652157289674506e+00,-1.669067979382816702e+00,-1.819349205994512886e+00,-1.954060712683713064e+00,-2.061491610656958073e+00,-2.144752178282942623e+00,-2.208693057938944548e+00,-2.256229222519323230e+00,-2.290861735411453992e+00,-2.317375339509453624e+00,-2.338534946262370795e+00,-2.354852776625193655e+00,-2.367979767674114555e+00,-2.378819309989921749e+00,-2.388135459157638252e+00,-2.396438841766212136e+00,-2.403939089621417224e+00,-2.410248192842118442e+00,-2.413701608951669186e+00,-2.413860222906805575e+00,-2.411930057569406927e+00,-2.414294898451771587e+00,-2.411646471126005054e+00,-2.378688881697598845e+00,-2.237296651990618557e+00,-1.942433346906909719e+00,-1.835065597901120782e+00,-1.853480163146741688e+00,-1.299655940325465053e+00,-1.060349594950821484e+00,-1.259657464106567204e+00
3.949156929738819599e-01,1.578779532574117184e-01,2.540311380289494991e-02,-5.830319551751017570e-02,-1.590625856770202518e-01,-2.408831985667347908e-01,-3.037946191325318068e-01,-3.740311418659985065e-01,-4.207254671491682529e-01,-4.444565642625093460e-01,-4.551321677863597870e-01,-4.687004499137401581e-01,-4.865316683426499367e-01,-5.034637721255421638e-01,-5.241364669054746628e-01,-5.443574208766222000e-01,-5.620917016640305519e-01,-5.690191183239221573e-01,-5.780935632064938545e-01,-5.903574116528034210e-01,-6.025111470371484756e-01,-6.232075383886694908e-01,-6.437952676787972450e-01,-6.623017238453030586e-01,-6.719785118475556374e-01,-6.749071218073368073e-01,-6.784617034718394279e-01,-6.778023084625601768e-01,-6.774987569078803062e-01,-6.787715684622526169e-01,-6.740843532606959343e-01,-6.483388394117355347e-01,-6.139928558841347694e-01,-5.771127259358763695e-01,-5.239451350644230843e-01,-4.611418140120804310e-01,-3.898468669503927231e-01,-3.147602430544793606e-01,-2.309793536551296711e-01,-1.370178832439705729e-01,-4.209066764451563358e-02,4.129599221050739288e-02,1.026495313271880150e-01,1.465202233375748619e-01,1.926122514996677637e-01,2.507184671703726053e-01,3.094559950841357931e-01,3.504145412007346749e-01,3.635448599234223366e-01,3.016192906070500612e-01,1.972030033357441425e-01,-6.616151193156838417e-03,-2.293538543453905731e-01,-4.522064886987209320e-01,-5.752351898699998856e-01,-5.771017256192862988e-01,-5.658526439219713211e-01,-5.451098250923678279e-01,-5.175585122779011726e-01,-4.251159585546702147e-01,3.463500372163252905e-02,2.144930147391278297e+00,5.813902657784637995e+00,9.638984606834128499e+00,1.318667902657762170e+01,1.614148773718625307e+01,1.871021748520433903e+01,2.072761385072953999e+01,2.163494330240064301e+01,2.168390854168683290e+01,2.155604454246349633e+01,2.265586975589394569e+01,2.370225050486624241e+01,2.307984262472018600e+01,2.135411328729242086e+01,1.909698095842031762e+01,1.523771128896623850e+01,9.687649685889482498e+00,5.281868767924606800e+00,2.235261061228811741e+00,4.110772390267811716e-01,3.039428863557986915e-01,2.945974798785755411e-01,1.872369193006306887e-01,1.754102036356925964e-01,2.033093185164034367e-01,2.028491464443504810e-01,1.700222328072413802e-01,1.639885959593812004e-01,1.937794578261673450e-01,1.955858678265940398e-01,2.064444951247423887e-01,1.959498757496476173e-01,1.795104222837835550e-01,1.897953317966312170e-01,1.755784144625067711e-01,1.477830545045435429e-01,1.546908305026590824e-01,1.421205231454223394e-01,1.182897922117263079e-01,1.273144362494349480e-01,1.592398411594331264e-01,1.699839350767433643e-01,1.595877610379830003e-01,1.331423224182799459e-01,8.631423464976251125e-02,3.981646063039079309e-02,-4.255348141305148602e-02,-1.140942820347845554e-01,-1.903457511216402054e-01,-2.879234505817294121e-01,-3.729322755243629217e-01,-4.184164493344724178e-01,-4.617184422095306218e-01,-4.919704713393002748e-01,-5.221586613915860653e-01,-5.150036029517650604e-01,-4.690594800413236953e-01,-4.082586327567696571e-01,-2.438101930310949683e-01,-4.789882968179881573e-02,9.303751183324493468e-02,1.756294525112025440e-01,2.240744006921886466e-01,1.767538415733724833e-01,1.155676054768264294e-01,7.557537127286195755e-02,6.296351552009582520e-02,8.564243838191032410e-02,1.137361580040305853e-01,1.226508483523502946e-01,1.125789928482845426e-01,1.217325675534084439e-01,1.161450357176363468e-01,6.799824273912236094e-02,-2.347383322194218636e-02,-1.429688666248694062e-01,-6.653140322305262089e-02,9.779816662776283920e-01,3.922740572772454470e+00,7.632062934804707766e+00,1.200053788628429174e+01,1.568460156646324322e+01,1.852298703347332776e+01,2.050550864357501268e+01,2.187930768751539290e+01,2.272554130642674863e+01,2.341275007755029947e+01,2.371509115153457969e+01,2.397649071551859379e+01,2.488282726332545280e+01,2.532015817193314433e+01,2.534670941578224301e+01,2.400164056284120306e+01,2.235545113030821085e+01,2.095421063923276961e+01,1.889722251286730170e+01,1.590860014734789729e+01,1.198974131536670029e+01,8.338912134058773518e+00,4.717682028189301491e+00,1.761665949859889224e+00,5.064595988624205347e-01,1.639372650533914566e-01,1.013824280817061663e-01,1.039265929721295834e-01,1.088818808202631772e-01,1.115099852904677391e-01,1.009773735422641039e-01,9.282087080646306276e-02,1.464693164452910423e-01,8.041339647024869919e-02,1.332320168148726225e-02,3.219181508757174015e-02,7.095893751829862595e-02,1.177708928007632494e-01,1.552288080565631390e-01,2.054180959239602089e-01,2.569536230294033885e-01,2.484755500918254256e-01,2.104605501517653465e-01,1.300321966409683228e-01,1.096806571586057544e-01,1.129394834861159325e-01,9.312185971066355705e-02,4.341542022302746773e-02,-5.145847218227572739e-02,-1.832183604128658772e-01,-2.043652075808495283e-01,-4.819103470072150230e-02,2.452144164126366377e-01,6.668859914643689990e-01,1.576939618447795510e+00,1.890799913584487513e+00,-9.232937361593940295e-01,-7.972846290504094213e+00,-1.767780453502200544e+01,-2.857461019023321569e+01,-3.739181194850243628e+01,-4.057480329467216507e+01,-3.673410674091428518e+01,-2.732600035937502980e+01,-1.168068791693076491e+01,4.199034987716004252e+00,1.643286583153530955e+01,2.456376928358804435e+01,2.950309101096354425e+01,3.227314178470987827e+01,3.266292127507040277e+01,3.233587734051980078e+01,3.186388267720758449e+01,3.081113887531682849e+01,3.003375364281237125e+01,2.955410500336438417e+01,3.100591550068929791e+01,3.257796052843332291e+01,3.326489113364368677e+01,3.490745825693011284e+01,3.631113913282752037e+01,3.777621156373061240e+01,3.746609354019165039e+01,3.506678448733873665e+01,3.188245143741369247e+01,2.857989155268296599e+01,2.542310018118587323e+01,2.268958658061455935e+01,2.113441057503223419e+01,2.047241413686424494e+01,2.020858786348253489e+01,2.046823600213974714e+01,2.109175867214798927e+01,2.304365087114274502e+01,2.452619699575006962e+01,2.256666936969850212e+01,1.817076008673757315e+01,1.290148256067186594e+01,7.614554627798497677e+00,3.754789586781043909e+00,1.087564106041099876e+00,1.868516812101006508e-02,-2.529444736428558826e-01,-4.198047156678512692e-01,-5.684581096284091473e-01,-7.104385625571012497e-01,-8.141547262202948332e-01,-8.808962670154869556e-01,-9.396184096112847328e-01,-9.844952058047056198e-01,-1.031707721762359142e+00,-1.080424314364790916e+00,-1.126541048288345337e+00,-1.187868729990441352e+00,-1.268538360134698451e+00,-1.356639223743286493e+00,-1.435379849594028201e+00,-1.524281731413793750e+00,-1.612498232687357813e+00,-1.704660124960355461e+00,-1.781558413058519363e+00,-1.844171196717070416e+00,-1.896080595557577908e+00,-1.935943126882193610e+00,-1.965722365974215791e+00,-1.987683018553070724e+00,-2.004595494741806760e+00,-2.017017867532558739e+00,-2.026666019053664058e+00,-2.034572300006402656e+00,-2.041314218338811770e+00,-2.047063059697393328e+00,-2.052076807769481093e+00,-2.056414224585751072e+00,-2.059612315002596006e+00,-2.060699377092532814e+00,-2.058237121702404693e+00,-2.053744558332255110e+00,-2.048260189098073170e+00,-2.033143196691526100e+00,-1.993354346137493849e+00,-1.868441762373549864e+00,-1.662801614613272250e+00,-1.543390948965679854e+00,-1.512444555264664814e+00,-1.079122467635897920e+00,-9.245615674590226263e-01,-1.156698440201580524e+00
4.111320630181580782e-01,1.780585753731429577e-01,4.851059475913643837e-02,-1.752936607226729393e-02,-1.181949968449771404e-01,-2.153055121307261288e-01,-2.980980893044034019e-01,-3.768807831220328808e-01,-4.312442592345178127e-01,-4.638079800643026829e-01,-4.879314242862164974e-01,-4.905538628809154034e-01,-4.892937405966222286e-01,-4.966683620586991310e-01,-4.984388742595911026e-01,-5.013659065589308739e-01,-5.056978007778525352e-01,-5.139672318473458290e-01,-5.231669815257191658e-01,-5.309651494026184082e-01,-5.456255441531538963e-01,-5.649630762636661530e-01,-5.937157617881894112e-01,-6.179918544366955757e-01,-6.354594007134437561e-01,-6.567127192392945290e-01,-6.660333452746272087e-01,-6.685702176764607430e-01,-6.764748319983482361e-01,-6.838003695011138916e-01,-6.749855782836675644e-01,-6.518046045675873756e-01,-6.194480014964938164e-01,-5.819898797199130058e-01,-5.301081356592476368e-01,-4.578902600333094597e-01,-3.851057938300073147e-01,-3.117202408611774445e-01,-2.286227298900485039e-01,-1.349351457320153713e-01,-5.843371583614498377e-02,1.397661515511572361e-02,6.832934357225894928e-02,1.177392121735465480e-01,1.610802016220986843e-01,2.096634476911276579e-01,2.741368507267907262e-01,3.381730917608365417e-01,3.725302898092195392e-01,3.235748549923300743e-01,2.207702340092509985e-01,5.999050731770694256e-02,-1.209928737953305244e-01,-3.200880117947235703e-01,-4.450539143290370703e-01,-5.487104250350967050e-01,-5.592582989484071732e-01,-5.075772870332002640e-01,-4.808912398293614388e-01,-4.847530450206249952e-01,-4.706638175994157791e-01,-4.854197666281834245e-01,-5.175702390260994434e-01,-5.087428781553171575e-01,-4.458578183548524976e-01,-2.894182731251930818e-01,1.030365582555532455e-01,2.734826533123850822e-01,3.176971332868561149e-01,1.918143923394382000e-01,-1.591548847500234842e-03,4.087329483591020107e-01,1.250839247833937407e+00,2.273123467573896050e+00,2.652181553887203336e+00,2.098526424029842019e+00,1.042282195994630456e+00,4.798151638533454388e-01,2.640547154005616903e-01,2.435704986564815044e-01,2.495269055943936110e-01,1.723565687425434589e-01,1.509274670388549566e-01,1.571744531393051147e-01,1.738014556467533112e-01,1.647245180793106556e-01,1.581533954013139009e-01,1.871656333096325397e-01,2.245959361898712814e-01,2.409420500043779612e-01,2.644881355226971209e-01,2.484086945187300444e-01,2.431356348097324371e-01,2.664879779331386089e-01,2.377795593347400427e-01,2.150117994751781225e-01,2.244289626833051443e-01,2.033590208739042282e-01,1.730967514122312423e-01,1.340147815062664449e-01,1.256101970793679357e-01,1.547387138707563281e-01,1.662242163438349962e-01,1.546572166262194514e-01,1.624262170516885817e-01,1.594716641120612621e-01,1.027037675958126783e-01,2.839005069108679891e-02,-1.043290249072015285e-02,-3.650715434923768044e-02,-1.359043908305466175e-01,-2.260320184286683798e-01,-3.290323507972061634e-01,-3.789611097308807075e-01,-4.293024374346714467e-01,-4.349507982260547578e-01,-4.140658429823815823e-01,-3.716024230234324932e-01,-2.679714700207114220e-01,-9.314465010538697243e-02,6.796066620154306293e-02,1.623034859076142311e-01,1.819083096925169230e-01,1.586693246790673584e-01,1.549936840310692787e-01,1.497206746134907007e-01,1.299228142015635967e-01,1.193993641063570976e-01,1.224608574993908405e-01,1.212010220624506474e-01,1.172637576237320900e-01,1.155061537865549326e-01,1.185795067576691508e-01,1.413251992780715227e-01,1.230133952340111136e-01,6.256671360461041331e-02,-9.180292487144470215e-03,-1.073437780723907053e-01,-2.090382421447429806e-01,-2.840786073938943446e-01,-3.996375279966741800e-01,-2.543717930093407631e-01,3.596361674135550857e-01,1.410857970244251192e+00,2.562560134247178212e+00,3.678648676912416704e+00,4.835914665018208325e+00,5.719960279762744904e+00,6.230984941503265873e+00,6.590573489113012329e+00,7.815554204978980124e+00,9.328615841222926974e+00,1.019022354530170560e+01,1.100830875150859356e+01,1.141452208906412125e+01,1.155379681289196014e+01,1.123805439099669456e+01,9.908056048676371574e+00,7.678024597465991974e+00,5.012090167496353388e+00,2.616123030660673976e+00,1.071151541080325842e+00,3.619332080706954002e-01,1.591312382370233536e-01,9.545492846518754959e-02,1.102429707534611225e-01,1.365888766013085842e-01,1.101076216436922550e-01,9.038392711954656988e-02,1.034666835330426693e-01,1.088640698581002653e-01,1.627220166847109795e-01,1.048203387763351202e-01,5.337675358168780804e-02,3.929589269682765007e-02,8.106002199929207563e-02,1.164013158995658159e-01,1.553261765511706471e-01,1.743120595347136259e-01,1.565774818882346153e-01,1.117119066184386611e-01,8.351579806185327470e-02,7.203334767837077379e-02,6.409013830125331879e-02,5.876335967332124710e-02,3.309988137334585190e-02,3.584705293178558350e-03,-6.690329080447554588e-02,-2.200755095109343529e-01,-2.468207986094057560e-01,-7.454217015765607357e-02,2.137430668808519840e-01,5.825448539108037949e-01,1.188050130847841501e+00,1.609657615408650599e+00,-7.944669914431869984e-01,-6.870658589992672205e+00,-1.503414595303911483e+01,-2.393971561960643157e+01,-3.123568419320508838e+01,-3.398766220506513491e+01,-3.115282833902165294e+01,-2.283792517730034888e+01,-8.418339401716366410e+00,6.452664023207034916e+00,1.849504981515929103e+01,2.704423611698439345e+01,3.240240682716830634e+01,3.612989122762519401e+01,3.820981891106566763e+01,3.818195892743096920e+01,3.724062502465676516e+01,3.571135903202230111e+01,3.214073030720464885e+01,3.071845254302024841e+01,3.101301300339400768e+01,3.178502972610294819e+01,3.375316884671337903e+01,3.635969653911888599e+01,3.903905159060377628e+01,3.929608175717294216e+01,3.756733010779134929e+01,3.535209565376862884e+01,3.231807940080761909e+01,2.946793444082140923e+01,2.662465340364724398e+01,2.421192697016522288e+01,2.373930797248613089e+01,2.368331958814815152e+01,2.442085344973020256e+01,2.510337192844599485e+01,2.586358538435888477e+01,2.785444012412335724e+01,2.744538162686512806e+01,2.440573010733351111e+01,1.985776238096877933e+01,1.435062563314568251e+01,8.971831473987549543e+00,4.850481823552399874e+00,2.027373767981771380e+00,2.677784396219067276e-01,-1.439133100211620331e-01,-3.079805125016719103e-01,-4.554652638616971672e-01,-5.885001560673117638e-01,-6.989399176090955734e-01,-7.824674206785857677e-01,-8.505069785751402378e-01,-9.078386528417468071e-01,-9.692278048023581505e-01,-1.035436671227216721e+00,-1.118777892552316189e+00,-1.224011335696559399e+00,-1.330437723510840442e+00,-1.431106456548150163e+00,-1.527737536191125400e+00,-1.637703291766229086e+00,-1.757055920781567693e+00,-1.854097004601499066e+00,-1.936389650101773441e+00,-2.001204179396154359e+00,-2.053722167387604713e+00,-2.092301748867612332e+00,-2.120718886115355417e+00,-2.141979763720883057e+00,-2.157995741348713636e+00,-2.170689577877055854e+00,-2.181067005614750087e+00,-2.189901966310571879e+00,-2.198430473043117672e+00,-2.205756160023156554e+00,-2.212350421643350273e+00,-2.217985686205793172e+00,-2.221144230046775192e+00,-2.222025754163041711e+00,-2.222838420944754034e+00,-2.224266996781807393e+00,-2.212882958585396409e+00,-2.177450902876444161e+00,-2.038655751122860238e+00,-1.793340942123904824e+00,-1.675041339214658365e+00,-1.671248131548054516e+00,-1.175158740952610970e+00,-9.754962624283507466e-01,-1.214662006153957918e+00
3.821575283072888851e-01,1.527235503308475018e-01,-1.139841810800135136e-02,-1.289118104614317417e-01,-2.383093197131529450e-01,-3.133091106137726456e-01,-3.752189311198890209e-01,-4.489026581868529320e-01,-4.709623502567410469e-01,-4.903846201486885548e-01,-5.161873484030365944e-01,-5.242061289027333260e-01,-5.517374752089381218e-01,-5.945307938382029533e-01,-6.160479793325066566e-01,-6.417375765740871429e-01,-6.620150236412882805e-01,-6.746604237705469131e-01,-6.801325315609574318e-01,-6.726694656535983086e-01,-6.803628634661436081e-01,-6.911478601396083832e-01,-6.971141453832387924e-01,-6.980192996561527252e-01,-6.933240368962287903e-01,-6.865178504958748817e-01,-6.789286416023969650e-01,-6.725139906629920006e-01,-6.791769992560148239e-01,-6.915420955047011375e-01,-6.854460742324590683e-01,-6.657246230170130730e-01,-6.348098115995526314e-01,-5.895425016060471535e-01,-5.311243995092809200e-01,-4.539432055316865444e-01,-3.729092585854232311e-01,-2.845856768544763327e-01,-1.784833820420317352e-01,-5.853841640055179596e-02,5.399639951065182686e-02,1.449306430295109749e-01,2.028984404169023037e-01,2.569941381807439029e-01,2.848393267486244440e-01,2.877227826975286007e-01,2.974320360226556659e-01,2.767328070476651192e-01,2.191255989018827677e-01,1.383154336363077164e-01,3.990418417379260063e-02,-8.618402732827235013e-02,-2.281144447624683380e-01,-3.442072953330352902e-01,-4.303743061609566212e-01,-5.112971331691369414e-01,-5.102242807042784989e-01,-5.052752128540305421e-01,-5.126216306525748223e-01,-5.303903513122349977e-01,-5.582152432762086391e-01,-5.985863331588916481e-01,-6.176608991809189320e-01,-6.087695523165166378e-01,-5.222394221927970648e-01,-4.748119034338742495e-01,-5.073794294148683548e-01,-4.864467128645628691e-01,-4.026085671503096819e-01,-3.629101970291230828e-01,-2.833409014856442809e-01,-1.704200268723070621e-01,1.601980067789554596e-03,3.870552977314218879e-01,3.160617349203675985e-01,3.173670356627553701e-01,3.914582564029842615e-01,2.671118723228573799e-01,2.220153969246894121e-01,2.421345051843672991e-01,2.476008301018737257e-01,2.022265538107603788e-01,2.053331695497035980e-01,1.960968840867280960e-01,1.818190419580787420e-01,1.995173045434057713e-01,2.121216442901641130e-01,1.957360843662172556e-01,1.940094309393316507e-01,2.269572636578232050e-01,2.496908761677332222e-01,2.588019459508359432e-01,2.149552189512178302e-01,1.944933952763676643e-01,1.854243660345673561e-01,1.760883280076086521e-01,1.646394105628132820e-01,1.560448105446994305e-01,1.456869433168321848e-01,1.487943226820789278e-01,1.642846168251708150e-01,1.862950626527890563e-01,2.023521587834693491e-01,1.979057794669643044e-01,1.633168483967892826e-01,1.101464793318882585e-01,4.898549075005576015e-02,-1.600919854718085844e-02,-5.690082302317023277e-02,-1.893663932569324970e-01,-3.172545724082738161e-01,-3.648782058153301477e-01,-3.768798506353050470e-01,-4.238300300494302064e-01,-4.732789536938071251e-01,-4.954409399069845676e-01,-5.173348605167120695e-01,-5.308431105222553015e-01,-4.427034045220352709e-01,-2.950468164872290799e-01,-1.479825306450948119e-01,5.288948002271354198e-02,1.630925899371504784e-01,1.392136627400759608e-01,1.512496885261498392e-01,1.162261058343574405e-01,9.919170476496219635e-02,8.483834262005984783e-02,7.954067131504416466e-02,1.005625170655548573e-01,1.090855512302368879e-01,1.125174958724528551e-01,1.034548552706837654e-01,1.142155936686322093e-01,1.265649757115170360e-01,7.319728785660117865e-02,-5.906552309170365334e-03,-9.812812728341668844e-02,-1.944940823887009174e-01,-2.768721481552347541e-01,-3.919829279184341431e-01,-2.205008612945675850e-01,7.739515426219440997e-01,2.903788682713638991e+00,5.467327165650203824e+00,7.948320038034580648e+00,1.043660498212557286e+01,1.295668293535709381e+01,1.498764087515883148e+01,1.675756912073120475e+01,1.836170275835320354e+01,1.893288949888665229e+01,1.973349245567806065e+01,2.070460036955773830e+01,2.131516811996698380e+01,2.135067640850320458e+01,2.058968574088066816e+01,1.874156822660006583e+01,1.652055499935522676e+01,1.337370591750368476e+01,9.650729135610163212e+00,6.211102267261594534e+00,2.964134676731191576e+00,1.086867883917875588e+00,3.630424759467132390e-01,1.643599176313728094e-01,1.628850479610264301e-01,1.252369926078245044e-01,6.690687476657330990e-02,8.709764597006142139e-02,9.855796839110553265e-02,1.529944101348519325e-01,9.461381565779447556e-02,3.801007568836212158e-02,3.694997960701584816e-02,7.387067493982613087e-02,1.281790854409337044e-01,1.808251969341654330e-01,2.031249244173523039e-01,1.809846670366823673e-01,1.294838339090347290e-01,7.123495056293904781e-02,5.418566602747887373e-02,3.473077993839979172e-02,3.781976166646927595e-02,3.483641101047396660e-02,2.219101926311850548e-02,-3.591842269815970212e-02,-1.762551725842058659e-01,-2.478339299559593201e-01,-7.459659955929964781e-02,2.419377451442414895e-01,5.503736016980838031e-01,1.018577253504190594e+00,1.566934235394001007e+00,3.662083545059431344e-01,-4.189834146207431331e+00,-1.087102251499891281e+01,-1.799749054736457765e+01,-2.459566565617569722e+01,-2.773004336457233876e+01,-2.641577854461502284e+01,-2.032692748507724900e+01,-7.814162764701904962e+00,7.093410202767699957e+00,2.050422409264137968e+01,3.008524742716690525e+01,3.695156273752945708e+01,4.127356977341696620e+01,4.282187733985483646e+01,4.306408598739653826e+01,4.264181834273040295e+01,4.060194123443216085e+01,3.739864695956930518e+01,3.478864904961665161e+01,3.264941924408776686e+01,3.206243004649877548e+01,3.386425939342007041e+01,3.723563688248395920e+01,3.918775631138123572e+01,3.866629078099504113e+01,3.681868377374485135e+01,3.385813182784477249e+01,3.006454582605510950e+01,2.671440010331571102e+01,2.453247404098510742e+01,2.338162790611386299e+01,2.370419300626963377e+01,2.467217052739579231e+01,2.506657721102237701e+01,2.575643830304034054e+01,2.699038279242813587e+01,2.838249310478568077e+01,2.744178453553467989e+01,2.285970118280965835e+01,1.642354284622706473e+01,1.054514596518129110e+01,5.854042591992765665e+00,2.557801898743491620e+00,3.808352281921543181e-01,-1.898638300044694915e-01,-3.730700442101806402e-01,-5.331341734272427857e-01,-6.821301113814115524e-01,-8.042636102763935924e-01,-8.921548351645469666e-01,-9.730036966502666473e-01,-1.042951617389917374e+00,-1.100675508379936218e+00,-1.156466686836211011e+00,-1.215170915587805212e+00,-1.283237974625080824e+00,-1.361320369118402596e+00,-1.435873098285810556e+00,-1.515447085897903889e+00,-1.601827340564341284e+00,-1.694923535193083808e+00,-1.777256066183326766e+00,-1.847133776143891737e+00,-1.908808809996116906e+00,-1.957991249015321955e+00,-1.995912837737705559e+00,-2.025655434292275459e+00,-2.047119652299443260e+00,-2.063426199834793806e+00,-2.075895275775110349e+00,-2.085712252126540989e+00,-2.093698548356769606e+00,-2.100517520098946989e+00,-2.106406967737711966e+00,-2.111642869422212243e+00,-2.116098374244756997e+00,-2.119394547742558643e+00,-2.120129582937806845e+00,-2.119331850291928276e+00,-2.118084618210559711e+00,-2.115872968017356470e+00,-2.103501198434969410e+00,-2.063670667645055801e+00,-1.931669125944608822e+00,-1.711143707740120590e+00,-1.593540370056871325e+00,-1.573652196850161999e+00,-1.114681115606799722e+00,-9.413901225198060274e-01,-1.179550252330955118e+00
4.111614697612822056e-01,1.687960373237729073e-01,4.829393140971660614e-02,3.126269672065973282e-03,-8.728885464370250702e-02,-1.770899017574265599e-01,-2.390736840607132763e-01,-3.045401636045426130e-01,-3.496282091364264488e-01,-3.777351463213562965e-01,-3.963420544750988483e-01,-4.037289191037416458e-01,-4.239247022196650505e-01,-4.461954371072351933e-01,-4.772000708617269993e-01,-5.051034865900874138e-01,-5.140707157552242279e-01,-5.243241982534527779e-01,-5.514754708856344223e-01,-5.659180888906121254e-01,-5.782897183671593666e-01,-5.842097057029604912e-01,-5.881388001143932343e-01,-5.846577845513820648e-01,-5.741183003410696983e-01,-5.650611435994505882e-01,-5.658774105831980705e-01,-5.691866958513855934e-01,-5.721444841474294662e-01,-5.904210014268755913e-01,-5.932125160470604897e-01,-5.699687348678708076e-01,-5.403170846402645111e-01,-5.011685388162732124e-01,-4.376010936684906483e-01,-3.680682941339910030e-01,-2.916798174846917391e-01,-1.924834670498967171e-01,-7.469796109944581985e-02,2.604166045784950256e-02,1.115007614716887474e-01,1.716437526047229767e-01,2.214414194459095597e-01,2.592430377844721079e-01,2.566034157061949372e-01,2.433937449823133647e-01,2.461695794481784105e-01,2.607641285285353661e-01,2.422697937581688166e-01,1.811251023318618536e-01,9.850060808821581304e-02,5.995128303766250610e-04,-1.273521594703197479e-01,-2.218215772882103920e-01,-2.571567827835679054e-01,-2.709264759905636311e-01,-2.739811146166175604e-01,-2.276127231307327747e-01,-1.533140654210001230e-01,-7.938092481344938278e-02,-2.450553514063358307e-02,3.137705987319350243e-02,7.073561457218602300e-02,6.896751280874013901e-02,1.171004911884665489e-02,-3.325749235227704048e-02,-1.288985610008239746e-01,-1.778299412690103054e-01,-1.857498075114563107e-01,-8.681325893849134445e-02,5.948901874944567680e-02,1.239709238871000707e-01,2.014462203951552510e-01,2.249813714297488332e-01,2.250113661866635084e-01,2.048857568297535181e-01,2.093403339385986328e-01,2.165530095808207989e-01,2.049641883932054043e-01,2.301800101995468140e-01,2.591741627547889948e-01,2.266857395879924297e-01,2.021152642555534840e-01,2.376299882307648659e-01,2.106955903582274914e-01,2.028526635840535164e-01,2.185646593570709229e-01,2.205626736395061016e-01,2.448891985695809126e-01,2.341611043084412813e-01,2.329688929021358490e-01,2.372630375903099775e-01,2.501579984091222286e-01,3.050127795431762934e-01,2.972251882310956717e-01,2.571165706031024456e-01,2.700191398616880178e-01,2.823343351483345032e-01,2.279168101958930492e-01,1.856528564821928740e-01,1.815871165599673986e-01,1.564619332493748516e-01,1.340885650133714080e-01,1.684127592016011477e-01,1.765549883712083101e-01,1.470860114495735615e-01,1.050427118316292763e-01,5.986155383288860321e-02,2.808347810059785843e-02,-1.938836416229605675e-02,-6.427002837881445885e-02,-6.695478688925504684e-02,-2.912959037348628044e-02,-8.482586243189871311e-02,-1.545352670364081860e-01,-1.967675936175510287e-01,-3.496928168024169281e-01,-4.690498337149620056e-01,-4.824249559896998107e-01,-4.146520714275538921e-01,-3.379220918213832192e-01,-1.793623639969155192e-01,6.944618746638298035e-02,1.527320123277604580e-01,1.384221893677022308e-01,1.582654534722678363e-01,1.282499859808012843e-01,1.135402300860732794e-01,8.795438264496624470e-02,6.638756766915321350e-02,8.651971537619829178e-02,1.079274237854406238e-01,1.296737324446439743e-01,1.357919329311698675e-01,1.232444770867004991e-01,1.259843470179475844e-01,9.514282696181908250e-02,-4.930498253088444471e-03,-5.450711423327447847e-02,-1.769154707435518503e-01,-3.192676105536520481e-01,-4.546151506365276873e-01,-4.984193581622093916e-01,-5.436648800969123840e-01,-4.178499046247452497e-01,-8.772431197576224804e-02,6.500595633406192064e-01,2.558542396640405059e+00,4.927877504727803171e+00,7.205367962131276727e+00,9.922371653839945793e+00,1.138121754932217300e+01,1.288206533202901483e+01,1.490624985657632351e+01,1.665849697496742010e+01,1.853855780698359013e+01,1.889783136639744043e+01,1.784291547152679414e+01,1.668955325998831540e+01,1.487693184241652489e+01,1.142073780162900221e+01,7.162032213818747550e+00,3.531658234307542443e+00,1.279143776177079417e+00,4.257542465347796679e-01,2.754258492495864630e-01,2.090339884161949158e-01,1.310994931263849139e-01,1.306155472993850708e-01,9.801049996167421341e-02,9.349545347504317760e-02,1.344106360338628292e-01,1.441526224371045828e-01,1.934215379878878593e-01,1.851070165866985917e-01,1.446591873536817729e-01,9.928899281658232212e-02,4.584622569382190704e-02,-1.563978032208979130e-02,-7.432153960689902306e-02,-8.733907155692577362e-02,-6.027291493955999613e-02,1.738372854197223205e-02,7.702728739241138101e-02,1.139176881988532841e-01,1.242190814082277939e-01,1.254582232795655727e-01,9.070026269182562828e-02,3.961719688959419727e-03,-1.518570329062640667e-01,-2.250747729558497667e-01,-2.382943675620481372e-01,-1.372155467979609966e-01,3.221155526116490364e-01,9.121879373560659587e-01,1.488427867880091071e+00,2.141345179174095392e+00,1.517158920614747331e+00,-2.313283849798608571e+00,-7.934352825250243768e+00,-1.392787402824615128e+01,-1.918754705833271146e+01,-2.172625710675492883e+01,-2.179827675991691649e+01,-1.928869739640504122e+01,-1.328964247438125312e+01,-2.452550185029394925e+00,1.044596282136626542e+01,2.083083277070545591e+01,2.907471937686204910e+01,3.410635439099132782e+01,3.571288461890071630e+01,3.434870073571801186e+01,3.021860303450375795e+01,2.685481048177462071e+01,2.383926951533067040e+01,2.183823570575623307e+01,2.143490633662440814e+01,2.004439609198016115e+01,1.783430272751138546e+01,1.417008388566318899e+01,8.766934937215410173e+00,1.261717143934220076e+00,-7.061292379512451589e+00,-1.262768201366998255e+01,-1.711532836640253663e+01,-1.941825199057348073e+01,-2.108309603750240058e+01,-2.072805252077523619e+01,-1.866218470851890743e+01,-1.559985031257383525e+01,-1.170974965929053724e+01,-6.209477181429974735e+00,4.692011576844379306e-02,5.923303414749170770e+00,1.062275512516498566e+01,9.596655408386141062e+00,6.888750396436080337e+00,4.405957427516113967e+00,2.363864867598749697e+00,7.205973481759428978e-01,-1.642411625944077969e-01,-3.836439658334711567e-01,-5.064163123606704175e-01,-6.408395618200302124e-01,-7.484177844598889351e-01,-8.329361200449056923e-01,-8.927135351113975048e-01,-9.632059675641357899e-01,-1.023396164178848267e+00,-1.099537673639133573e+00,-1.197925160871818662e+00,-1.301908541470766068e+00,-1.396848959488124819e+00,-1.507034351539914496e+00,-1.635849385085748509e+00,-1.770041755458805710e+00,-1.906585166841978207e+00,-2.020095735177164897e+00,-2.113776484911795706e+00,-2.186271009501069784e+00,-2.241550787759479135e+00,-2.282407775113824755e+00,-2.312213805736973882e+00,-2.337237228930462152e+00,-2.356036203156691045e+00,-2.370363083842676133e+00,-2.381697118282318115e+00,-2.391458020079880953e+00,-2.399937186099123210e+00,-2.407464920135680586e+00,-2.414856470772065222e+00,-2.420795463200192899e+00,-2.423343821283197030e+00,-2.422911098343320191e+00,-2.420998360437806696e+00,-2.423655175720341504e+00,-2.422304052044637501e+00,-2.390117455855943263e+00,-2.248123870173003525e+00,-1.950159813568461686e+00,-1.846537703182548285e+00,-1.872747491695918143e+00,-1.308644275122787803e+00,-1.064210914919385687e+00,-1.261425525939557701e+00
3.891009301878511906e-01,1.503602408338338137e-01,-4.910337273031473160e-02,-1.891493818257004023e-01,-3.038101738784462214e-01,-3.945231523830443621e-01,-4.768056189641356468e-01,-5.282490840181708336e-01,-5.666643772274255753e-01,-5.904791522771120071e-01,-5.948799615725874901e-01,-6.022162092849612236e-01,-6.170314624905586243e-01,-6.243880772963166237e-01,-6.393342483788728714e-01,-6.522184722125530243e-01,-6.503037055954337120e-01,-6.502795228734612465e-01,-6.502417717128992081e-01,-6.597203006967902184e-01,-6.693337792530655861e-01,-6.766731329262256622e-01,-6.957789387670345604e-01,-7.125264948117546737e-01,-7.191343816230073571e-01,-7.264914633706212044e-01,-7.316382508724927902e-01,-7.373197441920638084e-01,-7.457213187590241432e-01,-7.522063395008444786e-01,-7.449538139626383781e-01,-7.263198029249906540e-01,-7.002848419360816479e-01,-6.637822845950722694e-01,-6.142261140048503876e-01,-5.446560517884790897e-01,-4.652148848399519920e-01,-3.842910537496209145e-01,-3.015931723639369011e-01,-2.066937577910721302e-01,-9.968110534828156233e-02,-1.417006994597613811e-02,6.036559934727847576e-02,1.080330618715379387e-01,1.586490697809495032e-01,2.075991790043190122e-01,2.743193370988592505e-01,3.474622319336049259e-01,3.803473965381272137e-01,3.190836615394800901e-01,1.878162487410008907e-01,-4.994664806872606277e-03,-2.026947543490678072e-01,-3.727521705441176891e-01,-4.497464686864987016e-01,-4.735177771653980017e-01,-4.512978494167327881e-01,-4.232870731502771378e-01,-4.195534095633774996e-01,-4.326323067652992904e-01,-4.521927035711996723e-01,-4.707413355745302397e-01,-5.423202794045209885e-01,-5.361313008470460773e-01,-4.744390653504524380e-01,-3.113238588557578623e-01,-1.913825774099677801e-01,-1.087339589721523225e-01,-2.736856203409843147e-02,2.276704770047217607e-01,-1.558159530031844042e-02,2.958271431270986795e-01,1.242174866725690663e+00,1.965963791997637600e+00,2.067909179895650595e+00,1.820489416131749749e+00,1.355591469560749829e+00,5.050160616447101347e-01,2.292625578120350838e-01,2.378487596288323402e-01,2.343359283404424787e-01,1.674718633294105530e-01,1.597032460849732161e-01,1.424099982250481844e-01,1.368895363993942738e-01,1.401172014884650707e-01,1.452070823870599270e-01,1.593651328003033996e-01,2.128291766857728362e-01,2.520700534805655479e-01,2.592818090924993157e-01,2.533557203132659197e-01,2.605267120525240898e-01,2.363080405630171299e-01,2.252381760627031326e-01,2.197807494085282087e-01,2.149528111331164837e-01,1.991954916156828403e-01,1.683417426538653672e-01,1.496225061127915978e-01,1.632869583554565907e-01,1.677174600772559643e-01,1.757405331591144204e-01,1.784230676712468266e-01,1.417268360382877290e-01,1.147556725190952420e-01,8.111155836377292871e-02,1.730808056890964508e-03,-5.107807507738471031e-02,-9.250016370788216591e-02,-1.947870641015470028e-01,-3.339460745919495821e-01,-4.001302410615608096e-01,-4.500857528764754534e-01,-4.734816474956460297e-01,-4.971790476702153683e-01,-4.783391212113201618e-01,-4.070318439044058323e-01,-3.079668674618005753e-01,-1.362419675278943032e-01,3.028605924919247627e-02,1.199423107900656760e-01,1.503085413714870811e-01,1.749211801216006279e-01,2.016207942615437787e-01,1.573858631309121847e-01,1.040358885657042265e-01,6.940370751544833183e-02,8.235218655318021774e-02,1.016902513802051544e-01,1.086410582065582275e-01,1.209268225356936455e-01,1.274069144856184721e-01,1.197210244135931134e-01,9.133087610825896263e-02,1.818907097913324833e-02,-9.998262557201087475e-02,-1.610026801936328411e-01,-1.089925268661318114e-01,4.897260384750552475e-01,3.036482691066339612e+00,6.780926179897505790e+00,1.077570967562496662e+01,1.440730984485708177e+01,1.753106071474030614e+01,1.976122396631399170e+01,2.102951427761399827e+01,2.196800349793193163e+01,2.267722334945574403e+01,2.271157308854162693e+01,2.327754185581579804e+01,2.402230650745332241e+01,2.466860853321850300e+01,2.466294544097036123e+01,2.413232828612672165e+01,2.297616910422220826e+01,2.112261577928438783e+01,1.895472250384045765e+01,1.628605102654546499e+01,1.251508932467550039e+01,8.164560193661600351e+00,4.266389130614697933e+00,1.412896234949585050e+00,4.161435581918340176e-01,2.133456051815301180e-01,1.541399906855076551e-01,1.111413165926933289e-01,8.091608178801834583e-02,7.938148919492959976e-02,1.063900084700435400e-01,1.291913981549441814e-01,1.595998757984489202e-01,8.030987088568508625e-02,3.156270261388272047e-02,4.249650426208972931e-02,9.597073332406580448e-02,1.501467791385948658e-01,1.755800724495202303e-01,1.739877646323293447e-01,1.413738378323614597e-01,8.933216100558638573e-02,6.417101435363292694e-02,3.941419860348105431e-02,3.981865290552377701e-02,5.002096714451909065e-02,4.012366337701678276e-02,-4.464835394173860550e-03,-1.328055011108517647e-01,-2.133340272121131420e-01,-4.113722522743046284e-02,2.157338100951164961e-01,5.873922720784321427e-01,1.327180970576591790e+00,1.986715307961276267e+00,1.893577696173451841e-01,-4.876160132233053446e+00,-1.265294689626898617e+01,-2.190515743871219456e+01,-3.022159850446041673e+01,-3.427724210312590003e+01,-3.137621261971071362e+01,-2.184365882119163871e+01,-5.149556593038141727e+00,1.508469199156388640e+01,3.173320140177384019e+01,4.011486485751811415e+01,4.431812018883647397e+01,4.590682908732560463e+01,4.510682596878177719e+01,4.385113228340560454e+01,4.225788134569302201e+01,3.988142865663394332e+01,3.762856430932879448e+01,3.599697050731629133e+01,3.542893644049763680e+01,3.555164595134556293e+01,3.548724434152245522e+01,3.600544498278759420e+01,3.710610827291384339e+01,3.769776136556174606e+01,3.726670436188578606e+01,3.507591717294417322e+01,3.148097813874483109e+01,2.780840498208999634e+01,2.443030845373868942e+01,2.157845588412601501e+01,2.048315467732027173e+01,2.013154817815211572e+01,1.977938783334320760e+01,1.907694225956947776e+01,1.829124046442120743e+01,1.822004995286260964e+01,1.977513182121037971e+01,2.015629012401041109e+01,1.878137045307084918e+01,1.518076688330620527e+01,1.061530823074281216e+01,6.140160938724875450e+00,3.059313265024684370e+00,9.912628382953698747e-01,-3.447654098272323608e-02,-2.713645938783884048e-01,-4.134888962144032121e-01,-5.459317804779857397e-01,-6.685927910730242729e-01,-7.557973465882241726e-01,-8.228456713259220123e-01,-8.687881659716367722e-01,-9.132133768871426582e-01,-9.668178622378036380e-01,-1.017087051644921303e+00,-1.089162811636924744e+00,-1.176895048509322805e+00,-1.278975260211154819e+00,-1.378520804917570786e+00,-1.468793699154048227e+00,-1.562385691038798541e+00,-1.657312251860275865e+00,-1.749730814975919202e+00,-1.816220689157489687e+00,-1.874814516340848058e+00,-1.919632393954088911e+00,-1.953709075314691290e+00,-1.978456020879093558e+00,-1.997779142227955163e+00,-2.012130891380365938e+00,-2.023072046576999128e+00,-2.031878964713541791e+00,-2.039289618347538635e+00,-2.045613929483806714e+00,-2.051121050753863528e+00,-2.055819366738433018e+00,-2.059357476187869906e+00,-2.060727175412466750e+00,-2.058625744044547901e+00,-2.054605731187621132e+00,-2.049739234003936872e+00,-2.034987476567039266e+00,-1.995574988191947341e+00,-1.870810869266279042e+00,-1.664480372273828834e+00,-1.545804082532413304e+00,-1.515478150802664459e+00,-1.081235091434791684e+00,-9.255427090101875365e-01,-1.158537974115461111e+00
4.003770891577005386e-01,1.540951714850962162e-01,2.089367713779211044e-02,-7.488267915323376656e-02,-1.704757880652323365e-01,-2.377005204616580158e-01,-2.944109764271161112e-01,-3.594757881946861744e-01,-3.934290288016200066e-01,-4.167071781121194363e-01,-4.344495846889913082e-01,-4.532846938818693161e-01,-4.659844329580664635e-01,-4.873354462906718254e-01,-5.118679571896791458e-01,-5.210613887757062912e-01,-5.290174074470996857e-01,-5.330366827547550201e-01,-5.395028246566653252e-01,-5.459196455776691437e-01,-5.511565208435058594e-01,-5.705128367990255356e-01,-5.903805634006857872e-01,-6.032705418765544891e-01,-6.147534586489200592e-01,-6.177611453458666801e-01,-6.175389811396598816e-01,-6.162817794829607010e-01,-6.226167110726237297e-01,-6.343550728633999825e-01,-6.323347305878996849e-01,-6.142353303730487823e-01,-5.874441200867295265e-01,-5.561736179515719414e-01,-5.076618650928139687e-01,-4.404121604748070240e-01,-3.722852799110114574e-01,-2.984889689832925797e-01,-2.060743633192032576e-01,-1.065723674255423248e-01,-1.255571190267801285e-02,8.295185456518083811e-02,1.439639106392860413e-01,1.845152378664352000e-01,2.356526611838489771e-01,2.737906957627274096e-01,3.058389478828758001e-01,3.542985771782696247e-01,3.424169868230819702e-01,2.743896027095615864e-01,1.288967386353760958e-01,-5.669882567599415779e-02,-3.363935616798698902e-01,-5.261243105633184314e-01,-5.794462498743087053e-01,-5.077889715321362019e-01,-3.936898782849311829e-01,-2.024614267284050584e-01,1.013147885911166668e+00,4.365363986289594322e+00,8.118963100016117096e+00,1.201217199582606554e+01,1.522741764780948870e+01,1.774723192001692951e+01,1.964867883025362971e+01,2.093277128704357892e+01,2.240969362598843873e+01,2.379482774413190782e+01,2.480262495833449066e+01,2.560298475064337254e+01,2.738212509569711983e+01,2.887584038078784943e+01,2.860121372714638710e+01,2.756128964788513258e+01,2.545292355213314295e+01,2.237551197130233049e+01,1.872882601432502270e+01,1.496127114538103342e+01,1.120642013940960169e+01,7.435532632283866405e+00,4.150641390122473240e+00,1.565145433938596398e+00,5.366701411549001932e-01,3.171669088769704103e-01,2.394657501517940545e-01,1.492503101471811533e-01,1.318250866606831551e-01,1.489098246674984694e-01,1.800007605925202370e-01,2.198654365492984653e-01,2.092517975252121687e-01,2.135323556140065193e-01,1.944802820216864347e-01,1.857330342754721642e-01,1.902830535545945168e-01,2.004822436720132828e-01,1.984973177313804626e-01,1.892868292052298784e-01,1.710995640605688095e-01,1.484845791710540652e-01,1.482596145942807198e-01,1.628116235369816422e-01,1.563801612937822938e-01,1.388133859727531672e-01,1.069003781303763390e-01,6.159442546777427197e-02,-8.736908261198550463e-03,-4.842879436910152435e-02,-1.598321609199047089e-01,-3.012788908090442419e-01,-3.879745993763208389e-01,-4.462728590006008744e-01,-5.706114917993545532e-01,-6.111524731295503443e-01,-5.868180205579847097e-01,-5.432232443708926439e-01,-4.194052603561431170e-01,-3.362823897041380405e-01,-3.303586347028613091e-01,-2.470097304321825504e-01,-3.575594909489154816e-02,1.097160251083550975e-01,1.429098293301649392e-01,1.117428246652707458e-01,1.287129554548300803e-01,1.219720508088357747e-01,6.707533961161971092e-02,1.055128313601016998e-02,6.631748983636498451e-02,1.017897076671943069e-01,9.261694853194057941e-02,9.827361535280942917e-02,1.105512643698602915e-01,1.084870741469785571e-01,4.558694316074252129e-02,-8.123160549439489841e-02,-1.790885042864829302e-01,1.306820149475242943e-01,1.961443285294080852e+00,5.172812070639338344e+00,9.193525263806805015e+00,1.333676435239613056e+01,1.667810549266869202e+01,1.890357549395412207e+01,2.056259844847954810e+01,2.198360680456971750e+01,2.312021820386871696e+01,2.387737014750018716e+01,2.420495006628334522e+01,2.447849873453378677e+01,2.573642711341381073e+01,2.687947935424745083e+01,2.694549020286649466e+01,2.608441170211881399e+01,2.451588704774621874e+01,2.298113197833299637e+01,2.115736310160718858e+01,1.897293721628375351e+01,1.582255703140981495e+01,1.097881618351675570e+01,6.324645292945206165e+00,2.856564852525480092e+00,7.587449722341261804e-01,2.151272208429872990e-01,1.295386552810668945e-01,1.163934366777539253e-01,8.936532679945230484e-02,8.841259698965586722e-02,9.811793465632945299e-02,1.297787665389478207e-01,9.673457127064466476e-02,1.252808223944157362e-02,3.489353228360414505e-02,5.308919365052133799e-02,8.758695350843481719e-02,1.232428487855941057e-01,1.642386780513334088e-01,2.022575715673156083e-01,2.486650267383083701e-01,2.827755798352882266e-01,2.915816348977386951e-01,2.488380250288173556e-01,1.821846030652523041e-01,1.548686502501368523e-01,1.402789340354502201e-01,1.341990022920072079e-01,1.208401530748233199e-01,9.210835091653279960e-02,5.196914379484951496e-02,8.166087407153099775e-02,3.016034746688092127e-01,6.681563661550171673e-01,1.477360620163381100e+00,1.901465174742043018e+00,-8.457701130537316203e-01,-7.662386296549811959e+00,-1.775668239477090538e+01,-2.919481573934899643e+01,-3.843568140815477818e+01,-4.185809252402395941e+01,-3.613531293347477913e+01,-2.274707337934523821e+01,-1.580490881111472845e+00,2.332112630910705775e+01,4.186524077225476503e+01,5.055958623299375176e+01,5.388379805919248611e+01,5.374720895881182514e+01,5.250084098319348413e+01,4.947194962017238140e+01,4.582280993621679954e+01,4.231375245889648795e+01,3.830057558673433959e+01,3.532049456518143415e+01,3.420547155197709799e+01,3.509176097298040986e+01,3.631431715935468674e+01,3.740416898578405380e+01,3.871619097143411636e+01,3.764622453204356134e+01,3.474057222902774811e+01,3.068924951273947954e+01,2.650664105094620027e+01,2.238227651175111532e+01,1.858304721955209970e+01,1.605442000553011894e+01,1.437807433912530541e+01,1.412381085753440857e+01,1.448184877424500883e+01,1.494959471502806991e+01,1.610125422291457653e+01,1.801943285297602415e+01,2.001480003632605076e+01,1.914221870061010122e+01,1.571208182023838162e+01,1.116250932915136218e+01,6.468025306472554803e+00,2.933350467472337186e+00,6.570673044770956039e-01,-5.645680939778685570e-04,-2.385329867247492075e-01,-4.189798404695466161e-01,-5.873937073192792013e-01,-7.406966323032975197e-01,-8.577871005982160568e-01,-9.450454245088621974e-01,-1.026444701477885246e+00,-1.095278792083263397e+00,-1.155110500287264585e+00,-1.210165015887469053e+00,-1.262578742578625679e+00,-1.316238443017937243e+00,-1.376521725125712692e+00,-1.442035567000857554e+00,-1.503424387650738936e+00,-1.564859717189392541e+00,-1.629030159718240611e+00,-1.684886796894716099e+00,-1.731362962949788198e+00,-1.770165819994872436e+00,-1.801452613261062652e+00,-1.828224463679362088e+00,-1.848692119354382157e+00,-1.864161553035955876e+00,-1.875997547380393371e+00,-1.885403486783616245e+00,-1.893068152246996760e+00,-1.899347576050786301e+00,-1.904730854817898944e+00,-1.909426522033754736e+00,-1.913506029639393091e+00,-1.916953583888243884e+00,-1.919701939361402765e+00,-1.920656576956389472e+00,-1.918783207656815648e+00,-1.913942007377045229e+00,-1.905194555816706270e+00,-1.884449776931433007e+00,-1.839801906782668084e+00,-1.727993950451491401e+00,-1.564978073496604338e+00,-1.433772974851308390e+00,-1.374031830317107961e+00,-1.003395646286662668e+00,-8.829106563935056329e-01,-1.109138522995635867e+00
4.329934332054108381e-01,1.644058844540268183e-01,-1.535312505438923836e-03,-1.200865458231419325e-01,-2.437157758977264166e-01,-3.346541256469208747e-01,-4.162249225191771984e-01,-4.865832477807998657e-01,-5.199355417862534523e-01,-5.466877780854701996e-01,-5.571824265643954277e-01,-5.594963906332850456e-01,-5.593501273542642593e-01,-5.554180918261408806e-01,-5.486489096656441689e-01,-5.413370747119188309e-01,-5.407373439520597458e-01,-5.439027342945337296e-01,-5.519875120371580124e-01,-5.599962929263710976e-01,-5.777400312945246696e-01,-6.004686430096626282e-01,-6.260679494589567184e-01,-6.487676296383142471e-01,-6.668661674484610558e-01,-6.789140533655881882e-01,-6.829522401094436646e-01,-6.876162774860858917e-01,-6.951288199052214622e-01,-6.884363899007439613e-01,-6.739312680438160896e-01,-6.489789877086877823e-01,-6.078729275614023209e-01,-5.649288874119520187e-01,-5.164919225499033928e-01,-4.554329528473317623e-01,-3.860879628919064999e-01,-3.189761862158775330e-01,-2.454461227171123028e-01,-1.617299835197627544e-01,-8.179611538071185350e-02,-9.507466005743481219e-03,5.498735141009092331e-02,1.111871745670214295e-01,1.734386231401003897e-01,2.416056562215089798e-01,3.234122256399132311e-01,3.763378566363826394e-01,3.499303997377865016e-01,2.540110225090757012e-01,8.395996876060962677e-02,-1.358512479346245527e-01,-3.872669187257997692e-01,-5.104318232333753258e-01,-5.875429147854447365e-01,-5.996139021590352058e-01,-5.736196232610382140e-01,-4.628323260694742203e-01,-2.711376897350419313e-01,9.843129772343672812e-01,4.380553986178711057e+00,8.334657957078889012e+00,1.237446316424757242e+01,1.584890674566850066e+01,1.872171865007840097e+01,2.055005099857226014e+01,2.238203586405143142e+01,2.370680713647743687e+01,2.463214738457463682e+01,2.511703341687098145e+01,2.538251778762787580e+01,2.697421967983245850e+01,2.882018689624965191e+01,2.900149921141564846e+01,2.784393687732517719e+01,2.565869771223515272e+01,2.299435822339728475e+01,1.957679704483598471e+01,1.513353504054248333e+01,1.091202087420970201e+01,7.290786460041999817e+00,3.996231684694066644e+00,1.219670574879273772e+00,3.418683776690158993e-01,2.441688778344541788e-01,2.251376472413539886e-01,2.204746578354388475e-01,1.920534851960837841e-01,1.826032162643969059e-01,2.285604206845164299e-01,2.128845092374831438e-01,1.910042737144976854e-01,1.832623337395489216e-01,1.772019905038177967e-01,1.555886124260723591e-01,1.365535561926662922e-01,1.313600398134440184e-01,1.291043756064027548e-01,1.349303924944251776e-01,1.363967553479596972e-01,1.463483170373365283e-01,1.716130279237404466e-01,1.847339656669646502e-01,1.748279383755289018e-01,1.526095533627085388e-01,1.105504279839806259e-01,4.393200567574240267e-02,-2.330695139244198799e-02,-4.899132018908858299e-02,-7.556594116613268852e-02,-1.646656701341271400e-01,-1.994158355519175529e-01,-1.710343132726848125e-01,-1.209427152643911541e-01,-1.062924747820943594e-01,-7.091546361334621906e-02,-5.184217821806669235e-03,2.029469434637576342e-02,4.260091800824739039e-02,1.186257022200152278e-01,1.890561995096504688e-01,2.057856675237417221e-01,1.840580846183001995e-01,1.973344900179654360e-01,2.136186608113348484e-01,1.674353035632520914e-01,1.289801402017474174e-01,1.371371289715170860e-01,1.511681906413286924e-01,1.376319567207247019e-01,1.287374279927462339e-01,1.333893967093899846e-01,1.453992716269567609e-01,1.388200271176174283e-01,1.134548495756462216e-01,6.945864582667127252e-02,4.503285686951130629e-03,-7.484540126461070031e-02,-2.101187268272042274e-01,-2.834708637092262506e-01,-3.948810737019812223e-01,-4.439202205685433000e-01,-2.270207144320011139e-01,3.479541121341753751e-01,1.126199143240228295e+00,1.922925950319040567e+00,2.556679528323002160e+00,3.697496584674809128e+00,4.266160415892954916e+00,4.659083953592926264e+00,6.108820410910993814e+00,7.203288789780344814e+00,7.726890939287841320e+00,8.329670243430882692e+00,9.451610747724771500e+00,1.016621523839421570e+01,1.010515742748975754e+01,9.118104899302124977e+00,7.293057310394942760e+00,5.420775654725730419e+00,3.174050621630158275e+00,1.262662663124501705e+00,4.262113067234167829e-01,1.597204289864748716e-01,1.063179085031151772e-01,1.089421450160443783e-01,1.075305049307644367e-01,8.521470753476023674e-02,9.595003351569175720e-02,1.088991877622902393e-01,1.270196371187921613e-01,1.486876190174371004e-01,7.181893824599683285e-02,2.572110062465071678e-02,4.396122565958648920e-02,8.836970501579344273e-02,1.231188860256224871e-01,1.630316304508596659e-01,1.914108537603169680e-01,1.955965545494109392e-01,1.609136452898383141e-01,1.207459578290581703e-01,1.208850949624320492e-01,1.177999638020992279e-01,1.107882289215922356e-01,9.044672176241874695e-02,4.051101044751703739e-02,-6.178119825199246407e-02,-2.158792046830058098e-01,-2.040687236003577709e-01,-4.265117831528186798e-02,2.516123880595841911e-01,5.775665080000180751e-01,1.199451383203268051e+00,1.674855702513013966e+00,-4.823760905419476330e-01,-6.059375919168815017e+00,-1.389642670680768788e+01,-2.271935878554359078e+01,-3.013076054723933339e+01,-3.317587628192268312e+01,-3.098264665994793177e+01,-2.339142670272849500e+01,-9.645379244815558195e+00,4.127790216705761850e+00,1.493092594963673037e+01,2.210339339461643249e+01,2.682136547283153050e+01,3.025620804447680712e+01,3.239436925598420203e+01,3.337228300610149745e+01,3.289331873692572117e+01,3.229993591271340847e+01,3.093209259584546089e+01,3.072194218635559082e+01,3.241984173143282533e+01,3.360420152568258345e+01,3.424753526225686073e+01,3.498585460707545280e+01,3.688952824799343944e+01,3.702593267615884542e+01,3.522930294042453170e+01,3.243140440573915839e+01,2.945755165215814486e+01,2.694220194499939680e+01,2.463295402005314827e+01,2.303148657921701670e+01,2.306816263869404793e+01,2.344569326750934124e+01,2.427530319988727570e+01,2.515741942368913442e+01,2.633988341316580772e+01,2.830799258151091635e+01,2.775677559990435839e+01,2.438712499762186781e+01,1.911366765573620796e+01,1.322806824091821909e+01,7.913582139182835817e+00,3.975903844693675637e+00,1.266511580091901124e+00,1.209470080211758614e-01,-1.417510849423706532e-01,-2.975907688960433006e-01,-4.382863200444262475e-01,-5.656288219615817070e-01,-6.528233531862497330e-01,-7.143436158075928688e-01,-7.570165181532502174e-01,-8.052316252142190933e-01,-8.576078149490058422e-01,-9.285613158717751503e-01,-1.025183916557580233e+00,-1.131878211395815015e+00,-1.250355607480742037e+00,-1.365307253639912233e+00,-1.481058216726523824e+00,-1.593974563467781991e+00,-1.723035170201910660e+00,-1.836695471807615831e+00,-1.925505437393439934e+00,-1.997005884622922167e+00,-2.054395297542214394e+00,-2.096485588990617543e+00,-2.127132743247784674e+00,-2.149677390174474567e+00,-2.166671601706184447e+00,-2.179988797928672284e+00,-2.190554907429032028e+00,-2.199984953796956688e+00,-2.208420620299875736e+00,-2.215672854392323643e+00,-2.222401520353741944e+00,-2.227974605862982571e+00,-2.230925609590485692e+00,-2.231324473163112998e+00,-2.231766313663683832e+00,-2.232844071113504469e+00,-2.221106695185881108e+00,-2.185913150140549988e+00,-2.046044472284847870e+00,-1.798680397099815309e+00,-1.679573190340306610e+00,-1.676344902662094682e+00,-1.176877978839911520e+00,-9.767846252652816474e-01,-1.213999303145101294e+00
3.957462995313107967e-01,1.529201837256550789e-01,6.873542442917823792e-03,-1.018870573025196791e-01,-1.983611671021208167e-01,-2.778509516065241769e-01,-3.385159946046769619e-01,-3.961037904955446720e-01,-4.383041532710194588e-01,-4.608309785835444927e-01,-4.717337796464562416e-01,-4.790628142654895782e-01,-4.939324418082833290e-01,-5.079845804721117020e-01,-5.195682765915989876e-01,-5.315767535939812660e-01,-5.405923109501600266e-01,-5.511303860694169998e-01,-5.620298637077212334e-01,-5.698865773156285286e-01,-5.841209599748253822e-01,-6.026357021182775497e-01,-6.131691224873065948e-01,-6.204531900584697723e-01,-6.302968282252550125e-01,-6.321927513927221298e-01,-6.282418016344308853e-01,-6.253906032070517540e-01,-6.228852355852723122e-01,-6.216808212921023369e-01,-6.159229949116706848e-01,-5.958461323752999306e-01,-5.704054860398173332e-01,-5.367570836097002029e-01,-4.860536716878414154e-01,-4.261987539939582348e-01,-3.567544058896601200e-01,-2.782819059211760759e-01,-1.874379168730229139e-01,-8.480838782270438969e-02,1.208308804780244827e-02,1.003042282536625862e-01,1.527311708778142929e-01,1.944261874014046043e-01,2.386423361022025347e-01,2.759925882564857602e-01,2.962075897958129644e-01,3.271607939968816936e-01,3.297785891918465495e-01,2.683377545326948166e-01,1.875170719576999545e-01,2.603189437650144100e-02,-1.916751924436539412e-01,-4.189591391477733850e-01,-5.486963232833659276e-01,-5.724188964813947678e-01,-5.280747968718060292e-01,-4.979166947305202484e-01,-4.949337875004857779e-01,-5.012261724332347512e-01,-4.926329087466001511e-01,-5.389739880338311195e-01,-5.874702400760725141e-01,-5.819612713530659676e-01,-5.312288640998303890e-01,-4.575294898822903633e-01,-3.853469088207930326e-01,-2.762625874020159245e-01,-2.481336086057126522e-01,-2.869540086248889565e-01,-1.329394509084522724e-01,1.090758596546947956e-01,4.632709480356425047e-01,8.270171634503640234e-01,8.513088778709061444e-01,5.589764976466540247e-01,3.426491084392182529e-01,1.737446745391935110e-01,1.630763467401266098e-01,1.899026513565331697e-01,2.358941123820841312e-01,2.275475983042269945e-01,1.641887191217392683e-01,1.581677910871803761e-01,1.737179551273584366e-01,1.904368496034294367e-01,1.870434726588428020e-01,1.843368492554873228e-01,1.991654150187969208e-01,2.073029398452490568e-01,2.113282028585672379e-01,2.380622201599180698e-01,2.568782600574195385e-01,2.151757800020277500e-01,2.080474994145333767e-01,1.965692164376378059e-01,1.877616441342979670e-01,1.822101946454495192e-01,1.581495669670403004e-01,1.298997962148860097e-01,1.243279943009838462e-01,1.442957707913592458e-01,1.599637945182621479e-01,1.549902111291885376e-01,1.487264268216677010e-01,1.336229333537630737e-01,9.417704129009507596e-02,2.923892298713326454e-02,-1.466134330257773399e-02,-8.431647066026926041e-02,-1.875585918314754963e-01,-2.897924121934920549e-01,-3.586188324261456728e-01,-4.021617228136165068e-01,-4.373884869564790279e-01,-4.689500866661546752e-01,-4.726568525657057762e-01,-4.303181102732196450e-01,-3.426495686653652228e-01,-2.134173556696623564e-01,-3.291760582942515612e-02,1.341523407900240272e-01,1.700267675914801657e-01,1.628749198862351477e-01,1.773191393585875630e-01,1.305837808176875114e-01,1.002411746885627508e-01,8.746777195483446121e-02,1.011586985550820827e-01,1.142363883554935455e-01,1.138972712215036154e-01,1.041433461941778660e-01,1.188178545562550426e-01,1.291253042872995138e-01,9.756150352768599987e-02,3.029906714800745249e-02,-9.140900388592854142e-02,-1.729669475462287664e-01,-1.109175166347995400e-01,6.582009948833729140e-01,3.356773658073507249e+00,7.085742468036187347e+00,1.126004974485840648e+01,1.489903464191593230e+01,1.778859003982506692e+01,1.984388245258014649e+01,2.129664353118278086e+01,2.246880806004628539e+01,2.296195287047885358e+01,2.293867726344615221e+01,2.345001178979873657e+01,2.385314912488684058e+01,2.473800163157284260e+01,2.577075049281120300e+01,2.529691535234451294e+01,2.397787073953077197e+01,2.206369965546764433e+01,1.957823186786845326e+01,1.577987829595804214e+01,1.112338650412857533e+01,6.886655327631160617e+00,3.246922546590212733e+00,8.779367993047344498e-01,2.229246206115931273e-01,1.509701656177639961e-01,1.299920764286071062e-01,1.184390927664935589e-01,9.940554923377931118e-02,9.825958497822284698e-02,9.927078895270824432e-02,1.426112717017531395e-01,1.048054769635200500e-01,3.101551826694048941e-02,2.987750708416569978e-02,6.527719995938241482e-02,1.099113870877772570e-01,1.444442333886399865e-01,1.958630905719473958e-01,2.349329101853072643e-01,2.320395031711086631e-01,1.971322633326053619e-01,1.245459727942943573e-01,1.074242912145564333e-01,1.211673325160518289e-01,1.211450351402163506e-01,1.060212994925677776e-01,6.240562349557876587e-02,-5.939641362056136131e-02,-1.682710880995728076e-01,-1.353752487339079380e-01,8.988528186455368996e-02,4.190273297717794776e-01,8.673834260553121567e-01,1.803859167033806443e+00,1.497992770571727306e+00,-1.808782955078640953e+00,-8.368586857221089303e+00,-1.736960193288905430e+01,-2.680848966678604484e+01,-3.393488192890072241e+01,-3.499248031573370099e+01,-2.878045033989474177e+01,-1.626848350325599313e+01,2.259438353357836604e+00,2.275650374684482813e+01,3.747261823387816548e+01,4.656188268569530919e+01,5.214780713361687958e+01,5.527276084944605827e+01,5.627302768861409277e+01,5.443155221268534660e+01,4.985193255823105574e+01,4.487979316525161266e+01,4.007942032697610557e+01,3.689819880790309981e+01,3.676390996808186173e+01,3.719884333945810795e+01,3.874499031156301498e+01,4.032509299600496888e+01,4.011629290878772736e+01,3.853980740904808044e+01,3.557925755530595779e+01,3.224012920446693897e+01,2.847703721607103944e+01,2.540479721501469612e+01,2.325004811026155949e+01,2.217964863777160645e+01,2.227559868292883039e+01,2.321528073959052563e+01,2.379019678290933371e+01,2.451799738919362426e+01,2.592714859894476831e+01,2.669055703002959490e+01,2.519635432586073875e+01,2.145129627152346075e+01,1.578903006063774228e+01,9.937498988583683968e+00,5.358682533260434866e+00,2.327947557903826237e+00,2.906892266182694584e-01,-2.263477750821039081e-01,-3.980623534880578518e-01,-5.386728695011697710e-01,-6.783934002742171288e-01,-7.914371178485453129e-01,-8.637579143978655338e-01,-9.291637307032942772e-01,-9.804465975612401962e-01,-1.032349628396332264e+00,-1.082966438494622707e+00,-1.134161294437944889e+00,-1.196825920720584691e+00,-1.277314711012877524e+00,-1.365367125077682431e+00,-1.443656075294711627e+00,-1.531858803005889058e+00,-1.620139344056951813e+00,-1.713678572617936879e+00,-1.789528716035420075e+00,-1.854527550516650081e+00,-1.908014737244229764e+00,-1.949831963051110506e+00,-1.981142987642670050e+00,-2.005403795308666304e+00,-2.023588939278852195e+00,-2.037362289876909927e+00,-2.048480345110874623e+00,-2.057648174901260063e+00,-2.065488501946674660e+00,-2.072271795244887471e+00,-2.078103674604790285e+00,-2.083234007906867191e+00,-2.087223971757339314e+00,-2.088728370872559026e+00,-2.086944354232400656e+00,-2.085388758889166638e+00,-2.082551480300026014e+00,-2.069169602269539610e+00,-2.029950373544124886e+00,-1.901869856141274795e+00,-1.686655318233533762e+00,-1.570755428314441815e+00,-1.545388339261990041e+00,-1.099088664515875280e+00,-9.340629758371505886e-01,-1.169077103550080210e+00
4.299757110420614481e-01,1.626743157394230366e-01,2.122521679848432541e-02,-8.223548834212124348e-02,-1.868706607492640615e-01,-2.706762735615484416e-01,-3.470114015508443117e-01,-4.163889307528734207e-01,-4.587106266990303993e-01,-4.877992565743625164e-01,-5.019945423118770123e-01,-5.039147930219769478e-01,-5.020345225930213928e-01,-5.007246406748890877e-01,-4.997772192582488060e-01,-4.944945052266120911e-01,-4.907212173566222191e-01,-4.919168557971715927e-01,-4.955630190670490265e-01,-4.972684737294912338e-01,-5.107652144506573677e-01,-5.341996196657419205e-01,-5.578102041035890579e-01,-5.741940885782241821e-01,-5.864978777244687080e-01,-5.922660762444138527e-01,-6.023679217323660851e-01,-6.117310952395200729e-01,-6.209774548187851906e-01,-6.290207430720329285e-01,-6.220249878242611885e-01,-6.058065146207809448e-01,-5.770852742716670036e-01,-5.406483383849263191e-01,-5.008979970589280128e-01,-4.472304997034370899e-01,-3.797271070070564747e-01,-3.151442566886544228e-01,-2.484741518273949623e-01,-1.698731237556785345e-01,-9.563016961328685284e-02,-3.699394245631992817e-02,1.048164586245547980e-02,6.351850650389678776e-02,1.165977260679937899e-01,1.684565420728176832e-01,2.382989182951860130e-01,3.242626549908891320e-01,3.917028336109069642e-01,3.798993327654898167e-01,2.765451311133801937e-01,9.275241767318220809e-02,-1.278722594724968076e-01,-4.151983181945979595e-01,-5.832354621961712837e-01,-5.664853042690083385e-01,-5.201440970413386822e-01,-4.887861218303442001e-01,-4.877309661678737029e-01,-4.860482788644731045e-01,-4.098945315927267075e-01,-2.041312606306746602e-01,9.936807433041394688e-01,3.379795048826053971e+00,6.296121846884489059e+00,9.262501466670073569e+00,1.149427045811899006e+01,1.284437510650604963e+01,1.379885820252820849e+01,1.461750593734905124e+01,1.615472695324569941e+01,1.715898635331541300e+01,1.784800673089921474e+01,1.770345215170527808e+01,1.547551724873483181e+01,1.262646876077633351e+01,9.130609220126643777e+00,4.944308908190578222e+00,1.926036817894782871e+00,7.775082052685320377e-01,3.063047354808077216e-01,2.111157157924026251e-01,1.367416118737310171e-01,1.288915267214179039e-01,1.514383265748620033e-01,1.532994642620906234e-01,1.719651129096746445e-01,2.318578227423131466e-01,2.436987019609659910e-01,2.508373772725462914e-01,2.531868200167082250e-01,2.301243871916085482e-01,2.144932530354708433e-01,2.032187087461352348e-01,1.915880297819967382e-01,1.800976467784494162e-01,1.863838928984478116e-01,1.936570449033752084e-01,1.848674481734633446e-01,1.783108654781244695e-01,1.746882926090620458e-01,1.609382739989086986e-01,1.568114101537503302e-01,1.511767352058086544e-01,1.288442301738541573e-01,8.918464821181260049e-02,4.689323931233957410e-02,-2.206143095099832863e-02,-6.754792010178789496e-02,-7.820771308615803719e-02,-7.478792546316981316e-02,-7.557535567320883274e-02,-7.292506517842411995e-02,-3.435716824606060982e-02,8.519902359694242477e-03,3.898704936727881432e-02,9.071536920964717865e-02,1.701563233509659767e-01,1.954536239500157535e-01,2.161683035083115101e-01,2.553524577524513006e-01,2.684114791918545961e-01,2.664022003300487995e-01,2.685626768507063389e-01,2.506302003748714924e-01,2.218049124348908663e-01,1.896327838767319918e-01,1.655413382686674595e-01,1.402994691452477127e-01,1.420739965979009867e-01,1.607174107339233160e-01,1.744091868167743087e-01,1.705739713506773114e-01,1.651704242103733122e-01,1.281879796297289431e-01,4.342975359759293497e-02,-7.059974898584187031e-02,-1.656671820092014968e-01,-2.087021344632375985e-01,-2.770597655326128006e-01,2.161825030343607068e-01,2.475519280415028334e+00,5.805081737693399191e+00,9.453597985208034515e+00,1.284811971615999937e+01,1.578764211852103472e+01,1.820067411335185170e+01,2.022215048503130674e+01,2.141073269629850984e+01,2.197827929444611073e+01,2.258023661002516747e+01,2.281708058156073093e+01,2.342759753949940205e+01,2.434734024945646524e+01,2.447517627198249102e+01,2.404069488262757659e+01,2.289169575646519661e+01,2.062887061556102708e+01,1.786661052866838872e+01,1.440075414720922709e+01,1.010552734672091901e+01,5.947943288832902908e+00,2.604175256623420864e+00,7.786260889843106270e-01,2.409156754147261381e-01,1.550455940887331963e-01,1.256784331053495407e-01,1.027289547491818666e-01,7.623810472432523966e-02,1.011610234854742885e-01,1.194294670131057501e-01,1.668150876939762384e-01,1.421350827440619469e-01,8.886648202314972878e-02,6.740086770150810480e-02,8.134943572804331779e-02,1.168808249640278518e-01,1.405759225599467754e-01,1.481288261711597443e-01,1.280482655856758356e-01,9.531847015023231506e-02,7.147292513400316238e-02,5.640921602025628090e-02,3.664436872350051999e-02,9.525336499791592360e-03,-2.554743783548474312e-02,-8.660102228168398142e-02,-2.126757916994392872e-01,-2.566253934055566788e-01,-7.388400658965110779e-02,2.662560241296887398e-01,6.882866673404350877e-01,1.576999233337119222e+00,1.962711652420694008e+00,-3.946419720305129886e-01,-6.133781005395576358e+00,-1.486894945614039898e+01,-2.503042401955462992e+01,-3.365622864314354956e+01,-3.682714341196697205e+01,-3.239570493379142135e+01,-2.152125868899747729e+01,-5.066279737133299932e+00,1.326771838497370481e+01,2.693710468863719143e+01,3.245269535086117685e+01,3.273518507665721700e+01,3.089509397419169545e+01,2.916394460861920379e+01,2.794075626571429893e+01,2.730605319899041206e+01,2.650988561011035927e+01,2.619355071026075166e+01,2.691852940339595079e+01,2.736353789828717709e+01,2.885990057606250048e+01,2.995074378699064255e+01,3.256704147113487124e+01,3.423427862487733364e+01,3.593012705445289612e+01,3.870873882621526718e+01,3.831874730531126261e+01,3.571823404077440500e+01,3.210195822920650244e+01,2.824322186596691608e+01,2.516298438236117363e+01,2.273760082758963108e+01,2.215520762687083334e+01,2.200285982683999464e+01,2.204711844073608518e+01,2.239842233248054981e+01,2.254668036807561293e+01,2.275709368317620829e+01,2.226461998489685357e+01,1.979139040224254131e+01,1.543740120157599449e+01,1.060606233775615692e+01,6.221726284362375736e+00,3.102979017887264490e+00,1.009349795058369637e+00,4.174312669783830643e-02,-2.281263717450201511e-01,-3.982182977488264441e-01,-5.455830612409044988e-01,-6.926549272611737251e-01,-7.992345197126269341e-01,-8.713784245774149895e-01,-9.407073790207505226e-01,-1.008495477959513664e+00,-1.065752441063523293e+00,-1.131590606644749641e+00,-1.206124394433572888e+00,-1.294137977063655853e+00,-1.384588598986738361e+00,-1.466801036112883594e+00,-1.556405176597763784e+00,-1.647703306007315405e+00,-1.739900487620616332e+00,-1.810286450789135415e+00,-1.874489886278752238e+00,-1.925079898472176865e+00,-1.963938712578965351e+00,-1.993364242371171713e+00,-2.016085635637864470e+00,-2.032980294839944690e+00,-2.046114045486319810e+00,-2.056726849696133286e+00,-2.065526468388270587e+00,-2.073048308287980035e+00,-2.079650532105006278e+00,-2.085665264428826049e+00,-2.090749273455003276e+00,-2.094589760614326224e+00,-2.095913972967537120e+00,-2.093978174481890164e+00,-2.092598513903794810e+00,-2.090005244244821370e+00,-2.076907572656637058e+00,-2.037364459654781967e+00,-1.907953061803709716e+00,-1.691443558054743335e+00,-1.574887977389153093e+00,-1.550142672524088994e+00,-1.100944564474048093e+00,-9.343410813016816974e-01,-1.170194544130936265e+00
4.101375527679920197e-01,1.592817110940814018e-01,-4.762064199894666672e-03,-1.274903418961912394e-01,-2.418049537809565663e-01,-3.330932924582157284e-01,-4.160597594454884529e-01,-4.837506255134940147e-01,-5.241159652359783649e-01,-5.509654050692915916e-01,-5.616656821221113205e-01,-5.736490767449140549e-01,-5.789828458800911903e-01,-5.822186637669801712e-01,-5.876077385619282722e-01,-5.841295244172215462e-01,-5.797221511602401733e-01,-5.754436068236827850e-01,-5.803769640624523163e-01,-5.861417055130004883e-01,-5.938679361715912819e-01,-6.168918302282691002e-01,-6.374970655888319016e-01,-6.540593709796667099e-01,-6.696384185925126076e-01,-6.802750146016478539e-01,-6.797797186300158501e-01,-6.822419054806232452e-01,-6.848004749044775963e-01,-6.814381675794720650e-01,-6.737778754904866219e-01,-6.494237668812274933e-01,-6.162972506135702133e-01,-5.853180615231394768e-01,-5.472967028617858887e-01,-4.934761440381407738e-01,-4.297904898412525654e-01,-3.656871514394879341e-01,-2.940677311271429062e-01,-2.158451247960329056e-01,-1.285877289483323693e-01,-4.690713586751371622e-02,2.190291928127408028e-02,7.043471961515024304e-02,1.380505909910425544e-01,2.026207568123936653e-01,2.758133584284223616e-01,3.668472908902913332e-01,3.920611240901052952e-01,3.225553954252973199e-01,1.837974278023466468e-01,-6.515143648721277714e-02,-3.239514540764503181e-01,-5.087392381392419338e-01,-5.837071938440203667e-01,-5.837462509516626596e-01,-5.629411037079989910e-01,-5.374675616621971130e-01,-5.584572358056902885e-01,-5.805823886767029762e-01,-5.890861123334616423e-01,-5.962339336838340387e-01,-6.023323945701122284e-01,-5.990203138790093362e-01,-5.676661783945746720e-01,-4.550762684084475040e-01,-4.059029454365372658e-01,-3.793120862683281302e-01,-1.390338675118982792e-01,5.538174760295078158e-02,1.246191066456958652e-02,1.996887105051428080e-01,1.013491835677996278e+00,2.440991571173071861e+00,3.554604263685178012e+00,3.737860788125544786e+00,3.172687886515632272e+00,1.857653729734010994e+00,9.061855060281231999e-01,4.666541477199643850e-01,2.615610843058675528e-01,1.985172824934124947e-01,1.866543854121118784e-01,1.675339548382908106e-01,1.743208118714392185e-01,1.938990098424255848e-01,1.735107949934899807e-01,1.952383108437061310e-01,2.509900664445012808e-01,2.741472714114934206e-01,2.417195532470941544e-01,2.140590362250804901e-01,2.099828277714550495e-01,2.026904062367975712e-01,2.075491880532354116e-01,1.995904163923114538e-01,1.944523963611572981e-01,1.796851477120071650e-01,1.629264205694198608e-01,1.757442911621183157e-01,1.848252535564824939e-01,1.745873799081891775e-01,1.711907068965956569e-01,1.745021861570421606e-01,1.579521340318024158e-01,1.179696265025995672e-01,7.686228718375787139e-02,2.684262336697429419e-02,-1.901785004884004593e-02,-3.292775235604494810e-02,-6.705963611602783203e-02,-8.004691079258918762e-02,-8.544450649060308933e-02,-6.765490816906094551e-02,-2.308881725184619427e-02,2.673286007484421134e-02,4.499415098689496517e-02,6.025161850266158581e-02,1.110564831178635359e-01,1.772998475062195212e-01,2.348327553627314046e-01,2.484521444421261549e-01,2.363638798706233501e-01,2.414786503650248051e-01,2.346754567697644234e-01,2.072113594040274620e-01,1.838202043436467648e-01,1.704107008408755064e-01,1.674406230449676514e-01,1.630311754415743053e-01,1.540976176038384438e-01,1.606934193987399340e-01,1.477159688947722316e-01,1.128771393559873104e-01,7.258918596198782325e-02,-3.345082385931164026e-02,-1.594556976342573762e-01,-8.144848863594233990e-02,8.426892339193727821e-01,3.656480590580031276e+00,7.356347254943102598e+00,1.158886297885328531e+01,1.527747796988114715e+01,1.809409552346915007e+01,2.020907027763314545e+01,2.166354505228810012e+01,2.260776259653857778e+01,2.290543661243282259e+01,2.339856532355770469e+01,2.391439366899430752e+01,2.429997853189706802e+01,2.416527656000107527e+01,2.370536987483501434e+01,2.398023345787078142e+01,2.359042146615684032e+01,2.263328167237341404e+01,2.137823397363536060e+01,1.909913634695112705e+01,1.569100871263071895e+01,1.129461730935145169e+01,7.024985302938148379e+00,3.360103959217667580e+00,8.529259843016916420e-01,1.986363597097806633e-01,1.333625572733581066e-01,1.103122695349156857e-01,9.879971086047589779e-02,9.550566691905260086e-02,1.045218452927656472e-01,1.156885330565273762e-01,1.418261223006993532e-01,1.626251155976206064e-01,7.620398502331227064e-02,3.285579930525273085e-02,4.622146472684107721e-02,9.174013161100447178e-02,1.157816448248922825e-01,1.460939189419150352e-01,1.782752063591033220e-01,1.961857856949791312e-01,1.720172213390469551e-01,1.339703320991247892e-01,1.377048984868451953e-01,1.512023835675790906e-01,1.439606347121298313e-01,1.118675412144511938e-01,7.243085652589797974e-03,-1.406446308828890324e-01,-1.532712972257286310e-01,-1.728526910301297903e-02,2.430632028263062239e-01,6.568559726583771408e-01,1.631810034625232220e+00,2.260773975925985724e+00,4.684593885904178023e-01,-4.719837900251150131e+00,-1.309888312965631485e+01,-2.367814907943829894e+01,-3.336877934238873422e+01,-3.857864852217608131e+01,-3.558122564502991736e+01,-2.492700571473687887e+01,-8.679746096953749657e+00,1.204998191492632031e+01,3.112260036915540695e+01,4.169342609879095107e+01,4.674634228111244738e+01,4.901758525217883289e+01,4.947517126688035205e+01,4.858755974745145068e+01,4.639749064916395582e+01,4.303554253480979241e+01,3.922551231303077657e+01,3.570932847488438711e+01,3.379075781069695950e+01,3.353941583307459950e+01,3.392667076084762812e+01,3.533183668553829193e+01,3.728708713501691818e+01,3.992136257886886597e+01,4.010817063041031361e+01,3.798276849044486880e+01,3.521400348003953695e+01,3.157515739719383419e+01,2.775454423727933317e+01,2.518427162338048220e+01,2.325409054011106491e+01,2.215145384334027767e+01,2.238343400694429874e+01,2.326742430496960878e+01,2.369102528365328908e+01,2.566537398518994451e+01,2.713936049491167068e+01,2.597433400526642799e+01,2.220605156896635890e+01,1.688017351097369101e+01,1.082937026140280068e+01,6.044557032873854041e+00,2.683044113276991993e+00,4.701660779537633061e-01,-7.868685084395110607e-02,-2.401249173562973738e-01,-3.733212267979979515e-01,-5.014736193697899580e-01,-6.096252370625734329e-01,-6.727577447891235352e-01,-7.223039329983294010e-01,-7.451794352382421494e-01,-7.644020896404981613e-01,-8.023507744073867798e-01,-8.692063875496387482e-01,-9.531777836382389069e-01,-1.053337159100919962e+00,-1.170064817415550351e+00,-1.287445273366756737e+00,-1.400538764766679378e+00,-1.507305803257622756e+00,-1.611189944509533234e+00,-1.717136641498655081e+00,-1.801990843261592090e+00,-1.868170915491646156e+00,-1.920300371712073684e+00,-1.959643212670926005e+00,-1.988021499011665583e+00,-2.010056392260594293e+00,-2.026231440569972619e+00,-2.038837415806483477e+00,-2.048931072582490742e+00,-2.057481328374706209e+00,-2.064831145078642294e+00,-2.071171528194099665e+00,-2.076573317375732586e+00,-2.080633784935344011e+00,-2.082263953867368400e+00,-2.080488115374464542e+00,-2.078225297766039148e+00,-2.075070837396197021e+00,-2.061496847978560254e+00,-2.022087799326982349e+00,-1.894534315943019465e+00,-1.681023267999989912e+00,-1.564795348880579695e+00,-1.537888296123128384e+00,-1.094222684856504202e+00,-9.312441393558401614e-01,-1.165764964360278100e+00
