1.724002641736848318e+01,4.207702319625263954e+01,5.535404003887128965e+01,5.799137280351567370e+01,6.001442780830268475e+01,5.281242710348738001e+01,4.461829935612252029e+01,3.894523865231462878e+01,3.899631886795395985e+01,3.865782003532723365e+01,3.863589962529880495e+01,3.936341143436868606e+01,3.292277381087518506e+01,2.669700111215135507e+01,1.505175426142800177e+01,6.420471222721971571e+00,1.017886253539472818e+00,3.376908497884869576e-01,-1.584448781795799732e-02,-3.049882651298219116e-01,-5.838472633525615407e-02,2.005442976951599121e-01,1.523335536476224661e-01,-9.109726711176335812e-02,2.378118495689705014e-01,-2.831576563054660767e-02,1.029074853454403637e-02,3.830490804658808202e-01,7.406037066768078603e-02,-9.028519696130388184e-02,4.479805776625767066e-02,9.395893267281962835e-02,1.204147987235160144e-01,-7.099182003469195479e-02,-3.332931193777426415e-01,-3.703181456253332726e-01,-2.861607496445799370e-01,-9.880359515077259402e-01,-3.546413501219234377e+00,-7.537561587756499648e+00,-1.063103197561576962e+01,-1.083964658929460256e+01,-8.238738428568467498e+00,-5.317060447297990322e+00,-1.663167409016750753e+00,-1.751307299127802253e-01,-5.861197702470235527e-01,3.969672949169762433e-01,-2.511624585604295135e-01,-2.749343869509175420e-01,-1.418447660289530177e-01,-2.250546941068023443e-01,-1.092163948342204094e-01,-3.791380971670150757e-01,-3.820642242208123207e-01,-1.127650052076205611e-01,-5.920686530880630016e-01,-7.558479606668697670e-01,-4.815866787103004754e-01,-2.455499954521656036e-01,-3.311731633730232716e-01,-6.164437767583876848e-01,1.099380005616694689e-01,1.730676392558962107e+00,3.809128957174834795e+00,7.227992535568773746e+00,9.028592288028448820e+00,6.243395815312396735e+00,1.541343670338392258e+00,-1.160137491388013586e-01,-1.073855100446962751e+00,-8.296229550614953041e-01,-7.312788930721580982e-01,-5.984639098169282079e-01,1.414086934564949161e+00,1.016752585673131648e+01,1.771306391689360282e+01,2.907936261977081926e+01,3.432384720069032369e+01,3.236770844931021429e+01,2.710406013275115811e+01,1.463619041466379400e+01,5.016643990296870470e+00,-4.389744839863851666e-01,-2.688823066382610705e+00,-4.248126838472671807e+00,-5.732720240717753768e+00,-4.516264594625681639e+00,-3.728175241258540495e+00,-2.705034350103076690e+00,-2.064826948453685418e+00,-3.702636550036288554e+00,-6.416833258408701113e+00,-1.076295508737342743e+01,-1.254780291766479650e+01,-1.049858657526783645e+01
2.136105755213930024e+01,5.127431368418911006e+01,6.827407525411774714e+01,6.901266563698072787e+01,6.857742102068073109e+01,6.727763929105890384e+01,6.316308083704359433e+01,6.143186548448170470e+01,5.674600556327834511e+01,5.195755947781731265e+01,4.537611433105610104e+01,3.900678968743045516e+01,2.602106435120933270e+01,1.722521016303528540e+01,8.076173177250893787e+00,2.250936088385060430e+00,1.173763601833698544e+00,7.549657810013741255e-01,1.506565755698829889e-01,6.182234590558692844e-01,5.238126459298655391e-01,9.482617024332284927e-03,2.277847428340464830e-01,8.082301216199994087e-02,-7.873510941863059998e-03,1.114040688821766878e-01,-1.107863175941048439e-02,-1.681371304684375900e-02,2.207195462796107677e-02,-2.665071178788878115e-01,5.070866190135348006e-02,1.411530831280742859e-01,2.123720005826612578e-01,3.080433551389205604e-01,9.752736978282428026e-02,-7.394759369477696964e-01,-6.846214819485965108e-01,-3.117043965322466192e+00,-3.890647246055252140e+00,-6.259527635294944048e+00,-4.134118806002334168e+00,-6.017975038681941946e-01,-4.533776389434933662e-01,3.600860342917037826e+00,9.655141665658447891e+00,1.048832189319166019e+01,1.941346472994328565e+01,2.353616038489556672e+01,1.853926571588212369e+01,2.163246358620349952e+01,1.894023444866570571e+01,1.244944976836923622e+01,1.183050210471265018e+01,9.112878402462229133e+00,4.290008734329603612e+00,4.722715937212342396e+00,3.140644557541236281e+00,3.145384835661388934e-01,1.889751793351024389e-01,-6.888961461372673512e-01,-6.852789688855409622e-02,-5.574643192812800407e-02,-3.088481677696108818e-02,5.032106662401929498e-01,1.345992476592073217e+00,6.328987890388816595e+00,7.186311953264521435e+00,5.187764037982560694e+00,3.448729339521378279e+00,9.104781649075448513e-01,-4.478428760485257953e-01,-1.486462249187752604e+00,-1.068474993886411539e+00,-1.060926588510618274e+00,-1.137786760532122798e+00,6.683331059722519285e-01,8.530493601273235527e+00,1.695531465460246778e+01,2.687203835147192876e+01,2.949257503945327130e+01,2.604054694300501183e+01,1.638706013690402585e+01,6.494777083444205346e+00,9.813783531135413796e-01,-2.067150604038033634e+00,-3.696279437222983688e+00,-6.182863123656716198e+00,-7.857402088062372059e+00,-5.974361366793743855e+00,-6.600938027957454324e+00,-5.466879239073023200e+00,-1.030724967068113074e+01,-1.451364245178410783e+01,-1.590993232236215249e+01,-2.007196039543487132e+01,-1.378710794472135603e+01
6.419832139508798718e+00,1.145089855836704373e+01,1.464964185538701713e+01,1.985293803270906210e+01,2.406072661699727178e+01,2.677453608182258904e+01,3.130373238446190953e+01,3.506900107092224061e+01,3.153505231440067291e+01,2.491145022079581395e+01,2.223622825276106596e+01,1.849210650892928243e+01,1.511107274307869375e+01,1.216681374120526016e+01,9.816205474897287786e+00,8.396880293730646372e+00,7.097155142633710057e+00,4.226973196840845048e+00,1.655272794276243076e+00,2.016188381065148860e+00,2.442712700227275491e+00,2.002028983668424189e+00,2.472951498231850564e+00,2.299584856722503901e+00,1.413653166498988867e+00,4.355076724896207452e-01,3.997169388458132744e-02,-6.583872648916440085e-01,-8.481316831894218922e-01,-6.860998328193090856e-01,-8.364363035652786493e-01,-1.085452189843636006e+00,-1.151848376088310033e+00,-1.101209946791641414e+00,-9.844597694464027882e-01,-9.680393090238794684e-01,-1.032247959170490503e+00,-8.011901286663487554e-01,-9.362282268120907247e-01,-9.785319503862410784e-01,-6.925472554285079241e-01,-7.177637258428148925e-01,-7.820148472674190998e-01,-5.056929411366581917e-01,-3.865060983225703239e-01,-4.709094241261482239e-01,-3.142751050181686878e-01,5.713770212605595589e-02,6.926890695467591286e-01,1.432184469909316249e+00,2.727178323781117797e+00,3.922422622446902096e+00,5.647545817075297236e+00,7.343267983025725698e+00,7.898578461492434144e+00,8.904218000709079206e+00,9.390737136127427220e+00,8.024573198519647121e+00,6.692691982025280595e+00,5.306909517385065556e+00,4.453380270599154755e+00,8.831415421154815704e-01,-1.629670686088502407e-01,3.414734391844831407e-01,-5.278124002506956458e-02,3.608821164816617966e-01,4.096842678263783455e-01,2.418961422517895699e-01,1.937195538484957069e-01,1.950593075744109228e-01,1.880584903992712498e-01,-8.611623197793960571e-04,-1.943930331617593765e-02,8.901592576876282692e-02,3.258398212783504277e-01,-5.393758949358016253e-01,-7.695419364608824253e-01,-1.294449247245211154e+00,-1.756980168094742112e+00,-1.446416020626202226e+00,-2.238120558438822627e+00,-2.358653214760124683e+00,-2.262088794654118828e+00,-2.727451109676621854e+00,-2.635390069699496962e+00,-2.823684198781847954e+00,-2.295734641404123977e+00,-1.282572137191891670e+00,-1.249381866771727800e+00,-1.601358373882248998e+00,-4.369067009538412094e-01,-2.359229087596759200e+00,-6.028025059727951884e+00,-2.968441227567382157e+00,-2.339605542889330536e+00,4.177488437213469297e+00
2.338968074980257938e+01,5.081182300325497181e+01,5.937935739897477561e+01,6.398413102584561329e+01,5.918026663827708944e+01,5.311930364661225212e+01,5.027216057317855302e+01,4.390259737105145632e+01,3.931113873619261767e+01,3.384532579182922518e+01,3.651872628400252552e+01,2.889672279434694246e+01,2.666878790242702735e+01,1.606510776266690499e+01,8.307551639154553413e+00,1.541604941536206752e+00,-1.977680996060371399e-02,-4.511973391054198146e-01,-4.513132225256413221e-01,-2.292582851271607325e-01,1.179451575418397624e-01,3.256155167025838182e-01,2.697850614786148071e-01,1.404020637273788452e-01,-8.714985509868711233e-03,-2.689203013132939191e-01,-2.824200043438054308e-01,-2.384562583709168848e-01,-1.143068854067905704e-01,7.641220807408899418e-02,2.472194120564950026e-01,4.415740712335036733e-02,4.237095872895224602e-02,-1.089855567038284789e-01,-2.186558744527076215e-01,-3.152107795800418444e-01,-4.913440888526281469e-01,-8.969701135325749419e-01,-1.901936936190793404e+00,-2.824277333997827100e+00,-3.288726745736255452e+00,-3.041029693495659103e+00,-1.786093106290309152e+00,2.663776995614171028e-01,1.794460273580625653e+00,1.189462176000233740e+00,6.310792707372456789e-01,-2.081599612720310688e-01,-2.859395203176973155e-01,-1.496448381803929806e-01,-7.138417329406365752e-02,1.087568816728889942e-02,-3.438340697903186083e-02,-4.883750400040298700e-01,-7.052398135419934988e-01,-6.094420229637762532e-01,-8.776632823719410226e-01,-9.812115222739521414e-01,-8.595486793201416731e-01,-7.489677347475662827e-01,-7.209089001407846808e-01,-9.832127326517365873e-01,-8.519191840896382928e-01,-9.669633535668253899e-01,-8.963770015980117023e-01,-1.012825592653825879e+00,-8.483042153820861131e-01,-6.202520404476672411e-01,-5.962515744613483548e-01,-7.980894735082983971e-01,-1.307026402326300740e+00,-4.306992798810824752e-01,-7.123011630028486252e-03,-1.210591075941920280e-01,-1.440533636865382050e-02,1.903867788088973612e+00,8.046809719875454903e+00,1.631095355559955351e+01,2.321338309265114219e+01,2.338582097268208315e+01,1.670002260720013965e+01,8.251547997351735830e+00,2.380925869336351752e+00,-3.149145296774804592e-01,-3.397858045878820121e+00,-5.517401052289642394e+00,-6.358971125446259975e+00,-5.590085191419348121e+00,-4.346275483549106866e+00,-2.716261897156073246e+00,-2.967322013478245424e+00,-4.736577111628008652e+00,-8.116940837819129229e+00,-1.288267070328583941e+01,-1.541704839444719255e+01,-1.162576284585520625e+01
8.698575365264730408e+00,2.731135316141757130e+01,4.623962004853422059e+01,5.964588202211416501e+01,6.484943243799580159e+01,6.598224331531355347e+01,6.443813862931563108e+01,5.588132098865401076e+01,4.514069567052536058e+01,2.597909572857355442e+01,1.151431660749048547e+01,6.302281031952077228e+00,4.866450986677705259e+00,1.123100207228689840e+01,2.470164433456076836e+01,3.494824083471718268e+01,3.703013193562799188e+01,3.419138717893690682e+01,2.244389832080777580e+01,1.021333925670478493e+01,3.009522277163341641e+00,6.077622888842881821e-01,6.242855724085671909e-02,-1.304355095631706263e-01,-1.921440844205335452e-01,-9.343938136410656625e-03,1.487693835636676454e-01,1.038226329853202401e-01,1.345046758651733398e-01,1.642183514777570963e-01,1.193304446459997337e-01,2.425677688989225089e-02,8.709147760905011637e-02,1.430674945352166105e-01,1.672661168079976335e-01,2.704672806191785739e-01,1.961193855386227369e-01,7.509667705744504929e-02,1.302212787559255958e-01,1.462357662385329604e-01,9.538581015833358379e-02,-5.118002231776586086e-02,-2.146948529848771159e-01,-2.392269090451293323e-01,-2.375477107480605810e-01,-1.506888222532154487e-01,-5.496416882203902787e-02,-7.444237184876101310e-02,-3.871395446478089752e-01,-6.188215112168222731e-01,-6.206448569467397647e-01,-8.256209559019396238e-01,-9.302859701531360770e-01,-1.257351166275100240e+00,-2.356832361261297137e+00,-3.846818517926919867e+00,-5.037140649823356853e+00,-5.617669145870593184e+00,-5.056915180936584875e+00,-3.807501830910268836e+00,-2.557809241447387194e+00,-1.092364896555352516e+00,3.107884004195806682e-01,1.030619877565186471e+00,1.598981656832620502e+00,2.057725789083633572e+00,2.414996632898692042e+00,1.757244965410791337e+00,6.782932402566075325e-01,3.463812565896660089e-01,-8.669668133370578289e-02,-9.977790230186656117e-02,-4.330250452621839941e-01,-2.010078402003273368e+00,-3.768488085595890880e+00,-5.003708125557750463e+00,-5.900624727335525677e+00,-5.765044379862956703e+00,-4.061686592875048518e+00,-1.421801224467344582e+00,8.721533988136798143e-02,-3.002528734505176544e-01,-2.561845970223657787e+00,-8.323671809863299131e+00,-1.323383467458188534e+01,-1.895735436724498868e+01,-1.811024531419388950e+01,-1.753908721357584000e+01,-1.892840669304132462e+01,-2.091171664453577250e+01,-2.438771107629872859e+01,-2.678874882014912373e+01,-2.991158488432938611e+01,-2.919948382116854191e+01,-2.440926293120719492e+01,-1.886108011892065406e+01
1.552692845778932451e+01,3.820698759772665198e+01,5.423513809646419759e+01,5.917128779114909776e+01,6.136500487299440465e+01,5.386819234340407547e+01,4.827567515994235237e+01,4.165032757488586412e+01,4.199006746596637640e+01,4.098371895876152848e+01,4.321951018023878532e+01,3.818547185458089643e+01,3.100156893343319098e+01,2.153345289399666740e+01,1.018368103977991268e+01,3.210212685982696712e+00,1.003445776179432869e+00,3.462354489426928694e-01,6.963835159523057428e-02,2.948583229273538109e-02,2.615365579964077369e-01,1.121078246248963239e-01,1.516441243584267795e-01,1.803230527043524489e-01,2.175247211707755923e-01,1.581398448906838894e-01,1.041889656335115433e-03,-1.573949075593716884e-02,-3.723605470382551630e-02,-7.784272464989783202e-02,4.057064303663082683e-02,-1.948322540981450857e-01,8.226369099139674290e-02,-2.153884461104667025e-01,-1.520821927466045054e-01,-2.050548300485957043e-01,-4.140752759913652881e-01,-5.888011261273504715e-01,-3.478889355608131950e+00,-7.641662580135744065e+00,-1.128005847889289726e+01,-1.305682731754211545e+01,-1.173469935293542221e+01,-8.604671281827904750e+00,-2.941935152106452733e+00,-4.169985954649746418e-01,-4.691696153022348881e-01,1.126817241311073303e-01,1.366187399253249168e-02,-4.149754112586379051e-02,5.293175205588340759e-02,-1.936917635612189770e-02,7.060919995692529483e-01,6.356569172348827124e-01,7.941847096662968397e-02,1.595476277580019087e-01,-1.223831637762486935e-01,-2.644285769492853433e-01,1.830421127378940582e-01,1.922523500397801399e-01,3.771180659532546997e-02,-1.941987876780331135e-01,-4.681086097843945026e-01,-2.682059621438384056e-01,1.159892571158707142e-01,-1.706196193699724972e-01,-1.052914069732651114e-01,7.994261622661724687e-01,1.130971982638584450e-02,-2.963796493131667376e-01,-1.330841928895097226e+00,-6.109008688363246620e-01,-3.286258205771446228e-01,-6.383937306527514011e-01,-1.665477545466274023e-01,4.787383369294104796e-01,3.221181766828522086e+00,9.278005617205053568e+00,1.731181854696478695e+01,2.443390409731136970e+01,2.530371220338645344e+01,2.054598086648097421e+01,1.509831124732484042e+01,7.775727015861775726e+00,1.372106762486509979e+00,-1.465889342827722430e+00,-2.510105460969498381e+00,-2.671208567742723972e+00,-2.620279867289355025e+00,-2.332133092288312781e+00,-2.769394001836502639e+00,-4.352284778551307909e+00,-7.105431117868249657e+00,-1.135011187797789489e+01,-1.192713197864205910e+01,-8.445157734211534262e+00
-7.039227453060448170e-02,-2.633597982232458889e+00,-4.929255750961601734e+00,-3.931956324260681868e+00,-2.578663099789991975e+00,-2.584779850440099835e-01,-5.413561914232559502e+00,-6.621455835527740419e+00,-5.358371466048993170e+00,-2.177474658470600843e+00,-2.086741416947916150e+00,-4.163030942087061703e+00,-5.323920682480093092e+00,-7.216193658881820738e+00,-5.997230977736762725e+00,-4.038832661113701761e+00,-2.429289389896439388e+00,-7.622465589083731174e-01,-1.209256382426247001e-01,-3.208184636896476150e-01,-4.394866384100168943e-01,-6.872835019021295011e-01,-6.952479321043938398e-01,-6.461971706012263894e-01,-9.228765491861850023e-01,-8.827936281450092793e-01,-8.086262288270518184e-01,-1.005720283370465040e+00,-9.527335732709616423e-01,-7.695811055782542098e-01,-9.523006845265626907e-01,-1.042545696720480919e+00,-8.565952617209404707e-01,-8.323317663744091988e-01,-8.628959590569138527e-01,-6.818359002936631441e-01,-7.369318706914782524e-01,-7.461939132772386074e-01,-5.796773863257840276e-01,-3.768180586266680621e-01,-3.669242509640753269e-01,-3.311563939787447453e-01,-2.699865144677460194e-01,-2.076766174286603928e-01,-1.145704942755401134e-01,5.759286442771553993e-01,1.821466070658061653e+00,3.756955289114557672e+00,6.404302451759576797e+00,1.012985823862254620e+01,1.265498611237853765e+01,1.372917177345516393e+01,1.321685490349773318e+01,1.134093615738674998e+01,8.128450403310125694e+00,4.542934979777783155e+00,1.913514657877385616e+00,8.517593131982721388e-01,4.572259895503520966e-01,4.744570087641477585e-01,3.404957707971334457e-01,1.178117303643375635e-01,2.151169840944930911e-01,3.643517728196457028e-01,2.448963250499218702e-01,1.796750208595767617e-01,2.348373093336704187e-01,3.317931597121059895e-01,1.182776724745053798e-01,-7.426878355909138918e-02,1.139486335741821676e-01,1.066463204915635288e-01,-2.250839001426356845e-01,-5.156800696277059615e-01,-1.025398561032488942e+00,-1.363665145796403522e+00,-1.422946287319064140e+00,-1.430906206835061312e+00,-1.810852816794067621e+00,-1.718576747924089432e+00,-1.385664691126294201e+00,-1.505987198092043400e+00,-1.562902039848268032e+00,-1.374779915669932961e+00,-1.405870663852056168e+00,-9.685712086502462626e-01,-1.091141962446272373e+00,-2.204859389457851648e-01,-3.578301821835339069e-02,-1.347327197436243296e-02,1.698030359111726284e-01,1.981814608559943736e+00,3.916148657153826207e+00,5.732590176688972861e+00,5.337643066479358822e+00,4.705244733020663261e+00
2.677617232751401843e+01,4.869384961608921003e+01,5.764399500122294739e+01,5.713966800657817657e+01,5.596020252325797628e+01,5.974935622934754065e+01,6.449829220772585359e+01,6.426872509534405253e+01,6.866264505090657622e+01,6.203849719724746592e+01,4.831573286109107812e+01,3.358930020745322054e+01,1.737001858892361383e+01,5.351404100423678756e+00,5.989740944933146238e-01,-3.942347259268075277e-02,-6.319968911955839985e-01,-3.873310730170516081e-01,-9.058189984966702468e-02,3.270189459367855989e-02,7.298729057611552662e-02,4.066042174251300878e-01,4.131401874491729131e-01,1.824242016300559044e-02,6.321091204881668091e-03,-9.272833472731889515e-02,-3.563068897383061540e-01,1.983482237266684933e-01,1.255031770683672221e-01,2.276730800554105372e-02,5.976976704118897032e-03,1.057904071857933559e-01,7.998065143302142133e-01,1.441535751996525505e-02,-4.178648500149222400e-01,-2.201890864096753830e-01,-7.686035836601234905e-01,-1.321156786639249958e+00,-3.199777103141798307e+00,-2.818899783699976069e+00,-3.591589169129917991e+00,-1.241247163777899232e+00,1.337375489820260555e+00,2.572739045019261539e+00,5.134062341472599655e+00,5.185442814952693880e+00,2.952738639141898602e+00,2.394946327112847939e+00,1.923410267627332360e+00,1.388130150735378265e-01,6.587802518624812365e-01,5.846952068386599422e-01,8.278525772038847208e-02,5.272103931056335568e-01,3.208128471160307527e-01,-2.368421783321537077e-01,-2.467356303823180497e-01,-1.782415495254099369e-01,-3.851646154653280973e-01,7.060060935327783227e-01,-1.081431177444756031e-01,5.639882292598485947e-03,1.040821798378601670e-01,-6.634133481929893605e-01,-3.730573779830592684e-01,-8.248825223417952657e-01,-9.202811571594793350e-01,-1.751332286861725152e+00,-1.752016105281654745e+00,-1.734118285821750760e+00,-1.935567745938897133e+00,-1.377910637063905597e+00,-6.328636878170073032e-01,-1.817041086032986641e-01,6.367656518705189228e-01,1.217589704319834709e+00,2.379520737973507494e+00,1.065263729752041399e+01,1.908291017321437977e+01,2.757397632304579815e+01,2.971180928819330802e+01,2.219571987882730468e+01,1.260111869301198873e+01,4.250114965951070189e+00,-7.040381071856245399e-01,-2.428191474464256316e+00,-5.647343568190990482e+00,-6.896657006582245231e+00,-5.993359320971649140e+00,-3.673318879678845406e+00,-5.154924723997154956e+00,-9.953661471605300903e+00,-1.303662835503928363e+01,-1.884309963649138808e+01,-2.226470638089813292e+01,-1.680408948066178709e+01
1.794485919310963595e+01,3.617189230906666353e+01,3.645367097030197101e+01,3.725414429994799548e+01,3.328404651533674041e+01,3.027734721060835454e+01,3.291663333850158324e+01,3.809567431301059059e+01,3.680523384127127429e+01,3.827101363752740326e+01,3.806993464966996044e+01,3.179870290926965026e+01,2.751170406212332864e+01,2.077295619093183632e+01,1.010843091376591474e+01,3.588837658171541989e+00,1.099402838968671858e+00,3.748655142262578011e-01,-1.667914725650376795e-02,-8.023467436487408122e-02,3.113108085542464210e-01,1.047805637997711870e-01,4.380386369302868843e-02,3.153348022606223822e-01,1.938294603023678064e-01,7.470119965728372335e-02,-6.886311115081866774e-03,-2.172339052550498195e-02,4.482397409526583942e-02,-2.164301481701613739e-02,-9.244409272986331416e-02,-3.670503072788733334e-02,-2.446321285014505520e-01,-2.656585463549276938e-01,-5.541878801625443884e-02,-3.051274650463824401e-01,-4.112206065643704278e-01,-7.874367578213821162e-01,-2.858252064039323415e+00,-5.971723080377088877e+00,-7.246904867143214801e+00,-7.851543900847900659e+00,-4.871754203369775382e+00,-3.508589982709963806e+00,-2.031064649221661966e+00,-9.662877045338973403e-01,-7.296274146210635081e-01,-8.498973223177017644e-01,-8.691714806482195854e-01,-4.728671393822878599e-01,-2.459170743823051453e-01,-1.774900721211452037e-01,-1.799065829254686832e-02,-4.637719197780825198e-01,-5.861695081694051623e-01,-6.424606345826759934e-01,-6.634220255655236542e-01,-4.388782645110040903e-01,-5.828523347154259682e-01,-3.562817331403493881e-01,-3.412974474485963583e-01,-4.493878195062279701e-01,-1.783419316634535789e-01,-1.538669068831950426e-01,4.804321992560289800e-01,9.582507457234896719e-01,1.674602432183746714e+00,2.085110183516007964e+00,1.077260651600226993e+00,-2.559440395561978221e-01,-1.130499674938619137e+00,-1.106618473306298256e+00,-5.547116796951740980e-01,-7.282950216904282570e-01,-8.801576429057149653e-01,1.889560776190705838e+00,6.696228489105124027e+00,1.687634823269393181e+01,2.512735574150758566e+01,2.793531732459405248e+01,2.578984977768010367e+01,1.552252015433010257e+01,7.285805539751891047e+00,3.588423207402229309e-01,-3.019711605738848448e+00,-4.728081332752481103e+00,-5.017367648659273982e+00,-3.236963841132819653e+00,-2.233730923966504633e+00,-1.438368981949242453e+00,-2.116162425498373523e+00,-3.899731034147578157e+00,-8.799792737712749613e+00,-1.456318548379076105e+01,-1.803841869410604204e+01,-1.397070262685883790e+01
9.793922929558902979e+00,1.677946106978924945e+01,2.134771047602407634e+01,2.536979628494009376e+01,3.147309298953041434e+01,3.702803641057107598e+01,4.352729464275762439e+01,4.606746326363645494e+01,4.651156914839521050e+01,4.415101737715303898e+01,3.823934862652095035e+01,2.958009469090029597e+01,2.216223723255097866e+01,1.681910810247063637e+01,1.353636138699948788e+01,1.261882790143135935e+01,1.468567989894654602e+01,1.817902672407217324e+01,2.030402987077832222e+01,1.954606965254060924e+01,1.657505884626880288e+01,1.279647876671515405e+01,8.249746502522611991e+00,4.478888955258298665e+00,2.385231999855022877e+00,2.046326961019076407e+00,2.360362653271295130e+00,2.354477468659752049e+00,2.100759694178123027e+00,1.701559717301279306e+00,8.886838394682854414e-01,1.810774928308092058e-01,-4.338348621968179941e-01,-5.835910141468048096e-01,-6.647814861498773098e-01,-5.512560955248773098e-01,-5.469259023666381836e-01,-7.547105173580348492e-01,-8.354125781916081905e-01,-6.079280227422714233e-01,-5.629493589513003826e-01,-6.531709586270153522e-01,-5.496487491764128208e-01,-3.799178261542692780e-01,-3.549225963652133942e-01,-2.894375799223780632e-01,-1.435521732782945037e-01,-6.953999679535627365e-02,-1.258734606672078371e-01,2.484936986584216356e-01,8.884043029975146055e-01,1.568034916184842587e+00,2.393675285333301872e+00,3.062282607515953714e+00,3.079176863189786673e+00,3.221266344189643860e+00,2.546464933140669018e+00,5.163264611910562962e-01,-1.663027965347282588e+00,-2.091505680466070771e+00,-2.226325221708975732e+00,-1.921190879307687283e+00,-1.031995479366742074e+00,-4.162641270086169243e-01,1.565841216361150146e-01,1.633320736000314355e-01,4.703280404210090637e-01,7.962549795629456639e-01,1.038013917685020715e+00,8.928010133968200535e-01,9.571155300363898277e-01,7.201662926236167550e-01,6.876351248356513679e-01,6.888388250081334263e-01,5.117731542559340596e-01,7.317427641246467829e-01,1.035747376387007535e+00,1.223726939351763576e+00,9.098404105461668223e-01,4.123087854823097587e-01,1.417914004996418953e-01,9.272606670856475830e-02,8.964926446788012981e-02,1.605817223899066448e-01,-6.051716320216655731e-01,-3.874004700046498328e-01,-5.941905605141073465e-02,-4.842793196439743042e-02,1.575039154849946499e-01,7.068072166293859482e-02,-4.588186414912343025e-02,1.240796295460313559e-01,-1.568103819154202938e-01,6.360201796051114798e-01,1.898998589313123375e-01,2.522794625925598666e+00
9.700756395235657692e+00,2.216954055614769459e+01,2.501331479856162332e+01,3.324160115141421556e+01,3.367414282623212785e+01,4.716174630587920547e+01,3.369382266822503880e+01,2.852017247394542210e+01,2.571798961656168103e+01,1.650882041989825666e+01,1.422164285602048039e+01,7.901510103256441653e+00,4.361111632315441966e+00,1.830679869977757335e+00,-7.036007638089358807e-02,-2.930967852662433870e-01,-3.930148985236883163e-01,-4.058007919229567051e-01,-5.822984952246770263e-01,-5.500608863221714273e-01,-7.608808933291584253e-01,-7.666884171776473522e-01,-3.484666859731078148e-01,-4.496656437404453754e-01,-4.446671212790533900e-01,-4.714843927285983227e-01,-5.623724328470416367e-01,-5.688252039253711700e-01,-1.850345721468329430e-01,7.447842042893171310e-02,7.494945283979177475e-01,1.800693336874246597e+00,2.104579721548361704e+00,2.811179846292361617e+00,1.400136728538200259e+00,7.737537989160045981e-01,-1.621484155417419970e+00,-1.613841890066396445e+00,-1.547886858577840030e+00,-9.205547766614472494e-01,-2.678256346262060106e-01,-6.338209137320518494e-01,-1.251895823515951633e-01,-1.918855355179402977e-01,6.202548932633362710e-01,9.144578643608838320e-01,1.970741442521102726e+00,1.434405900639831088e+00,1.302464456239249557e+00,3.013501212553819641e+00,7.667657361598685384e-01,1.096397495522978716e+00,6.368592042708769441e-01,2.166394427826162428e+00,2.043626024620607495e+00,2.454340894706547260e+00,2.813109945971518755e+00,4.043245318811386824e+00,6.847557676082942635e+00,5.639553026296198368e+00,7.883271723985671997e+00,9.935791396070271730e+00,1.107185723494330887e+01,9.058234659081790596e+00,1.043749527214094996e+01,1.097010085242800415e+01,1.279915675567463040e+01,1.219610125577310100e+01,1.336092244740575552e+01,1.473538993834517896e+01,1.463971108535770327e+01,1.091323634237051010e+01,8.567437586374580860e+00,7.375204486539587379e+00,6.039222295628860593e+00,4.132001479156315327e+00,2.316096593494876288e+00,3.450836631789570674e+00,-1.007210466079413891e+00,-6.178214624524116516e+00,-1.506667037871375214e+01,-2.104338404396548867e+01,-2.603281768655870110e+01,-2.584878590214066207e+01,-1.652856351912487298e+01,-7.365993126586545259e+00,-6.476872641360387206e-01,1.108285058056935668e+00,2.007055428577587008e+00,1.654543476179242134e+00,1.755261272541247308e+00,3.388749646022915840e+00,6.489754344453103840e+00,1.139389872783794999e+01,1.502397068229038268e+01,9.485271475510671735e+00
-1.031530050564279932e-01,4.568807948540779762e+00,6.368649569485569373e+00,5.949414722621440887e+00,4.022584054968319833e+00,1.522338420152664185e+00,-5.699415417620912194e-01,-2.667979761608876288e-01,-1.615555850381497294e+00,-5.351414485776331276e-01,5.174172393236595724e-01,2.864629809718408637e-01,1.195399183779954910e-01,2.499016374349594116e-02,-6.068338034674525261e-02,2.751628856998280526e-01,2.526617742923509269e-01,-8.743325434625148773e-02,1.722412308026353145e-01,-4.200718004477010936e-02,-1.118691730539396190e-01,3.446363623047119518e-01,2.288022920214416445e-02,1.208260395013667221e-01,-9.165880797428371807e-02,-2.627401314362032281e-01,-7.389510313998925994e-02,-4.999147850000440485e-02,-4.956187114669319271e-02,-4.736611132278767400e-01,-7.689681863955115659e-01,-1.281966526645476279e+00,-4.240935895522454757e+00,-4.732286706395257170e+00,-8.621672100032270691e+00,-6.787026813380180101e+00,-7.310227869777008891e+00,-4.841356642544269562e+00,-1.945773563988041133e+00,-5.915255997097119689e-01,1.638947862666100264e-01,-1.315254480228759348e+00,-9.380657114088535309e-01,-5.707713225856423378e-01,-1.300602469127625227e-01,-5.339518629480153322e-01,-4.884408229117980227e-01,-5.068471063859760761e-01,-3.020857741357758641e-01,-1.533769612433388829e-01,-5.789563467260450125e-01,6.982922740280628204e-02,-8.300283271819353104e-02,-2.784074719529598951e-01,-4.439174050785368308e-01,-2.399726444855332375e-02,2.625654047369607724e+00,3.194142950174864382e+00,2.373274302713980433e+00,2.525642449269071221e+00,5.362990090579842217e-01,1.108277479215757921e-01,-2.023727492662146688e+00,-7.345818913890980184e-01,-1.500968125183135271e-01,2.100052591231360566e-01,-4.626057409914210439e-01,2.869841051287949085e-01,2.394102456280961633e+00,4.284080237499438226e+00,9.495200079865753651e+00,1.429493029764853418e+01,1.684175736457109451e+01,1.274249751213937998e+01,6.769595175050199032e+00,3.852985347388312221e+00,8.758172701636794955e-01,2.030224218033254147e-01,-5.602925356943160295e-01,-4.243183046346530318e-01,8.801908803870901465e-01,5.672825694593484513e+00,5.039699234068393707e+00,8.994137960195075721e+00,9.950592167209833860e+00,6.811674546421272680e+00,1.025504008224930885e+01,1.743719044330677548e+01,2.152554849033623441e+01,3.441219019748928076e+01,4.035809225318553217e+01,3.878848268394597198e+01,4.114432840691870297e+01,3.832623191382612049e+01,3.556120587950022127e+01,1.862134103108112981e+01
-8.046092830481939018e-01,-2.145498424069955945e-01,-1.332064359448850155e+00,-5.832281894981861115e-02,5.905050169676542282e-01,-2.511218003928661346e-01,-5.168049984276876785e-01,-7.603872157633304596e-01,-5.489324890077114105e-01,-3.224626435548998415e-01,-4.873644575709477067e-01,-2.140931978938169777e-01,-1.673346762545406818e-01,5.612314764875918627e-01,5.808335853216703981e-01,8.099280719761736691e-01,2.476948770228773355e+00,3.591811719408724457e+00,4.729941027544555254e+00,5.592800886835902929e+00,4.242791581258643419e+00,2.924056522315368056e+00,2.373643930026446469e+00,2.280560187937226146e+00,2.358549055992625654e+00,3.426121646305546165e+00,3.884724300121888518e+00,2.538885958492755890e+00,2.335350629116874188e+00,1.941454564570449293e+00,1.511030588299036026e+00,1.930342418709187768e+00,3.301445189397782087e+00,3.149925885489210486e+00,3.807565974770113826e+00,3.918951073195785284e+00,3.606397125404328108e+00,4.422400880721397698e+00,4.087230561068281531e+00,5.435626063030213118e+00,8.522684867028146982e+00,1.205575380334630609e+01,1.328179829660803080e+01,1.579457080201245844e+01,1.826782337983604521e+01,1.625430119584780186e+01,9.574291440425440669e+00,6.117602890124544501e+00,1.486333887558430433e+00,-2.602288571652024984e+00,-1.645537131058517843e+00,-8.300306648015975952e-01,-7.840461341547779739e-01,-1.151147110387682915e+00,-1.335603163577616215e+00,-1.333616030635312200e+00,-1.581674518994987011e+00,-1.874797989614307880e+00,-1.310028435662388802e+00,-1.558693249593488872e+00,-1.498436215100809932e+00,-1.076595946797169745e+00,-1.182617003098130226e+00,-1.669017068899847800e+00,-1.571331782266497612e+00,-8.720543229719623923e-01,-9.514381865737959743e-01,-1.026485599868465215e+00,-1.120066929142922163e+00,-9.883438248652964830e-01,-6.108482221316080540e-01,-9.791228836402297020e-01,-7.098392470506951213e-01,-8.850754467857768759e-01,-1.221772197677637450e-01,2.247149161994457245e-01,-1.949217587243765593e-01,-4.259416039567440748e-01,-5.024898510891944170e-01,-1.028620584751479328e+00,-3.014462427847320214e+00,-5.938886973133776337e+00,-8.305687813612166792e+00,-1.257007402298040688e+01,-1.698843651768402196e+01,-2.073407833778765053e+01,-1.639496461208909750e+01,-1.063499421451706439e+01,-3.157748038764111698e+00,-1.773483077995479107e-01,2.493759710341691971e-01,2.957141002058051527e+00,3.415562137262895703e+00,6.772411562538763974e+00,6.101125684492217260e+00,2.399318178067915142e+00
7.290942680883745197e+00,1.514710880843085761e+01,2.357730096345767379e+01,3.214347295230254531e+01,3.841735717002302408e+01,4.475553190903156064e+01,4.894132234808057547e+01,4.618131083180196583e+01,3.786831856146454811e+01,2.766946548037230968e+01,1.838009949470870197e+01,9.804846809711307287e+00,5.921829085797071457e+00,4.990335038513876498e+00,7.658079091983381659e+00,1.096533986385475146e+01,1.234439643810765119e+01,1.195142918836791068e+01,9.909343503706622869e+00,6.686040200467687100e+00,3.372988091781735420e+00,2.890970183419995010e+00,3.248100304219406098e+00,4.786505150725133717e+00,6.409839814528822899e+00,8.171693917363882065e+00,1.023383947834372520e+01,1.241134532241267152e+01,1.313908990845084190e+01,1.250698325596749783e+01,1.042180291854310781e+01,7.284012318210443482e+00,3.500082172569818795e+00,7.331007122993469238e-01,-6.229467508383095264e-01,-1.008882815949618816e+00,-8.910065162926912308e-01,-8.195281091611832380e-01,-6.913458525668829679e-01,-5.982307933300035074e-01,-5.294781450647860765e-01,-7.837265120178926736e-01,-8.236547617125324905e-01,-5.278019189136102796e-01,-4.930100834462791681e-01,-4.787862452212721109e-01,-3.092052889987826347e-01,-3.431859309785068035e-01,-4.152712865034118295e-01,-2.527283038944005966e-03,3.432486900128424168e-01,1.097048251191154122e+00,2.459786787978373468e+00,4.411825357703492045e+00,6.314834174700081348e+00,8.660476723336614668e+00,1.130551499407738447e+01,1.333522017579525709e+01,1.362304207614215557e+01,1.448204734575119801e+01,1.462384017324075103e+01,1.211883104930166155e+01,1.046621983626391739e+01,9.770113695238251239e+00,8.381567469798028469e+00,6.595896983286365867e+00,5.302940042980480939e+00,3.679170574338058941e+00,1.812137995264492929e+00,1.119010460504796356e+00,7.476385573681909591e-01,1.294699644204229116e-01,-1.866574734449386597e-01,-3.249522484838962555e-01,-2.670368449762463570e-01,-1.623995215632021427e-01,-2.844194744247943163e-01,-6.708240564912557602e-01,-5.471102728042751551e-01,-2.647901230957359076e-01,-4.799716947600245476e-01,-3.337953076697885990e-01,-8.529325001873075962e-01,-3.653883464576210827e-01,-2.922926055616699159e-01,-2.284251782839419320e-01,-5.351375631871633232e-01,-3.219232769915834069e-01,7.899516122415661812e-01,1.212800229928689077e+00,3.525475416565313935e+00,8.156945860362611711e+00,1.422898610588163137e+01,1.757844277517870069e+01,1.733691404038108885e+01,1.181263710092753172e+01
4.374170454626437277e+00,4.392280185944400728e+00,6.076500800438225269e+00,6.373391542583703995e+00,9.164278716780245304e+00,1.310953149845590815e+01,1.704593834088882431e+01,1.892351860957569443e+01,1.893167197884758934e+01,1.815453085396438837e+01,1.518509799684397876e+01,1.089533495821524411e+01,5.245973584649618715e+00,-4.778472038015024737e-01,-4.709897034219466150e+00,-4.736694655650353525e+00,-2.416310111177153885e+00,6.504841866844799370e-01,2.764812420879025012e+00,4.999657808570191264e+00,6.952649731654673815e+00,8.829373700544238091e+00,9.815680263447575271e+00,9.621958884294144809e+00,8.665007476403843611e+00,7.150254209525883198e+00,6.099733748240396380e+00,5.551600920269265771e+00,5.421206318482290953e+00,5.205215693451464176e+00,4.813710405258461833e+00,4.614601504697930068e+00,5.157852968201041222e+00,7.515270512085407972e+00,1.167087019628343114e+01,1.501376309781335294e+01,1.538278626103419811e+01,1.379186311142984778e+01,1.239189348468789831e+01,1.176397587492829189e+01,1.381537433824269101e+01,1.752091788062534761e+01,1.895703050680458546e+01,1.737305111001478508e+01,1.445433206832967699e+01,1.073966140591073781e+01,6.049858508275065105e+00,3.281500636483542621e+00,2.651724237948656082e+00,1.799170098354807124e+00,1.304991974175209180e+00,8.544823214178904891e-01,3.247283393284305930e-01,-9.350757370702922344e-02,-4.741923145484179258e-01,-7.287700889864936471e-01,-8.263738469686359167e-01,-7.383330036536790431e-01,-6.837589961942285299e-01,-5.201702585909515619e-01,-4.124657334759831429e-01,-4.407543297857046127e-01,-2.371316588250920177e-01,-1.619764628703705966e-01,-3.481205135176423937e-01,-4.482088251970708370e-01,-4.239092357456684113e-01,-2.194363540038466454e-01,6.785405823029577732e-02,8.785489755682647228e-01,2.446383303846232593e+00,5.447274997364729643e+00,1.051964303353452124e+01,1.612236167796436348e+01,2.125678365072235465e+01,2.516756014036945999e+01,2.624827121244743466e+01,2.459590167307760566e+01,1.941897931834682822e+01,1.222027782362420112e+01,5.574844683927949518e+00,1.654586350909085013e+00,2.037382146227173507e-01,2.134589180350303650e-01,-7.523077400401234627e-01,-6.149612045264802873e-01,-5.219439960783347487e-01,-3.017232153506483883e-01,-9.665021998807787895e-02,9.613174945116043091e-02,-3.909780398244038224e-01,-7.531184197869151831e-01,-1.592051488463766873e+00,-2.187437502085231245e+00,-2.114187883060367312e+00,3.164163415087386966e+00
9.829760045711452676e+00,2.471487002676241218e+01,3.892821472445166364e+01,4.730377991727152676e+01,4.845058778763029750e+01,4.758795552919241345e+01,4.713237177384382903e+01,4.305456628761453430e+01,3.543712913987144475e+01,2.197366485466059771e+01,1.691656185781423005e+01,1.743848743661820322e+01,2.111442196947561456e+01,2.915335560030905526e+01,3.573351668861823782e+01,3.683674720740839348e+01,2.956293491213662605e+01,1.815294246521955301e+01,7.446555228903889656e+00,1.821630540769547224e+00,3.128264902625232935e-01,1.833978749964160215e-01,-7.922196258843428041e-02,-3.818439258046275597e-01,1.296758125651820137e-02,-1.080187939854440060e-01,7.160670832274007580e-03,2.084813090041279793e-01,2.439247979782521725e-01,2.544962940737605095e-02,5.195981729775667191e-02,1.231987963130407593e-01,1.177666953777958270e-01,1.250016974467769160e-01,-1.188252393195199375e-01,-1.636589546995708133e-01,-1.309184165055796711e-01,-2.838583902433811090e-01,-2.584023830361275031e-01,-2.593392950109318917e-01,-2.900610225702280331e-01,-2.887645092403090530e-01,-2.058116955900004541e-01,-2.789145765792397924e-01,-4.689140268540938905e-01,-9.575735912773950531e-01,-1.553098927670390594e+00,-2.035902265122814470e+00,-2.975661885980173338e+00,-3.424742398220928408e+00,-3.588200585401381204e+00,-3.652472919262692130e+00,-2.823984576468603791e+00,-1.955811348915659664e+00,-9.262115890011628494e-01,1.745851570856757462e+00,2.463124509667977691e+00,3.034795654763001949e+00,3.053094102768227458e+00,8.277821312658488750e-01,7.164210335176903754e-01,6.746728220023214817e-01,-6.974305096082389355e-02,1.829750462202355266e-01,6.369526501803193241e-01,6.872200366342440248e-01,7.700083423405885696e-01,7.906187473272439092e-01,5.078749575186520815e-01,7.982083415845409036e-01,1.090798088349401951e+00,6.144027835689485073e-01,1.400547934230417013e+00,1.360388307250104845e+00,8.454018506454303861e-01,9.142200616188347340e-01,3.170023385464446619e-01,1.386902544763870537e-01,-9.324491955339908600e-03,-3.517175102606415749e-01,-3.076683785766363144e-01,-2.122447420842945576e-01,1.559653989970684052e-01,5.725450209865812212e-01,2.333068782463669777e-01,1.524044582620263100e-01,-9.475318342447280884e-02,-3.409648383967578411e-02,1.057016216218471527e-01,-2.486154681537300348e-02,-6.289244311628863215e-01,-1.343004581518471241e+00,-1.391402070381445810e+00,-2.659562723711133003e+00,-4.818453209009021521e+00,-5.643716868013143539e+00
2.324664473942883092e+01,4.999408833076086012e+01,5.729426216494562141e+01,5.772793842813791798e+01,4.927344358913910582e+01,4.127930656136015841e+01,3.626829196429071089e+01,3.338346017209249794e+01,3.049993392126361869e+01,2.806582373353290905e+01,2.617616085828709060e+01,1.827416584049669268e+01,1.161581287329405754e+01,4.761957666400121525e+00,1.403161861351691186e+00,-3.964032069779932499e-02,-9.243749547749757767e-02,1.221033541515197385e-01,6.776243303471574109e-02,-3.882860633704865450e-02,5.002244830527899921e-01,2.716911654227232020e-01,8.149260109836120591e-02,2.673938345921804682e-01,1.535034524276852608e-01,-1.047500180106908374e-03,3.230976512122651911e-02,3.793592909681819947e-01,-4.674089587885532637e-02,-1.127510976409666910e-01,6.940610414505954395e-02,-1.129044608393883209e-01,1.195800178729200525e-01,-1.930036740957348229e-01,-1.597176372536068811e-01,-2.967447870751698247e-01,-3.497659840890037231e-01,-1.076923057860824429e+00,-3.159755467126473150e+00,-5.500539630059584795e+00,-5.902738042248252270e+00,-5.355251599277835339e+00,-3.042674114723652679e+00,-5.342336750836693682e-01,-2.759264025371521711e-03,1.416909536346793175e-01,4.245019075460731983e-02,8.450674242340028286e-02,6.563707990571856499e-01,9.327803789637982845e-01,9.184393918258138001e-01,8.433517758967354894e-01,8.989367424510419369e-01,7.832772862166166306e-01,9.130780303967185318e-01,8.754513663006946445e-01,5.334853201638907194e-01,4.502032464442891069e-01,4.549472769867861643e-01,1.819622914772480726e-01,5.589093884918838739e-02,-1.297360195312649012e-01,-9.453626442700624466e-02,-3.247547328064683825e-01,-6.465526768006384373e-01,-3.586552610795479268e-01,-5.330232540727593005e-01,-2.569964155409252271e-01,-1.305488792495452799e-01,-3.134886060142889619e-01,-6.007682519266381860e-01,-4.482292064931243658e-01,-3.393129908945411444e-01,-1.393009694293141365e-01,-5.507411311522680819e-01,4.329907385619122806e-01,4.942342586466111243e+00,1.272646063831052743e+01,1.980514837105999604e+01,2.341785783057522963e+01,2.173797486171054061e+01,1.571886842239920412e+01,7.887413526652380824e+00,1.499720518291724147e+00,-2.454286476247943938e+00,-4.688623787602409720e+00,-5.365039106225594878e+00,-4.500982727418886498e+00,-2.840807548724114895e+00,-1.839355485261556566e+00,-2.178567194032382304e+00,-3.746445528467461372e+00,-8.269110578075441254e+00,-1.271932794870917860e+01,-1.566245033118653396e+01,-1.255721687007462606e+01
1.678560283140774345e+01,3.388126757226734753e+01,3.726316359764911113e+01,4.168658341502242592e+01,3.859770923969233536e+01,4.140149717721760680e+01,4.491751797909194011e+01,4.590927086341355334e+01,4.888360233853154568e+01,4.543475145738125320e+01,3.453985036085953197e+01,2.147754247794571825e+01,9.810379704227671027e+00,2.647798949503339827e+00,3.166657974943518639e-01,1.803927014698274434e-01,5.417628204666868896e-02,1.938913422248660368e-01,1.267785166991259871e-01,2.603408011551806567e-01,2.864611474581408856e-01,1.454031061779303968e-01,2.925329894712547230e-01,2.224923836018461998e-01,2.912798967079055501e-02,1.418672181023552525e-01,3.651683510952352663e-05,-1.332710191725396953e-01,-7.192618758762137077e-02,-2.221487899527687659e-01,-1.166504547290401206e-01,-3.994279811831802363e-02,-2.708076343907350747e-02,-2.280448182874579288e-01,-2.058499156698871957e-01,-1.658854407845637979e-01,-3.493361620318182759e-01,-6.181309506023922040e-01,-1.375721576835530868e+00,-2.704989581823326716e+00,-3.339283606341950872e+00,-3.996933369286409743e+00,-3.447314150748724160e+00,-2.240333425525662392e+00,4.560363804921507835e-01,3.970762434182688594e-01,5.536960577592253685e-01,-2.160053215920925140e-01,-2.881870139390230179e-02,2.605607417644932866e-01,3.488553853239864111e-01,4.803582013701088727e-01,3.353393714060075581e-01,2.661972362548112869e-01,3.220159639604389668e-01,3.560780510306358337e-01,-3.406434413045644760e-02,-4.333757506683468819e-01,-4.852886346634477377e-01,-1.521043013781309128e-01,-2.234030249528586864e-01,-1.280228439718484879e-01,-5.458155460655689240e-02,-2.267621895298361778e-01,-3.066568765789270401e-01,-3.153861146420240402e-01,-2.007811560761183500e-01,8.447662748949369416e-02,-1.837142384320031852e-01,-9.405068427440710366e-01,-1.002077638870105147e+00,-2.395806107670068741e-01,1.965549404267221689e-01,7.685675380052998662e-01,4.563360745087265968e-01,1.416294835507869720e-02,-2.200625604018568993e-02,9.098471859470009804e-01,1.520073355088243261e+00,1.732840070268139243e+00,1.748000024614157155e+00,3.153398917056620121e-01,-1.237054388038814068e-01,-1.884587318636476994e-01,-6.898586142342537642e-01,-5.004422501660883427e-01,-7.683146335184574127e-01,-4.282848744187504053e-01,-2.421246068552136421e-01,-4.310674443840980530e-01,-1.434963741572573781e+00,-4.723273351322859526e+00,-7.931818752091203351e+00,-1.294611298758536577e+01,-1.585957556869834661e+01,-1.309694120375206694e+01
1.555376239266479388e+01,2.380932179848241503e+01,2.977270901063457131e+01,3.696565480437129736e+01,3.499305906891822815e+01,2.975658414699137211e+01,2.666397445136681199e+01,1.814642370375804603e+01,1.205570270051248372e+01,5.684918587796346401e+00,9.992766666691750288e-01,-2.807994729082565755e-01,-5.643912211526185274e-01,-5.354155017994344234e-01,-5.375449145212769508e-01,-5.811117212288081646e-01,-5.692128278315067291e-01,-4.724128446541726589e-01,-2.969752765493467450e-01,-2.414123793132603168e-01,-4.569159676320850849e-01,-5.611399272456765175e-01,-4.659411351894959807e-01,-5.069419948558788747e-01,-4.660805937019176781e-01,-4.483266539464239031e-01,-2.869468838907778263e-01,-3.172320891171693802e-01,-2.378774061799049377e-02,3.771097068674862385e-01,1.209986087866127491e+00,2.990658923168666661e+00,4.305213765706866980e+00,5.702208437025547028e+00,5.490227225818671286e+00,3.963344037299975753e+00,2.375727612117771059e+00,2.269392063317354769e-01,1.523117443721275777e-01,-5.514763438477530144e-01,-1.678117265691980720e-01,-2.343726144172251225e-01,-1.740681279916316271e-01,-2.501972737954929471e-01,-2.739757887902669609e-01,-1.193238756386563182e-01,-1.323013512301258743e-01,-1.333089221734553576e-01,-2.249927941011264920e-01,7.579922385048121214e-05,1.725181820802390575e-01,1.676694776979275048e-01,-3.820890215138206258e-03,1.617073839388467604e-01,4.013790249296107504e-01,4.109882119810208678e-01,2.168086038436740637e-01,2.096970479469746351e-01,3.513218546286225319e-01,6.627599753846880049e-01,3.849600811954587698e-01,3.165084713255055249e-01,4.755398118286393583e-01,5.940796109935035929e-01,7.917541159840766340e-01,1.300449931062757969e+00,1.084156462107785046e+00,1.304839108372107148e+00,5.147723613772541285e-01,1.219961140886880457e-01,-1.125980687793344259e-01,-1.234871607448440045e-02,-3.116965264880491304e-01,-1.949830695171840489e+00,-3.514462783467024565e+00,-4.827366241515846923e+00,-5.584390923409955576e+00,-4.338323979842243716e+00,-3.746371174551313743e+00,-2.271627288166200742e+00,-3.158437075326219201e-01,1.347414217889308929e-05,5.753218503668904305e-01,1.782018005498684943e+00,4.109814584720879793e+00,3.984387479030374379e+00,2.566753821331076324e+00,1.449029503390192986e+00,1.567904482129961252e+00,1.174911984475329518e+00,2.260063719622849021e+00,4.221402824798133224e+00,8.147235999931581318e+00,1.336965991300530732e+01,1.536865705915261060e+01,1.107676628907211125e+01
-7.129605365238830927e+00,-1.028403981018345803e+01,-1.563151228229980916e+01,-2.482417605072259903e+01,-2.973459865059703588e+01,-2.967238830123096704e+01,-2.594195746479090303e+01,-2.292131640351726674e+01,-1.755021603679051623e+01,-1.106892254634294659e+01,-8.069916260195896029e+00,-3.016816792794998037e+00,-1.025461686658672988e+00,-7.317988909780979156e-01,-2.227768187876790762e-01,-7.902440777979791164e-02,-2.082280244212597609e-02,1.142654148861765862e-02,1.652134601026773453e-01,-3.762395157666453827e-02,-1.591177071111644636e-01,-8.063343526613664380e-02,-5.800552237255374166e-02,-2.814975143331821528e-02,2.630687536130835724e-01,2.280312367026908760e-01,-1.929946569031244508e-01,-3.297959981881035674e-01,-2.160681122800838239e-01,-3.492511203639310224e-01,-5.152730403411851512e-01,-2.305256705440527298e+00,-5.599066359165590256e+00,-9.253778840399697003e+00,-1.123028570153120143e+01,-1.148274244181811810e+01,-1.080199862051995296e+01,-5.804766273984569125e+00,-3.474994873773539439e+00,-1.117016158648766577e+00,-2.562677940295543522e-01,-7.796263340860605240e-01,-7.159320544451475143e-02,-4.267175242421217263e-02,-2.875134619534946978e-01,3.663532022619619966e-02,1.702019234653562307e-02,-2.188667132286354899e-01,-1.919841323979198933e-02,-9.016266278922557831e-02,1.829442130401730537e-01,-1.651898848358541727e-01,-8.832161349710077047e-02,-5.198806046610116027e-01,-2.447500138659961522e-01,-2.642693193629384041e-01,2.581012868322432041e-01,1.272005419828929007e+00,2.093680749210761860e+00,3.325484450906515121e-01,-1.723743333950551460e-01,-9.587356220872607082e-01,-7.143459114595316350e-01,-1.015132496831938624e+00,-4.359524270985275507e-01,-2.005351528288827012e+00,-1.274306441704709414e+00,8.438259890812787489e+00,1.975910769423623492e+01,3.214795249890244122e+01,3.381713113417549721e+01,2.765090779864672754e+01,1.883027472081269593e+01,6.846058832015842199e+00,9.850598594639450312e-01,-2.488377042114734650e+00,-7.259698910405859351e+00,-1.048714585247521214e+01,-1.124158176523633301e+01,-9.906470344867557287e+00,-7.464702495490200818e+00,-2.036653452829625621e+00,-3.145040291957741374e-01,7.400659109970320060e-02,4.492076179672892522e-01,2.469163012633600829e+00,1.125358897784622059e+01,2.337028419515854694e+01,3.787987756305017228e+01,5.653713216769142491e+01,6.386852801036309302e+01,6.847463464258567001e+01,6.682878220756208520e+01,6.282145520909875813e+01,5.451519286936672870e+01,3.043616080346532726e+01
8.356004687491804361e+00,1.378970842994749546e+01,1.914002087991684675e+01,2.212174197728745639e+01,2.040773670969065279e+01,1.882492189179174602e+01,1.172941902307138662e+01,6.512668698873312678e+00,2.974209015723317862e+00,1.416393934734514914e+00,7.553733888780698180e-01,3.157135806977748871e-01,-1.412506722845137119e-01,-4.730055215768516064e-01,-7.539678101893514395e-01,-1.154143724474124610e+00,-7.927219144512491766e-01,-4.277669804287143052e-01,-2.089866122696548700e-01,-4.788807334844022989e-01,-6.166736951563507318e-01,-1.665018387506279396e+00,-3.277021804111427628e+00,-5.142468710691900924e+00,-6.717118893982842565e+00,-7.868420244027220178e+00,-7.618673802120611072e+00,-4.838511290829046629e+00,-8.358419868309283629e-01,3.897544811479747295e-03,-1.093336660414934158e-01,5.065782484598457813e-02,2.863786702509969473e-01,2.381346063921228051e-01,-1.715601404430344701e-01,-1.836327500241168309e-01,-2.710639710130635649e-01,-1.402282352428301238e+00,-9.444514137576334178e-01,-1.391255261405603960e-01,2.426889330687117763e+00,4.063982202904298902e+00,5.809228645171970129e+00,7.702575169503688812e+00,7.891036278568208218e+00,8.296919727494241670e+00,7.744635661132633686e+00,6.666436806321144104e+00,7.352198377717286348e+00,7.788784177973866463e+00,1.014201466820668429e+01,1.282039416581392288e+01,1.411311649181880057e+01,1.771347367524867877e+01,1.822590894158929586e+01,1.830409662122838199e+01,1.709467010805383325e+01,1.576699541276320815e+01,1.376620950538199395e+01,1.195883297501131892e+01,1.139246445840399247e+01,1.029974134173244238e+01,1.027470091427676380e+01,9.413895202800631523e+00,7.680142435245215893e+00,6.986843431484885514e+00,5.691474323626607656e+00,3.905369635904207826e+00,4.459690464493178297e+00,3.359300179959973320e+00,6.037055591179523617e+00,7.471160430723102763e+00,9.345378636848181486e+00,1.111092759831808507e+01,9.147145437309518456e+00,6.863430030527524650e+00,4.990284765139222145e+00,3.631370369810611010e+00,1.952528919646283612e+00,6.055772758882085327e-01,-8.616690331837162375e-01,-3.318708799080923200e+00,-1.295291238953359425e+01,-2.152422694629058242e+01,-2.717416948644677177e+01,-3.079784959135577083e+01,-2.972719818493351340e+01,-2.477340999478474259e+01,-1.078239334747195244e+01,-1.937932270593591966e+00,4.111963692485005595e-01,4.373671913635917008e+00,9.637080265674740076e+00,1.736125643705599941e+01,1.911083064007107168e+01,1.463263994129374623e+01
1.167807820555665899e+01,3.030374225743497618e+01,4.068820658662497181e+01,3.960417189898305423e+01,3.689573060330610588e+01,3.110657830200364060e+01,2.654514509386950749e+01,3.058593098122025822e+01,3.432683540161320934e+01,3.734461063965608218e+01,3.861260156227024254e+01,3.469247087228933424e+01,2.675147385191718286e+01,1.447256610726454795e+01,5.768230758374556899e+00,1.632694119194638915e+00,-7.966337748803198338e-02,-4.991173837333917618e-02,1.400743791600689292e-02,2.558556855795401930e-02,-7.920027851458044665e-02,1.213375509618082049e-01,4.457742936088795460e-01,1.161241694335899410e-01,2.198810202008694148e-02,3.097414660669421949e-01,2.938940028314362962e-02,-1.975583315681603835e-01,1.243007809792544549e-01,1.266732632396383451e-01,4.208216179961254966e-02,6.157373918665598467e-02,-3.017298901460208072e-02,-9.154369332691203454e-02,7.377051950527402369e-03,-7.685768706215867496e-02,-4.901327312382974810e-01,-1.459862309508025646e+00,-2.053630051170813431e+00,-1.996455993201664114e+00,-7.773976424175401689e-01,-1.376326735399118206e-01,4.242865060867870852e-01,4.308551168069243431e-01,1.002250350546091795e+00,1.738265774678438902e+00,1.257999405672308058e+00,1.601906274328939617e+00,1.611866140447091311e+00,4.476615004241466522e-01,4.973807937931269407e-01,3.089553089812397957e-01,1.663081301376223564e-01,2.309954557567834854e-01,-6.014528102241456509e-02,-1.973642623052000999e-01,-1.549663883633911610e-01,-4.927625583950430155e-01,-4.340561233693733811e-01,-5.228553733322769403e-01,-3.723503858782351017e-01,-3.383224667049944401e-02,-4.170407545752823353e-01,4.939024705163319595e-02,3.037145773996599019e-01,1.054063565039541572e+00,2.295416730456054211e+00,1.785409912496106699e+00,1.294806701014749706e+00,-7.455717463744804263e-02,-4.899121713824570179e-01,-1.242089296341873705e+00,-1.159833054043701850e+00,-5.035718387225642800e-01,-4.145024542326751771e-01,-1.017261930671224945e+00,4.350776639309401617e-01,8.660182531318412202e+00,1.849888895930494570e+01,2.777896870393942663e+01,2.975039876836208919e+01,2.510751922299127159e+01,1.593340618567210498e+01,5.959031414065975696e+00,5.845597223378717899e-01,-1.427562750875949860e+00,-2.005272068752674386e+00,-2.266950396995525807e+00,-1.832210686989128590e+00,-1.627038654219788327e+00,-2.055297339745408181e+00,-3.315925399483376168e+00,-7.064359472739909052e+00,-1.118552285885715492e+01,-1.377349228618123789e+01,-1.018850558139092755e+01
1.571075446138485177e+01,3.896552962104772178e+01,5.225134654070427587e+01,5.654850560622810463e+01,6.158092935678439517e+01,5.663297380904339207e+01,5.247022893854750691e+01,4.728842440102562250e+01,4.109401317303320411e+01,3.543031316954505883e+01,3.040301537739696869e+01,1.882731921286179499e+01,8.626854814239777625e+00,2.969660488888621330e+00,9.029004964977502823e-01,5.908226303290575743e-01,2.425639871507883072e-01,4.654670217898058127e-01,4.234798331717115616e-01,2.116461836798713136e-01,5.553539622300007750e-01,3.029880992385187710e-01,8.464974164962768555e-02,3.658806750102030492e-01,2.117182346155397354e-01,-8.275982458144426346e-03,3.945484293437218071e-01,-3.334279653026328560e-02,9.020378915560911537e-02,2.205779028499819105e-01,-1.181009281086176088e-01,-1.044700615012743583e-01,-7.584123399061581949e-02,-2.452220645648139907e-01,-1.507671126142895446e-01,-3.128529060358005154e-01,-2.279379996011435594e+00,-5.839976406115212626e+00,-9.879248170111054606e+00,-1.073030587888206355e+01,-1.195397679897723719e+01,-9.583645405713468790e+00,-6.037976527470164001e+00,-4.244367203064030036e+00,-1.201271381869446486e+00,-3.462195432803127915e-01,-2.775987475179135799e-01,4.826440094038844109e-01,-1.544205425307154655e-01,-4.361292547546327114e-01,-1.852322704216931015e-01,-4.127956000156700611e-01,-4.983988148160278797e-02,1.541039305739104748e-01,-2.782240567612461746e-01,-3.598846495297038928e-01,-6.471250747540580051e-01,-1.118822826538234949e-01,-5.662844356847926974e-01,-3.139111818745732307e-01,-1.072789693716913462e-02,-1.317046508193016052e-01,-6.260630674660205841e-03,7.871584116946905851e-02,-9.223410673439502716e-02,9.240193757286760956e-01,1.112446437124162912e+00,2.890169145539402962e-01,1.426214721403084695e+00,1.032522840949241072e+00,4.449758992996066809e-01,3.008902203873731196e-01,5.956294564530253410e-01,7.818909361958503723e-01,3.424996602407190949e+00,1.651927615748718381e+00,7.315551749395908132e+00,1.568559995481664515e+01,1.979056551722564450e+01,2.968822382874941468e+01,3.438051332672432636e+01,3.473159427699062007e+01,3.802466613557237451e+01,3.108671427172149038e+01,2.099266187075704693e+01,1.379193365907227786e+01,4.164453588426113129e+00,6.930078681398299523e-01,-1.557007678551599383e+00,-1.614747080719098449e+00,-2.696276736445724964e+00,-4.927790791253741531e+00,-9.347920698986854404e+00,-1.264968556421808898e+01,-1.405206000173149761e+01,-1.264638861949788406e+01
1.414739682590203529e+01,3.770696388757619388e+01,5.134716264868382041e+01,5.147751008764714697e+01,5.936515300055350508e+01,5.533218884112022806e+01,5.231577604979668195e+01,5.232380798013070944e+01,5.277967756916655162e+01,5.449999027571470833e+01,5.824061116056486753e+01,5.263100242877294477e+01,4.190613218623144576e+01,3.067500388706491776e+01,1.633582227459758585e+01,5.590734087396413088e+00,1.513092194056024908e+00,3.344423240050673485e-01,-5.758992793559514212e-02,2.867409908483296022e-01,-5.600417813821323421e-02,3.042418179853427773e-01,4.713033493608236313e-01,1.753066018475131216e-01,2.618070511061638683e-01,3.753156745806336403e-01,-2.569693740214340494e-01,5.596720566873081282e-02,4.588454435451296831e-01,1.794228365812955417e-01,1.749069587147857874e-01,1.045194787453169738e-01,-8.529459171660391803e-02,-2.928525863613913316e-01,-1.253293221070634900e-01,-4.098104646598130785e-01,-2.908984942863526157e-01,-5.674109796323705268e-01,-4.564964252143369094e+00,-1.051708403909266565e+01,-1.822737427498213947e+01,-1.928193129831925035e+01,-1.924560665432363749e+01,-1.752830924000591040e+01,-1.386057174392044544e+01,-5.397163868168718182e+00,-1.478964448557235301e+00,-3.328286205360200256e-01,-1.475580227561295033e-01,-3.049072981812059879e-01,-3.202771431533619761e-01,1.585528114810585976e-02,2.519251185585744679e-01,1.165232015075162053e+00,3.415682422928512096e-01,4.629986631916835904e-01,6.185478055849671364e-01,-4.167706053121946752e-01,-8.791938517242670059e-02,-9.927489247638732195e-02,-1.557584829934057780e-01,-1.099487697065342218e-01,6.511083431541919708e-02,-9.853874240070581436e-02,-1.591967127751559019e-03,4.636688001919537783e-01,3.788376051234081388e+00,9.130305824772221968e+00,1.161547241930384189e+01,5.655064028731430881e+00,2.963167065812740475e+00,6.648131032125093043e-01,-2.342895668698474765e-02,-7.785256688221124932e-01,-7.023421255871653557e-01,-5.284102415000688779e-01,3.035304671990274983e+00,8.126568190520629287e+00,1.724321948706658247e+01,2.369888474885034668e+01,2.618252705430319338e+01,2.306745842141120306e+01,1.265120436895016809e+01,4.726441723993048072e+00,-1.286502941744402051e+00,-2.881479425937868655e+00,-3.995157693279907107e+00,-4.127249990553536918e+00,-2.867287353612482548e+00,-2.070376460440456867e+00,-2.324188147522207259e+00,-4.215442896051769139e+00,-7.547333123410055578e+00,-1.102837822605243900e+01,-1.242401950034236791e+01,-9.573446094349492341e+00
3.098515870107803494e+00,4.662002827506512403e+00,1.639074359665272596e+00,2.185708259872626513e+00,-1.859663297887891531e+00,5.095325824021070815e+00,-3.094989614444784820e+00,6.553141023032367229e-01,4.910324410535395145e+00,6.453850331832654774e+00,8.684953475371003151e+00,3.685378968133591115e+00,3.808601483331187865e+00,2.603519492084160447e+00,3.251463437918573618e-01,8.866772231574771013e-01,7.384667104306572583e-01,1.280363945406861603e+00,7.586809406057000160e-01,1.196548204480336608e+00,1.240881705954336667e+00,8.560359921288025475e-01,1.512544072295554543e+00,6.799103142693638802e-01,-1.014909442298517206e-02,1.496449826301500252e-01,9.528951944561754317e-01,-5.044470405646279687e-01,5.608889516778390316e-01,-4.337069834582507610e-01,-1.899294209595552729e+00,-3.753167833074201098e+00,2.308467098046094179e-01,2.323451661271974444e+00,8.229914858665893007e+00,1.752319787480531943e+01,1.600720727538372046e+01,2.151088272422714454e+01,2.664090993496898818e+01,2.756788653543094370e+01,3.730415663574518703e+01,3.603560614008620178e+01,3.101149570767796604e+01,2.717519910832132268e+01,1.746199313099437234e+01,1.262933605212446508e+01,1.335263944403460812e+01,1.435399763776243276e+01,1.555521027091890574e+01,1.230251004733145237e+01,8.409765406875521876e+00,3.356814119906630367e-01,-2.248268702387576923e-01,-7.327677914552623406e+00,-2.938974883989430964e+00,-6.210263658082112670e+00,-6.947438755538314581e+00,-7.585249211435439065e+00,-6.467902469034015667e+00,-3.646328084403648973e+00,-8.233336663630325347e+00,-4.131134123657830060e+00,-4.443817671563010663e+00,-3.782864010543562472e+00,-5.024775699945166707e+00,-8.490167400334030390e+00,-6.583522705287776944e+00,-1.314701412757858634e+01,-7.203250688384287059e+00,-6.031901783775538206e+00,-1.539386051415931433e+00,3.757467262912541628e+00,1.059972022520378232e+01,1.594113914115375508e+01,9.596121301176026464e+00,4.039648228965234011e+00,-1.187769964744802564e+00,-2.120004173833876848e+00,-2.294180150621698999e+00,-5.637937036575749516e+00,-2.380651324541531721e+00,-3.776328212814405560e+00,2.665173753820226921e-02,1.518542874167906120e+00,1.593603431117600167e+00,2.805784830799211704e+00,9.907895935893861861e+00,2.039036349115519897e+01,3.761486721054166082e+01,6.020674526477546351e+01,8.072612813604882831e+01,9.159240450211382267e+01,1.029107917930541589e+02,9.567073688647747076e+01,8.577671255806308181e+01,5.440205129145840601e+01
-3.907235786304852354e-02,7.323179086495656520e+00,5.431792063172906637e+00,5.095129686000291258e+00,1.442501740704756230e+00,-1.409488454413803993e+00,-6.892941973637789488e-02,-3.086143489429559850e+00,-1.448417998966760933e+00,-6.315142221865244210e-01,-6.745330715784803033e-02,1.314391521736979485e-01,-2.197887663496658206e-01,1.980279136794571571e-01,4.580361429891368630e-01,2.031877510061619319e-01,8.607391438718003940e-02,3.022673083469271660e-01,-1.956700341772439344e-01,-1.291480703798164598e-01,2.735431189317871770e-01,8.017821618417997342e-02,-2.077705667531404288e-01,-6.800641035366083997e-02,-1.977551204775522820e-01,-3.787195500468669707e-01,-9.154511913550322788e-02,-2.370065452054177513e-01,-1.533008183025117432e-01,-1.358077671153949950e+00,-5.034320799747433739e+00,-1.005465525665204041e+01,-1.246128153721929266e+01,-1.003744910921021471e+01,-7.911381865036673844e+00,-3.001304255565628409e+00,-1.421946589834988117e-02,1.389796326868236065e+00,1.681423498317599297e+00,6.956193470512516797e+00,1.544645478833076879e+01,2.078151672060428723e+01,2.818090606056145475e+01,2.764693954616859628e+01,1.689205941529456823e+01,1.300941483902423101e+01,4.803558806481305510e+00,3.738860103767365217e-01,2.657882114872336388e-01,-1.261073397472500801e-02,9.825986658688634634e-02,-2.827795550692826509e-01,9.403060155455023050e-01,5.578867241973057389e+00,7.179138465187861584e+00,1.437433393660467118e+01,1.592100240197032690e+01,1.244233268545940518e+01,1.086851324245799333e+01,6.014723050291649997e+00,7.698824483668431640e-01,3.561346677306573838e-01,-2.277010455120034749e+00,-3.703013942518737167e+00,-2.248656542389653623e+00,-1.594431709963828325e+00,-1.192214035668740735e+00,-3.683905040124813013e-02,1.695936950854957104e+00,8.180330204369965941e+00,1.212091988953761756e+01,1.892017966237592219e+01,2.497042916762659104e+01,2.509536652048669225e+01,1.927948787676909603e+01,1.181099435081705451e+01,5.088051055790856481e+00,-3.993485112441703677e-01,-1.712937039461394306e+00,-4.714266677619889379e+00,-5.613303602556698024e+00,-3.978638515807688236e+00,-5.474328751442953944e-01,-3.671892560669220984e-01,-6.098304982588160783e-01,-1.921236477347179061e-01,2.758760832470215973e+00,1.188803069753691943e+01,2.754050640211994505e+01,4.276561068211174188e+01,6.189381168448153403e+01,7.475480865849976908e+01,8.122105661722571313e+01,7.668591559749449971e+01,6.840362259422056468e+01,4.301813740765408056e+01
6.305868482471851166e+00,1.234984832920599729e+01,1.851317236632166896e+01,2.396136901015415788e+01,2.922973147279117256e+01,3.579875704739242792e+01,3.911372949089854956e+01,3.583339762128889561e+01,3.043917339621111751e+01,2.689785716717597097e+01,1.892185728839831427e+01,1.386360662209335715e+01,9.623634493444114923e+00,7.337524033384397626e+00,7.817254649853566661e+00,9.870023001334629953e+00,1.279634262993931770e+01,1.361286936746910214e+01,1.065138734446372837e+01,6.543094544686027803e+00,3.001776568358764052e+00,9.860549480654299259e-01,5.944640925154089928e-01,6.515850319992750883e-01,3.615362733107758686e-01,-5.770812265109270811e-02,-2.784273410215973854e-01,-5.863484817091375589e-01,-6.496950141154229641e-01,-5.682162204757332802e-01,-7.062265947461128235e-01,-8.504549162462353706e-01,-7.846523440675809979e-01,-6.706762233516201377e-01,-7.321381834335625172e-01,-7.614727723412215710e-01,-5.704669868573546410e-01,-7.487451951019465923e-01,-7.590300253359600902e-01,-4.583769070450216532e-01,-4.251037130597978830e-01,-4.819290064042434096e-01,-3.381463969708420336e-01,-2.082026479765772820e-01,-7.023244630545377731e-02,-1.106128238607198000e-01,4.054619089001789689e-01,1.282051736488938332e+00,2.690515286696609110e+00,4.283682914916425943e+00,6.187762595480307937e+00,8.351318942382931709e+00,1.117750936676748097e+01,1.323761201277375221e+01,1.493193436285946518e+01,1.585778057307470590e+01,1.508249585004523396e+01,1.192236117605352774e+01,8.337941250822041184e+00,5.373470950290993642e+00,2.623264618741814047e+00,5.606164961354807019e-01,-6.494695984292775393e-02,7.919684634543955326e-02,-1.346900463104248047e-01,-2.162751504220068455e-01,-2.435505404137074947e-01,-4.200928379432298243e-01,-6.655696602538228035e-01,-7.508787472033873200e-01,-7.799989511258900166e-01,-9.180864677764475346e-01,-1.329906880500857369e+00,-9.573572906665503979e-01,-9.607663257047533989e-01,-1.275508405873551965e+00,-1.020604845078196377e+00,-9.666179464184097014e-01,-7.115011333371512592e-01,-5.515612973831593990e-01,-4.493182399310171604e-01,-5.184241393581032753e-01,-3.486454444937407970e-01,2.947335550561547279e-02,-2.535003222292289138e-01,-2.695359073986764997e-01,-4.221782345848623663e-01,9.243599968031048775e-01,1.057545068091712892e+00,6.896616192534565926e-01,1.016978098428808153e+00,2.878231622918974608e+00,5.796481854893499985e+00,8.516328001976944506e+00,8.470420345198363066e+00,6.064310380024835467e+00
5.331000887284801593e+00,2.081237339919113083e+01,2.494108375613609496e+01,3.103737085517360583e+01,3.441005465184508694e+01,3.595205605770797774e+01,4.473100889525426282e+01,5.663028262746138353e+01,6.241360060681688537e+01,6.969169440938605931e+01,6.158784549159622657e+01,4.664285626880393920e+01,3.158748028029481247e+01,1.455608284879521008e+01,3.511718511697836220e+00,5.212573675815299623e-01,2.152021053479984403e-01,-1.859370913284408289e-02,7.421921042642054545e-03,1.516126439035545559e-01,1.975242398439505109e-01,1.599018452947618130e-01,2.412644011159166268e-01,2.752315751499470053e-01,1.302640260616207968e-01,3.816281724614967175e-02,4.207191568364976320e-02,-9.856919868953184505e-02,-8.435854578084445166e-02,-9.987673262378393702e-02,-1.820449834423527591e-01,-2.901687933712082668e-02,-3.616486278792763187e-02,8.186560341016502207e-03,-1.013433591164130121e-01,-2.663475179551824112e-01,-3.264452608003978185e-01,-2.920882591867552946e-01,-7.088402229163364154e-01,-1.577225837024883504e+00,-2.566704393959014396e+00,-2.885547011571418352e+00,-2.521106313852499170e+00,-1.265791164944801039e+00,1.490245282244361924e+00,2.197628677822649479e+00,2.605896804627263919e+00,1.782081661280244589e+00,-9.043084265431389213e-02,-2.617226716829463840e-01,-4.518418328370898962e-01,-7.741649764939211309e-01,-9.882350401021540165e-01,-7.663538649503607303e-01,-1.017561098153237253e+00,-1.075095718988450244e+00,-9.911229213466867805e-01,-1.184948899724986404e+00,-1.401945447782054543e+00,-1.235623098629730521e+00,-7.901020528515800834e-01,-1.366495667782146484e+00,-1.462401094468077645e+00,-1.042668612441048026e+00,-7.641227552667260170e-01,-1.024896925635403022e+00,-8.279893088911194354e-01,-4.314696689252741635e-01,-2.692281510098837316e-01,-5.116071847442071885e-01,-5.947597045451402664e-01,-6.257662279531359673e-01,-1.504060483275679871e-01,2.070606308989226818e-01,8.671080988133326173e-01,5.637893576640635729e-01,3.351951526128686965e-01,-3.151109442114830017e-01,-4.638783062400761992e-01,-5.401394355139927939e-01,-4.484356458997353911e-01,-4.438906796276569366e-01,-1.124127458315342665e-01,-1.925810007378458977e-02,-2.546354110236279666e-01,-1.531697270111180842e-01,-1.539687316399067640e-01,-4.328869619057513773e-01,-7.124733364980784245e-01,-8.370703739346936345e-01,-2.203286143194418401e+00,-4.491475548129528761e+00,-7.611804520594887435e+00,-1.202906112512573600e+01,-1.336669476202223450e+01,-1.081369324555271305e+01
1.601050597458379343e+01,2.547130553354509175e+01,3.607437600288540125e+01,4.806054185843095183e+01,5.068413834087550640e+01,5.528693664632737637e+01,5.451458267669659108e+01,4.951567077403888106e+01,4.045775762945413589e+01,2.955074257263913751e+01,2.014814909640699625e+01,1.171981159341521561e+01,5.323515306285116822e+00,9.193774213708820753e-01,-3.152745810803025961e-01,-7.116525734309107065e-01,-8.264766044449061155e-01,-8.570842667249962687e-01,-7.726353043690323830e-01,-7.101249574916437268e-01,-6.329216267913579941e-01,-7.631978311110287905e-01,-7.718961740611121058e-01,-6.947426625993102789e-01,-7.025412271614186466e-01,-4.500661627389490604e-01,-3.783718433696776628e-01,-3.358122862409800291e-01,-2.307243980467319489e-01,3.555637784302234650e-03,6.294744703918695450e-01,2.107521633617579937e+00,4.885196066927164793e+00,8.249712457589339465e+00,1.006956560985418037e+01,1.022052040882408619e+01,8.092462687054648995e+00,4.311740429577184841e+00,9.672540034080157056e-01,-8.540879492647945881e-02,-5.597126201610080898e-02,-1.965234964154660702e-01,-4.607076803222298622e-02,-4.711339646019041538e-02,1.314114957931451499e-01,-6.007260002661496401e-02,-2.096141355577856302e-01,-3.425680080545134842e-02,-6.793591124005615711e-02,-1.824487147096078843e-01,-3.044928854214958847e-01,1.171215958893299103e-01,-2.109216290991753340e-01,-2.411084548803046346e-01,-8.154516108334064484e-02,-4.292473057284951210e-02,-3.167886907467618585e-01,-9.023828230056096800e-01,-1.899268687848234549e+00,-5.210518090403638780e+00,-1.066277361131506041e+01,-1.702161922515369952e+01,-2.005721744103357196e+01,-2.043346937187016010e+01,-1.537490102357696742e+01,-8.377176627516746521e+00,-2.304311266168951988e+00,1.232537330448394641e+00,3.740995071129873395e+00,6.919612387195229530e+00,8.708886770531535149e+00,1.005302765779197216e+01,1.121975419193040580e+01,1.200326132110785693e+01,1.254456827556714416e+01,1.240517429879400879e+01,1.233765838108956814e+01,1.220502165541984141e+01,1.228312614152673632e+01,1.147578241117298603e+01,1.070115744922077283e+01,9.654359299107454717e+00,8.266006891703000292e+00,6.781626029638573527e+00,5.484869344625622034e+00,4.126992135541513562e+00,3.384192224417347461e+00,3.006610503653064370e+00,2.614113410236313939e+00,2.466763990698382258e+00,4.554885479621589184e+00,9.286329820577520877e+00,1.537737607706367271e+01,2.211519832769408822e+01,2.473468014644458890e+01,1.708709964109584689e+01
1.782391760611164955e+01,4.597087479132619592e+01,5.930146651993982232e+01,6.098614353264838428e+01,6.268948279078767882e+01,6.193837644520510821e+01,5.918634122021819621e+01,5.912956499499694019e+01,5.556215244391455599e+01,5.413755874286664493e+01,4.848444406928661010e+01,4.112086972227575643e+01,2.688064105982132901e+01,1.420308798351049973e+01,5.032052321876108181e+00,1.051153535372577608e+00,-1.175693832337856293e-01,3.104694019615785727e-01,1.241752170026302338e-01,-9.783552750013768673e-02,3.348876426462084055e-01,1.934168091113477317e-01,3.152002265303295303e-01,2.441448066173137477e-01,9.622968064492987139e-02,2.021396678953903958e-01,1.422367004189544204e-01,-1.022341188693900449e-01,-7.705220957642566759e-02,2.586166022077236448e-01,2.795833473697939553e-03,1.549622213541965721e-01,-4.923960501224655673e-02,-5.854665678702986042e-02,-8.369904259899385579e-02,-1.009680847723757324e-01,-2.372443429583768193e-01,-6.281975297088138177e-01,-2.068774638831968105e+00,-5.247658895270433277e+00,-7.974424384534358978e+00,-7.706255158410712625e+00,-6.653686750622000545e+00,-2.526202392997220159e+00,-5.758020188950467855e-01,-6.049460121721494943e-01,-2.494371902866987512e-02,5.015479368157684803e-01,8.813965925946831703e-02,3.934837675769813359e-01,1.275462393183261156e+00,5.818714218912646174e-01,1.787354943633545190e+00,1.863619786927301902e+00,1.342985415831208229e-01,9.341709450818598270e-01,7.207035706378519535e-01,2.047318862751126289e-01,4.600568651803769171e-01,8.703184779733419418e-02,-9.018279395604622550e-02,-1.190932493191212416e-01,-5.497884035576134920e-01,-2.853949374984949827e-01,2.051288741640746593e-01,1.690463577397167683e-01,5.865301351295784116e-01,1.910455469740554690e+00,3.803891518618911505e-01,-1.118982599582523108e-01,-4.710196680389344692e-01,-9.739713200424375827e-01,1.103107386734336615e-02,4.791214236174710095e-01,3.995485706836916506e-01,1.555639467321157099e+00,5.132907944847829640e+00,1.406321453363471008e+01,2.553554257862225541e+01,3.411014485639614691e+01,3.608715825183020343e+01,3.016477455280804065e+01,2.140970356982919043e+01,1.388314050191855031e+01,6.085015807126183063e+00,3.102990033567039063e-01,-2.229863511573057622e+00,-4.066381739510688931e+00,-3.055944767431356013e+00,-2.646519093298675074e+00,-2.849945738038513809e+00,-3.278437090678863797e+00,-6.792325571069682155e+00,-1.034183137457216617e+01,-1.135328161986008411e+01,-8.925143601605668664e+00
1.316942935044511387e+01,3.525885897403622948e+01,5.075835931547965174e+01,5.027435420939161759e+01,5.679504564406556710e+01,5.320954154318997098e+01,5.273542610458559921e+01,5.670591935253287375e+01,5.880853592297864907e+01,6.041871761744437208e+01,5.986685463313642686e+01,5.230238085589871844e+01,3.751747032981865004e+01,2.110558314666528190e+01,8.599296079017221928e+00,2.030441025504842401e+00,1.731391891371458769e-01,8.646652423082734629e-02,1.016441452231333642e-01,-3.372448629603752579e-02,2.098659447039921133e-01,2.986603754232817209e-01,1.633693081272724612e-01,2.063972087407517364e-01,2.173366912344318891e-01,1.933263279987817995e-01,1.414308444475009807e-02,-2.257300425374273445e-01,-1.551579567343175370e-01,2.223518678221125811e-02,-2.367172582049477114e-01,3.164167794451486770e-01,7.887859344128855810e-02,6.625008910918950278e-02,-6.657403915068016431e-02,-1.396888989812055115e-01,-2.798378483972214781e-01,-2.583632013379144610e-01,-7.070904649600606717e-01,-1.758790973624016374e+00,-2.583074154294791924e+00,-3.183280573387463619e+00,-2.803823289122760798e+00,-9.515855595050339844e-01,4.390631402638973668e-01,7.385167344473302364e-01,1.652532718464499339e+00,1.318981725256890059e+00,1.254589304793626070e+00,1.608041611267253757e+00,1.458600841287989169e+00,6.545182270929217339e-01,7.956464905146276578e-01,7.541393949650228024e-01,3.361211467999964952e-01,6.427675356389954686e-01,5.856948707951232791e-01,3.323644022457301617e-01,1.618897526059299707e-01,-2.018403941765427589e-01,-1.845225631259381771e-01,-4.099123147316277027e-01,-3.735325848683714867e-01,-4.218782931566238403e-01,-4.943441534414887428e-01,-4.561429019086062908e-01,-2.129264926770702004e-01,1.057945905740780290e-01,1.025869133954984136e-01,5.856581909029046074e-03,-5.709971296892035753e-01,-9.311112330760806799e-01,-9.535557841882109642e-01,-9.641394519712775946e-02,-9.338402189314365387e-02,-9.521265467628836632e-02,-3.616715976968407631e-01,1.002291071636136621e+00,4.539108313911128789e+00,8.897289267450105399e+00,1.297479803947499022e+01,1.392899088328704238e+01,9.929970932891592383e+00,6.071535422001034021e+00,2.692675905622309074e+00,-3.314496746752411127e-01,-1.656938067739247344e+00,-3.236530117206712021e+00,-3.193681797478348017e+00,-2.744959348085103557e+00,-3.536069113484700210e+00,-4.868032824778552481e+00,-1.014842902112286538e+01,-1.471347063919529319e+01,-1.622653453321828465e+01,-1.363008682406507432e+01
9.462699806381010603e+00,2.520953726383913818e+01,3.437651336884715647e+01,3.855487324744598254e+01,3.416061515753182221e+01,2.550438380650808767e+01,1.834253801686472229e+01,9.718322088041801976e+00,7.669460193137638271e+00,6.276775451959110796e+00,5.474026833435345907e+00,3.110679408273426816e+00,9.558300314820371568e-01,-1.112111947149969637e+00,-2.581924591682707160e-01,-1.500234811566770077e+00,-3.193420136813074350e-01,-1.055580116808414459e-01,3.013635512907058001e-01,1.012020744383335114e-02,1.139247475657612085e-01,3.751636371016502380e-01,7.515253359451889992e-02,7.729716878384351730e-02,2.511977562680840492e-01,1.043749507516622543e-03,-5.316711380146443844e-03,2.037339119402261645e-01,-5.986127506207594706e-02,-1.456444289669605041e-01,-1.056292885631933132e-01,-1.250149973021734695e-01,-5.512223891719258972e-02,-2.061686412924359502e-01,-4.566935224073631616e-01,-2.137787451995336596e-01,-8.510775922629960633e-01,-3.440752215115651325e+00,-6.579304478525017430e+00,-8.808519795379718076e+00,-8.292387377470731735e+00,-6.063756342977285385e+00,-3.381171874294523150e+00,-3.213281299867958296e-01,-4.321612039348110557e-02,-2.424059206532547250e-03,4.976405802881345153e-02,-1.404049913398921490e-01,9.114701382350176573e-01,9.499187730252742767e-01,1.748117238748818636e-01,5.802681682980619371e-01,5.002612941898405552e-01,1.825070409104228020e-01,1.014630194171331823e+00,4.484725788352079690e-01,2.451519435271620750e-02,1.678869286843109876e-01,3.464018437080085278e-02,7.504161761607974768e-02,2.855676324106752872e-01,7.097479421645402908e-03,-4.955038521438837051e-02,-3.395199016667902470e-01,-1.975940437259851024e-01,2.000822559930384159e+00,4.075113535509444773e+00,4.429098356515169144e+00,2.654734493698924780e+00,5.719185736961662769e-01,-3.326650294475257397e-01,-9.748548034112900496e-01,-2.743864996591582894e-01,2.609477499499917030e-01,6.070911972737889073e-01,1.242613474449171918e+00,8.624714797442408099e+00,2.019908096777356832e+01,3.226148226145409126e+01,3.908515077077987598e+01,3.540924385678164299e+01,2.701474338377920503e+01,1.760773948969671210e+01,6.629280267254216596e+00,7.018380580193479545e-01,-2.164243555673238006e+00,-2.759935745387338102e+00,-2.967910888255573809e+00,-3.277241130883339792e+00,-2.711921920068562031e+00,-2.776508275158519723e+00,-4.335702066986755199e+00,-7.152933909005270152e+00,-1.007879902161243990e+01,-1.174801173712441482e+01,-9.706584813771769404e+00
9.457192325266078115e+00,1.599659274623263627e+01,1.864271828206256032e+01,1.897262737108394504e+01,1.860111685388255864e+01,1.493781182804377750e+01,1.163171830226201564e+01,8.437275874894112349e+00,5.129364992026239634e+00,-2.574796598753891885e+00,-7.591347983718151227e+00,-1.230095007370800886e+01,-1.079687068471685052e+01,-9.687089759390801191e+00,-1.221040047489805147e+01,-1.419395222351886332e+01,-2.055394232948310673e+01,-2.821011306857690215e+01,-2.998301043780520558e+01,-2.555891659692861140e+01,-1.556895419411011972e+01,-5.163292793804430403e+00,-6.580857094377279282e-02,1.763831112766638398e+00,3.363040675758384168e+00,4.771652831172104925e+00,6.088293496752157807e+00,6.067621578578837216e+00,5.224309301673201844e+00,3.758395047712838277e+00,2.285802529542706907e+00,1.053337110206484795e+00,4.095115374075248837e-01,3.484695509541779757e-03,-4.638178376480937004e-01,-6.980591522878967226e-01,-6.357288840226829052e-01,-8.118899203836917877e-01,-8.667680267244577408e-01,-6.985916327685117722e-01,-4.713341632741503417e-01,-6.567825162783265114e-01,-6.669969193171709776e-01,-5.206515308818779886e-01,-5.743209051433950663e-01,-4.402740059886127710e-01,-3.173267266247421503e-01,-3.082048739306628704e-01,-3.721612337976694107e-01,3.561559598892927170e-02,5.618024906143546104e-01,1.628738069674000144e+00,3.217188487877137959e+00,5.489178961259312928e+00,8.414521687431260943e+00,1.018691816739737988e+01,1.152564274519681931e+01,1.311684998311102390e+01,1.399828677062760107e+01,1.164797917986288667e+01,1.147808653378160670e+01,9.796702376552275382e+00,6.550322686074650846e+00,4.588255272799869999e+00,2.903767546260496601e+00,1.565625083618215285e+00,7.561400059094012249e-01,7.698305598314618692e-01,8.496914171555545181e-01,5.619065458377008326e-01,5.456378379894886166e-01,5.177815828283200972e-01,4.983533706690650433e-01,3.390422368465806358e-01,4.133570926780976151e-01,1.946842971956357360e-01,1.185824502026662230e-01,-2.929346479868399911e-02,1.583711309940554202e-01,2.577823675237596035e-01,-1.830258825211785734e-01,-1.142011518240906298e-01,1.793848439119756222e-01,1.083671459928154945e-01,-1.078362432308495045e-01,-3.451802560448413715e-01,-1.369730807491578162e-01,4.495920626795850694e-01,1.590959855820983648e-02,2.847698293626308441e-01,6.367307431064546108e-01,1.679671772697474808e+00,5.024208577116951346e+00,7.887339522281763493e+00,8.628874581831041723e+00,6.662909757695160806e+00
4.727528503251960501e+00,1.130920512897279551e+01,8.107527895208324509e+00,5.758068967391977822e+00,1.058447510586120188e-01,1.336060481029562652e+00,-3.867350258864462376e+00,9.982678739936091006e+00,1.857034492472608633e+01,2.790088267766424224e+01,2.777968644657806863e+01,2.107811824729785144e+01,1.592607624670991129e+01,7.179115236969664693e+00,8.248911245027557015e-01,8.185294098201154611e-01,-1.732031991705298424e-01,-5.335667280014604330e-01,-6.095820936607196927e-01,-5.377369769848883152e-01,-3.827754851663485169e-01,-4.582559466361999512e-01,9.613566960808839212e-03,8.788104565104504218e-02,1.152791285840635283e-01,-3.786353881980630831e-02,1.160716973571993549e-01,1.618321743285946468e-01,-1.168527331737436725e-01,-2.340674063667051996e-01,-3.619863450240643488e-01,-3.233460722276504384e-01,-8.161413496475944385e-01,-1.887990737415123021e+00,-2.774093832029109308e+00,-3.006497702285855667e+00,-2.526475175435166420e+00,-1.931576265280810389e+00,1.640657096165924145e+00,2.430795147316530347e+00,5.069578023816575296e+00,8.267849143652711064e+00,4.464788101846352220e+00,3.637613178114406765e+00,2.576235432963585481e+00,3.111662194132804871e-01,-1.025176369585096836e-01,1.689590805908665061e-01,-8.328790636733174324e-02,-6.975230842363089323e-02,-2.083572132978588343e-01,6.216285435948520899e-01,3.068887902365531772e+00,6.306800646358169615e+00,7.673476811178261414e+00,6.308870841865427792e+00,2.640017377436379320e+00,1.110563432797789574e+00,-2.996477332446374930e+00,-5.565555320659768768e+00,-1.060973168350756168e+01,-1.331550477561540902e+01,-1.280963950976729393e+01,-1.629796718992292881e+01,-1.383705104421824217e+01,-1.597282674536108971e+01,-1.501354252360761166e+01,-1.489834754960611463e+01,-1.327427833387628198e+01,-1.272999886283650994e+01,-8.702752953860908747e+00,-6.524921568925492465e+00,-4.585961743755696318e+00,-2.627931666552115075e+00,-2.289056890648524245e+00,-1.591886154791978925e+00,-2.157132753002599657e+00,-2.610362942795092067e+00,-5.661350630372794512e-01,5.057991762645542622e+00,1.496222251359722577e+01,2.195007251145082705e+01,2.049923594914929481e+01,1.365240668464480045e+01,4.768182689324021339e+00,1.167331598699092865e-01,-5.430326191708445549e-01,-1.766729108057916164e+00,-1.530890518498466690e+00,-3.061884514513607769e+00,-3.994945207234763984e+00,-8.403188047320497844e+00,-1.289995752012873709e+01,-1.774214941269221413e+01,-2.216644380002981052e+01,-1.497213921044021845e+01
7.523497291815797183e-01,1.164010249555576593e+01,1.570902404538355768e+01,1.677626752631448426e+01,1.823729681086420484e+01,1.381832429580390453e+01,1.117866432799200993e+01,7.997601592214778066e+00,2.221332960409199586e+00,3.133010452222691811e+00,2.462102381687145680e+00,1.836176030337810516e-01,9.555806589778512716e-01,6.492919009760953486e-01,2.162281751516275108e-01,6.748819545468762726e-01,3.570145179222805609e-01,-5.494316013674094279e-02,2.974870749749243259e-01,8.591886621287869730e-02,9.636089189697827351e-02,8.228726674629882609e-02,-6.808926769961942682e-02,3.854460009110169949e-01,-3.729513083817721508e-01,9.619079001838599652e-01,4.507368430308815732e-01,-5.925187613337357107e-02,6.720889409638743928e-01,1.819507724896141099e-01,-4.283001143409137512e-01,-4.712202832657226281e-01,-7.224425696579999112e-01,-1.284633864464922226e+00,-4.141852108556236089e+00,-4.872287819462599145e+00,-9.820946899598226310e+00,-1.018974075279101044e+01,-1.390347578050568700e+01,-1.025733809720259160e+01,-9.468075791490264237e+00,-9.527297011809423566e+00,-5.876239039236679673e+00,-3.530521308770403266e+00,-1.391998238585074432e+00,-1.336246117600239813e+00,-8.283295626170001924e-01,-6.657258961640764028e-01,-5.821898945723660290e-01,-7.039030296728014946e-01,5.142474792664870620e-01,4.107816109899431467e-02,-5.117078861803747714e-02,-4.356520706787705421e-01,-6.684255960863083601e-01,1.627564029768109322e-01,1.252125054190400988e+00,3.608167911937925965e+00,5.500781791750341654e+00,7.561457035219063982e+00,4.863273088994901627e+00,2.414704755763523281e+00,-8.587860227489727549e-01,-3.470145084429532290e-01,-2.910530878289137036e-01,2.838567552389577031e-01,5.362583121896022931e-01,1.426483874998467627e+00,5.624714745392472182e+00,1.564956906284041338e+01,2.599816728358754858e+01,3.423475040615960552e+01,3.803491942659894676e+01,3.143406214389264619e+01,2.116787506884375603e+01,1.181503660941299039e+01,4.094102414208464324e+00,2.633887545671314001e-01,-3.074827790900599211e+00,-5.454316594055853784e+00,-5.233822679962031543e+00,-2.867616669507697225e+00,-1.088392927777022123e-01,8.469538859790191054e-01,1.892635486990911886e+00,1.341945574735291302e+00,-6.214509299115889007e-02,8.011684740195050836e-01,5.569466068525798619e+00,9.795694653296166621e+00,1.420842700622849009e+01,1.634011761117979233e+01,1.112714604559545251e+01,6.776839107703651166e+00,-9.537199372425675392e-02,-6.333638294599950314e-01
-4.131189369559280067e+00,-3.920465113129466772e+00,6.204749871664461125e-02,6.779776680923532695e-02,5.908160318154841661e+00,1.023153456626459956e-01,-3.990970279396321985e-02,-1.073041952855419368e+00,3.270069433143362403e+00,5.380944306496530771e+00,1.036240073551016394e+01,1.427667329022369813e+01,1.946140717540389176e+01,2.429179413295437939e+01,2.751136179706330154e+01,2.627692757163822534e+01,2.193035546418708748e+01,1.399701692233793437e+01,6.738961314084008336e+00,2.576343662392901024e+00,7.767040932432323075e-01,1.542184503238104298e-01,1.418058678166005393e-01,3.712362869587764180e-01,1.437425673061838438e-01,3.520283094396958745e-01,2.074026938590520786e-01,4.955059452913701534e-02,4.960064678200364341e-01,4.593521240492464131e-01,1.087455332744866610e-01,3.169456142753617200e-01,6.166117959655821323e-01,3.235220127106686050e-02,4.658795408613514155e-02,3.335797226399748183e-01,1.446222231595299945e-01,-3.681509889170229144e-01,2.299966213853394947e-01,6.828592447914161312e-02,-1.819593188580483911e-01,-4.418039092623757824e-01,-2.416264976678803578e-01,-3.455046548915561289e-01,-8.289029271085723849e-01,-1.658244622827027115e+00,-3.049902977445569263e+00,-3.812091904505706452e+00,-3.692686375365667573e+00,-3.068045015348758398e+00,-3.260239158118338310e+00,-3.021120720545042104e+00,-2.435928039174456217e+00,-1.160833797048340443e+00,1.802716180190074624e+00,4.187756546773016453e+00,7.925402029883116484e+00,1.367036655155243352e+01,1.584225323639111593e+01,1.513742180953639505e+01,1.489959523004188924e+01,1.232954290672205389e+01,8.729162027826532722e+00,3.869401709001976997e+00,1.407324321044143289e-01,-3.493174850242212415e+00,-6.262097941711544991e+00,-9.946465451736003160e+00,-1.388659240305423737e+01,-1.639777390100061893e+01,-1.395477947848848999e+01,-1.162376127857714891e+01,-6.858194956555962563e+00,-3.400619735359214246e+00,-7.955055539496243000e-01,-1.041395878419280052e-01,-6.612028400413691998e-01,-1.855981053085997701e-01,6.630560611374676228e-01,1.079610282962676138e+00,1.853892002487555146e+00,1.262611862737685442e+00,1.940792413151939400e-01,8.107744148001074791e-01,4.234027070924639702e-01,-1.990356388851068914e-01,6.240552731323987246e-01,1.274354962515644729e+00,3.631225638673640788e+00,2.998506030067801476e+00,1.523416244031977840e+00,9.024235667311586440e-01,1.606946017884183675e+00,-2.923547817328653764e+00,-6.309876107145100832e+00,-4.662100961606483907e+00
2.159336273033792963e+01,4.995456898571319471e+01,6.114345251104612089e+01,6.492112710967501243e+01,5.960216826669716284e+01,5.499294040609470358e+01,4.777987346462498408e+01,4.193086377828160494e+01,3.624713942990035775e+01,3.336677356922479021e+01,2.241158910591283870e+01,1.269431709221462867e+01,4.666220123704988509e+00,1.121525493334047496e+00,7.197418916039168835e-01,4.230659046443179250e-01,5.350673943758010864e-02,-1.639041999587789178e-01,2.061126959575982909e-01,2.027621024292827201e-01,2.321800270823501933e-01,3.799566618467906665e-01,1.306028368959566421e-01,2.212277175858616829e-01,7.934720120772809082e-02,-1.191518206025818927e-01,1.521029364767869652e-01,2.301131674399954363e-01,-2.074611492295019843e-01,-4.321157250444684905e-02,-1.383251776699694346e-01,-3.622679771092407464e-02,-8.166906714359356556e-02,-2.251477608036793754e-01,-4.745082247319487578e-01,-2.088854148971108771e-01,-8.476573684048105406e-01,-4.164519531779916406e+00,-8.357230356114172309e+00,-1.526447334140539169e+01,-1.853196556876734746e+01,-2.053617399411563227e+01,-1.882597397291101515e+01,-1.460145761631429195e+01,-9.805442834272980690e+00,-5.412373238708823919e+00,-6.376385584298986942e-01,-3.300587400444783270e-01,-5.002287122915731743e-01,-1.358328164787963033e-01,-2.379102446138858795e-02,5.255230497568845749e-01,2.133956520119681954e-01,-3.613121802918612957e-01,5.082592717371881008e-03,1.479504795279353857e-01,5.070420849369838834e-02,-7.008944218978285789e-02,-1.869182229274883866e-01,1.536173723870888352e-01,-2.159345867112278938e-01,3.647689259378239512e-01,1.811194093897938728e-01,3.350528115406632423e-01,6.464078631252050400e-01,5.065625878632999957e-01,3.433227068744599819e+00,2.863420454086735845e+00,1.106762930750846863e+00,8.949759200913831592e-01,4.979200253728777170e-01,2.686414549825713038e-01,8.401599705684930086e-01,4.057247303426265717e-01,5.474689491093158722e-01,6.228616834341664799e-01,-1.647257851436734200e-01,2.163119068136438727e+00,3.030778385371377226e+00,4.707386248097463977e+00,2.436576717998832464e+00,1.588061714079231024e+00,2.808071005296369549e+00,3.180637395184021443e+00,1.326749092433601618e+00,1.483128727471921593e+00,4.464546353556215763e-01,9.120890076737850904e-01,-1.322706537437625229e+00,-3.258847938210237771e+00,-7.960538210873508547e+00,-1.024926241766661406e+01,-1.346186543907970190e+01,-1.973596112825907767e+01,-1.833176494156941772e+01,-9.721754275728017092e+00
1.892052890015949629e+01,3.497096967218703867e+01,4.143382457430470822e+01,4.210534234925648889e+01,4.137351973257204918e+01,4.638850240010708603e+01,5.433817784302448217e+01,5.959425904296892895e+01,6.480242614704275184e+01,5.942271472233971963e+01,4.651416123742467335e+01,3.056571404192249020e+01,1.495792877922143305e+01,4.318878980702720582e+00,4.269968122825957835e-01,3.143924428150057793e-02,4.785107517857767334e-02,7.699502001837998932e-02,1.116113184486664522e-01,1.025208647659923145e-01,2.464057674337993831e-01,2.401942710686419957e-01,1.734380051006958467e-01,1.868110052111866537e-01,1.233347853848005826e-01,-5.066131335219381526e-03,-1.396646307274238552e-01,-3.147628848725503303e-02,-1.780073199965670483e-01,-1.255419709906391290e-01,-7.227272471146761745e-02,1.550624914843865554e-01,1.579069911674650939e-01,-1.383968185905359860e-01,-8.505082349296344546e-02,-2.134890948495353769e-01,-2.511846828684554112e-01,-6.332710821654075062e-01,-1.346248227940918696e+00,-1.944618722177239079e+00,-2.354974782895567387e+00,-1.981473749846713872e+00,-1.041399406630603153e-01,1.449478788999840617e+00,2.409974409267306328e+00,1.686300383764319122e+00,6.171811711974442005e-01,1.586744124069809914e-01,1.439151398371905088e-01,-5.627860198728740215e-02,-9.934141999110579491e-03,-1.556624756194651127e-01,-3.633678534533828497e-01,-3.784639572259038687e-01,-2.866773848654702306e-01,-1.757982329054357251e-01,-6.595735265873372555e-01,-7.777898304193513468e-01,-8.232684116028394783e-01,-6.374944469134788960e-01,-7.958705899654887617e-01,-7.599000753834843636e-01,-5.800628243014216423e-01,-7.053638363722711802e-01,-9.871330767928157002e-01,-9.396390425972640514e-01,-5.100771505822194740e-01,-6.275652071926742792e-01,-7.227822624845430255e-01,-3.451661735161906108e-01,-7.950083627656567842e-01,-1.051560756051912904e+00,-7.442761459096800536e-01,-1.079362368909642100e-01,-1.082191383466124535e-01,-1.381344678811728954e-01,-3.939713221043348312e-01,1.071416518185287714e+00,4.196221358724869788e+00,7.812542447121813893e+00,1.025418945646379143e+01,7.436540868598967791e+00,3.466038099257275462e+00,1.232701051456388086e+00,1.834345511160790920e-01,-4.439661790383979678e-01,-1.213256327784620225e+00,-1.565390197240049019e+00,-1.999891056271735579e+00,-1.208033313974738121e+00,-2.010118630423676223e+00,-5.107399720097216544e+00,-8.314726003445684910e+00,-1.224147843103855848e+01,-1.536304020107490942e+01,-1.255036483122967184e+01
1.279959794494789094e+01,2.217510509444400668e+01,2.670259538595564663e+01,3.143964572716504335e+01,2.554949185205623507e+01,2.799304538790602237e+01,1.675642930707545020e+01,1.076199926214758307e+01,5.202458831015974283e+00,2.536600393126718700e+00,1.775129284709692001e+00,1.425470613059587777e+00,8.543084592092782259e-01,-2.010020357556641102e-01,-7.057066756533458829e-01,-1.293174153601285070e+00,-1.226957925595343113e+00,-9.344518948637414724e-01,-3.856855726335197687e-01,-4.235216380329802632e-01,-1.021480969036929309e+00,-1.543522902007680386e+00,-2.212232304504141212e+00,-3.762074473430402577e+00,-5.344968193676322699e+00,-7.175164373707957566e+00,-7.531537217699224129e+00,-6.487035962376467069e+00,-4.038254448358202353e+00,-7.511719064787030220e-01,-5.725778639316558838e-03,1.506790741186705418e-01,1.447827088413760066e-01,3.451717525022104383e-01,4.971708246157504618e-01,8.894747265730984509e-01,8.459504460915923119e-01,9.569578115551848896e-01,1.236916427907999605e+00,9.615757407154887915e-01,9.863576080242637545e-01,1.083169195000664331e+00,1.128045622550416738e+00,9.908092604018747807e-01,9.794479855336248875e-01,1.455409964895807207e+00,2.458169467281550169e+00,4.136796595528721809e+00,6.423306083132047206e+00,8.078365725465118885e+00,9.740147197589976713e+00,9.687613984890049323e+00,9.689628464868292212e+00,9.086699303239583969e+00,8.006835332140326500e+00,7.960765427211299539e+00,7.841347286012023687e+00,7.649091585539281368e+00,8.029670405929209664e+00,7.831945889338385314e+00,8.073261545563582331e+00,8.673156175995245576e+00,9.350204224290791899e+00,1.064125768731901189e+01,1.194228792926878668e+01,1.233441629103617743e+01,1.380848403106210753e+01,1.250727719365386292e+01,1.220881567767355591e+01,1.144916913365887012e+01,1.064500396233052015e+01,1.184781697992002591e+01,1.299005762737942860e+01,1.578398722200654447e+01,1.746244236803613603e+01,1.771436775592155755e+01,1.618294082628563046e+01,1.349342376959975809e+01,8.620781684367102571e+00,3.524986045522382483e+00,8.478086888790130615e-01,2.442839904688298702e-02,-1.753592123044654727e+00,-4.330632818571757525e+00,-1.148732568509876728e+01,-1.936600322718732059e+01,-2.622588848069426604e+01,-2.678165654675103724e+01,-1.672946787031833082e+01,-5.615622849247301929e+00,-3.274725647643208504e-01,2.276189897209405899e+00,8.083589571382617578e+00,1.541336287165904650e+01,1.647787920522387139e+01,1.165054165106266737e+01
6.997612847713753581e+00,1.135296102729626000e+01,1.392878791645853198e+01,1.504472442413680255e+01,1.465502391048357822e+01,1.348878110951045528e+01,9.101089040515944362e+00,3.323052966734394431e+00,-4.513508344418369234e+00,-1.174802679638378322e+01,-1.519655730132944882e+01,-1.785740313888527453e+01,-2.356203678320161998e+01,-2.534830658137798309e+01,-2.576243895827792585e+01,-2.290386984997894615e+01,-1.738961604388896376e+01,-8.611089614332740894e+00,-3.518245579125505174e+00,2.646391827147454023e-01,2.137949047202710062e+00,3.824350165959913284e+00,4.487041675951331854e+00,6.687580733327195048e+00,8.342922801370150410e+00,7.954741898458451033e+00,6.019611470313975587e+00,3.092766794943599962e+00,6.621994657325558364e-01,-4.315345833892934024e-01,-6.700048628263175488e-01,-7.658790918067097664e-01,-8.092499822378158569e-01,-7.861941342707723379e-01,-8.104672278277575970e-01,-9.043000605888664722e-01,-8.978371531120501459e-01,-7.747326088137924671e-01,-6.430592229589819908e-01,-6.300587384030222893e-01,-6.398117351345717907e-01,-5.165705820545554161e-01,-4.680657088756561279e-01,-3.668124473151692655e-01,-3.967724272515624762e-01,-3.403396713547408581e-01,-1.949767646729014814e-01,1.394782494753599167e-01,8.694299372145906091e-01,1.970417405478656292e+00,3.268870012601837516e+00,5.085505365539574996e+00,6.821986897848546505e+00,8.841659980389522389e+00,9.705907828640192747e+00,1.003172305459156632e+01,9.785025288700126112e+00,8.672896264353767037e+00,7.056270365603268147e+00,5.294918013853020966e+00,5.206754512153565884e+00,5.082402799278497696e+00,4.313718123594298959e+00,2.627940493635833263e+00,2.985524540199548937e+00,2.688074789955862798e+00,1.761296519256575266e+00,8.556056271772831678e-01,1.053636460332199931e+00,1.413539063360076398e+00,7.420330574204854202e-01,1.855515295173972845e-01,-2.762308777018915862e-01,-2.281548848841339350e-01,-3.614393172319978476e-01,-1.012807071674615145e-01,2.639887621626257896e-02,-2.561256205663084984e-01,-2.328547953511588275e-01,2.688548873993568122e-02,1.839588824659585953e-01,3.643060643225908279e-01,4.543482500594109297e-02,1.561413895105943084e-01,7.141384577844291925e-01,6.927583627402782440e-01,-1.832701951134367846e-01,-8.750900276936590672e-02,6.835256796330213547e-01,6.263289555208757520e-01,5.420751897618174553e-01,1.824793552339542657e+00,6.499173305695876479e+00,9.848149527737405151e+00,1.036075541510945186e+01,8.363757066050311550e+00
